<?xml version="1.0"?>
<!-- DTD for the XMLBIF 0.3 format -->
<!DOCTYPE BIF [
<!ELEMENT BIF ( NETWORK )*>
<!ATTLIST BIF VERSION CDATA #REQUIRED>
<!ELEMENT NETWORK ( NAME, ( PROPERTY | VARIABLE | DEFINITION )* )>
<!ELEMENT NAME (#PCDATA)>
<!ELEMENT VARIABLE ( NAME, ( OUTCOME |  PROPERTY )* ) >
<!ATTLIST VARIABLE TYPE (nature|decision|utility) "nature">
<!ELEMENT OUTCOME (#PCDATA)>
<!ELEMENT DEFINITION ( FOR | GIVEN | TABLE | PROPERTY )* >
<!ELEMENT FOR (#PCDATA)>
<!ELEMENT GIVEN (#PCDATA)>
<!ELEMENT TABLE (#PCDATA)>
<!ELEMENT PROPERTY (#PCDATA)>
]>

<BIF VERSION="0.3">
<NETWORK>
<NAME>contact-lenses</NAME>
<VARIABLE TYPE="nature">
<NAME>astigmatism</NAME>
<OUTCOME>no</OUTCOME>
<OUTCOME>yes</OUTCOME>
</VARIABLE>
<VARIABLE TYPE="nature">
<NAME>tear-prod-rate</NAME>
<OUTCOME>normal</OUTCOME>
<OUTCOME>reduced</OUTCOME>
</VARIABLE>
<VARIABLE TYPE="nature">
<NAME>age</NAME>
<OUTCOME>pre-presbyopic</OUTCOME>
<OUTCOME>presbyopic</OUTCOME>
<OUTCOME>young</OUTCOME>
</VARIABLE>
<VARIABLE TYPE="nature">
<NAME>spectacle-prescrip</NAME>
<OUTCOME>hypermetrope</OUTCOME>
<OUTCOME>myope</OUTCOME>
</VARIABLE>
<VARIABLE TYPE="nature">
<NAME>contact-lenses</NAME>
<OUTCOME>hard</OUTCOME>
<OUTCOME>none</OUTCOME>
<OUTCOME>soft</OUTCOME>
</VARIABLE>
<DEFINITION>
<FOR>age</FOR>
<TABLE>
0.33 0.33 0.33
0.33 0.33 0.33
0.33 0.33 0.33
</TABLE>
</DEFINITION>
<DEFINITION>
<FOR>spectacle-prescrip</FOR>
<TABLE>
0.33 0.33
0.33 0.33
</TABLE>
</DEFINITION>
<DEFINITION>
<FOR>contact-lenses</FOR>
<TABLE>
0.1954022988505747 0.5747126436781609 0.22988505747126434
</TABLE>
</DEFINITION>
<DEFINITION>
<FOR>tear-prod-rate</FOR>
<GIVEN>contact-lenses</GIVEN>
<TABLE>
0.8529411764705883 0.22999999999999998 0.875 0.1470588235294118 0.77 0.12500000000000003
</TABLE>
</DEFINITION>
<DEFINITION>
<FOR>astigmatism</FOR>
<GIVEN>contact-lenses</GIVEN>
<TABLE>
0.1470588235294118 0.47 0.875 0.8529411764705883 0.53 0.12500000000000003
</TABLE>
</DEFINITION>
</NETWORK>
</BIF>
