<?xml version='1.0' encoding='utf-8'?>
<BIF VERSION="0.3">
  <NETWORK>
    <NAME>UNTITLED</NAME>
    <VARIABLE TYPE="nature">
      <NAME>Akt</NAME>
      <OUTCOME>1</OUTCOME>
      <OUTCOME>2</OUTCOME>
      <OUTCOME>3</OUTCOME>
      <PROPERTY />
    </VARIABLE>
    <VARIABLE TYPE="nature">
      <NAME>Erk</NAME>
      <OUTCOME>1</OUTCOME>
      <OUTCOME>2</OUTCOME>
      <OUTCOME>3</OUTCOME>
      <PROPERTY />
    </VARIABLE>
    <VARIABLE TYPE="nature">
      <NAME>Jnk</NAME>
      <OUTCOME>1</OUTCOME>
      <OUTCOME>2</OUTCOME>
      <OUTCOME>3</OUTCOME>
      <PROPERTY />
    </VARIABLE>
    <VARIABLE TYPE="nature">
      <NAME>Mek</NAME>
      <OUTCOME>1</OUTCOME>
      <OUTCOME>2</OUTCOME>
      <OUTCOME>3</OUTCOME>
      <PROPERTY />
    </VARIABLE>
    <VARIABLE TYPE="nature">
      <NAME>P38</NAME>
      <OUTCOME>1</OUTCOME>
      <OUTCOME>2</OUTCOME>
      <OUTCOME>3</OUTCOME>
      <PROPERTY />
    </VARIABLE>
    <VARIABLE TYPE="nature">
      <NAME>PIP2</NAME>
      <OUTCOME>1</OUTCOME>
      <OUTCOME>2</OUTCOME>
      <OUTCOME>3</OUTCOME>
      <PROPERTY />
    </VARIABLE>
    <VARIABLE TYPE="nature">
      <NAME>PIP3</NAME>
      <OUTCOME>1</OUTCOME>
      <OUTCOME>2</OUTCOME>
      <OUTCOME>3</OUTCOME>
      <PROPERTY />
    </VARIABLE>
    <VARIABLE TYPE="nature">
      <NAME>PKA</NAME>
      <OUTCOME>1</OUTCOME>
      <OUTCOME>2</OUTCOME>
      <OUTCOME>3</OUTCOME>
      <PROPERTY />
    </VARIABLE>
    <VARIABLE TYPE="nature">
      <NAME>PKC</NAME>
      <OUTCOME>1</OUTCOME>
      <OUTCOME>2</OUTCOME>
      <OUTCOME>3</OUTCOME>
      <PROPERTY />
    </VARIABLE>
    <VARIABLE TYPE="nature">
      <NAME>Plcg</NAME>
      <OUTCOME>1</OUTCOME>
      <OUTCOME>2</OUTCOME>
      <OUTCOME>3</OUTCOME>
      <PROPERTY />
    </VARIABLE>
    <VARIABLE TYPE="nature">
      <NAME>Raf</NAME>
      <OUTCOME>1</OUTCOME>
      <OUTCOME>2</OUTCOME>
      <OUTCOME>3</OUTCOME>
      <PROPERTY />
    </VARIABLE>
    <DEFINITION>
      <FOR>Akt</FOR>
      <GIVEN>Mek</GIVEN>
      <GIVEN>PKA</GIVEN>
      <TABLE>0.6346493218373418 0.3555690011596833 0.00978167700297484 0.6654637944649514 0.33250693258406333 0.002029272950985253 0.7696465838721817 0.23018235314242702 0.00017106298539122102 0.41493955094991364 0.4207685664939551 0.16429188255613125 0.6659080681452909 0.3315975570556091 0.0024943747990999678 0.12463768115942027 0.8681159420289855 0.007246376811594201 0.0597187579076745 0.2324765932834472 0.7078046488088783 0.74066091954023 0.2363505747126437 0.022988505747126436 0.3333333333333333 0.3333333333333333 0.3333333333333333 </TABLE>
    </DEFINITION>
    <DEFINITION>
      <FOR>Erk</FOR>
      <GIVEN>Akt</GIVEN>
      <GIVEN>Mek</GIVEN>
      <GIVEN>PKA</GIVEN>
      <TABLE>0.920367575011255 0.07950001324117476 0.00013241174757024443 0.10396515483927346 0.8416191777167588 0.05441566744396763 0.08648944997629207 0.8750296348980559 0.03848091512565196 0.6892126257370794 0.30992022199098157 0.0008671522719389524 0.04903683394154713 0.8868078752421592 0.0641552908162937 0.01937984496124031 0.6472868217054263 0.33333333333333337 0.08272800645682002 0.9162631154156579 0.0010088781275221952 0.0016165535079211122 0.9443905593275138 0.05399288716456514 0.3333333333333333 0.3333333333333333 0.3333333333333333 0.7430043486481377 0.25675931177916433 0.00023633957269805257 0.13947494384918444 0.36763135608822123 0.49289370006259436 0.004260800634165676 0.14471858898137138 0.851020610384463 0.2225072686847956 0.7212245596032153 0.05626817171198906 0.052410495023911076 0.42406617552022746 0.5235233294558614 0.0027824151363383415 0.0027824151363383415 0.9944351697273234 0.012854403151402063 0.5502513865132431 0.43689421033535486 0.005065856129685917 0.2512664640324215 0.7436676798378926 0.3333333333333333 0.3333333333333333 0.3333333333333333 0.008591065292096219 0.008591065292096219 0.9828178694158076 0.007541478129713423 0.1297134238310709 0.8627450980392157 0.3333333333333333 0.3333333333333333 0.3333333333333333 0.002190100744634253 0.002190100744634253 0.9956197985107316 0.008591065292096219 0.008591065292096219 0.9828178694158076 0.3333333333333333 0.3333333333333333 0.3333333333333333 8.512087163772556e-05 8.512087163772556e-05 0.9998297582567246 0.052083333333333336 0.052083333333333336 0.8958333333333335 0.3333333333333333 0.3333333333333333 0.3333333333333333 </TABLE>
    </DEFINITION>
    <DEFINITION>
      <FOR>Jnk</FOR>
      <GIVEN>PKA</GIVEN>
      <GIVEN>PKC</GIVEN>
      <TABLE>0.2861759342612469 0.2618701382637398 0.4519539274750133 0.6008215537030326 0.3985743626917966 0.0006040836051709556 0.009469696969696966 0.9810606060606059 0.009469696969696966 0.5953393706549579 0.4045462861324552 0.00011434321258690083 0.6204365575272849 0.3795217862201116 4.1656252603515784e-05 0.03907053259304955 0.9440674480773185 0.01686201932963191 0.9986439435587319 0.0011728055708264613 0.00018325087044163458 0.8592097941012798 0.13800779076238173 0.0027824151363383415 0.16431924882629106 0.8298122065727699 0.005868544600938966 </TABLE>
    </DEFINITION>
    <DEFINITION>
      <FOR>Mek</FOR>
      <GIVEN>PKA</GIVEN>
      <GIVEN>PKC</GIVEN>
      <TABLE>0.32917849641068253 0.03750894444059737 0.6333125591487201 0.6171318110426484 0.35616769360879547 0.02670049534855624 0.8787878787878787 0.11174242424242421 0.009469696969696966 0.6681988657153312 0.32304244420051226 0.008758690084156603 0.5180871448804466 0.4735482795967675 0.00836457552278597 0.7197614641168003 0.28003290150113097 0.00020563438206868184 0.9966648341579621 0.0031519149715961148 0.00018325087044163458 0.8892598775737339 0.10795770728992765 0.0027824151363383415 0.5129107981220657 0.4812206572769952 0.005868544600938966 </TABLE>
    </DEFINITION>
    <DEFINITION>
      <FOR>P38</FOR>
      <TABLE>0.7460936198567383 0.14039646843245046 0.11350991171081126 </TABLE>
    </DEFINITION>
    <DEFINITION>
      <FOR>PIP2</FOR>
      <TABLE>0.8450441445943696 0.10211560886223556 0.052840246543394975 </TABLE>
    </DEFINITION>
    <DEFINITION>
      <FOR>PIP3</FOR>
      <GIVEN>PIP2</GIVEN>
      <GIVEN>Plcg</GIVEN>
      <TABLE>0.22808902386034274 0.4693043399370664 0.3026066362025909 0.12452651515151517 0.2761093073593074 0.5993641774891775 0.6986469864698647 0.2536285362853628 0.04772447724477244 0.026905390861950887 0.13257019861070346 0.8405244105273456 0.000719010641357492 0.04731090020132298 0.9519700891573196 0.532180595581172 0.45696445725264173 0.01085494716618636 0.009009009009009007 0.009009009009009007 0.9819819819819819 0.011185682326621923 0.011185682326621923 0.9776286353467561 0.25467148884870405 0.4947257383966245 0.2506027727546715 </TABLE>
    </DEFINITION>
    <DEFINITION>
      <FOR>PKA</FOR>
      <GIVEN>P38</GIVEN>
      <GIVEN>PKC</GIVEN>
      <TABLE>0.17729049804521502 0.5313877011990219 0.291321800755763 0.05284797145827967 0.9398925869749782 0.007259441566742028 0.021593042790789604 0.9474750469413973 0.03093191026781302 0.36571145019228385 0.3690609105570029 0.26522763925071335 0.11136928783987607 0.8763197586726997 0.012310953487424075 0.016122984626921633 0.9424446944131983 0.04143232095988001 0.8999865753792455 0.003792455363135991 0.09622096925761847 0.006720430107526881 0.006720430107526881 0.9865591397849462 0.04065040650406504 0.9186991869918699 0.04065040650406504 </TABLE>
    </DEFINITION>
    <DEFINITION>
      <FOR>PKC</FOR>
      <GIVEN>P38</GIVEN>
      <TABLE>0.3794617605906344 0.5201244380935369 0.10041380131582864 0.21254548330960293 0.646812213257396 0.1406423034330011 0.9717248801487133 0.024263770668232067 0.004011349183054494 </TABLE>
    </DEFINITION>
    <DEFINITION>
      <FOR>Plcg</FOR>
      <GIVEN>PIP2</GIVEN>
      <TABLE>0.9174289018556485 0.06476370709141566 0.01780739105293592 0.37052746057640024 0.25209352909189775 0.377379010331702 0.03888188314417823 0.03131567885666247 0.9298024379991594 </TABLE>
    </DEFINITION>
    <DEFINITION>
      <FOR>Raf</FOR>
      <GIVEN>Mek</GIVEN>
      <GIVEN>PKA</GIVEN>
      <GIVEN>PKC</GIVEN>
      <TABLE>0.16483182572517122 0.1951242315873127 0.640043942687516 0.502479770294962 0.12190028713129729 0.3756199425737405 0.9928160919540231 0.003591954022988506 0.003591954022988506 0.5147563799810626 0.15899471804875823 0.3262489019701792 0.7676593874291104 0.19844766774943984 0.03389294482144963 0.984381844846961 0.015522922499666681 9.523265337218823e-05 0.8509475129317741 0.12615527935083717 0.022897207717388637 0.7782644972882771 0.22069253233208178 0.0010429703796412183 0.992372234935164 0.003813882532418002 0.003813882532418002 0.433025641025641 0.516102564102564 0.05087179487179487 0.3394391677973767 0.5317729534147444 0.12878787878787878 0.9435028248587572 0.028248587570621472 0.028248587570621472 0.3346075794044079 0.5907310396904053 0.07466138090518665 0.3159160215810462 0.6085268590194698 0.07555711939948392 0.6188378126988789 0.380917413227591 0.0002447740735301317 0.9612403100775195 0.019379844961240313 0.019379844961240313 0.14776632302405499 0.008591065292096219 0.8436426116838488 0.8601626016260163 0.13577235772357724 0.0040650406504065045 6.074522238825916e-05 0.12306982055861307 0.8768694342189987 0.007541478129713423 0.007541478129713423 0.9849170437405731 0.3333333333333333 0.3333333333333333 0.3333333333333333 0.004351610095735422 0.35683202785030466 0.63881636205396 0.0016600265604249668 0.3243691899070385 0.6739707835325366 0.3333333333333333 0.3333333333333333 0.3333333333333333 0.3333333333333333 0.3333333333333333 0.3333333333333333 0.3333333333333333 0.3333333333333333 0.3333333333333333 0.3333333333333333 0.3333333333333333 0.3333333333333333 </TABLE>
    </DEFINITION>
    <DEFINITION>
      <FOR>Akt</FOR>
      <GIVEN>Mek</GIVEN>
      <GIVEN>PKA</GIVEN>
    </DEFINITION>
    <DEFINITION>
      <FOR>Erk</FOR>
      <GIVEN>Akt</GIVEN>
      <GIVEN>Mek</GIVEN>
      <GIVEN>PKA</GIVEN>
    </DEFINITION>
    <DEFINITION>
      <FOR>Jnk</FOR>
      <GIVEN>PKA</GIVEN>
      <GIVEN>PKC</GIVEN>
    </DEFINITION>
    <DEFINITION>
      <FOR>Mek</FOR>
      <GIVEN>PKA</GIVEN>
      <GIVEN>PKC</GIVEN>
    </DEFINITION>
    <DEFINITION>
      <FOR>P38</FOR>
    </DEFINITION>
    <DEFINITION>
      <FOR>PIP2</FOR>
    </DEFINITION>
    <DEFINITION>
      <FOR>PIP3</FOR>
      <GIVEN>PIP2</GIVEN>
      <GIVEN>Plcg</GIVEN>
    </DEFINITION>
    <DEFINITION>
      <FOR>PKA</FOR>
      <GIVEN>P38</GIVEN>
      <GIVEN>PKC</GIVEN>
    </DEFINITION>
    <DEFINITION>
      <FOR>PKC</FOR>
      <GIVEN>P38</GIVEN>
    </DEFINITION>
    <DEFINITION>
      <FOR>Plcg</FOR>
      <GIVEN>PIP2</GIVEN>
    </DEFINITION>
    <DEFINITION>
      <FOR>Raf</FOR>
      <GIVEN>Mek</GIVEN>
      <GIVEN>PKA</GIVEN>
      <GIVEN>PKC</GIVEN>
    </DEFINITION>
  </NETWORK>
</BIF>
