<?xml version='1.0' encoding='utf-8'?>
<BIF VERSION="0.3">
  <NETWORK>
    <NAME>UNTITLED</NAME>
    <VARIABLE TYPE="nature">
      <NAME>ANAPHYLAXIS</NAME>
      <OUTCOME>False</OUTCOME>
      <OUTCOME>True</OUTCOME>
      <PROPERTY>weight = None</PROPERTY>
    </VARIABLE>
    <VARIABLE TYPE="nature">
      <NAME>ARTCO2</NAME>
      <OUTCOME>HIGH</OUTCOME>
      <OUTCOME>LOW</OUTCOME>
      <OUTCOME>NORMAL</OUTCOME>
      <PROPERTY>weight = None</PROPERTY>
    </VARIABLE>
    <VARIABLE TYPE="nature">
      <NAME>BP</NAME>
      <OUTCOME>HIGH</OUTCOME>
      <OUTCOME>LOW</OUTCOME>
      <OUTCOME>NORMAL</OUTCOME>
      <PROPERTY>weight = None</PROPERTY>
    </VARIABLE>
    <VARIABLE TYPE="nature">
      <NAME>CATECHOL</NAME>
      <OUTCOME>HIGH</OUTCOME>
      <OUTCOME>NORMAL</OUTCOME>
      <PROPERTY>weight = None</PROPERTY>
    </VARIABLE>
    <VARIABLE TYPE="nature">
      <NAME>CO</NAME>
      <OUTCOME>HIGH</OUTCOME>
      <OUTCOME>LOW</OUTCOME>
      <OUTCOME>NORMAL</OUTCOME>
      <PROPERTY>weight = None</PROPERTY>
    </VARIABLE>
    <VARIABLE TYPE="nature">
      <NAME>CVP</NAME>
      <OUTCOME>HIGH</OUTCOME>
      <OUTCOME>LOW</OUTCOME>
      <OUTCOME>NORMAL</OUTCOME>
      <PROPERTY>weight = None</PROPERTY>
    </VARIABLE>
    <VARIABLE TYPE="nature">
      <NAME>DISCONNECT</NAME>
      <OUTCOME>False</OUTCOME>
      <OUTCOME>True</OUTCOME>
      <PROPERTY>weight = None</PROPERTY>
    </VARIABLE>
    <VARIABLE TYPE="nature">
      <NAME>ERRCAUTER</NAME>
      <OUTCOME>False</OUTCOME>
      <OUTCOME>True</OUTCOME>
      <PROPERTY>weight = None</PROPERTY>
    </VARIABLE>
    <VARIABLE TYPE="nature">
      <NAME>ERRLOWOUTPUT</NAME>
      <OUTCOME>False</OUTCOME>
      <OUTCOME>True</OUTCOME>
      <PROPERTY>weight = None</PROPERTY>
    </VARIABLE>
    <VARIABLE TYPE="nature">
      <NAME>EXPCO2</NAME>
      <OUTCOME>HIGH</OUTCOME>
      <OUTCOME>LOW</OUTCOME>
      <OUTCOME>NORMAL</OUTCOME>
      <OUTCOME>ZERO</OUTCOME>
      <PROPERTY>weight = None</PROPERTY>
    </VARIABLE>
    <VARIABLE TYPE="nature">
      <NAME>FIO2</NAME>
      <OUTCOME>LOW</OUTCOME>
      <OUTCOME>NORMAL</OUTCOME>
      <PROPERTY>weight = None</PROPERTY>
    </VARIABLE>
    <VARIABLE TYPE="nature">
      <NAME>HISTORY</NAME>
      <OUTCOME>False</OUTCOME>
      <OUTCOME>True</OUTCOME>
      <PROPERTY>weight = None</PROPERTY>
    </VARIABLE>
    <VARIABLE TYPE="nature">
      <NAME>HR</NAME>
      <OUTCOME>HIGH</OUTCOME>
      <OUTCOME>LOW</OUTCOME>
      <OUTCOME>NORMAL</OUTCOME>
      <PROPERTY>weight = None</PROPERTY>
    </VARIABLE>
    <VARIABLE TYPE="nature">
      <NAME>HRBP</NAME>
      <OUTCOME>HIGH</OUTCOME>
      <OUTCOME>LOW</OUTCOME>
      <OUTCOME>NORMAL</OUTCOME>
      <PROPERTY>weight = None</PROPERTY>
    </VARIABLE>
    <VARIABLE TYPE="nature">
      <NAME>HREKG</NAME>
      <OUTCOME>HIGH</OUTCOME>
      <OUTCOME>LOW</OUTCOME>
      <OUTCOME>NORMAL</OUTCOME>
      <PROPERTY>weight = None</PROPERTY>
    </VARIABLE>
    <VARIABLE TYPE="nature">
      <NAME>HRSAT</NAME>
      <OUTCOME>HIGH</OUTCOME>
      <OUTCOME>LOW</OUTCOME>
      <OUTCOME>NORMAL</OUTCOME>
      <PROPERTY>weight = None</PROPERTY>
    </VARIABLE>
    <VARIABLE TYPE="nature">
      <NAME>HYPOVOLEMIA</NAME>
      <OUTCOME>False</OUTCOME>
      <OUTCOME>True</OUTCOME>
      <PROPERTY>weight = None</PROPERTY>
    </VARIABLE>
    <VARIABLE TYPE="nature">
      <NAME>INSUFFANESTH</NAME>
      <OUTCOME>False</OUTCOME>
      <OUTCOME>True</OUTCOME>
      <PROPERTY>weight = None</PROPERTY>
    </VARIABLE>
    <VARIABLE TYPE="nature">
      <NAME>INTUBATION</NAME>
      <OUTCOME>ESOPHAGEAL</OUTCOME>
      <OUTCOME>NORMAL</OUTCOME>
      <OUTCOME>ONESIDED</OUTCOME>
      <PROPERTY>weight = None</PROPERTY>
    </VARIABLE>
    <VARIABLE TYPE="nature">
      <NAME>KINKEDTUBE</NAME>
      <OUTCOME>False</OUTCOME>
      <OUTCOME>True</OUTCOME>
      <PROPERTY>weight = None</PROPERTY>
    </VARIABLE>
    <VARIABLE TYPE="nature">
      <NAME>LVEDVOLUME</NAME>
      <OUTCOME>HIGH</OUTCOME>
      <OUTCOME>LOW</OUTCOME>
      <OUTCOME>NORMAL</OUTCOME>
      <PROPERTY>weight = None</PROPERTY>
    </VARIABLE>
    <VARIABLE TYPE="nature">
      <NAME>LVFAILURE</NAME>
      <OUTCOME>False</OUTCOME>
      <OUTCOME>True</OUTCOME>
      <PROPERTY>weight = None</PROPERTY>
    </VARIABLE>
    <VARIABLE TYPE="nature">
      <NAME>MINVOL</NAME>
      <OUTCOME>HIGH</OUTCOME>
      <OUTCOME>LOW</OUTCOME>
      <OUTCOME>NORMAL</OUTCOME>
      <OUTCOME>ZERO</OUTCOME>
      <PROPERTY>weight = None</PROPERTY>
    </VARIABLE>
    <VARIABLE TYPE="nature">
      <NAME>MINVOLSET</NAME>
      <OUTCOME>HIGH</OUTCOME>
      <OUTCOME>LOW</OUTCOME>
      <OUTCOME>NORMAL</OUTCOME>
      <PROPERTY>weight = None</PROPERTY>
    </VARIABLE>
    <VARIABLE TYPE="nature">
      <NAME>PAP</NAME>
      <OUTCOME>HIGH</OUTCOME>
      <OUTCOME>LOW</OUTCOME>
      <OUTCOME>NORMAL</OUTCOME>
      <PROPERTY>weight = None</PROPERTY>
    </VARIABLE>
    <VARIABLE TYPE="nature">
      <NAME>PCWP</NAME>
      <OUTCOME>HIGH</OUTCOME>
      <OUTCOME>LOW</OUTCOME>
      <OUTCOME>NORMAL</OUTCOME>
      <PROPERTY>weight = None</PROPERTY>
    </VARIABLE>
    <VARIABLE TYPE="nature">
      <NAME>PRESS</NAME>
      <OUTCOME>HIGH</OUTCOME>
      <OUTCOME>LOW</OUTCOME>
      <OUTCOME>NORMAL</OUTCOME>
      <OUTCOME>ZERO</OUTCOME>
      <PROPERTY>weight = None</PROPERTY>
    </VARIABLE>
    <VARIABLE TYPE="nature">
      <NAME>PULMEMBOLUS</NAME>
      <OUTCOME>False</OUTCOME>
      <OUTCOME>True</OUTCOME>
      <PROPERTY>weight = None</PROPERTY>
    </VARIABLE>
    <VARIABLE TYPE="nature">
      <NAME>PVSAT</NAME>
      <OUTCOME>HIGH</OUTCOME>
      <OUTCOME>LOW</OUTCOME>
      <OUTCOME>NORMAL</OUTCOME>
      <PROPERTY>weight = None</PROPERTY>
    </VARIABLE>
    <VARIABLE TYPE="nature">
      <NAME>SAO2</NAME>
      <OUTCOME>HIGH</OUTCOME>
      <OUTCOME>LOW</OUTCOME>
      <OUTCOME>NORMAL</OUTCOME>
      <PROPERTY>weight = None</PROPERTY>
    </VARIABLE>
    <VARIABLE TYPE="nature">
      <NAME>SHUNT</NAME>
      <OUTCOME>HIGH</OUTCOME>
      <OUTCOME>NORMAL</OUTCOME>
      <PROPERTY>weight = None</PROPERTY>
    </VARIABLE>
    <VARIABLE TYPE="nature">
      <NAME>STROKEVOLUME</NAME>
      <OUTCOME>HIGH</OUTCOME>
      <OUTCOME>LOW</OUTCOME>
      <OUTCOME>NORMAL</OUTCOME>
      <PROPERTY>weight = None</PROPERTY>
    </VARIABLE>
    <VARIABLE TYPE="nature">
      <NAME>TPR</NAME>
      <OUTCOME>HIGH</OUTCOME>
      <OUTCOME>LOW</OUTCOME>
      <OUTCOME>NORMAL</OUTCOME>
      <PROPERTY>weight = None</PROPERTY>
    </VARIABLE>
    <VARIABLE TYPE="nature">
      <NAME>VENTALV</NAME>
      <OUTCOME>HIGH</OUTCOME>
      <OUTCOME>LOW</OUTCOME>
      <OUTCOME>NORMAL</OUTCOME>
      <OUTCOME>ZERO</OUTCOME>
      <PROPERTY>weight = None</PROPERTY>
    </VARIABLE>
    <VARIABLE TYPE="nature">
      <NAME>VENTLUNG</NAME>
      <OUTCOME>HIGH</OUTCOME>
      <OUTCOME>LOW</OUTCOME>
      <OUTCOME>NORMAL</OUTCOME>
      <OUTCOME>ZERO</OUTCOME>
      <PROPERTY>weight = None</PROPERTY>
    </VARIABLE>
    <VARIABLE TYPE="nature">
      <NAME>VENTMACH</NAME>
      <OUTCOME>HIGH</OUTCOME>
      <OUTCOME>LOW</OUTCOME>
      <OUTCOME>NORMAL</OUTCOME>
      <OUTCOME>ZERO</OUTCOME>
      <PROPERTY>weight = None</PROPERTY>
    </VARIABLE>
    <VARIABLE TYPE="nature">
      <NAME>VENTTUBE</NAME>
      <OUTCOME>HIGH</OUTCOME>
      <OUTCOME>LOW</OUTCOME>
      <OUTCOME>NORMAL</OUTCOME>
      <OUTCOME>ZERO</OUTCOME>
      <PROPERTY>weight = None</PROPERTY>
    </VARIABLE>
    <DEFINITION>
      <FOR>ANAPHYLAXIS</FOR>
      <GIVEN>TPR</GIVEN>
      <TABLE>0.9993920636675141 0.000607936332485907 0.9652808738296923 0.03471912617030762 0.9987912637545848 0.0012087362454151383 </TABLE>
    </DEFINITION>
    <DEFINITION>
      <FOR>ARTCO2</FOR>
      <GIVEN>VENTALV</GIVEN>
      <TABLE>0.008417724223390164 0.9011237875486048 0.09045848822800494 0.9787259471734195 0.012071232221823833 0.009202820604756785 0.01503585473051122 0.04001850566736063 0.9449456396021282 0.978872652351519 0.009634737456381673 0.011492610192099276 </TABLE>
    </DEFINITION>
    <DEFINITION>
      <FOR>BP</FOR>
      <GIVEN>CO</GIVEN>
      <GIVEN>HR</GIVEN>
      <GIVEN>TPR</GIVEN>
      <TABLE>0.8934063134363931 0.012023636348693674 0.09457005021491326 0.014106367041198501 0.9033468164794007 0.08254681647940075 0.7552827330484523 0.04763842727622147 0.19707883967532613 0.052083333333333336 0.052083333333333336 0.8958333333333335 0.3333333333333333 0.3333333333333333 0.3333333333333333 0.3333333333333333 0.3333333333333333 0.3333333333333333 0.8757440476190477 0.06212797619047619 0.06212797619047619 0.005065856129685917 0.9078014184397164 0.08713272543059779 0.7732518669382213 0.05838424983027835 0.16836388323150034 0.0875717182175057 0.3391570682886847 0.5732712134938095 0.012046422800058765 0.9782870574408697 0.009666519759071545 0.009511216275778873 0.973461386781729 0.017027396942491932 0.08636763412489006 0.3000879507475813 0.6135444151275286 0.0026624068157614484 0.9946751863684772 0.0026624068157614484 0.0013365410318096765 0.9540229885057472 0.044640470462443196 0.09237153251477945 0.29035925420645753 0.617269213278763 0.018566493955094993 0.9803540587219344 0.001079447322970639 0.0006624271330153681 0.9879438261791201 0.011393746687864333 0.5076802661187751 0.024263770668232067 0.4680559632129928 0.00032977179791584226 0.9939981532779317 0.005672074924152487 0.05688742383378284 0.10543402257516732 0.8376785535910499 0.4926253687315634 0.014749262536873156 0.4926253687315634 0.011904761904761902 0.976190476190476 0.011904761904761902 0.01937984496124031 0.01937984496124031 0.9612403100775193 0.5457556935817806 0.04523013218665392 0.4090141742315655 0.004714912280701755 0.9816885964912281 0.013596491228070176 0.07331753376217884 0.08245871421585224 0.844223752021969 </TABLE>
    </DEFINITION>
    <DEFINITION>
      <FOR>CATECHOL</FOR>
      <GIVEN>ARTCO2</GIVEN>
      <GIVEN>HR</GIVEN>
      <TABLE>0.9972063244060255 0.0027936755939744922 0.8074901445466492 0.1925098554533509 0.6985849622256866 0.30141503777431344 0.9798033355827629 0.020196664417237057 0.28526970954356845 0.7147302904564315 0.17656737097332867 0.8234326290266712 0.9791258055477725 0.020874194452227518 0.6607142857142857 0.33928571428571425 0.2520301624129931 0.747969837587007 </TABLE>
    </DEFINITION>
    <DEFINITION>
      <FOR>CO</FOR>
      <GIVEN>HR</GIVEN>
      <GIVEN>STROKEVOLUME</GIVEN>
      <TABLE>0.9726456914261002 0.006379068007352147 0.02097524056654774 0.016193026831324703 0.7808113871943659 0.20299558597430936 0.9487862640615748 0.011219656601539374 0.03999407933688573 0.1568627450980392 0.1568627450980392 0.6862745098039216 0.007246376811594201 0.9855072463768114 0.007246376811594201 0.0015360983102918585 0.9388632872503839 0.05960061443932411 0.6540570175438596 0.0027412280701754384 0.34320175438596495 0.009549189429269378 0.956917610481901 0.03353320008882968 0.01191352471306671 0.03546795343638395 0.9526185218505493 </TABLE>
    </DEFINITION>
    <DEFINITION>
      <FOR>CVP</FOR>
      <TABLE>0.15329002165583874 0.11251041146093621 0.7341995668832251 </TABLE>
    </DEFINITION>
    <DEFINITION>
      <FOR>DISCONNECT</FOR>
      <TABLE>0.8978010994502749 0.10219890054972514 </TABLE>
    </DEFINITION>
    <DEFINITION>
      <FOR>ERRCAUTER</FOR>
      <TABLE>0.8974012993503249 0.10259870064967516 </TABLE>
    </DEFINITION>
    <DEFINITION>
      <FOR>ERRLOWOUTPUT</FOR>
      <TABLE>0.948375812093953 0.051624187906046975 </TABLE>
    </DEFINITION>
    <DEFINITION>
      <FOR>EXPCO2</FOR>
      <GIVEN>ARTCO2</GIVEN>
      <GIVEN>VENTLUNG</GIVEN>
      <TABLE>0.9565637065637067 0.008862758862758863 0.021498771498771503 0.013074763074763076 0.015515780554967168 0.005348443126456258 0.9610781614064817 0.018057614912094896 0.016233766233766232 0.016233766233766232 0.016233766233766232 0.9512987012987013 0.009268407291829824 0.9724839452028385 0.007967155439353227 0.010280492065978288 0.9512987012987012 0.016233766233766232 0.016233766233766232 0.016233766233766232 0.009009792712631106 0.9652159864790971 0.013781876025252273 0.011992344783019335 0.03406169665809769 0.0032133676092544992 0.9595115681233934 0.0032133676092544992 0.015890497168030204 0.015890497168030204 0.008338577721837633 0.9598804279421018 0.9628712871287131 0.01237623762376238 0.01237623762376238 0.01237623762376238 0.016301969365426695 0.011050328227571116 0.016301969365426695 0.9563457330415754 0.0015225334957369061 0.0015225334957369061 0.9661997563946407 0.0307551766138855 0.012199653207827593 0.9396210056972998 0.030034679217240515 0.0181446618776319 </TABLE>
    </DEFINITION>
    <DEFINITION>
      <FOR>FIO2</FOR>
      <TABLE>0.05092453773113443 0.9490754622688655 </TABLE>
    </DEFINITION>
    <DEFINITION>
      <FOR>HISTORY</FOR>
      <GIVEN>ANAPHYLAXIS</GIVEN>
      <GIVEN>LVFAILURE</GIVEN>
      <TABLE>0.9885557061966664 0.011444293803333599 0.10122386537480878 0.8987761346251912 0.9552058111380145 0.044794188861985475 0.5 0.5 </TABLE>
    </DEFINITION>
    <DEFINITION>
      <FOR>HR</FOR>
      <GIVEN>ARTCO2</GIVEN>
      <TABLE>0.8661430063398202 0.011193974964329317 0.12266301869585043 0.623789764868603 0.02898550724637681 0.34722472788502007 0.6569114669611633 0.02576845205227315 0.3173200809865636 </TABLE>
    </DEFINITION>
    <DEFINITION>
      <FOR>HRBP</FOR>
      <GIVEN>ERRLOWOUTPUT</GIVEN>
      <GIVEN>HR</GIVEN>
      <TABLE>0.980135564284526 0.009150950903159068 0.010713484812315084 0.008822401227464518 0.41618718833908713 0.5749904104334485 0.01158636348459047 0.9786303382416774 0.00978329827373201 0.024956158100634025 0.005530824227708081 0.9695130176716579 0.03144654088050314 0.9371069182389935 0.03144654088050314 0.24289855072463767 0.3368115942028985 0.42028985507246375 </TABLE>
    </DEFINITION>
    <DEFINITION>
      <FOR>HREKG</FOR>
      <GIVEN>ERRCAUTER</GIVEN>
      <GIVEN>HR</GIVEN>
      <TABLE>0.9805337183806622 0.00993941616434798 0.009526865454989954 0.34086156419907987 0.40108741112505225 0.2580510246758678 0.009071975713932718 0.9843976137526915 0.006530410533375693 0.0052178627092227415 0.01619570373382124 0.9785864335569561 0.2533333333333333 0.3013333333333333 0.4453333333333333 0.32974588938714505 0.3674140508221226 0.3028400597907325 </TABLE>
    </DEFINITION>
    <DEFINITION>
      <FOR>HRSAT</FOR>
      <GIVEN>ERRCAUTER</GIVEN>
      <GIVEN>HR</GIVEN>
      <TABLE>0.9817713705087362 0.009389348551870612 0.008839280939393245 0.355918025930573 0.34086156419907987 0.3032204098703471 0.006530410533375693 0.9812206572769953 0.012248932189629 0.010096903164599852 0.010096903164599852 0.9798061936708004 0.4933333333333333 0.3973333333333333 0.10933333333333331 0.308221225710015 0.3674140508221226 0.3243647234678625 </TABLE>
    </DEFINITION>
    <DEFINITION>
      <FOR>HYPOVOLEMIA</FOR>
      <GIVEN>LVEDVOLUME</GIVEN>
      <GIVEN>LVFAILURE</GIVEN>
      <GIVEN>STROKEVOLUME</GIVEN>
      <TABLE>0.4061102831594635 0.5938897168405365 0.012250259668845848 0.9877497403311541 0.2887030327095846 0.7112969672904155 0.5 0.5 0.652542372881356 0.3474576271186441 0.5 0.5 0.994908350305499 0.0050916496945010185 0.6195445920303605 0.38045540796963945 0.9787075393537696 0.021292460646230322 0.7416107382550335 0.2583892617449664 0.8228104655447733 0.17718953445522662 0.9464751958224543 0.05352480417754569 0.9937873164434403 0.006212683556559625 0.7940007452490373 0.2059992547509626 0.986236007421282 0.013763992578717965 0.5 0.5 0.45566502463054187 0.5443349753694581 0.5 0.5 </TABLE>
    </DEFINITION>
    <DEFINITION>
      <FOR>INSUFFANESTH</FOR>
      <TABLE>0.9024987506246877 0.09750124937531235 </TABLE>
    </DEFINITION>
    <DEFINITION>
      <FOR>INTUBATION</FOR>
      <GIVEN>MINVOL</GIVEN>
      <GIVEN>PVSAT</GIVEN>
      <GIVEN>VENTALV</GIVEN>
      <GIVEN>VENTLUNG</GIVEN>
      <TABLE>0.3333333333333333 0.3333333333333333 0.3333333333333333 0.0005964902554436151 0.9993983764377108 5.13330684547001e-06 0.3333333333333333 0.3333333333333333 0.3333333333333333 0.004284490145672667 0.9914310197086549 0.004284490145672667 0.008460236886632826 0.008460236886632826 0.9830795262267343 0.3333333333333333 0.3333333333333333 0.3333333333333333 0.3333333333333333 0.3333333333333333 0.3333333333333333 0.3333333333333333 0.3333333333333333 0.3333333333333333 0.3333333333333333 0.3333333333333333 0.3333333333333333 0.3333333333333333 0.3333333333333333 0.3333333333333333 0.3333333333333333 0.3333333333333333 0.3333333333333333 0.3333333333333333 0.3333333333333333 0.3333333333333333 0.3333333333333333 0.3333333333333333 0.3333333333333333 0.3333333333333333 0.3333333333333333 0.3333333333333333 0.3333333333333333 0.3333333333333333 0.3333333333333333 0.3333333333333333 0.3333333333333333 0.3333333333333333 0.3333333333333333 0.3333333333333333 0.3333333333333333 0.0004128478242919659 0.999174304351416 0.0004128478242919659 0.3333333333333333 0.3333333333333333 0.3333333333333333 0.3333333333333333 0.3333333333333333 0.3333333333333333 0.000346860908775581 0.08026361429066943 0.919389524800555 0.0005416531253385333 0.7493229335933269 0.25013541328133465 0.3333333333333333 0.3333333333333333 0.3333333333333333 0.4978577549271637 0.4978577549271637 0.004284490145672665 0.008460236886632826 0.008460236886632826 0.9830795262267343 0.0005098399102681757 0.9989803201794635 0.0005098399102681757 0.008460236886632826 0.9830795262267343 0.008460236886632826 0.002868617326448652 0.33333333333333337 0.663798049340218 0.004284490145672664 0.4978577549271636 0.4978577549271636 0.08360430666955702 0.9160343955488112 0.0003612977816316207 0.3333333333333333 0.3333333333333333 0.3333333333333333 0.0001422434639128332 0.9997155130721743 0.0001422434639128332 0.3333333333333333 0.3333333333333333 0.3333333333333333 9.750580159519491e-05 0.9998049883968095 9.750580159519491e-05 0.3333333333333333 0.3333333333333333 0.3333333333333333 0.3333333333333333 0.3333333333333333 0.3333333333333333 0.008460236886632826 0.008460236886632826 0.9830795262267343 0.004284490145672667 0.9914310197086549 0.004284490145672667 0.3333333333333333 0.3333333333333333 0.3333333333333333 0.3333333333333333 0.3333333333333333 0.3333333333333333 0.3333333333333333 0.3333333333333333 0.3333333333333333 0.3333333333333333 0.3333333333333333 0.3333333333333333 0.3333333333333333 0.3333333333333333 0.3333333333333333 0.3333333333333333 0.3333333333333333 0.3333333333333333 0.3333333333333333 0.3333333333333333 0.3333333333333333 0.3333333333333333 0.3333333333333333 0.3333333333333333 0.3333333333333333 0.3333333333333333 0.3333333333333333 0.3333333333333333 0.3333333333333333 0.3333333333333333 0.004284490145672667 0.9914310197086549 0.004284490145672667 0.00048155639025329854 0.8880862949051332 0.11143214870461327 0.9989166937493227 0.0005416531253385331 0.0005416531253385331 0.008460236886632826 0.9830795262267343 0.008460236886632826 0.008460236886632826 0.9830795262267343 0.008460236886632826 0.008460236886632826 0.008460236886632826 0.9830795262267343 0.3333333333333333 0.3333333333333333 0.3333333333333333 0.9830795262267343 0.008460236886632826 0.008460236886632826 0.3333333333333333 0.3333333333333333 0.3333333333333333 0.3333333333333333 0.3333333333333333 0.3333333333333333 0.3333333333333333 0.3333333333333333 0.3333333333333333 0.3333333333333333 0.3333333333333333 0.3333333333333333 0.3333333333333333 0.3333333333333333 0.3333333333333333 0.3333333333333333 0.3333333333333333 0.3333333333333333 0.3333333333333333 0.3333333333333333 0.3333333333333333 0.3333333333333333 0.3333333333333333 0.3333333333333333 0.3333333333333333 0.3333333333333333 0.3333333333333333 0.008460236886632826 0.9830795262267343 0.008460236886632826 0.3333333333333333 0.3333333333333333 0.3333333333333333 0.3333333333333333 0.3333333333333333 0.3333333333333333 4.6166772850244235e-05 0.9945892542219515 0.0053645790051983794 8.592394012819851e-05 8.592394012819851e-05 0.9998281521197435 0.3333333333333333 0.3333333333333333 0.3333333333333333 0.9925754177911236 0.007361232531326417 6.334967755014128e-05 0.00215610176800345 0.9956877964639932 0.00215610176800345 0.3333333333333333 0.3333333333333333 0.3333333333333333 0.00025511505689065764 0.9994897698862186 0.00025511505689065764 0.3333333333333333 0.3333333333333333 0.3333333333333333 0.0009617234083477593 0.9980765531833046 0.0009617234083477593 0.3333333333333333 0.3333333333333333 0.3333333333333333 0.3333333333333333 0.3333333333333333 0.3333333333333333 0.04120010460499726 0.9586810260799277 0.00011886931507500653 0.3333333333333333 0.3333333333333333 0.3333333333333333 0.3333333333333333 0.3333333333333333 0.3333333333333333 0.9942627653471028 0.0028686173264486524 0.0028686173264486524 0.008460236886632826 0.9830795262267343 0.008460236886632826 0.0010815487778498812 0.9978369024443002 0.0010815487778498812 0.0017271157167530228 0.0017271157167530228 0.996545768566494 0.3333333333333333 0.3333333333333333 0.3333333333333333 0.9956877964639932 0.00215610176800345 0.00215610176800345 0.3333333333333333 0.3333333333333333 0.3333333333333333 0.3333333333333333 0.3333333333333333 0.3333333333333333 0.3333333333333333 0.3333333333333333 0.3333333333333333 0.3333333333333333 0.3333333333333333 0.3333333333333333 0.3333333333333333 0.3333333333333333 0.3333333333333333 0.3333333333333333 0.3333333333333333 0.3333333333333333 0.3333333333333333 0.3333333333333333 0.3333333333333333 0.3333333333333333 0.3333333333333333 0.3333333333333333 0.3333333333333333 0.3333333333333333 0.3333333333333333 0.0006664001066240172 0.998667199786752 0.0006664001066240172 0.3333333333333333 0.3333333333333333 0.3333333333333333 0.00215610176800345 0.00215610176800345 0.9956877964639932 0.3333333333333333 0.3333333333333333 0.3333333333333333 0.3333333333333333 0.3333333333333333 0.3333333333333333 0.3333333333333333 0.3333333333333333 0.3333333333333333 0.3333333333333333 0.3333333333333333 0.3333333333333333 0.3333333333333333 0.3333333333333333 0.3333333333333333 0.3333333333333333 0.3333333333333333 0.3333333333333333 0.3333333333333333 0.3333333333333333 0.3333333333333333 0.008460236886632826 0.008460236886632826 0.9830795262267343 0.3333333333333333 0.3333333333333333 0.3333333333333333 0.3333333333333333 0.3333333333333333 0.3333333333333333 0.3333333333333333 0.3333333333333333 0.3333333333333333 0.3333333333333333 0.3333333333333333 0.3333333333333333 0.3333333333333333 0.3333333333333333 0.3333333333333333 0.3333333333333333 0.3333333333333333 0.3333333333333333 0.3333333333333333 0.3333333333333333 0.3333333333333333 0.3333333333333333 0.3333333333333333 0.3333333333333333 0.49927974647075773 0.16738692019590898 0.3333333333333333 0.002868617326448652 0.002868617326448652 0.9942627653471027 0.3333333333333333 0.3333333333333333 0.3333333333333333 0.4989219491159983 0.2505390254420009 0.2505390254420009 0.3333333333333333 0.3333333333333333 0.3333333333333333 0.3333333333333333 0.3333333333333333 0.3333333333333333 0.3333333333333333 0.3333333333333333 0.3333333333333333 4.4739126155387934e-05 4.4739126155387934e-05 0.9999105217476892 0.3333333333333333 0.3333333333333333 0.3333333333333333 0.9830795262267343 0.008460236886632826 0.008460236886632826 0.3333333333333333 0.3333333333333333 0.3333333333333333 0.00010847163466753444 0.962295259789565 0.03759626857576743 0.3333333333333333 0.3333333333333333 0.3333333333333333 0.3333333333333333 0.3333333333333333 0.3333333333333333 0.3333333333333333 0.3333333333333333 0.3333333333333333 0.008460236886632826 0.008460236886632826 0.9830795262267343 0.3333333333333333 0.3333333333333333 0.3333333333333333 0.3333333333333333 0.3333333333333333 0.3333333333333333 0.3333333333333333 0.3333333333333333 0.3333333333333333 0.3333333333333333 0.3333333333333333 0.3333333333333333 0.3333333333333333 0.3333333333333333 0.3333333333333333 0.3333333333333333 0.3333333333333333 0.3333333333333333 0.3333333333333333 0.3333333333333333 0.3333333333333333 0.0017271157167530228 0.0017271157167530228 0.996545768566494 0.3333333333333333 0.3333333333333333 0.3333333333333333 0.3333333333333333 0.3333333333333333 0.3333333333333333 0.3333333333333333 0.3333333333333333 0.3333333333333333 0.3333333333333333 0.3333333333333333 0.3333333333333333 0.3333333333333333 0.3333333333333333 0.3333333333333333 0.0003941042011507842 0.953810987625128 0.04579490817372112 0.9984254448118407 0.0007872775940796726 0.0007872775940796726 0.00018074684596753785 0.9996385063080648 0.00018074684596753785 0.3333333333333333 0.3333333333333333 0.3333333333333333 0.008460236886632826 0.008460236886632826 0.9830795262267343 0.3333333333333333 0.3333333333333333 0.3333333333333333 0.3333333333333333 0.3333333333333333 0.3333333333333333 0.3333333333333333 0.3333333333333333 0.3333333333333333 0.3333333333333333 0.3333333333333333 0.3333333333333333 0.3333333333333333 0.3333333333333333 0.3333333333333333 0.008460236886632826 0.9830795262267343 0.008460236886632826 0.3333333333333333 0.3333333333333333 0.3333333333333333 0.3333333333333333 0.3333333333333333 0.3333333333333333 0.3333333333333333 0.3333333333333333 0.3333333333333333 0.3333333333333333 0.3333333333333333 0.3333333333333333 0.3333333333333333 0.3333333333333333 0.3333333333333333 0.3333333333333333 0.3333333333333333 0.3333333333333333 0.9830795262267343 0.008460236886632826 0.008460236886632826 0.3333333333333333 0.3333333333333333 0.3333333333333333 0.0028686173264486524 0.6637980493402181 0.3333333333333334 6.998978149190218e-05 6.998978149190218e-05 0.9998600204370162 0.3333333333333333 0.3333333333333333 0.3333333333333333 0.034030412659195854 0.965822524191888 0.0001470631489161446 0.3333333333333333 0.3333333333333333 0.3333333333333333 0.9830795262267343 0.008460236886632826 0.008460236886632826 0.0002478314745972738 0.9995043370508053 0.0002478314745972738 0.0001422434639128332 0.9341697249011407 0.06568803163494637 0.3333333333333333 0.3333333333333333 0.3333333333333333 0.9998314881283387 8.425593583067927e-05 8.425593583067927e-05 0.0017271157167530228 0.0017271157167530228 0.996545768566494 1.3218396730085891e-06 0.999997356320654 1.3218396730085891e-06 0.3333333333333333 0.3333333333333333 0.3333333333333333 0.008460236886632826 0.9830795262267343 0.008460236886632826 0.3333333333333333 0.3333333333333333 0.3333333333333333 0.0028686173264486524 0.9942627653471028 0.0028686173264486524 0.3333333333333333 0.3333333333333333 0.3333333333333333 0.004284490145672665 0.004284490145672665 0.9914310197086547 0.3333333333333333 0.3333333333333333 0.3333333333333333 0.008460236886632826 0.9830795262267343 0.008460236886632826 0.3333333333333333 0.3333333333333333 0.3333333333333333 0.3333333333333333 0.3333333333333333 0.3333333333333333 0.3333333333333333 0.3333333333333333 0.3333333333333333 0.008460236886632826 0.9830795262267343 0.008460236886632826 0.3333333333333333 0.3333333333333333 0.3333333333333333 0.9914310197086549 0.004284490145672667 0.004284490145672667 0.3333333333333333 0.3333333333333333 0.3333333333333333 0.00012575769008274856 0.9997484846198345 0.00012575769008274856 </TABLE>
    </DEFINITION>
    <DEFINITION>
      <FOR>KINKEDTUBE</FOR>
      <TABLE>0.9609695152423788 0.03903048475762119 </TABLE>
    </DEFINITION>
    <DEFINITION>
      <FOR>LVEDVOLUME</FOR>
      <GIVEN>CVP</GIVEN>
      <TABLE>0.9542853002970367 0.00557849742809534 0.04013620227486778 0.014707333925574972 0.7298391076892706 0.2554535583851545 0.0802589584184175 0.005929421730120555 0.9138116198514619 </TABLE>
    </DEFINITION>
    <DEFINITION>
      <FOR>LVFAILURE</FOR>
      <GIVEN>LVEDVOLUME</GIVEN>
      <TABLE>0.9981478498953131 0.0018521501046867448 0.4484929416253338 0.5515070583746662 0.9983242860514515 0.0016757139485485016 </TABLE>
    </DEFINITION>
    <DEFINITION>
      <FOR>MINVOL</FOR>
      <GIVEN>KINKEDTUBE</GIVEN>
      <GIVEN>VENTTUBE</GIVEN>
      <TABLE>0.9059833506763788 0.0418834547346514 0.010249739854318419 0.0418834547346514 0.036508178765733576 0.04857432711471819 0.023867451923940172 0.891050042195608 0.02212971078001753 0.8915425065731815 0.050175284837861524 0.036152497808939525 0.6049126137330628 0.051924461608954635 0.06135039602016103 0.2818125286378216 0.005868544600938967 0.005868544600938967 0.08098591549295775 0.9072769953051644 0.004120267260579065 0.05044543429844098 0.0433184855233853 0.9021158129175947 0.13405797101449277 0.018115942028985508 0.018115942028985508 0.8297101449275363 0.015494137353433836 0.06909547738693467 0.028894472361809045 0.8865159128978225 </TABLE>
    </DEFINITION>
    <DEFINITION>
      <FOR>MINVOLSET</FOR>
      <GIVEN>VENTMACH</GIVEN>
      <TABLE>0.8466300830167441 0.004080484029829745 0.1492894329534262 0.007407407407407408 0.8157931516422082 0.17679944095038436 0.0007727897710735756 0.0007727897710735756 0.9984544204578528 0.04757265789900958 0.04757265789900958 0.9048546842019809 </TABLE>
    </DEFINITION>
    <DEFINITION>
      <FOR>PAP</FOR>
      <GIVEN>PULMEMBOLUS</GIVEN>
      <TABLE>0.049242232674185336 0.048331900402906317 0.9024258669229084 0.8087201125175809 0.01547116736990155 0.17580872011251758 </TABLE>
    </DEFINITION>
    <DEFINITION>
      <FOR>PCWP</FOR>
      <GIVEN>LVEDVOLUME</GIVEN>
      <TABLE>0.9463144897192247 0.011864497772051322 0.04182101250872389 0.012081902581711814 0.9632455805672135 0.024672516851074657 0.01225710014947683 0.0398709778931634 0.9478719219573597 </TABLE>
    </DEFINITION>
    <DEFINITION>
      <FOR>PRESS</FOR>
      <GIVEN>INTUBATION</GIVEN>
      <GIVEN>KINKEDTUBE</GIVEN>
      <GIVEN>VENTLUNG</GIVEN>
      <GIVEN>VENTTUBE</GIVEN>
      <TABLE>0.25 0.25 0.25 0.25 0.25 0.25 0.25 0.25 0.25 0.25 0.25 0.25 0.006345177664974619 0.006345177664974619 0.006345177664974619 0.9809644670050761 0.25 0.25 0.25 0.25 0.8345830547330214 0.027629190944693863 0.11932849364791291 0.01845926067437196 0.25 0.25 0.25 0.25 0.012376237623762377 0.012376237623762377 0.012376237623762377 0.9628712871287128 0.6530387844862054 0.038884446221511396 0.3075769692123151 0.0004998000799680128 0.33191126279863475 0.33191126279863475 0.33191126279863475 0.004266211604095563 0.25 0.25 0.25 0.25 0.006345177664974619 0.006345177664974619 0.006345177664974619 0.9809644670050761 0.25 0.25 0.25 0.25 0.9020248825695063 0.00015868985654436972 0.07328297575218994 0.02453345182175956 0.0032133676092544992 0.25 0.0032133676092544992 0.7435732647814911 0.00023229882921390075 0.00023229882921390075 0.01807284891284148 0.9814625534287307 0.25 0.25 0.25 0.25 0.012376237623762377 0.012376237623762377 0.9628712871287128 0.012376237623762377 0.25 0.25 0.25 0.25 0.25 0.25 0.25 0.25 0.25 0.25 0.25 0.25 0.25 0.25 0.25 0.25 0.25 0.25 0.25 0.25 0.25 0.25 0.25 0.25 0.25 0.25 0.25 0.25 0.25 0.25 0.25 0.25 0.25 0.25 0.25 0.25 0.25 0.25 0.25 0.25 0.25 0.25 0.25 0.25 0.3984536082474227 0.20051546391752578 0.3984536082474227 0.0025773195876288664 0.25 0.25 0.25 0.25 0.006345177664974619 0.006345177664974619 0.9809644670050761 0.006345177664974619 0.002151462994836489 0.49784853700516357 0.49784853700516357 0.002151462994836489 0.46647875108412834 0.25 0.266652211621856 0.01686903729401561 0.9762669812088179 0.007911006263727323 0.015720328642316764 0.00010168388513788334 0.9981444829292431 0.0006185056902523505 0.0006185056902523505 0.0006185056902523505 0.013131717021982093 0.8950681698492265 0.0842858257426515 0.007514287386139772 0.3691989319092122 0.3230574098798398 0.29229639519359146 0.015447263017356475 0.9628712871287131 0.01237623762376238 0.01237623762376238 0.01237623762376238 0.9684519426132786 0.01108385310844742 0.01193560407775777 0.008528600200516377 0.0063451776649746175 0.9809644670050759 0.0063451776649746175 0.0063451776649746175 0.5197190426638917 0.24001040582726327 0.2200312174817898 0.020239334027055148 0.9628712871287131 0.01237623762376238 0.01237623762376238 0.01237623762376238 0.9964655984919886 0.0011781338360037697 0.0011781338360037697 0.0011781338360037697 0.0018463810930576074 0.7108567208271788 0.14364844903988183 0.14364844903988183 0.40624866852888 0.2856672353291056 0.3003922407402042 0.00769185540181029 0.9809644670050759 0.0063451776649746175 0.0063451776649746175 0.0063451776649746175 0.9608977213327394 0.014892649023290029 0.005599868352273826 0.01860976129169651 0.25 0.25 0.25 0.25 0.49365482233502533 0.49365482233502533 0.006345177664974619 0.006345177664974619 0.25 0.25 0.25 0.25 0.25 0.25 0.25 0.25 0.25 0.25 0.25 0.25 0.01237623762376238 0.9628712871287131 0.01237623762376238 0.01237623762376238 0.25 0.25 0.25 0.25 0.25 0.25 0.25 0.25 0.25 0.25 0.25 0.25 0.5963917525773197 0.3984536082474227 0.0025773195876288664 0.0025773195876288664 0.25 0.25 0.25 0.25 0.012376237623762377 0.012376237623762377 0.012376237623762377 0.9628712871287128 0.0005197505197505199 0.798856548856549 0.08035343035343037 0.1202702702702703 0.4175910777702406 0.2796875623478712 0.22988907066757117 0.07283228921431707 0.0018463810930576072 0.0018463810930576072 0.0018463810930576072 0.9944608567208272 0.0001913362926679933 0.0001913362926679933 0.0001913362926679933 0.999425991121996 0.9152230402771764 0.08369423993070596 0.0005413598960589001 0.0005413598960589001 0.9872013651877132 0.004266211604095562 0.004266211604095562 0.004266211604095562 0.25 0.25 0.25 0.25 0.004266211604095562 0.9872013651877132 0.004266211604095562 0.004266211604095562 0.012376237623762377 0.012376237623762377 0.012376237623762377 0.9628712871287128 0.9873925068061016 5.401668035089235e-05 0.008350978782247958 0.004202497731299424 0.25 0.25 0.25 0.25 0.01237623762376238 0.9628712871287131 0.01237623762376238 0.01237623762376238 0.25 0.25 0.25 0.25 0.9903598971722367 0.0032133676092544997 0.0032133676092544997 0.0032133676092544997 0.25 0.25 0.25 0.25 0.25 0.25 0.25 0.25 0.25 0.25 0.25 0.25 0.9506226395835461 0.00012759007859548845 0.019725426150862514 0.029524344186996027 0.0021514629948364886 0.49784853700516346 0.1673838209982788 0.33261617900172114 0.010124934929724104 0.8396928682977617 0.09008328995314942 0.060098906819364924 0.25 0.25 0.25 0.25 0.25 0.25 0.25 0.25 0.25 0.25 0.25 0.25 0.9628712871287131 0.01237623762376238 0.01237623762376238 0.01237623762376238 0.25 0.25 0.25 0.25 0.25 0.25 0.25 0.25 0.25 0.25 0.25 0.25 0.9628712871287131 0.01237623762376238 0.01237623762376238 0.01237623762376238 0.25 0.25 0.25 0.25 0.25 0.25 0.25 0.25 0.012376237623762377 0.012376237623762377 0.9628712871287128 0.012376237623762377 0.25 0.25 0.25 0.25 0.012376237623762377 0.012376237623762377 0.012376237623762377 0.9628712871287128 0.0025773195876288664 0.0025773195876288664 0.0025773195876288664 0.9922680412371134 0.25 0.25 0.25 0.25 0.9628712871287131 0.01237623762376238 0.01237623762376238 0.01237623762376238 </TABLE>
    </DEFINITION>
    <DEFINITION>
      <FOR>PULMEMBOLUS</FOR>
      <TABLE>0.9881559220389805 0.01184407796101949 </TABLE>
    </DEFINITION>
    <DEFINITION>
      <FOR>PVSAT</FOR>
      <GIVEN>FIO2</GIVEN>
      <GIVEN>VENTALV</GIVEN>
      <TABLE>0.08517971442639094 0.026095519448547516 0.8887247661250615 0.030494216614090425 0.9390115667718191 0.030494216614090425 0.014245014245014244 0.9715099715099714 0.014245014245014244 0.0005621135469364813 0.9988757729061272 0.0005621135469364813 0.9761920714684534 0.011367950865438303 0.012439977666108321 0.006399290375720711 0.959830197047456 0.033770512576823154 0.006389391199517783 0.975647980711272 0.01796262808921037 3.1438829469501195e-05 0.9892227692578551 0.010745791912675507 </TABLE>
    </DEFINITION>
    <DEFINITION>
      <FOR>SAO2</FOR>
      <GIVEN>PVSAT</GIVEN>
      <GIVEN>SHUNT</GIVEN>
      <TABLE>0.010574712643678161 0.7554022988505747 0.23402298850574718 0.9769467378986563 0.012983649020560142 0.010069613080783552 0.008105934038735225 0.9815605469958542 0.010333518965410555 0.010363386368100571 0.9805460616774702 0.009090551954429385 0.01075268817204301 0.9784946236559139 0.01075268817204301 0.01310322786832854 0.007350591243208693 0.9795461808884628 </TABLE>
    </DEFINITION>
    <DEFINITION>
      <FOR>SHUNT</FOR>
      <GIVEN>INTUBATION</GIVEN>
      <GIVEN>PULMEMBOLUS</GIVEN>
      <TABLE>0.05319148936170212 0.9468085106382979 0.5 0.5 0.05032660604175435 0.9496733939582457 0.9292527821939586 0.07074721780604133 0.947898872565767 0.052101127434233 0.9528301886792453 0.04716981132075473 </TABLE>
    </DEFINITION>
    <DEFINITION>
      <FOR>STROKEVOLUME</FOR>
      <GIVEN>LVEDVOLUME</GIVEN>
      <GIVEN>LVFAILURE</GIVEN>
      <TABLE>0.018044910582224013 0.44015059835955356 0.5418044910582224 0.07246376811594203 0.855072463768116 0.07246376811594203 0.06961576634056431 0.0747199773146179 0.8556642563448178 0.0171797532572351 0.9386602098466506 0.044160036896114384 0.04883488183329787 0.06344515630787174 0.8877199618588304 0.023474178403755864 0.9530516431924881 0.023474178403755864 </TABLE>
    </DEFINITION>
    <DEFINITION>
      <FOR>TPR</FOR>
      <GIVEN>ARTCO2</GIVEN>
      <GIVEN>CATECHOL</GIVEN>
      <GIVEN>CO</GIVEN>
      <GIVEN>HR</GIVEN>
      <TABLE>0.2792997839484783 0.3119956619480625 0.4087045541034591 0.3333333333333333 0.3333333333333333 0.3333333333333333 0.2760449819647783 0.34479100360704434 0.3791640144281774 0.26083254082209834 0.3262846451725188 0.4128828140053829 0.3281325243185977 0.2657228161417702 0.4061446595396321 0.27615890991115405 0.2687013764213046 0.4551397136675413 0.2665334475211723 0.3237904925030246 0.40967605997580303 0.25188536953242835 0.4962292609351433 0.25188536953242835 0.2748045853894903 0.28100174693648544 0.4441936676740242 0.746809596733027 0.0852475752935171 0.16794282797345586 0.3333333333333333 0.3333333333333333 0.3333333333333333 0.6216628527841342 0.003813882532418002 0.3745232646834478 0.9849170437405733 0.007541478129713425 0.007541478129713425 0.8537012702584319 0.002190100744634253 0.14410862899693389 0.8658448895737032 0.03379558294812532 0.10035952747817153 0.9705014749262536 0.014749262536873153 0.014749262536873153 0.4926253687315634 0.4926253687315634 0.014749262536873156 0.8812761353335088 0.04751878819779513 0.07120507646869609 0.03081871221558319 0.4184630759594339 0.5507182118249829 0.3333333333333333 0.3333333333333333 0.3333333333333333 0.005065856129685917 0.33333333333333337 0.6616008105369807 0.08013396791820906 0.3656971619954169 0.554168870086374 0.0027824151363383415 0.36338341680578745 0.6338341680578743 0.04108241082410824 0.4396063960639606 0.5193111931119311 0.013371767155096484 0.40251421250700614 0.5841140203378974 0.007541478129713422 0.4962292609351432 0.4962292609351432 0.024738702158056992 0.46326791488081803 0.5119933829611248 0.8973886328725038 0.0015360983102918587 0.10107526881720431 0.9435028248587572 0.028248587570621472 0.028248587570621472 0.9961641733793632 0.0019179133103183737 0.0019179133103183737 0.9800399201596806 0.009980039920159679 0.009980039920159679 0.941248900615655 0.029375549692172372 0.029375549692172372 0.904258443465492 0.028839941262848758 0.06690161527165933 0.3333333333333333 0.3333333333333333 0.3333333333333333 0.9705014749262536 0.014749262536873153 0.014749262536873153 0.8917648485951264 0.05411757570243672 0.05411757570243672 0.09037624089323675 0.3578519389924256 0.5517718201143376 0.3333333333333333 0.3333333333333333 0.3333333333333333 0.3333333333333333 0.3333333333333333 0.3333333333333333 0.08102197037478874 0.5158564469629188 0.4031215826622925 0.0030581039755351682 0.10214067278287461 0.8948012232415903 0.11337406653088934 0.44331296673455534 0.44331296673455534 0.07496012759170655 0.3333333333333333 0.5917065390749602 0.3333333333333333 0.3333333333333333 0.3333333333333333 0.0007895152376440864 0.3333333333333333 0.6658771514290225 0.4273281114012184 0.14534377719756306 0.4273281114012184 0.3333333333333333 0.3333333333333333 0.3333333333333333 0.9849170437405733 0.007541478129713425 0.007541478129713425 0.9435028248587572 0.028248587570621472 0.028248587570621472 0.7915151515151516 0.0060606060606060615 0.20242424242424245 0.9101937352887922 0.03023718993300742 0.059569074778200254 0.3333333333333333 0.3333333333333333 0.3333333333333333 0.3333333333333333 0.3333333333333333 0.3333333333333333 0.8661967694566814 0.057386196769456686 0.07641703377386197 </TABLE>
    </DEFINITION>
    <DEFINITION>
      <FOR>VENTALV</FOR>
      <GIVEN>KINKEDTUBE</GIVEN>
      <GIVEN>MINVOL</GIVEN>
      <GIVEN>PULMEMBOLUS</GIVEN>
      <GIVEN>VENTTUBE</GIVEN>
      <TABLE>0.9309996217961772 0.04099874901812469 0.013069851336805051 0.014931777848893027 0.7271253935914058 0.04354201395320121 0.015882570846453045 0.21345002160893992 0.33121827411167515 0.33121827411167515 0.006345177664974619 0.33121827411167515 0.9607530247560461 0.010469262490303088 0.008727220762959838 0.020050491990690963 0.9917218543046358 0.0027593818984547464 0.0027593818984547464 0.0027593818984547464 0.9456521739130435 0.018115942028985508 0.018115942028985508 0.018115942028985508 0.25 0.25 0.25 0.25 0.8504415011037527 0.0027593818984547464 0.14403973509933773 0.0027593818984547464 0.758411214953271 0.20015576323987538 0.04065420560747664 0.000778816199376947 0.02400495767270006 0.7184532996585754 0.06591132313736495 0.19163041953135962 0.000157410905427528 0.918933383704823 0.03239516433698526 0.048514041052764134 0.14294248844989646 0.7241118368647443 0.09196272104508524 0.04098295364027402 0.25 0.25 0.25 0.25 0.25 0.7404214559386973 0.004789272030651341 0.004789272030651341 0.006345177664974619 0.9809644670050761 0.006345177664974619 0.006345177664974619 0.018115942028985508 0.9456521739130435 0.018115942028985508 0.018115942028985508 0.6613110539845758 0.33226221079691515 0.003213367609254499 0.003213367609254499 0.036686982192172174 0.03059232454051995 0.5547328825826112 0.37798781068469667 0.0027593818984547464 0.14403973509933773 0.8504415011037527 0.0027593818984547464 0.0696877121520706 0.034928716904276985 0.808316361167685 0.08706720977596741 0.25 0.25 0.25 0.25 0.009398496240601503 0.009398496240601503 0.9718045112781954 0.009398496240601503 0.25 0.25 0.25 0.25 0.009398496240601503 0.009398496240601503 0.9718045112781954 0.009398496240601503 0.6786604361370716 0.04065420560747664 0.04065420560747664 0.2400311526479751 0.008001780298875964 0.029059298235769724 0.013715060359273496 0.9492238611060808 0.20076923076923076 0.3976923076923077 0.20076923076923076 0.20076923076923076 0.028334561532792926 0.009469417833456154 0.01135593220338983 0.950840088430361 0.25 0.25 0.25 0.25 0.013227245084127306 0.013227245084127306 0.0002533954996959254 0.9732921143320494 0.25 0.25 0.25 0.25 0.0024177949709864605 0.0024177949709864605 0.0024177949709864605 0.9927466150870407 0.25 0.25 0.25 0.25 0.9456521739130435 0.018115942028985508 0.018115942028985508 0.018115942028985508 0.018115942028985508 0.018115942028985508 0.018115942028985508 0.9456521739130435 0.018115942028985508 0.9456521739130435 0.018115942028985508 0.018115942028985508 0.25 0.25 0.25 0.25 0.25 0.25 0.25 0.25 0.25 0.25 0.25 0.25 0.25 0.25 0.25 0.25 0.25 0.25 0.25 0.25 0.0013873473917869034 0.4986126526082131 0.07241953385127636 0.42758046614872364 0.25 0.25 0.25 0.25 0.0038461538461538464 0.3976923076923077 0.20076923076923076 0.3976923076923077 0.25 0.25 0.25 0.25 0.25 0.25 0.25 0.25 0.25 0.25 0.25 0.25 0.25 0.25 0.25 0.25 0.009398496240601503 0.009398496240601503 0.4906015037593985 0.4906015037593985 0.0016170763260025874 0.08441138421733506 0.33279430789133246 0.5811772315653299 0.25 0.25 0.25 0.25 0.009398496240601503 0.009398496240601503 0.4906015037593985 0.4906015037593985 0.25 0.25 0.25 0.25 0.25 0.25 0.25 0.25 0.25 0.25 0.25 0.25 0.25 0.25 0.25 0.25 0.0008111615833874108 0.0008111615833874108 0.0008111615833874108 0.9975665152498377 0.008043437675026448 0.004060613603833468 0.02795755803099135 0.9599383906901487 0.0027593818984547464 0.0027593818984547464 0.0027593818984547464 0.9917218543046358 0.015910753474762254 0.031516703243111434 0.00030480370641307 0.9522677395757132 0.25 0.25 0.25 0.25 0.009398496240601503 0.009398496240601503 0.009398496240601503 0.9718045112781954 0.25 0.25 0.25 0.25 0.009398496240601503 0.009398496240601503 0.009398496240601503 0.9718045112781954 </TABLE>
    </DEFINITION>
    <DEFINITION>
      <FOR>VENTLUNG</FOR>
      <GIVEN>MINVOL</GIVEN>
      <GIVEN>PVSAT</GIVEN>
      <GIVEN>VENTALV</GIVEN>
      <GIVEN>VENTTUBE</GIVEN>
      <TABLE>1.38217764852881e-05 0.999958534670544 1.38217764852881e-05 1.38217764852881e-05 3.636575218921829e-05 0.9887193436709046 3.636575218921829e-05 0.011207924824717075 0.0063451776649746175 0.9809644670050759 0.0063451776649746175 0.0063451776649746175 6.24784449364969e-06 0.9999812564665188 6.24784449364969e-06 6.24784449364969e-06 0.25 0.25 0.25 0.25 0.25 0.25 0.25 0.25 0.25 0.25 0.25 0.25 0.9809644670050759 0.0063451776649746175 0.0063451776649746175 0.0063451776649746175 0.25 0.25 0.25 0.25 0.25 0.25 0.25 0.25 0.25 0.25 0.25 0.25 0.25 0.25 0.25 0.25 0.25 0.25 0.25 0.25 0.25 0.25 0.25 0.25 0.25 0.25 0.25 0.25 0.25 0.25 0.25 0.25 0.0009266123054114157 0.9972201630837656 0.0009266123054114157 0.0009266123054114157 0.0032133676092544997 0.9903598971722367 0.0032133676092544997 0.0032133676092544997 0.25 0.25 0.25 0.25 0.0005413598960589001 0.9983759203118234 0.0005413598960589001 0.0005413598960589001 0.903950953678474 0.0954297745850879 0.0003096358682189744 0.0003096358682189744 0.3633679735474729 0.4540623523854512 0.0005904581955597545 0.1819792158715163 0.9809644670050759 0.0063451776649746175 0.0063451776649746175 0.0063451776649746175 0.10038961038961042 0.8983116883116885 0.0006493506493506496 0.0006493506493506496 0.0009266123054114157 0.9972201630837656 0.0009266123054114157 0.0009266123054114157 0.0016170763260025876 0.25000000000000006 0.25000000000000006 0.49838292367399745 0.25 0.25 0.25 0.25 0.09128483703353805 0.8168398677373643 0.0005904581955597546 0.09128483703353805 0.1254055807916937 0.7483776768332251 0.0008111615833874107 0.1254055807916937 0.00012050515762074618 0.05564928178926058 0.00012050515762074618 0.944109707895498 0.49678663239074544 0.0032133676092544984 0.0032133676092544984 0.49678663239074544 0.00028274146120787157 0.6517190680841439 0.00028274146120787157 0.3477154489934404 0.00022429571146599675 0.9993271128656019 0.00022429571146599675 0.00022429571146599675 0.0012953367875647667 0.9961139896373056 0.0012953367875647667 0.0012953367875647667 0.25 0.25 0.25 0.25 0.00011831519167061053 0.9996450544249883 0.00011831519167061053 0.00011831519167061053 0.9809644670050759 0.0063451776649746175 0.0063451776649746175 0.0063451776649746175 0.25 0.25 0.25 0.25 0.25 0.25 0.25 0.25 0.0032133676092544997 0.9903598971722367 0.0032133676092544997 0.0032133676092544997 0.25 0.25 0.25 0.25 0.25 0.25 0.25 0.25 0.25 0.25 0.25 0.25 0.25 0.25 0.25 0.25 0.25 0.25 0.25 0.25 0.25 0.25 0.25 0.25 0.25 0.25 0.25 0.25 0.25 0.25 0.25 0.25 0.11131175960704998 0.11131175960704998 0.77701531349321 0.000361167292689974 0.0010803802938634398 0.6648660328435608 0.1670267934312878 0.1670267934312878 0.25 0.25 0.25 0.25 0.0004998000799680129 0.9217313074770093 0.07726909236305479 0.0004998000799680129 0.25 0.25 0.25 0.25 0.0032133676092544984 0.49678663239074544 0.0032133676092544984 0.49678663239074544 0.9809644670050759 0.0063451776649746175 0.0063451776649746175 0.0063451776649746175 0.25 0.25 0.25 0.25 0.25 0.25 0.25 0.25 0.25 0.25 0.25 0.25 0.25 0.25 0.25 0.25 0.25 0.25 0.25 0.25 0.25 0.25 0.25 0.25 0.25 0.25 0.25 0.25 0.25 0.25 0.25 0.25 0.25 0.25 0.25 0.25 0.25 0.25 0.25 0.25 0.0063451776649746175 0.9809644670050759 0.0063451776649746175 0.0063451776649746175 0.25 0.25 0.25 0.25 0.25 0.25 0.25 0.25 0.9961139896373056 0.0012953367875647667 0.0012953367875647667 0.0012953367875647667 0.2278505350589993 0.4261409831022435 2.746709442088378e-05 0.3459810147443363 0.9732846412607713 5.76010322104972e-05 5.76010322104972e-05 0.026600156674807605 0.2675991787049938 9.16623890885092e-05 9.16623890885092e-05 0.7322174965168291 0.006345177664974619 0.006345177664974619 0.9809644670050761 0.006345177664974619 0.0002827414612078715 0.0002827414612078715 0.9991517756163764 0.0002827414612078715 0.9951487710219921 0.001617076326002587 0.001617076326002587 0.001617076326002587 0.0006493506493506495 0.0006493506493506495 0.9980519480519481 0.0006493506493506495 0.25 0.25 0.25 0.25 0.028653774637411672 9.297136481963555e-05 9.297136481963555e-05 0.9711602826329491 0.9967588591184096 0.0010803802938634398 0.0010803802938634398 0.0010803802938634398 0.16702679343128782 0.00108038029386344 0.00108038029386344 0.8308124459809854 0.006345177664974619 0.006345177664974619 0.9809644670050761 0.006345177664974619 0.0032133676092544984 0.0032133676092544984 0.49678663239074544 0.49678663239074544 0.25 0.25 0.25 0.25 0.006345177664974619 0.006345177664974619 0.9809644670050761 0.006345177664974619 0.25 0.25 0.25 0.25 0.3633679735474729 0.4540623523854512 0.0005904581955597545 0.1819792158715163 0.9935456110154907 0.0021514629948364895 0.0021514629948364895 0.0021514629948364895 0.33261617900172114 0.0021514629948364886 0.0021514629948364886 0.6630808950086058 0.25 0.25 0.25 0.25 0.25 0.25 0.25 0.25 0.25 0.25 0.25 0.25 0.25 0.25 0.25 0.25 0.25 0.25 0.25 0.25 0.25 0.25 0.25 0.25 0.25 0.25 0.25 0.25 0.25 0.25 0.25 0.25 0.001617076326002587 0.9951487710219921 0.001617076326002587 0.001617076326002587 0.001295336787564767 0.3992227979274612 0.001295336787564767 0.5981865284974094 0.25 0.25 0.25 0.25 0.0008111615833874107 0.8729720960415314 0.0008111615833874107 0.1254055807916937 0.25 0.25 0.25 0.25 0.25 0.25 0.25 0.25 0.25 0.25 0.25 0.25 0.25 0.25 0.25 0.25 0.25 0.25 0.25 0.25 0.25 0.25 0.25 0.25 0.25 0.25 0.25 0.25 0.006345177664974619 0.006345177664974619 0.006345177664974619 0.9809644670050761 0.25 0.25 0.25 0.25 0.25 0.25 0.25 0.25 0.25 0.25 0.25 0.25 0.25 0.25 0.25 0.25 0.25 0.25 0.25 0.25 0.25 0.25 0.25 0.25 0.25 0.25 0.25 0.25 0.25 0.25 0.25 0.25 0.9903598971722367 0.0032133676092544997 0.0032133676092544997 0.0032133676092544997 0.16702679343128785 0.4989196197061366 0.00108038029386344 0.3329732065687122 0.9809644670050759 0.0063451776649746175 0.0063451776649746175 0.0063451776649746175 0.49838292367399745 0.0016170763260025876 0.0016170763260025876 0.49838292367399745 0.006345177664974619 0.006345177664974619 0.006345177664974619 0.9809644670050761 6.851192107426693e-05 6.851192107426693e-05 6.851192107426693e-05 0.9997944642367772 0.0012953367875647669 0.0012953367875647669 0.0012953367875647669 0.9961139896373057 6.998488326521471e-05 6.998488326521471e-05 6.998488326521471e-05 0.9997900453502043 0.006345177664974619 0.006345177664974619 0.006345177664974619 0.9809644670050761 9.431826756206142e-05 0.014581604165094696 9.431826756206142e-05 0.9852297592997812 0.25 0.25 0.25 0.25 0.0005904581955597545 0.0005904581955597545 0.0005904581955597545 0.9982286254133207 0.25 0.25 0.25 0.25 0.006345177664974619 0.006345177664974619 0.006345177664974619 0.9809644670050761 0.25 0.25 0.25 0.25 0.25 0.25 0.25 0.25 0.25 0.25 0.25 0.25 0.25 0.25 0.25 0.25 0.25 0.25 0.25 0.25 0.25 0.25 0.25 0.25 0.25 0.25 0.25 0.25 0.0032133676092544992 0.0032133676092544992 0.0032133676092544992 0.9903598971722365 0.006345177664974619 0.006345177664974619 0.006345177664974619 0.9809644670050761 0.0032133676092544992 0.0032133676092544992 0.0032133676092544992 0.9903598971722365 0.25 0.25 0.25 0.25 0.25 0.25 0.25 0.25 0.25 0.25 0.25 0.25 0.25 0.25 0.25 0.25 0.00043327556325823227 0.3331889081455806 0.6659445407279029 0.00043327556325823227 0.00012759007859548842 0.11771460651219762 0.01972542615086251 0.8624323772583444 0.006345177664974619 0.006345177664974619 0.006345177664974619 0.9809644670050761 0.0004641663572224286 0.7847196435202377 0.0004641663572224286 0.2143520237653175 0.25 0.25 0.25 0.25 0.0063451776649746175 0.9809644670050759 0.0063451776649746175 0.0063451776649746175 0.25 0.25 0.25 0.25 0.25 0.25 0.25 0.25 0.25 0.25 0.25 0.25 0.006345177664974619 0.006345177664974619 0.006345177664974619 0.9809644670050761 0.25 0.25 0.25 0.25 0.25 0.25 0.25 0.25 0.25 0.25 0.25 0.25 0.25 0.25 0.25 0.25 0.25 0.25 0.25 0.25 0.25 0.25 0.25 0.25 0.006345177664974619 0.006345177664974619 0.9809644670050761 0.006345177664974619 0.25 0.25 0.25 0.25 0.25 0.25 0.25 0.25 0.25 0.25 0.25 0.25 0.0063451776649746175 0.9809644670050759 0.0063451776649746175 0.0063451776649746175 0.00571796313282244 0.6874352753202947 3.698553126017102e-05 0.30680977601562265 0.49678663239074544 0.0032133676092544984 0.0032133676092544984 0.49678663239074544 0.1432542624166049 0.28558191252779835 0.0009266123054114159 0.5702372127501855 0.006345177664974619 0.006345177664974619 0.9809644670050761 0.006345177664974619 7.31293511963962e-05 0.011305797694962852 0.34828584800795653 0.6403352249458844 0.006345177664974619 0.006345177664974619 0.9809644670050761 0.006345177664974619 0.00108038029386344 0.00108038029386344 0.33297320656871215 0.6648660328435609 0.00022429571146599677 0.00022429571146599677 0.00022429571146599677 0.999327112865602 1.073258937885783e-06 0.016816035690582026 0.0006604835503749108 0.9825224075001052 0.0008111615833874107 0.0008111615833874107 0.1254055807916937 0.8729720960415314 1.138132915714429e-05 0.0017595534876945072 1.138132915714429e-05 0.9982176838539912 0.0063451776649746175 0.9809644670050759 0.0063451776649746175 0.0063451776649746175 0.006345177664974619 0.006345177664974619 0.006345177664974619 0.9809644670050761 0.25 0.25 0.25 0.25 0.0032133676092544992 0.0032133676092544992 0.0032133676092544992 0.9903598971722365 0.25 0.25 0.25 0.25 0.0021514629948364895 0.6630808950086059 0.0021514629948364895 0.33261617900172125 0.25 0.25 0.25 0.25 0.25 0.25 0.25 0.25 0.25 0.25 0.25 0.25 0.006345177664974619 0.006345177664974619 0.006345177664974619 0.9809644670050761 0.25 0.25 0.25 0.25 0.25 0.25 0.25 0.25 0.006345177664974619 0.006345177664974619 0.006345177664974619 0.9809644670050761 9.713264433910948e-05 0.029936280985313538 9.713264433910948e-05 0.9698694537260082 0.25 0.25 0.25 0.25 0.002151462994836489 0.002151462994836489 0.002151462994836489 0.9935456110154905 </TABLE>
    </DEFINITION>
    <DEFINITION>
      <FOR>VENTMACH</FOR>
      <GIVEN>DISCONNECT</GIVEN>
      <GIVEN>VENTTUBE</GIVEN>
      <TABLE>0.8476777347728661 0.001884294153595437 0.14203503768588308 0.008402933387655328 0.00016002075944987457 0.0005752097569414411 0.9989663523916616 0.0002984170919470634 0.03643578643578643 0.1056998556998557 0.8329725829725829 0.024891774891774892 0.009611972080918017 0.5083698095350763 0.07207500295752987 0.4099432154264758 0.08486238532110092 0.011467889908256881 0.8922018348623854 0.011467889908256881 0.18984962406015038 0.009398496240601503 0.6109022556390977 0.18984962406015038 0.7915860735009671 0.0024177949709864605 0.15715667311411993 0.0488394584139265 0.002324484570812559 0.047601401428378924 0.8809122759735885 0.06916183802722005 </TABLE>
    </DEFINITION>
    <DEFINITION>
      <FOR>VENTTUBE</FOR>
      <GIVEN>DISCONNECT</GIVEN>
      <TABLE>0.06831338714166435 0.8044113554133037 0.00964375173949346 0.11763150570553854 0.01332518337408313 0.01625916870415648 0.06320293398533007 0.9072127139364303 </TABLE>
    </DEFINITION>
  </NETWORK>
</BIF>
