<?xml version='1.0' encoding='utf-8'?>
<BIF VERSION="0.3">
  <NETWORK>
    <NAME>UNTITLED</NAME>
    <VARIABLE TYPE="nature">
      <NAME>aar_mod</NAME>
      <OUTCOME>x0</OUTCOME>
      <OUTCOME>x10</OUTCOME>
      <OUTCOME>x15</OUTCOME>
      <OUTCOME>x20</OUTCOME>
      <OUTCOME>x25</OUTCOME>
      <OUTCOME>x5</OUTCOME>
      <OUTCOME>x_10</OUTCOME>
      <OUTCOME>x_15</OUTCOME>
      <OUTCOME>x_20</OUTCOME>
      <OUTCOME>x_25</OUTCOME>
      <OUTCOME>x_5</OUTCOME>
      <PROPERTY>weight = None</PROPERTY>
    </VARIABLE>
    <VARIABLE TYPE="nature">
      <NAME>aks_m2</NAME>
      <OUTCOME>x350_450</OUTCOME>
      <OUTCOME>x450_550</OUTCOME>
      <OUTCOME>x550_650</OUTCOME>
      <OUTCOME>x650_750</OUTCOME>
      <OUTCOME>x750_950</OUTCOME>
      <OUTCOME>x950_1150</OUTCOME>
      <OUTCOME>x_1150</OUTCOME>
      <OUTCOME>x_350</OUTCOME>
      <PROPERTY>weight = None</PROPERTY>
    </VARIABLE>
    <VARIABLE TYPE="nature">
      <NAME>aks_vgt</NAME>
      <OUTCOME>x550_600</OUTCOME>
      <OUTCOME>x600_650</OUTCOME>
      <OUTCOME>x650_700</OUTCOME>
      <OUTCOME>x700_750</OUTCOME>
      <OUTCOME>x750_850</OUTCOME>
      <OUTCOME>x850_950</OUTCOME>
      <OUTCOME>x950_1050</OUTCOME>
      <OUTCOME>x_1050</OUTCOME>
      <OUTCOME>x_550</OUTCOME>
      <PROPERTY>weight = None</PROPERTY>
    </VARIABLE>
    <VARIABLE TYPE="nature">
      <NAME>antplnt</NAME>
      <OUTCOME>x175_225</OUTCOME>
      <OUTCOME>x225_275</OUTCOME>
      <OUTCOME>x275_325</OUTCOME>
      <OUTCOME>x325_375</OUTCOME>
      <OUTCOME>x375_425</OUTCOME>
      <OUTCOME>x_175</OUTCOME>
      <OUTCOME>x_425</OUTCOME>
      <PROPERTY>weight = None</PROPERTY>
    </VARIABLE>
    <VARIABLE TYPE="nature">
      <NAME>bgbyg</NAME>
      <OUTCOME>x3_0_3_5</OUTCOME>
      <OUTCOME>x3_5_4_0</OUTCOME>
      <OUTCOME>x4_0_4_5</OUTCOME>
      <OUTCOME>x4_5_5_0</OUTCOME>
      <OUTCOME>x_3_0</OUTCOME>
      <OUTCOME>x_5_0</OUTCOME>
      <PROPERTY>weight = None</PROPERTY>
    </VARIABLE>
    <VARIABLE TYPE="nature">
      <NAME>dg25</NAME>
      <OUTCOME>x11_5_27_5</OUTCOME>
      <OUTCOME>x27_5_32_5</OUTCOME>
      <OUTCOME>x32_5_37_5</OUTCOME>
      <OUTCOME>x37_5_47_5</OUTCOME>
      <OUTCOME>x47_5_57_5</OUTCOME>
      <OUTCOME>x_22_5</OUTCOME>
      <OUTCOME>x_57_5</OUTCOME>
      <PROPERTY>weight = None</PROPERTY>
    </VARIABLE>
    <VARIABLE TYPE="nature">
      <NAME>dgv1059</NAME>
      <OUTCOME>x25_40</OUTCOME>
      <OUTCOME>x41_50</OUTCOME>
      <OUTCOME>x51_60</OUTCOME>
      <OUTCOME>x61_70</OUTCOME>
      <OUTCOME>x_25</OUTCOME>
      <OUTCOME>x_70</OUTCOME>
      <PROPERTY>weight = None</PROPERTY>
    </VARIABLE>
    <VARIABLE TYPE="nature">
      <NAME>dgv5980</NAME>
      <OUTCOME>x0_5</OUTCOME>
      <OUTCOME>x10_15</OUTCOME>
      <OUTCOME>x15_25</OUTCOME>
      <OUTCOME>x25_35</OUTCOME>
      <OUTCOME>x5_10</OUTCOME>
      <OUTCOME>x_35</OUTCOME>
      <PROPERTY>weight = None</PROPERTY>
    </VARIABLE>
    <VARIABLE TYPE="nature">
      <NAME>exptgens</NAME>
      <OUTCOME>x30_40</OUTCOME>
      <OUTCOME>x40_50</OUTCOME>
      <OUTCOME>x50_60</OUTCOME>
      <OUTCOME>x60_70</OUTCOME>
      <OUTCOME>x_30</OUTCOME>
      <OUTCOME>x_70</OUTCOME>
      <PROPERTY>weight = None</PROPERTY>
    </VARIABLE>
    <VARIABLE TYPE="nature">
      <NAME>forfrugt</NAME>
      <OUTCOME>Beets</OUTCOME>
      <OUTCOME>Cer_rotation</OUTCOME>
      <OUTCOME>Cereals</OUTCOME>
      <OUTCOME>Clovergrass</OUTCOME>
      <OUTCOME>Other</OUTCOME>
      <PROPERTY>weight = None</PROPERTY>
    </VARIABLE>
    <VARIABLE TYPE="nature">
      <NAME>frspdag</NAME>
      <OUTCOME>x15_17</OUTCOME>
      <OUTCOME>x17_19</OUTCOME>
      <OUTCOME>x19_21</OUTCOME>
      <OUTCOME>x21_23</OUTCOME>
      <OUTCOME>x23_25</OUTCOME>
      <OUTCOME>x25_27</OUTCOME>
      <OUTCOME>x_15</OUTCOME>
      <OUTCOME>x_27</OUTCOME>
      <PROPERTY>weight = None</PROPERTY>
    </VARIABLE>
    <VARIABLE TYPE="nature">
      <NAME>jordinf</NAME>
      <OUTCOME>x90__93</OUTCOME>
      <OUTCOME>x93__95</OUTCOME>
      <OUTCOME>x_80__85</OUTCOME>
      <OUTCOME>x_94__90</OUTCOME>
      <OUTCOME>x_95__97</OUTCOME>
      <OUTCOME>x_97__98</OUTCOME>
      <OUTCOME>x_98__99</OUTCOME>
      <OUTCOME>x_99_1_00</OUTCOME>
      <OUTCOME>x__80</OUTCOME>
      <PROPERTY>weight = None</PROPERTY>
    </VARIABLE>
    <VARIABLE TYPE="nature">
      <NAME>jordn</NAME>
      <OUTCOME>x0_15</OUTCOME>
      <OUTCOME>x105_120</OUTCOME>
      <OUTCOME>x15_30</OUTCOME>
      <OUTCOME>x30_45</OUTCOME>
      <OUTCOME>x45_60</OUTCOME>
      <OUTCOME>x60_75</OUTCOME>
      <OUTCOME>x75_90</OUTCOME>
      <OUTCOME>x90_105</OUTCOME>
      <OUTCOME>x_120</OUTCOME>
      <PROPERTY>weight = None</PROPERTY>
    </VARIABLE>
    <VARIABLE TYPE="nature">
      <NAME>jordtype</NAME>
      <OUTCOME>JB_2</OUTCOME>
      <OUTCOME>JB_3</OUTCOME>
      <OUTCOME>JB_4</OUTCOME>
      <OUTCOME>JB_5</OUTCOME>
      <OUTCOME>JB_6</OUTCOME>
      <OUTCOME>JB_8</OUTCOME>
      <OUTCOME>JB_9</OUTCOME>
      <OUTCOME>Jb_1_</OUTCOME>
      <OUTCOME>Jb_7</OUTCOME>
      <PROPERTY>weight = None</PROPERTY>
    </VARIABLE>
    <VARIABLE TYPE="nature">
      <NAME>keraks</NAME>
      <OUTCOME>x13_15</OUTCOME>
      <OUTCOME>x15_17</OUTCOME>
      <OUTCOME>x17_19</OUTCOME>
      <OUTCOME>x19_21</OUTCOME>
      <OUTCOME>x21_23</OUTCOME>
      <OUTCOME>x_13</OUTCOME>
      <OUTCOME>x_23</OUTCOME>
      <PROPERTY>weight = None</PROPERTY>
    </VARIABLE>
    <VARIABLE TYPE="nature">
      <NAME>komm</NAME>
      <OUTCOME>state0</OUTCOME>
      <OUTCOME>state1</OUTCOME>
      <OUTCOME>state2</OUTCOME>
      <OUTCOME>state3</OUTCOME>
      <OUTCOME>state4</OUTCOME>
      <PROPERTY>weight = None</PROPERTY>
    </VARIABLE>
    <VARIABLE TYPE="nature">
      <NAME>ksort</NAME>
      <OUTCOME>x85_90</OUTCOME>
      <OUTCOME>x90_95</OUTCOME>
      <OUTCOME>x95_98</OUTCOME>
      <OUTCOME>x_85</OUTCOME>
      <OUTCOME>x_98</OUTCOME>
      <PROPERTY>weight = None</PROPERTY>
    </VARIABLE>
    <VARIABLE TYPE="nature">
      <NAME>markgrm</NAME>
      <OUTCOME>x75_80</OUTCOME>
      <OUTCOME>x80_85</OUTCOME>
      <OUTCOME>x85_90</OUTCOME>
      <OUTCOME>x90_93</OUTCOME>
      <OUTCOME>x94_95</OUTCOME>
      <OUTCOME>x95_97</OUTCOME>
      <OUTCOME>x97_98</OUTCOME>
      <OUTCOME>x98__99</OUTCOME>
      <OUTCOME>x99_100</OUTCOME>
      <OUTCOME>x_75</OUTCOME>
      <PROPERTY>weight = None</PROPERTY>
    </VARIABLE>
    <VARIABLE TYPE="nature">
      <NAME>mod_nmin</NAME>
      <OUTCOME>x0_15</OUTCOME>
      <OUTCOME>x15_30</OUTCOME>
      <OUTCOME>x30_45</OUTCOME>
      <OUTCOME>x45_60</OUTCOME>
      <OUTCOME>x60_75</OUTCOME>
      <OUTCOME>x_75</OUTCOME>
      <PROPERTY>weight = None</PROPERTY>
    </VARIABLE>
    <VARIABLE TYPE="nature">
      <NAME>nedbarea</NAME>
      <OUTCOME>x1___375_</OUTCOME>
      <OUTCOME>x2__375_500_</OUTCOME>
      <OUTCOME>x3___500_</OUTCOME>
      <PROPERTY>weight = None</PROPERTY>
    </VARIABLE>
    <VARIABLE TYPE="nature">
      <NAME>ngodn</NAME>
      <OUTCOME>x105_120</OUTCOME>
      <OUTCOME>x120_135</OUTCOME>
      <OUTCOME>x135_150</OUTCOME>
      <OUTCOME>x150_165</OUTCOME>
      <OUTCOME>x45_60</OUTCOME>
      <OUTCOME>x60_75</OUTCOME>
      <OUTCOME>x75_90</OUTCOME>
      <OUTCOME>x90_105</OUTCOME>
      <OUTCOME>x_45</OUTCOME>
      <PROPERTY>weight = None</PROPERTY>
    </VARIABLE>
    <VARIABLE TYPE="nature">
      <NAME>ngodnn</NAME>
      <OUTCOME>x105_120</OUTCOME>
      <OUTCOME>x120_135</OUTCOME>
      <OUTCOME>x135_150</OUTCOME>
      <OUTCOME>x150_165</OUTCOME>
      <OUTCOME>x45_60</OUTCOME>
      <OUTCOME>x60_75</OUTCOME>
      <OUTCOME>x75_90</OUTCOME>
      <OUTCOME>x90_105</OUTCOME>
      <OUTCOME>x_165</OUTCOME>
      <OUTCOME>x_45</OUTCOME>
      <PROPERTY>weight = None</PROPERTY>
    </VARIABLE>
    <VARIABLE TYPE="nature">
      <NAME>ngodnt</NAME>
      <OUTCOME>x105_120</OUTCOME>
      <OUTCOME>x120_135</OUTCOME>
      <OUTCOME>x135_150</OUTCOME>
      <OUTCOME>x45_60</OUTCOME>
      <OUTCOME>x60_75</OUTCOME>
      <OUTCOME>x75_90</OUTCOME>
      <OUTCOME>x90_105</OUTCOME>
      <OUTCOME>x_165</OUTCOME>
      <OUTCOME>x_45</OUTCOME>
      <PROPERTY>weight = None</PROPERTY>
    </VARIABLE>
    <VARIABLE TYPE="nature">
      <NAME>ngtilg</NAME>
      <OUTCOME>x105_120</OUTCOME>
      <OUTCOME>x120_135</OUTCOME>
      <OUTCOME>x135_150</OUTCOME>
      <OUTCOME>x150_165</OUTCOME>
      <OUTCOME>x45_60</OUTCOME>
      <OUTCOME>x60_75</OUTCOME>
      <OUTCOME>x75_90</OUTCOME>
      <OUTCOME>x90_105</OUTCOME>
      <OUTCOME>x_165</OUTCOME>
      <OUTCOME>x_45</OUTCOME>
      <PROPERTY>weight = None</PROPERTY>
    </VARIABLE>
    <VARIABLE TYPE="nature">
      <NAME>nmin</NAME>
      <OUTCOME>x0_15</OUTCOME>
      <OUTCOME>x15_30</OUTCOME>
      <OUTCOME>x30_45</OUTCOME>
      <OUTCOME>x45_60</OUTCOME>
      <OUTCOME>x60_75</OUTCOME>
      <PROPERTY>weight = None</PROPERTY>
    </VARIABLE>
    <VARIABLE TYPE="nature">
      <NAME>nopt</NAME>
      <OUTCOME>x120_135</OUTCOME>
      <OUTCOME>x135_150</OUTCOME>
      <OUTCOME>x150_165</OUTCOME>
      <OUTCOME>x165_180</OUTCOME>
      <OUTCOME>x_120</OUTCOME>
      <OUTCOME>x_180</OUTCOME>
      <PROPERTY>weight = None</PROPERTY>
    </VARIABLE>
    <VARIABLE TYPE="nature">
      <NAME>nplac</NAME>
      <OUTCOME>Placed</OUTCOME>
      <OUTCOME>Top_dressed</OUTCOME>
      <OUTCOME>worked_in_solil</OUTCOME>
      <PROPERTY>weight = None</PROPERTY>
    </VARIABLE>
    <VARIABLE TYPE="nature">
      <NAME>nprot</NAME>
      <OUTCOME>x100_120</OUTCOME>
      <OUTCOME>x120_140</OUTCOME>
      <OUTCOME>x140_160</OUTCOME>
      <OUTCOME>x40_60</OUTCOME>
      <OUTCOME>x60_80</OUTCOME>
      <OUTCOME>x80_100</OUTCOME>
      <OUTCOME>x_160</OUTCOME>
      <OUTCOME>x_40</OUTCOME>
      <PROPERTY>weight = None</PROPERTY>
    </VARIABLE>
    <VARIABLE TYPE="nature">
      <NAME>ntilg</NAME>
      <OUTCOME>x105_120</OUTCOME>
      <OUTCOME>x120_135</OUTCOME>
      <OUTCOME>x135_150</OUTCOME>
      <OUTCOME>x150_165</OUTCOME>
      <OUTCOME>x165_180</OUTCOME>
      <OUTCOME>x180_195</OUTCOME>
      <OUTCOME>x75_90</OUTCOME>
      <OUTCOME>x90_105</OUTCOME>
      <OUTCOME>x_195</OUTCOME>
      <OUTCOME>x_75</OUTCOME>
      <PROPERTY>weight = None</PROPERTY>
    </VARIABLE>
    <VARIABLE TYPE="nature">
      <NAME>partigerm</NAME>
      <OUTCOME>x80_85</OUTCOME>
      <OUTCOME>x85_90</OUTCOME>
      <OUTCOME>x90_93</OUTCOME>
      <OUTCOME>x93_95</OUTCOME>
      <OUTCOME>x95_97</OUTCOME>
      <OUTCOME>x97_98</OUTCOME>
      <OUTCOME>x98_99</OUTCOME>
      <OUTCOME>x99_100</OUTCOME>
      <OUTCOME>x_80</OUTCOME>
      <PROPERTY>weight = None</PROPERTY>
    </VARIABLE>
    <VARIABLE TYPE="nature">
      <NAME>pesticid</NAME>
      <OUTCOME>x_</OUTCOME>
      <OUTCOME>x_2</OUTCOME>
      <PROPERTY>weight = None</PROPERTY>
    </VARIABLE>
    <VARIABLE TYPE="nature">
      <NAME>potnmin</NAME>
      <OUTCOME>x0_15</OUTCOME>
      <OUTCOME>x15_30</OUTCOME>
      <OUTCOME>x30_45</OUTCOME>
      <OUTCOME>x45_60</OUTCOME>
      <OUTCOME>x60_75</OUTCOME>
      <OUTCOME>x75_90</OUTCOME>
      <OUTCOME>x90_105</OUTCOME>
      <OUTCOME>x_105</OUTCOME>
      <PROPERTY>weight = None</PROPERTY>
    </VARIABLE>
    <VARIABLE TYPE="nature">
      <NAME>protein</NAME>
      <OUTCOME>x10_0_10_5</OUTCOME>
      <OUTCOME>x10_5_11_0</OUTCOME>
      <OUTCOME>x11_0_11_5</OUTCOME>
      <OUTCOME>x11_5_12_0</OUTCOME>
      <OUTCOME>x9_0_9_5</OUTCOME>
      <OUTCOME>x9_5_10_0</OUTCOME>
      <OUTCOME>x_12_0</OUTCOME>
      <OUTCOME>x_9</OUTCOME>
      <PROPERTY>weight = None</PROPERTY>
    </VARIABLE>
    <VARIABLE TYPE="nature">
      <NAME>rokap</NAME>
      <OUTCOME>x112_5_137_5</OUTCOME>
      <OUTCOME>x137_5_162_5</OUTCOME>
      <OUTCOME>x162_5_187_5</OUTCOME>
      <OUTCOME>x187_5_212_5</OUTCOME>
      <OUTCOME>x37_5_62_5</OUTCOME>
      <OUTCOME>x62_5_87_5</OUTCOME>
      <OUTCOME>x87_5_112_5</OUTCOME>
      <PROPERTY>weight = None</PROPERTY>
    </VARIABLE>
    <VARIABLE TYPE="nature">
      <NAME>s2225</NAME>
      <OUTCOME>x0_1</OUTCOME>
      <OUTCOME>x1_5</OUTCOME>
      <OUTCOME>x5_10</OUTCOME>
      <PROPERTY>weight = None</PROPERTY>
    </VARIABLE>
    <VARIABLE TYPE="nature">
      <NAME>s2528</NAME>
      <OUTCOME>x0_5</OUTCOME>
      <OUTCOME>x10_15</OUTCOME>
      <OUTCOME>x15_20</OUTCOME>
      <OUTCOME>x20_25</OUTCOME>
      <OUTCOME>x25_30</OUTCOME>
      <OUTCOME>x30_35</OUTCOME>
      <OUTCOME>x35_40</OUTCOME>
      <OUTCOME>x40_45</OUTCOME>
      <OUTCOME>x45_50</OUTCOME>
      <OUTCOME>x50_55</OUTCOME>
      <OUTCOME>x55_60</OUTCOME>
      <OUTCOME>x5_10</OUTCOME>
      <OUTCOME>x60_65</OUTCOME>
      <OUTCOME>x65_70</OUTCOME>
      <OUTCOME>x70_75</OUTCOME>
      <OUTCOME>x75_80</OUTCOME>
      <OUTCOME>x80_85</OUTCOME>
      <OUTCOME>x85_90</OUTCOME>
      <OUTCOME>x90_95</OUTCOME>
      <OUTCOME>x95_100</OUTCOME>
      <PROPERTY>weight = None</PROPERTY>
    </VARIABLE>
    <VARIABLE TYPE="nature">
      <NAME>saakern</NAME>
      <OUTCOME>x175_225</OUTCOME>
      <OUTCOME>x225_275</OUTCOME>
      <OUTCOME>x275_325</OUTCOME>
      <OUTCOME>x325_375</OUTCOME>
      <OUTCOME>x375_424</OUTCOME>
      <OUTCOME>x_175</OUTCOME>
      <OUTCOME>x_450</OUTCOME>
      <PROPERTY>weight = None</PROPERTY>
    </VARIABLE>
    <VARIABLE TYPE="nature">
      <NAME>saamng</NAME>
      <OUTCOME>x110_130</OUTCOME>
      <OUTCOME>x130_150</OUTCOME>
      <OUTCOME>x150_170</OUTCOME>
      <OUTCOME>x170_190</OUTCOME>
      <OUTCOME>x190_210</OUTCOME>
      <OUTCOME>x210_230</OUTCOME>
      <OUTCOME>x230_250</OUTCOME>
      <OUTCOME>x50_70</OUTCOME>
      <OUTCOME>x70_90</OUTCOME>
      <OUTCOME>x90_110</OUTCOME>
      <PROPERTY>weight = None</PROPERTY>
    </VARIABLE>
    <VARIABLE TYPE="nature">
      <NAME>saatid</NAME>
      <OUTCOME>x11_4_20_4</OUTCOME>
      <OUTCOME>x21_4_26_4</OUTCOME>
      <OUTCOME>x26_3_10_4</OUTCOME>
      <OUTCOME>x_26_3</OUTCOME>
      <OUTCOME>x_26_4</OUTCOME>
      <PROPERTY>weight = None</PROPERTY>
    </VARIABLE>
    <VARIABLE TYPE="nature">
      <NAME>slt22</NAME>
      <OUTCOME>x0_1</OUTCOME>
      <OUTCOME>x1_2</OUTCOME>
      <OUTCOME>x2_3</OUTCOME>
      <OUTCOME>x3_5</OUTCOME>
      <PROPERTY>weight = None</PROPERTY>
    </VARIABLE>
    <VARIABLE TYPE="nature">
      <NAME>sort</NAME>
      <OUTCOME>Abelone</OUTCOME>
      <OUTCOME>Alexis</OUTCOME>
      <OUTCOME>Alis</OUTCOME>
      <OUTCOME>Amber</OUTCOME>
      <OUTCOME>Ariel</OUTCOME>
      <OUTCOME>Baracuda</OUTCOME>
      <OUTCOME>Baronesse</OUTCOME>
      <OUTCOME>Bartok</OUTCOME>
      <OUTCOME>Blenheim</OUTCOME>
      <OUTCOME>Brewster</OUTCOME>
      <OUTCOME>Caminant</OUTCOME>
      <OUTCOME>Canut</OUTCOME>
      <OUTCOME>Caruso</OUTCOME>
      <OUTCOME>Chariot</OUTCOME>
      <OUTCOME>Collie</OUTCOME>
      <OUTCOME>Cooper</OUTCOME>
      <OUTCOME>Cork</OUTCOME>
      <OUTCOME>Delibes</OUTCOME>
      <OUTCOME>Derkado</OUTCOME>
      <OUTCOME>Digger</OUTCOME>
      <OUTCOME>Etna</OUTCOME>
      <OUTCOME>Evelyn</OUTCOME>
      <OUTCOME>G_363ta</OUTCOME>
      <OUTCOME>Give</OUTCOME>
      <OUTCOME>Goldie</OUTCOME>
      <OUTCOME>Heron</OUTCOME>
      <OUTCOME>Jarek</OUTCOME>
      <OUTCOME>Jill</OUTCOME>
      <OUTCOME>Korinna</OUTCOME>
      <OUTCOME>Krona</OUTCOME>
      <OUTCOME>Lamba</OUTCOME>
      <OUTCOME>Lenka</OUTCOME>
      <OUTCOME>Limbo</OUTCOME>
      <OUTCOME>Loma</OUTCOME>
      <OUTCOME>Lysimax</OUTCOME>
      <OUTCOME>Maresi</OUTCOME>
      <OUTCOME>Marielle</OUTCOME>
      <OUTCOME>Marina</OUTCOME>
      <OUTCOME>Maud</OUTCOME>
      <OUTCOME>Meltan</OUTCOME>
      <OUTCOME>Mentor</OUTCOME>
      <OUTCOME>Mie</OUTCOME>
      <OUTCOME>Miralix</OUTCOME>
      <OUTCOME>Nevada</OUTCOME>
      <OUTCOME>Optic</OUTCOME>
      <OUTCOME>Peel</OUTCOME>
      <OUTCOME>Polygena</OUTCOME>
      <OUTCOME>Portia</OUTCOME>
      <OUTCOME>Princesse</OUTCOME>
      <OUTCOME>Prisma</OUTCOME>
      <OUTCOME>Ragtime</OUTCOME>
      <OUTCOME>Reggae</OUTCOME>
      <OUTCOME>Rima</OUTCOME>
      <OUTCOME>Saxo</OUTCOME>
      <OUTCOME>Segu</OUTCOME>
      <OUTCOME>Sehila</OUTCOME>
      <OUTCOME>Selim</OUTCOME>
      <OUTCOME>Semal</OUTCOME>
      <OUTCOME>Senor</OUTCOME>
      <OUTCOME>Shamu</OUTCOME>
      <OUTCOME>Teal</OUTCOME>
      <OUTCOME>Texane</OUTCOME>
      <OUTCOME>Tofta</OUTCOME>
      <OUTCOME>Trebon</OUTCOME>
      <OUTCOME>Vintage</OUTCOME>
      <OUTCOME>andre</OUTCOME>
      <OUTCOME>x_321rja</OUTCOME>
      <PROPERTY>weight = None</PROPERTY>
    </VARIABLE>
    <VARIABLE TYPE="nature">
      <NAME>sorttkv</NAME>
      <OUTCOME>x1</OUTCOME>
      <OUTCOME>x2</OUTCOME>
      <OUTCOME>x3</OUTCOME>
      <OUTCOME>x4</OUTCOME>
      <OUTCOME>x5</OUTCOME>
      <OUTCOME>x6</OUTCOME>
      <OUTCOME>x7</OUTCOME>
      <OUTCOME>x8</OUTCOME>
      <OUTCOME>x9</OUTCOME>
      <PROPERTY>weight = None</PROPERTY>
    </VARIABLE>
    <VARIABLE TYPE="nature">
      <NAME>spndx</NAME>
      <OUTCOME>x8_9</OUTCOME>
      <OUTCOME>x9_10</OUTCOME>
      <OUTCOME>x_7</OUTCOME>
      <PROPERTY>weight = None</PROPERTY>
    </VARIABLE>
    <VARIABLE TYPE="nature">
      <NAME>srtprot</NAME>
      <OUTCOME>x1</OUTCOME>
      <OUTCOME>x2</OUTCOME>
      <OUTCOME>x3</OUTCOME>
      <OUTCOME>x4</OUTCOME>
      <OUTCOME>x5</OUTCOME>
      <OUTCOME>x6</OUTCOME>
      <OUTCOME>x7</OUTCOME>
      <OUTCOME>x8</OUTCOME>
      <OUTCOME>x9</OUTCOME>
      <PROPERTY>weight = None</PROPERTY>
    </VARIABLE>
    <VARIABLE TYPE="nature">
      <NAME>srtsize</NAME>
      <OUTCOME>x0</OUTCOME>
      <OUTCOME>x1</OUTCOME>
      <OUTCOME>x2</OUTCOME>
      <OUTCOME>x3</OUTCOME>
      <OUTCOME>x_1</OUTCOME>
      <OUTCOME>x_3</OUTCOME>
      <OUTCOME>x__1</OUTCOME>
      <PROPERTY>weight = None</PROPERTY>
    </VARIABLE>
    <VARIABLE TYPE="nature">
      <NAME>tkv</NAME>
      <OUTCOME>x35_40</OUTCOME>
      <OUTCOME>x40_42_5</OUTCOME>
      <OUTCOME>x42_5_45</OUTCOME>
      <OUTCOME>x45_47_5</OUTCOME>
      <OUTCOME>x47_5_50</OUTCOME>
      <OUTCOME>x50_55</OUTCOME>
      <OUTCOME>x_35</OUTCOME>
      <OUTCOME>x_55</OUTCOME>
      <PROPERTY>weight = None</PROPERTY>
    </VARIABLE>
    <VARIABLE TYPE="nature">
      <NAME>tkvs</NAME>
      <OUTCOME>x30_35</OUTCOME>
      <OUTCOME>x35_40</OUTCOME>
      <OUTCOME>x40_42</OUTCOME>
      <OUTCOME>x42_44</OUTCOME>
      <OUTCOME>x44_46</OUTCOME>
      <OUTCOME>x46_48</OUTCOME>
      <OUTCOME>x48_50</OUTCOME>
      <OUTCOME>x50_55</OUTCOME>
      <OUTCOME>x55_60</OUTCOME>
      <PROPERTY>weight = None</PROPERTY>
    </VARIABLE>
    <VARIABLE TYPE="nature">
      <NAME>udb</NAME>
      <OUTCOME>x30_40</OUTCOME>
      <OUTCOME>x40_50</OUTCOME>
      <OUTCOME>x50_55</OUTCOME>
      <OUTCOME>x55_60</OUTCOME>
      <OUTCOME>x60_65</OUTCOME>
      <OUTCOME>x65_70</OUTCOME>
      <OUTCOME>x70_80</OUTCOME>
      <OUTCOME>x_30</OUTCOME>
      <OUTCOME>x_80</OUTCOME>
      <PROPERTY>weight = None</PROPERTY>
    </VARIABLE>
    <DEFINITION>
      <FOR>aar_mod</FOR>
      <TABLE>0.08690200354368269 0.09319885511789558 0.09589750579255825 0.09159965471809549 0.0871019035936577 0.09169960474308299 0.08680205351869519 0.09309890509290808 0.09409840534278315 0.0888010540184453 0.09080005451819544 </TABLE>
    </DEFINITION>
    <DEFINITION>
      <FOR>aks_m2</FOR>
      <GIVEN>aks_vgt</GIVEN>
      <GIVEN>sort</GIVEN>
      <GIVEN>udb</GIVEN>
      <TABLE>0.125 0.125 0.125 0.125 0.125 0.125 0.125 0.125 3.8376519710180524e-05 3.8376519710180524e-05 3.8376519710180524e-05 0.6665003684145893 0.3332693724671497 3.8376519710180524e-05 3.8376519710180524e-05 3.8376519710180524e-05 0.125 0.125 0.125 0.125 0.125 0.125 0.125 0.125 0.125 0.125 0.125 0.125 0.125 0.125 0.125 0.125 3.8376519710180524e-05 3.8376519710180524e-05 3.8376519710180524e-05 3.8376519710180524e-05 3.8376519710180524e-05 0.9997313643620288 3.8376519710180524e-05 3.8376519710180524e-05 0.125 0.125 0.125 0.125 0.125 0.125 0.125 0.125 2.302873986735446e-05 2.302873986735446e-05 2.302873986735446e-05 2.302873986735446e-05 2.302873986735446e-05 2.302873986735446e-05 0.9998387988209285 2.302873986735446e-05 0.00011505891016200296 0.999194587628866 0.00011505891016200296 0.00011505891016200296 0.00011505891016200296 0.00011505891016200296 0.00011505891016200296 0.00011505891016200296 0.125 0.125 0.125 0.125 0.125 0.125 0.125 0.125 0.125 0.125 0.125 0.125 0.125 0.125 0.125 0.125 0.00011505891016200296 0.00011505891016200296 0.00011505891016200296 0.00011505891016200296 0.999194587628866 0.00011505891016200296 0.00011505891016200296 0.00011505891016200296 0.125 0.125 0.125 0.125 0.125 0.125 0.125 0.125 0.125 0.125 0.125 0.125 0.125 0.125 0.125 0.125 2.8784599088103904e-05 2.8784599088103904e-05 2.8784599088103904e-05 2.8784599088103904e-05 2.8784599088103904e-05 0.9997985078063834 2.8784599088103904e-05 2.8784599088103904e-05 0.125 0.125 0.125 0.125 0.125 0.125 0.125 0.125 0.00011505891016200296 0.00011505891016200296 0.00011505891016200296 0.00011505891016200296 0.00011505891016200296 0.00011505891016200296 0.999194587628866 0.00011505891016200296 0.125 0.125 0.125 0.125 0.125 0.125 0.125 0.125 0.125 0.125 0.125 0.125 0.125 0.125 0.125 0.125 0.125 0.125 0.125 0.125 0.125 0.125 0.125 0.125 3.8376519710180524e-05 3.8376519710180524e-05 3.8376519710180524e-05 0.3332693724671497 0.6665003684145893 3.8376519710180524e-05 3.8376519710180524e-05 3.8376519710180524e-05 0.125 0.125 0.125 0.125 0.125 0.125 0.125 0.125 0.125 0.125 0.125 0.125 0.125 0.125 0.125 0.125 2.302873986735446e-05 2.302873986735446e-05 2.302873986735446e-05 2.302873986735446e-05 2.302873986735446e-05 0.9998387988209285 2.302873986735446e-05 2.302873986735446e-05 0.125 0.125 0.125 0.125 0.125 0.125 0.125 0.125 1.4393956841159808e-05 1.4393956841159808e-05 1.4393956841159808e-05 1.4393956841159808e-05 1.4393956841159808e-05 1.4393956841159808e-05 0.9998992423021119 1.4393956841159808e-05 0.125 0.125 0.125 0.125 0.125 0.125 0.125 0.125 0.125 0.125 0.125 0.125 0.125 0.125 0.125 0.125 0.00011505891016200296 0.00011505891016200296 0.999194587628866 0.00011505891016200296 0.00011505891016200296 0.00011505891016200296 0.00011505891016200296 0.00011505891016200296 0.00011505891016200296 0.00011505891016200296 0.00011505891016200296 0.00011505891016200296 0.999194587628866 0.00011505891016200296 0.00011505891016200296 0.00011505891016200296 0.125 0.125 0.125 0.125 0.125 0.125 0.125 0.125 0.125 0.125 0.125 0.125 0.125 0.125 0.125 0.125 3.8376519710180524e-05 3.8376519710180524e-05 3.8376519710180524e-05 3.8376519710180524e-05 3.8376519710180524e-05 0.9997313643620288 3.8376519710180524e-05 3.8376519710180524e-05 0.125 0.125 0.125 0.125 0.125 0.125 0.125 0.125 5.755594437793536e-05 5.755594437793536e-05 5.755594437793536e-05 5.755594437793536e-05 5.755594437793536e-05 5.755594437793536e-05 0.9995971083893544 5.755594437793536e-05 0.125 0.125 0.125 0.125 0.125 0.125 0.125 0.125 0.125 0.125 0.125 0.125 0.125 0.125 0.125 0.125 0.00011505891016200296 0.00011505891016200296 0.999194587628866 0.00011505891016200296 0.00011505891016200296 0.00011505891016200296 0.00011505891016200296 0.00011505891016200296 0.125 0.125 0.125 0.125 0.125 0.125 0.125 0.125 0.125 0.125 0.125 0.125 0.125 0.125 0.125 0.125 0.125 0.125 0.125 0.125 0.125 0.125 0.125 0.125 3.8376519710180524e-05 3.8376519710180524e-05 3.8376519710180524e-05 3.8376519710180524e-05 3.8376519710180524e-05 0.9997313643620288 3.8376519710180524e-05 3.8376519710180524e-05 0.125 0.125 0.125 0.125 0.125 0.125 0.125 0.125 2.8784599088103904e-05 2.8784599088103904e-05 2.8784599088103904e-05 2.8784599088103904e-05 2.8784599088103904e-05 2.8784599088103904e-05 0.9997985078063834 2.8784599088103904e-05 0.00011505891016200296 0.999194587628866 0.00011505891016200296 0.00011505891016200296 0.00011505891016200296 0.00011505891016200296 0.00011505891016200296 0.00011505891016200296 0.125 0.125 0.125 0.125 0.125 0.125 0.125 0.125 0.125 0.125 0.125 0.125 0.125 0.125 0.125 0.125 3.8376519710180524e-05 3.8376519710180524e-05 3.8376519710180524e-05 0.3332693724671497 0.6665003684145893 3.8376519710180524e-05 3.8376519710180524e-05 3.8376519710180524e-05 0.125 0.125 0.125 0.125 0.125 0.125 0.125 0.125 0.125 0.125 0.125 0.125 0.125 0.125 0.125 0.125 3.8376519710180524e-05 3.8376519710180524e-05 3.8376519710180524e-05 3.8376519710180524e-05 3.8376519710180524e-05 0.9997313643620288 3.8376519710180524e-05 3.8376519710180524e-05 0.125 0.125 0.125 0.125 0.125 0.125 0.125 0.125 1.91912058218442e-05 1.91912058218442e-05 1.91912058218442e-05 1.91912058218442e-05 1.91912058218442e-05 1.91912058218442e-05 0.999865661559247 1.91912058218442e-05 0.125 0.125 0.125 0.125 0.125 0.125 0.125 0.125 0.125 0.125 0.125 0.125 0.125 0.125 0.125 0.125 0.125 0.125 0.125 0.125 0.125 0.125 0.125 0.125 0.125 0.125 0.125 0.125 0.125 0.125 0.125 0.125 0.125 0.125 0.125 0.125 0.125 0.125 0.125 0.125 0.125 0.125 0.125 0.125 0.125 0.125 0.125 0.125 3.8376519710180524e-05 3.8376519710180524e-05 3.8376519710180524e-05 3.8376519710180524e-05 3.8376519710180524e-05 0.9997313643620288 3.8376519710180524e-05 3.8376519710180524e-05 0.125 0.125 0.125 0.125 0.125 0.125 0.125 0.125 0.00011505891016200296 0.00011505891016200296 0.00011505891016200296 0.00011505891016200296 0.00011505891016200296 0.00011505891016200296 0.999194587628866 0.00011505891016200296 0.125 0.125 0.125 0.125 0.125 0.125 0.125 0.125 0.125 0.125 0.125 0.125 0.125 0.125 0.125 0.125 0.125 0.125 0.125 0.125 0.125 0.125 0.125 0.125 0.00011505891016200296 0.00011505891016200296 0.00011505891016200296 0.00011505891016200296 0.999194587628866 0.00011505891016200296 0.00011505891016200296 0.00011505891016200296 0.125 0.125 0.125 0.125 0.125 0.125 0.125 0.125 0.125 0.125 0.125 0.125 0.125 0.125 0.125 0.125 5.755594437793536e-05 5.755594437793536e-05 5.755594437793536e-05 5.755594437793536e-05 5.755594437793536e-05 0.9995971083893544 5.755594437793536e-05 5.755594437793536e-05 0.125 0.125 0.125 0.125 0.125 0.125 0.125 0.125 1.4393956841159808e-05 1.4393956841159808e-05 1.4393956841159808e-05 1.4393956841159808e-05 1.4393956841159808e-05 1.4393956841159808e-05 0.9998992423021119 1.4393956841159808e-05 0.00011505891016200296 0.999194587628866 0.00011505891016200296 0.00011505891016200296 0.00011505891016200296 0.00011505891016200296 0.00011505891016200296 0.00011505891016200296 0.125 0.125 0.125 0.125 0.125 0.125 0.125 0.125 0.00011505891016200296 0.00011505891016200296 0.999194587628866 0.00011505891016200296 0.00011505891016200296 0.00011505891016200296 0.00011505891016200296 0.00011505891016200296 0.125 0.125 0.125 0.125 0.125 0.125 0.125 0.125 0.125 0.125 0.125 0.125 0.125 0.125 0.125 0.125 0.125 0.125 0.125 0.125 0.125 0.125 0.125 0.125 1.91912058218442e-05 1.91912058218442e-05 1.91912058218442e-05 1.91912058218442e-05 1.91912058218442e-05 0.999865661559247 1.91912058218442e-05 1.91912058218442e-05 0.125 0.125 0.125 0.125 0.125 0.125 0.125 0.125 3.8376519710180524e-05 3.8376519710180524e-05 3.8376519710180524e-05 3.8376519710180524e-05 3.8376519710180524e-05 3.8376519710180524e-05 0.9997313643620288 3.8376519710180524e-05 5.755594437793536e-05 0.9995971083893544 5.755594437793536e-05 5.755594437793536e-05 5.755594437793536e-05 5.755594437793536e-05 5.755594437793536e-05 5.755594437793536e-05 0.125 0.125 0.125 0.125 0.125 0.125 0.125 0.125 0.125 0.125 0.125 0.125 0.125 0.125 0.125 0.125 0.00011505891016200296 0.00011505891016200296 0.00011505891016200296 0.00011505891016200296 0.999194587628866 0.00011505891016200296 0.00011505891016200296 0.00011505891016200296 0.125 0.125 0.125 0.125 0.125 0.125 0.125 0.125 0.125 0.125 0.125 0.125 0.125 0.125 0.125 0.125 5.755594437793536e-05 5.755594437793536e-05 5.755594437793536e-05 5.755594437793536e-05 5.755594437793536e-05 0.9995971083893544 5.755594437793536e-05 5.755594437793536e-05 0.125 0.125 0.125 0.125 0.125 0.125 0.125 0.125 1.91912058218442e-05 1.91912058218442e-05 1.91912058218442e-05 1.91912058218442e-05 1.91912058218442e-05 1.91912058218442e-05 0.999865661559247 1.91912058218442e-05 0.125 0.125 0.125 0.125 0.125 0.125 0.125 0.125 0.125 0.125 0.125 0.125 0.125 0.125 0.125 0.125 0.125 0.125 0.125 0.125 0.125 0.125 0.125 0.125 0.125 0.125 0.125 0.125 0.125 0.125 0.125 0.125 0.125 0.125 0.125 0.125 0.125 0.125 0.125 0.125 0.125 0.125 0.125 0.125 0.125 0.125 0.125 0.125 3.8376519710180524e-05 3.8376519710180524e-05 3.8376519710180524e-05 3.8376519710180524e-05 3.8376519710180524e-05 0.9997313643620288 3.8376519710180524e-05 3.8376519710180524e-05 0.125 0.125 0.125 0.125 0.125 0.125 0.125 0.125 2.8784599088103904e-05 2.8784599088103904e-05 2.8784599088103904e-05 2.8784599088103904e-05 2.8784599088103904e-05 2.8784599088103904e-05 0.9997985078063834 2.8784599088103904e-05 0.00011505891016200296 0.999194587628866 0.00011505891016200296 0.00011505891016200296 0.00011505891016200296 0.00011505891016200296 0.00011505891016200296 0.00011505891016200296 0.125 0.125 0.125 0.125 0.125 0.125 0.125 0.125 0.125 0.125 0.125 0.125 0.125 0.125 0.125 0.125 0.125 0.125 0.125 0.125 0.125 0.125 0.125 0.125 0.125 0.125 0.125 0.125 0.125 0.125 0.125 0.125 0.125 0.125 0.125 0.125 0.125 0.125 0.125 0.125 0.00011505891016200296 0.00011505891016200296 0.00011505891016200296 0.00011505891016200296 0.00011505891016200296 0.999194587628866 0.00011505891016200296 0.00011505891016200296 0.125 0.125 0.125 0.125 0.125 0.125 0.125 0.125 5.755594437793536e-05 5.755594437793536e-05 5.755594437793536e-05 5.755594437793536e-05 5.755594437793536e-05 5.755594437793536e-05 0.9995971083893544 5.755594437793536e-05 0.125 0.125 0.125 0.125 0.125 0.125 0.125 0.125 0.125 0.125 0.125 0.125 0.125 0.125 0.125 0.125 0.125 0.125 0.125 0.125 0.125 0.125 0.125 0.125 5.755594437793536e-05 5.755594437793536e-05 5.755594437793536e-05 0.4998273321668662 0.4998273321668662 5.755594437793536e-05 5.755594437793536e-05 5.755594437793536e-05 0.125 0.125 0.125 0.125 0.125 0.125 0.125 0.125 0.125 0.125 0.125 0.125 0.125 0.125 0.125 0.125 0.00011505891016200296 0.00011505891016200296 0.00011505891016200296 0.00011505891016200296 0.00011505891016200296 0.999194587628866 0.00011505891016200296 0.00011505891016200296 0.125 0.125 0.125 0.125 0.125 0.125 0.125 0.125 5.755594437793536e-05 5.755594437793536e-05 5.755594437793536e-05 5.755594437793536e-05 5.755594437793536e-05 5.755594437793536e-05 0.9995971083893544 5.755594437793536e-05 0.125 0.125 0.125 0.125 0.125 0.125 0.125 0.125 0.125 0.125 0.125 0.125 0.125 0.125 0.125 0.125 0.00011505891016200296 0.00011505891016200296 0.999194587628866 0.00011505891016200296 0.00011505891016200296 0.00011505891016200296 0.00011505891016200296 0.00011505891016200296 0.00011505891016200296 0.00011505891016200296 0.00011505891016200296 0.999194587628866 0.00011505891016200296 0.00011505891016200296 0.00011505891016200296 0.00011505891016200296 0.125 0.125 0.125 0.125 0.125 0.125 0.125 0.125 0.125 0.125 0.125 0.125 0.125 0.125 0.125 0.125 0.00011505891016200296 0.00011505891016200296 0.00011505891016200296 0.00011505891016200296 0.00011505891016200296 0.999194587628866 0.00011505891016200296 0.00011505891016200296 0.125 0.125 0.125 0.125 0.125 0.125 0.125 0.125 1.644996578407117e-05 1.644996578407117e-05 1.644996578407117e-05 1.644996578407117e-05 1.644996578407117e-05 1.644996578407117e-05 0.9998848502395116 1.644996578407117e-05 0.125 0.125 0.125 0.125 0.125 0.125 0.125 0.125 0.125 0.125 0.125 0.125 0.125 0.125 0.125 0.125 0.00011505891016200296 0.00011505891016200296 0.999194587628866 0.00011505891016200296 0.00011505891016200296 0.00011505891016200296 0.00011505891016200296 0.00011505891016200296 3.8376519710180524e-05 3.8376519710180524e-05 3.8376519710180524e-05 0.6665003684145893 0.3332693724671497 3.8376519710180524e-05 3.8376519710180524e-05 3.8376519710180524e-05 0.125 0.125 0.125 0.125 0.125 0.125 0.125 0.125 0.125 0.125 0.125 0.125 0.125 0.125 0.125 0.125 0.00011505891016200296 0.00011505891016200296 0.00011505891016200296 0.00011505891016200296 0.00011505891016200296 0.999194587628866 0.00011505891016200296 0.00011505891016200296 0.125 0.125 0.125 0.125 0.125 0.125 0.125 0.125 2.302873986735446e-05 2.302873986735446e-05 2.302873986735446e-05 2.302873986735446e-05 2.302873986735446e-05 2.302873986735446e-05 0.9998387988209285 2.302873986735446e-05 0.125 0.125 0.125 0.125 0.125 0.125 0.125 0.125 0.125 0.125 0.125 0.125 0.125 0.125 0.125 0.125 0.125 0.125 0.125 0.125 0.125 0.125 0.125 0.125 2.8784599088103904e-05 2.8784599088103904e-05 2.8784599088103904e-05 0.7498560770045595 0.2499712154009119 2.8784599088103904e-05 2.8784599088103904e-05 2.8784599088103904e-05 0.125 0.125 0.125 0.125 0.125 0.125 0.125 0.125 0.125 0.125 0.125 0.125 0.125 0.125 0.125 0.125 3.8376519710180524e-05 3.8376519710180524e-05 3.8376519710180524e-05 3.8376519710180524e-05 3.8376519710180524e-05 0.9997313643620288 3.8376519710180524e-05 3.8376519710180524e-05 0.125 0.125 0.125 0.125 0.125 0.125 0.125 0.125 1.644996578407117e-05 1.644996578407117e-05 1.644996578407117e-05 1.644996578407117e-05 1.644996578407117e-05 1.644996578407117e-05 0.9998848502395116 1.644996578407117e-05 0.125 0.125 0.125 0.125 0.125 0.125 0.125 0.125 0.125 0.125 0.125 0.125 0.125 0.125 0.125 0.125 0.125 0.125 0.125 0.125 0.125 0.125 0.125 0.125 5.755594437793536e-05 5.755594437793536e-05 5.755594437793536e-05 0.4998273321668662 0.4998273321668662 5.755594437793536e-05 5.755594437793536e-05 5.755594437793536e-05 0.125 0.125 0.125 0.125 0.125 0.125 0.125 0.125 0.125 0.125 0.125 0.125 0.125 0.125 0.125 0.125 3.8376519710180524e-05 3.8376519710180524e-05 3.8376519710180524e-05 3.8376519710180524e-05 3.8376519710180524e-05 0.9997313643620288 3.8376519710180524e-05 3.8376519710180524e-05 0.125 0.125 0.125 0.125 0.125 0.125 0.125 0.125 3.8376519710180524e-05 3.8376519710180524e-05 3.8376519710180524e-05 3.8376519710180524e-05 3.8376519710180524e-05 3.8376519710180524e-05 0.9997313643620288 3.8376519710180524e-05 0.999194587628866 0.00011505891016200296 0.00011505891016200296 0.00011505891016200296 0.00011505891016200296 0.00011505891016200296 0.00011505891016200296 0.00011505891016200296 0.125 0.125 0.125 0.125 0.125 0.125 0.125 0.125 0.125 0.125 0.125 0.125 0.125 0.125 0.125 0.125 3.8376519710180524e-05 3.8376519710180524e-05 3.8376519710180524e-05 0.6665003684145893 0.3332693724671497 3.8376519710180524e-05 3.8376519710180524e-05 3.8376519710180524e-05 0.125 0.125 0.125 0.125 0.125 0.125 0.125 0.125 0.125 0.125 0.125 0.125 0.125 0.125 0.125 0.125 2.302873986735446e-05 2.302873986735446e-05 2.302873986735446e-05 2.302873986735446e-05 2.302873986735446e-05 0.9998387988209285 2.302873986735446e-05 2.302873986735446e-05 0.125 0.125 0.125 0.125 0.125 0.125 0.125 0.125 2.8784599088103904e-05 2.8784599088103904e-05 2.8784599088103904e-05 2.8784599088103904e-05 2.8784599088103904e-05 2.8784599088103904e-05 0.9997985078063834 2.8784599088103904e-05 0.125 0.125 0.125 0.125 0.125 0.125 0.125 0.125 0.125 0.125 0.125 0.125 0.125 0.125 0.125 0.125 5.755594437793536e-05 5.755594437793536e-05 0.9995971083893544 5.755594437793536e-05 5.755594437793536e-05 5.755594437793536e-05 5.755594437793536e-05 5.755594437793536e-05 0.125 0.125 0.125 0.125 0.125 0.125 0.125 0.125 0.125 0.125 0.125 0.125 0.125 0.125 0.125 0.125 0.125 0.125 0.125 0.125 0.125 0.125 0.125 0.125 2.8784599088103904e-05 2.8784599088103904e-05 2.8784599088103904e-05 2.8784599088103904e-05 2.8784599088103904e-05 0.9997985078063834 2.8784599088103904e-05 2.8784599088103904e-05 0.125 0.125 0.125 0.125 0.125 0.125 0.125 0.125 3.8376519710180524e-05 3.8376519710180524e-05 3.8376519710180524e-05 3.8376519710180524e-05 3.8376519710180524e-05 3.8376519710180524e-05 0.9997313643620288 3.8376519710180524e-05 0.125 0.125 0.125 0.125 0.125 0.125 0.125 0.125 0.125 0.125 0.125 0.125 0.125 0.125 0.125 0.125 5.755594437793536e-05 5.755594437793536e-05 0.9995971083893544 5.755594437793536e-05 5.755594437793536e-05 5.755594437793536e-05 5.755594437793536e-05 5.755594437793536e-05 0.00011505891016200296 0.00011505891016200296 0.00011505891016200296 0.999194587628866 0.00011505891016200296 0.00011505891016200296 0.00011505891016200296 0.00011505891016200296 0.125 0.125 0.125 0.125 0.125 0.125 0.125 0.125 0.125 0.125 0.125 0.125 0.125 0.125 0.125 0.125 0.125 0.125 0.125 0.125 0.125 0.125 0.125 0.125 0.125 0.125 0.125 0.125 0.125 0.125 0.125 0.125 3.8376519710180524e-05 3.8376519710180524e-05 3.8376519710180524e-05 3.8376519710180524e-05 3.8376519710180524e-05 3.8376519710180524e-05 0.9997313643620288 3.8376519710180524e-05 0.125 0.125 0.125 0.125 0.125 0.125 0.125 0.125 0.125 0.125 0.125 0.125 0.125 0.125 0.125 0.125 0.125 0.125 0.125 0.125 0.125 0.125 0.125 0.125 3.8376519710180524e-05 3.8376519710180524e-05 3.8376519710180524e-05 0.3332693724671497 0.6665003684145893 3.8376519710180524e-05 3.8376519710180524e-05 3.8376519710180524e-05 0.125 0.125 0.125 0.125 0.125 0.125 0.125 0.125 0.125 0.125 0.125 0.125 0.125 0.125 0.125 0.125 3.8376519710180524e-05 3.8376519710180524e-05 3.8376519710180524e-05 3.8376519710180524e-05 3.8376519710180524e-05 0.9997313643620288 3.8376519710180524e-05 3.8376519710180524e-05 0.125 0.125 0.125 0.125 0.125 0.125 0.125 0.125 2.8784599088103904e-05 2.8784599088103904e-05 2.8784599088103904e-05 2.8784599088103904e-05 2.8784599088103904e-05 2.8784599088103904e-05 0.9997985078063834 2.8784599088103904e-05 0.125 0.125 0.125 0.125 0.125 0.125 0.125 0.125 0.125 0.125 0.125 0.125 0.125 0.125 0.125 0.125 0.00011505891016200296 0.00011505891016200296 0.999194587628866 0.00011505891016200296 0.00011505891016200296 0.00011505891016200296 0.00011505891016200296 0.00011505891016200296 5.755594437793536e-05 5.755594437793536e-05 5.755594437793536e-05 0.4998273321668662 0.4998273321668662 5.755594437793536e-05 5.755594437793536e-05 5.755594437793536e-05 0.125 0.125 0.125 0.125 0.125 0.125 0.125 0.125 0.125 0.125 0.125 0.125 0.125 0.125 0.125 0.125 5.755594437793536e-05 5.755594437793536e-05 5.755594437793536e-05 5.755594437793536e-05 5.755594437793536e-05 0.9995971083893544 5.755594437793536e-05 5.755594437793536e-05 0.125 0.125 0.125 0.125 0.125 0.125 0.125 0.125 1.91912058218442e-05 1.91912058218442e-05 1.91912058218442e-05 1.91912058218442e-05 1.91912058218442e-05 1.91912058218442e-05 0.999865661559247 1.91912058218442e-05 0.125 0.125 0.125 0.125 0.125 0.125 0.125 0.125 0.125 0.125 0.125 0.125 0.125 0.125 0.125 0.125 0.125 0.125 0.125 0.125 0.125 0.125 0.125 0.125 5.755594437793536e-05 5.755594437793536e-05 5.755594437793536e-05 0.4998273321668662 0.4998273321668662 5.755594437793536e-05 5.755594437793536e-05 5.755594437793536e-05 0.125 0.125 0.125 0.125 0.125 0.125 0.125 0.125 0.125 0.125 0.125 0.125 0.125 0.125 0.125 0.125 2.8784599088103904e-05 2.8784599088103904e-05 2.8784599088103904e-05 2.8784599088103904e-05 2.8784599088103904e-05 0.9997985078063834 2.8784599088103904e-05 2.8784599088103904e-05 0.125 0.125 0.125 0.125 0.125 0.125 0.125 0.125 3.8376519710180524e-05 3.8376519710180524e-05 3.8376519710180524e-05 3.8376519710180524e-05 3.8376519710180524e-05 3.8376519710180524e-05 0.9997313643620288 3.8376519710180524e-05 0.125 0.125 0.125 0.125 0.125 0.125 0.125 0.125 0.125 0.125 0.125 0.125 0.125 0.125 0.125 0.125 0.125 0.125 0.125 0.125 0.125 0.125 0.125 0.125 0.00011505891016200296 0.00011505891016200296 0.00011505891016200296 0.999194587628866 0.00011505891016200296 0.00011505891016200296 0.00011505891016200296 0.00011505891016200296 0.125 0.125 0.125 0.125 0.125 0.125 0.125 0.125 0.125 0.125 0.125 0.125 0.125 0.125 0.125 0.125 2.8784599088103904e-05 2.8784599088103904e-05 2.8784599088103904e-05 2.8784599088103904e-05 2.8784599088103904e-05 0.9997985078063834 2.8784599088103904e-05 2.8784599088103904e-05 0.125 0.125 0.125 0.125 0.125 0.125 0.125 0.125 2.8784599088103904e-05 2.8784599088103904e-05 2.8784599088103904e-05 2.8784599088103904e-05 2.8784599088103904e-05 2.8784599088103904e-05 0.9997985078063834 2.8784599088103904e-05 0.125 0.125 0.125 0.125 0.125 0.125 0.125 0.125 0.125 0.125 0.125 0.125 0.125 0.125 0.125 0.125 0.00011505891016200296 0.00011505891016200296 0.999194587628866 0.00011505891016200296 0.00011505891016200296 0.00011505891016200296 0.00011505891016200296 0.00011505891016200296 5.755594437793536e-05 5.755594437793536e-05 5.755594437793536e-05 0.9995971083893544 5.755594437793536e-05 5.755594437793536e-05 5.755594437793536e-05 5.755594437793536e-05 0.125 0.125 0.125 0.125 0.125 0.125 0.125 0.125 0.125 0.125 0.125 0.125 0.125 0.125 0.125 0.125 2.8784599088103904e-05 2.8784599088103904e-05 2.8784599088103904e-05 2.8784599088103904e-05 2.8784599088103904e-05 0.9997985078063834 2.8784599088103904e-05 2.8784599088103904e-05 0.125 0.125 0.125 0.125 0.125 0.125 0.125 0.125 1.644996578407117e-05 1.644996578407117e-05 1.644996578407117e-05 1.644996578407117e-05 1.644996578407117e-05 1.644996578407117e-05 0.9998848502395116 1.644996578407117e-05 0.125 0.125 0.125 0.125 0.125 0.125 0.125 0.125 0.125 0.125 0.125 0.125 0.125 0.125 0.125 0.125 0.00011505891016200296 0.00011505891016200296 0.999194587628866 0.00011505891016200296 0.00011505891016200296 0.00011505891016200296 0.00011505891016200296 0.00011505891016200296 3.8376519710180524e-05 3.8376519710180524e-05 3.8376519710180524e-05 0.9997313643620288 3.8376519710180524e-05 3.8376519710180524e-05 3.8376519710180524e-05 3.8376519710180524e-05 0.125 0.125 0.125 0.125 0.125 0.125 0.125 0.125 0.125 0.125 0.125 0.125 0.125 0.125 0.125 0.125 3.8376519710180524e-05 3.8376519710180524e-05 3.8376519710180524e-05 3.8376519710180524e-05 3.8376519710180524e-05 0.9997313643620288 3.8376519710180524e-05 3.8376519710180524e-05 0.125 0.125 0.125 0.125 0.125 0.125 0.125 0.125 5.755594437793536e-05 5.755594437793536e-05 5.755594437793536e-05 5.755594437793536e-05 5.755594437793536e-05 5.755594437793536e-05 0.9995971083893544 5.755594437793536e-05 0.125 0.125 0.125 0.125 0.125 0.125 0.125 0.125 0.125 0.125 0.125 0.125 0.125 0.125 0.125 0.125 0.125 0.125 0.125 0.125 0.125 0.125 0.125 0.125 3.8376519710180524e-05 3.8376519710180524e-05 3.8376519710180524e-05 0.3332693724671497 0.6665003684145893 3.8376519710180524e-05 3.8376519710180524e-05 3.8376519710180524e-05 0.125 0.125 0.125 0.125 0.125 0.125 0.125 0.125 0.125 0.125 0.125 0.125 0.125 0.125 0.125 0.125 3.8376519710180524e-05 3.8376519710180524e-05 3.8376519710180524e-05 3.8376519710180524e-05 3.8376519710180524e-05 0.9997313643620288 3.8376519710180524e-05 3.8376519710180524e-05 0.125 0.125 0.125 0.125 0.125 0.125 0.125 0.125 1.644996578407117e-05 1.644996578407117e-05 1.644996578407117e-05 1.644996578407117e-05 1.644996578407117e-05 1.644996578407117e-05 0.9998848502395116 1.644996578407117e-05 0.00011505891016200296 0.999194587628866 0.00011505891016200296 0.00011505891016200296 0.00011505891016200296 0.00011505891016200296 0.00011505891016200296 0.00011505891016200296 0.125 0.125 0.125 0.125 0.125 0.125 0.125 0.125 0.125 0.125 0.125 0.125 0.125 0.125 0.125 0.125 0.00011505891016200296 0.00011505891016200296 0.00011505891016200296 0.00011505891016200296 0.999194587628866 0.00011505891016200296 0.00011505891016200296 0.00011505891016200296 0.125 0.125 0.125 0.125 0.125 0.125 0.125 0.125 0.125 0.125 0.125 0.125 0.125 0.125 0.125 0.125 3.8376519710180524e-05 3.8376519710180524e-05 3.8376519710180524e-05 3.8376519710180524e-05 3.8376519710180524e-05 0.9997313643620288 3.8376519710180524e-05 3.8376519710180524e-05 0.125 0.125 0.125 0.125 0.125 0.125 0.125 0.125 3.8376519710180524e-05 3.8376519710180524e-05 3.8376519710180524e-05 3.8376519710180524e-05 3.8376519710180524e-05 3.8376519710180524e-05 0.9997313643620288 3.8376519710180524e-05 0.125 0.125 0.125 0.125 0.125 0.125 0.125 0.125 0.125 0.125 0.125 0.125 0.125 0.125 0.125 0.125 0.125 0.125 0.125 0.125 0.125 0.125 0.125 0.125 0.00011505891016200296 0.00011505891016200296 0.00011505891016200296 0.00011505891016200296 0.999194587628866 0.00011505891016200296 0.00011505891016200296 0.00011505891016200296 0.125 0.125 0.125 0.125 0.125 0.125 0.125 0.125 0.125 0.125 0.125 0.125 0.125 0.125 0.125 0.125 1.91912058218442e-05 1.91912058218442e-05 1.91912058218442e-05 1.91912058218442e-05 1.91912058218442e-05 0.999865661559247 1.91912058218442e-05 1.91912058218442e-05 0.125 0.125 0.125 0.125 0.125 0.125 0.125 0.125 1.2794792007861121e-05 1.2794792007861121e-05 1.2794792007861121e-05 1.2794792007861121e-05 1.2794792007861121e-05 1.2794792007861121e-05 0.999910436455945 1.2794792007861121e-05 0.125 0.125 0.125 0.125 0.125 0.125 0.125 0.125 0.125 0.125 0.125 0.125 0.125 0.125 0.125 0.125 0.125 0.125 0.125 0.125 0.125 0.125 0.125 0.125 0.00011505891016200296 0.00011505891016200296 0.00011505891016200296 0.999194587628866 0.00011505891016200296 0.00011505891016200296 0.00011505891016200296 0.00011505891016200296 0.125 0.125 0.125 0.125 0.125 0.125 0.125 0.125 0.125 0.125 0.125 0.125 0.125 0.125 0.125 0.125 3.8376519710180524e-05 3.8376519710180524e-05 3.8376519710180524e-05 3.8376519710180524e-05 3.8376519710180524e-05 0.9997313643620288 3.8376519710180524e-05 3.8376519710180524e-05 0.125 0.125 0.125 0.125 0.125 0.125 0.125 0.125 1.91912058218442e-05 1.91912058218442e-05 1.91912058218442e-05 1.91912058218442e-05 1.91912058218442e-05 1.91912058218442e-05 0.999865661559247 1.91912058218442e-05 0.125 0.125 0.125 0.125 0.125 0.125 0.125 0.125 0.125 0.125 0.125 0.125 0.125 0.125 0.125 0.125 0.125 0.125 0.125 0.125 0.125 0.125 0.125 0.125 0.125 0.125 0.125 0.125 0.125 0.125 0.125 0.125 0.125 0.125 0.125 0.125 0.125 0.125 0.125 0.125 0.125 0.125 0.125 0.125 0.125 0.125 0.125 0.125 3.8376519710180524e-05 3.8376519710180524e-05 3.8376519710180524e-05 3.8376519710180524e-05 3.8376519710180524e-05 0.9997313643620288 3.8376519710180524e-05 3.8376519710180524e-05 0.125 0.125 0.125 0.125 0.125 0.125 0.125 0.125 2.8784599088103904e-05 2.8784599088103904e-05 2.8784599088103904e-05 2.8784599088103904e-05 2.8784599088103904e-05 2.8784599088103904e-05 0.9997985078063834 2.8784599088103904e-05 0.125 0.125 0.125 0.125 0.125 0.125 0.125 0.125 0.125 0.125 0.125 0.125 0.125 0.125 0.125 0.125 0.125 0.125 0.125 0.125 0.125 0.125 0.125 0.125 0.00011505891016200296 0.00011505891016200296 0.00011505891016200296 0.00011505891016200296 0.999194587628866 0.00011505891016200296 0.00011505891016200296 0.00011505891016200296 0.125 0.125 0.125 0.125 0.125 0.125 0.125 0.125 0.125 0.125 0.125 0.125 0.125 0.125 0.125 0.125 2.8784599088103904e-05 2.8784599088103904e-05 2.8784599088103904e-05 2.8784599088103904e-05 2.8784599088103904e-05 0.9997985078063834 2.8784599088103904e-05 2.8784599088103904e-05 0.125 0.125 0.125 0.125 0.125 0.125 0.125 0.125 1.644996578407117e-05 1.644996578407117e-05 1.644996578407117e-05 1.644996578407117e-05 1.644996578407117e-05 1.644996578407117e-05 0.9998848502395116 1.644996578407117e-05 0.125 0.125 0.125 0.125 0.125 0.125 0.125 0.125 0.125 0.125 0.125 0.125 0.125 0.125 0.125 0.125 0.125 0.125 0.125 0.125 0.125 0.125 0.125 0.125 0.125 0.125 0.125 0.125 0.125 0.125 0.125 0.125 0.125 0.125 0.125 0.125 0.125 0.125 0.125 0.125 0.125 0.125 0.125 0.125 0.125 0.125 0.125 0.125 5.755594437793536e-05 5.755594437793536e-05 5.755594437793536e-05 5.755594437793536e-05 5.755594437793536e-05 0.9995971083893544 5.755594437793536e-05 5.755594437793536e-05 0.125 0.125 0.125 0.125 0.125 0.125 0.125 0.125 2.302873986735446e-05 2.302873986735446e-05 2.302873986735446e-05 2.302873986735446e-05 2.302873986735446e-05 2.302873986735446e-05 0.9998387988209285 2.302873986735446e-05 0.00011505891016200296 0.00011505891016200296 0.00011505891016200296 0.00011505891016200296 0.00011505891016200296 0.00011505891016200296 0.00011505891016200296 0.999194587628866 0.125 0.125 0.125 0.125 0.125 0.125 0.125 0.125 0.125 0.125 0.125 0.125 0.125 0.125 0.125 0.125 0.00011505891016200296 0.00011505891016200296 0.00011505891016200296 0.00011505891016200296 0.999194587628866 0.00011505891016200296 0.00011505891016200296 0.00011505891016200296 0.125 0.125 0.125 0.125 0.125 0.125 0.125 0.125 0.125 0.125 0.125 0.125 0.125 0.125 0.125 0.125 5.755594437793536e-05 5.755594437793536e-05 5.755594437793536e-05 5.755594437793536e-05 5.755594437793536e-05 0.9995971083893544 5.755594437793536e-05 5.755594437793536e-05 0.125 0.125 0.125 0.125 0.125 0.125 0.125 0.125 2.8784599088103904e-05 2.8784599088103904e-05 2.8784599088103904e-05 2.8784599088103904e-05 2.8784599088103904e-05 2.8784599088103904e-05 0.9997985078063834 2.8784599088103904e-05 0.125 0.125 0.125 0.125 0.125 0.125 0.125 0.125 0.125 0.125 0.125 0.125 0.125 0.125 0.125 0.125 0.125 0.125 0.125 0.125 0.125 0.125 0.125 0.125 5.755594437793536e-05 5.755594437793536e-05 5.755594437793536e-05 0.4998273321668662 0.4998273321668662 5.755594437793536e-05 5.755594437793536e-05 5.755594437793536e-05 0.125 0.125 0.125 0.125 0.125 0.125 0.125 0.125 0.125 0.125 0.125 0.125 0.125 0.125 0.125 0.125 3.8376519710180524e-05 3.8376519710180524e-05 3.8376519710180524e-05 3.8376519710180524e-05 3.8376519710180524e-05 0.9997313643620288 3.8376519710180524e-05 3.8376519710180524e-05 0.125 0.125 0.125 0.125 0.125 0.125 0.125 0.125 2.302873986735446e-05 2.302873986735446e-05 2.302873986735446e-05 2.302873986735446e-05 2.302873986735446e-05 2.302873986735446e-05 0.9998387988209285 2.302873986735446e-05 0.999194587628866 0.00011505891016200296 0.00011505891016200296 0.00011505891016200296 0.00011505891016200296 0.00011505891016200296 0.00011505891016200296 0.00011505891016200296 0.125 0.125 0.125 0.125 0.125 0.125 0.125 0.125 0.125 0.125 0.125 0.125 0.125 0.125 0.125 0.125 0.125 0.125 0.125 0.125 0.125 0.125 0.125 0.125 0.125 0.125 0.125 0.125 0.125 0.125 0.125 0.125 0.125 0.125 0.125 0.125 0.125 0.125 0.125 0.125 5.755594437793536e-05 5.755594437793536e-05 5.755594437793536e-05 5.755594437793536e-05 5.755594437793536e-05 0.9995971083893544 5.755594437793536e-05 5.755594437793536e-05 0.125 0.125 0.125 0.125 0.125 0.125 0.125 0.125 3.8376519710180524e-05 3.8376519710180524e-05 3.8376519710180524e-05 3.8376519710180524e-05 3.8376519710180524e-05 3.8376519710180524e-05 0.9997313643620288 3.8376519710180524e-05 0.125 0.125 0.125 0.125 0.125 0.125 0.125 0.125 0.125 0.125 0.125 0.125 0.125 0.125 0.125 0.125 0.00011505891016200296 0.00011505891016200296 0.999194587628866 0.00011505891016200296 0.00011505891016200296 0.00011505891016200296 0.00011505891016200296 0.00011505891016200296 3.8376519710180524e-05 3.8376519710180524e-05 3.8376519710180524e-05 0.3332693724671497 0.6665003684145893 3.8376519710180524e-05 3.8376519710180524e-05 3.8376519710180524e-05 0.125 0.125 0.125 0.125 0.125 0.125 0.125 0.125 0.125 0.125 0.125 0.125 0.125 0.125 0.125 0.125 5.755594437793536e-05 5.755594437793536e-05 5.755594437793536e-05 5.755594437793536e-05 5.755594437793536e-05 0.9995971083893544 5.755594437793536e-05 5.755594437793536e-05 0.125 0.125 0.125 0.125 0.125 0.125 0.125 0.125 5.755594437793536e-05 5.755594437793536e-05 5.755594437793536e-05 5.755594437793536e-05 5.755594437793536e-05 5.755594437793536e-05 0.9995971083893544 5.755594437793536e-05 0.00011505891016200296 0.999194587628866 0.00011505891016200296 0.00011505891016200296 0.00011505891016200296 0.00011505891016200296 0.00011505891016200296 0.00011505891016200296 0.125 0.125 0.125 0.125 0.125 0.125 0.125 0.125 0.125 0.125 0.125 0.125 0.125 0.125 0.125 0.125 5.755594437793536e-05 5.755594437793536e-05 5.755594437793536e-05 0.4998273321668662 0.4998273321668662 5.755594437793536e-05 5.755594437793536e-05 5.755594437793536e-05 0.125 0.125 0.125 0.125 0.125 0.125 0.125 0.125 0.125 0.125 0.125 0.125 0.125 0.125 0.125 0.125 0.00011505891016200296 0.00011505891016200296 0.00011505891016200296 0.00011505891016200296 0.00011505891016200296 0.999194587628866 0.00011505891016200296 0.00011505891016200296 0.125 0.125 0.125 0.125 0.125 0.125 0.125 0.125 3.8376519710180524e-05 3.8376519710180524e-05 3.8376519710180524e-05 3.8376519710180524e-05 3.8376519710180524e-05 3.8376519710180524e-05 0.9997313643620288 3.8376519710180524e-05 0.125 0.125 0.125 0.125 0.125 0.125 0.125 0.125 0.125 0.125 0.125 0.125 0.125 0.125 0.125 0.125 0.125 0.125 0.125 0.125 0.125 0.125 0.125 0.125 0.125 0.125 0.125 0.125 0.125 0.125 0.125 0.125 0.125 0.125 0.125 0.125 0.125 0.125 0.125 0.125 0.125 0.125 0.125 0.125 0.125 0.125 0.125 0.125 5.755594437793536e-05 5.755594437793536e-05 5.755594437793536e-05 5.755594437793536e-05 5.755594437793536e-05 0.9995971083893544 5.755594437793536e-05 5.755594437793536e-05 0.125 0.125 0.125 0.125 0.125 0.125 0.125 0.125 1.91912058218442e-05 1.91912058218442e-05 1.91912058218442e-05 1.91912058218442e-05 1.91912058218442e-05 1.91912058218442e-05 0.999865661559247 1.91912058218442e-05 0.00011505891016200296 0.00011505891016200296 0.00011505891016200296 0.00011505891016200296 0.00011505891016200296 0.00011505891016200296 0.00011505891016200296 0.999194587628866 0.125 0.125 0.125 0.125 0.125 0.125 0.125 0.125 0.00011505891016200296 0.00011505891016200296 0.999194587628866 0.00011505891016200296 0.00011505891016200296 0.00011505891016200296 0.00011505891016200296 0.00011505891016200296 2.8784599088103904e-05 2.8784599088103904e-05 2.8784599088103904e-05 0.2499712154009119 0.7498560770045595 2.8784599088103904e-05 2.8784599088103904e-05 2.8784599088103904e-05 0.125 0.125 0.125 0.125 0.125 0.125 0.125 0.125 0.125 0.125 0.125 0.125 0.125 0.125 0.125 0.125 5.755594437793536e-05 5.755594437793536e-05 5.755594437793536e-05 5.755594437793536e-05 5.755594437793536e-05 0.9995971083893544 5.755594437793536e-05 5.755594437793536e-05 0.125 0.125 0.125 0.125 0.125 0.125 0.125 0.125 2.8784599088103904e-05 2.8784599088103904e-05 2.8784599088103904e-05 2.8784599088103904e-05 2.8784599088103904e-05 2.8784599088103904e-05 0.9997985078063834 2.8784599088103904e-05 0.125 0.125 0.125 0.125 0.125 0.125 0.125 0.125 0.125 0.125 0.125 0.125 0.125 0.125 0.125 0.125 0.125 0.125 0.125 0.125 0.125 0.125 0.125 0.125 0.125 0.125 0.125 0.125 0.125 0.125 0.125 0.125 0.125 0.125 0.125 0.125 0.125 0.125 0.125 0.125 0.125 0.125 0.125 0.125 0.125 0.125 0.125 0.125 3.8376519710180524e-05 3.8376519710180524e-05 3.8376519710180524e-05 3.8376519710180524e-05 3.8376519710180524e-05 0.9997313643620288 3.8376519710180524e-05 3.8376519710180524e-05 0.125 0.125 0.125 0.125 0.125 0.125 0.125 0.125 1.91912058218442e-05 1.91912058218442e-05 1.91912058218442e-05 1.91912058218442e-05 1.91912058218442e-05 1.91912058218442e-05 0.999865661559247 1.91912058218442e-05 0.00011505891016200296 0.00011505891016200296 0.00011505891016200296 0.00011505891016200296 0.00011505891016200296 0.00011505891016200296 0.00011505891016200296 0.999194587628866 0.125 0.125 0.125 0.125 0.125 0.125 0.125 0.125 0.125 0.125 0.125 0.125 0.125 0.125 0.125 0.125 2.302873986735446e-05 2.302873986735446e-05 2.302873986735446e-05 0.5999124907885041 0.39994933677229183 2.302873986735446e-05 2.302873986735446e-05 2.302873986735446e-05 0.125 0.125 0.125 0.125 0.125 0.125 0.125 0.125 0.125 0.125 0.125 0.125 0.125 0.125 0.125 0.125 0.125 0.125 0.125 0.125 0.125 0.125 0.125 0.125 0.125 0.125 0.125 0.125 0.125 0.125 0.125 0.125 1.91912058218442e-05 1.91912058218442e-05 1.91912058218442e-05 1.91912058218442e-05 1.91912058218442e-05 1.91912058218442e-05 0.999865661559247 1.91912058218442e-05 0.125 0.125 0.125 0.125 0.125 0.125 0.125 0.125 0.125 0.125 0.125 0.125 0.125 0.125 0.125 0.125 0.00011505891016200296 0.00011505891016200296 0.999194587628866 0.00011505891016200296 0.00011505891016200296 0.00011505891016200296 0.00011505891016200296 0.00011505891016200296 0.00011505891016200296 0.00011505891016200296 0.00011505891016200296 0.999194587628866 0.00011505891016200296 0.00011505891016200296 0.00011505891016200296 0.00011505891016200296 0.125 0.125 0.125 0.125 0.125 0.125 0.125 0.125 0.125 0.125 0.125 0.125 0.125 0.125 0.125 0.125 3.8376519710180524e-05 3.8376519710180524e-05 3.8376519710180524e-05 3.8376519710180524e-05 3.8376519710180524e-05 0.9997313643620288 3.8376519710180524e-05 3.8376519710180524e-05 0.125 0.125 0.125 0.125 0.125 0.125 0.125 0.125 1.644996578407117e-05 1.644996578407117e-05 1.644996578407117e-05 1.644996578407117e-05 1.644996578407117e-05 1.644996578407117e-05 0.9998848502395116 1.644996578407117e-05 0.125 0.125 0.125 0.125 0.125 0.125 0.125 0.125 0.125 0.125 0.125 0.125 0.125 0.125 0.125 0.125 0.00011505891016200296 0.00011505891016200296 0.999194587628866 0.00011505891016200296 0.00011505891016200296 0.00011505891016200296 0.00011505891016200296 0.00011505891016200296 3.8376519710180524e-05 3.8376519710180524e-05 3.8376519710180524e-05 0.3332693724671497 0.6665003684145893 3.8376519710180524e-05 3.8376519710180524e-05 3.8376519710180524e-05 0.125 0.125 0.125 0.125 0.125 0.125 0.125 0.125 0.125 0.125 0.125 0.125 0.125 0.125 0.125 0.125 3.8376519710180524e-05 3.8376519710180524e-05 3.8376519710180524e-05 3.8376519710180524e-05 3.8376519710180524e-05 0.9997313643620288 3.8376519710180524e-05 3.8376519710180524e-05 0.125 0.125 0.125 0.125 0.125 0.125 0.125 0.125 5.755594437793536e-05 5.755594437793536e-05 5.755594437793536e-05 5.755594437793536e-05 5.755594437793536e-05 5.755594437793536e-05 0.9995971083893544 5.755594437793536e-05 0.125 0.125 0.125 0.125 0.125 0.125 0.125 0.125 0.125 0.125 0.125 0.125 0.125 0.125 0.125 0.125 0.125 0.125 0.125 0.125 0.125 0.125 0.125 0.125 0.125 0.125 0.125 0.125 0.125 0.125 0.125 0.125 0.125 0.125 0.125 0.125 0.125 0.125 0.125 0.125 0.125 0.125 0.125 0.125 0.125 0.125 0.125 0.125 0.00011505891016200296 0.00011505891016200296 0.00011505891016200296 0.00011505891016200296 0.00011505891016200296 0.999194587628866 0.00011505891016200296 0.00011505891016200296 0.125 0.125 0.125 0.125 0.125 0.125 0.125 0.125 3.8376519710180524e-05 3.8376519710180524e-05 3.8376519710180524e-05 3.8376519710180524e-05 3.8376519710180524e-05 3.8376519710180524e-05 0.9997313643620288 3.8376519710180524e-05 0.125 0.125 0.125 0.125 0.125 0.125 0.125 0.125 0.125 0.125 0.125 0.125 0.125 0.125 0.125 0.125 0.125 0.125 0.125 0.125 0.125 0.125 0.125 0.125 0.125 0.125 0.125 0.125 0.125 0.125 0.125 0.125 0.125 0.125 0.125 0.125 0.125 0.125 0.125 0.125 0.125 0.125 0.125 0.125 0.125 0.125 0.125 0.125 5.755594437793536e-05 5.755594437793536e-05 5.755594437793536e-05 5.755594437793536e-05 5.755594437793536e-05 0.9995971083893544 5.755594437793536e-05 5.755594437793536e-05 0.125 0.125 0.125 0.125 0.125 0.125 0.125 0.125 2.302873986735446e-05 2.302873986735446e-05 2.302873986735446e-05 2.302873986735446e-05 2.302873986735446e-05 2.302873986735446e-05 0.9998387988209285 2.302873986735446e-05 0.125 0.125 0.125 0.125 0.125 0.125 0.125 0.125 0.125 0.125 0.125 0.125 0.125 0.125 0.125 0.125 0.125 0.125 0.125 0.125 0.125 0.125 0.125 0.125 2.8784599088103904e-05 2.8784599088103904e-05 2.8784599088103904e-05 2.8784599088103904e-05 0.9997985078063834 2.8784599088103904e-05 2.8784599088103904e-05 2.8784599088103904e-05 0.125 0.125 0.125 0.125 0.125 0.125 0.125 0.125 0.125 0.125 0.125 0.125 0.125 0.125 0.125 0.125 5.755594437793536e-05 5.755594437793536e-05 5.755594437793536e-05 5.755594437793536e-05 5.755594437793536e-05 0.9995971083893544 5.755594437793536e-05 5.755594437793536e-05 0.125 0.125 0.125 0.125 0.125 0.125 0.125 0.125 5.755594437793536e-05 5.755594437793536e-05 5.755594437793536e-05 5.755594437793536e-05 5.755594437793536e-05 5.755594437793536e-05 0.9995971083893544 5.755594437793536e-05 0.4998273321668662 0.4998273321668662 5.755594437793536e-05 5.755594437793536e-05 5.755594437793536e-05 5.755594437793536e-05 5.755594437793536e-05 5.755594437793536e-05 0.125 0.125 0.125 0.125 0.125 0.125 0.125 0.125 0.00011505891016200296 0.00011505891016200296 0.999194587628866 0.00011505891016200296 0.00011505891016200296 0.00011505891016200296 0.00011505891016200296 0.00011505891016200296 0.00011505891016200296 0.00011505891016200296 0.00011505891016200296 0.999194587628866 0.00011505891016200296 0.00011505891016200296 0.00011505891016200296 0.00011505891016200296 0.125 0.125 0.125 0.125 0.125 0.125 0.125 0.125 0.125 0.125 0.125 0.125 0.125 0.125 0.125 0.125 5.755594437793536e-05 5.755594437793536e-05 5.755594437793536e-05 5.755594437793536e-05 5.755594437793536e-05 0.9995971083893544 5.755594437793536e-05 5.755594437793536e-05 0.125 0.125 0.125 0.125 0.125 0.125 0.125 0.125 2.302873986735446e-05 2.302873986735446e-05 2.302873986735446e-05 2.302873986735446e-05 2.302873986735446e-05 2.302873986735446e-05 0.9998387988209285 2.302873986735446e-05 0.125 0.125 0.125 0.125 0.125 0.125 0.125 0.125 0.125 0.125 0.125 0.125 0.125 0.125 0.125 0.125 0.00011505891016200296 0.00011505891016200296 0.999194587628866 0.00011505891016200296 0.00011505891016200296 0.00011505891016200296 0.00011505891016200296 0.00011505891016200296 3.8376519710180524e-05 3.8376519710180524e-05 3.8376519710180524e-05 0.3332693724671497 0.6665003684145893 3.8376519710180524e-05 3.8376519710180524e-05 3.8376519710180524e-05 0.125 0.125 0.125 0.125 0.125 0.125 0.125 0.125 0.125 0.125 0.125 0.125 0.125 0.125 0.125 0.125 0.125 0.125 0.125 0.125 0.125 0.125 0.125 0.125 0.125 0.125 0.125 0.125 0.125 0.125 0.125 0.125 2.8784599088103904e-05 2.8784599088103904e-05 2.8784599088103904e-05 2.8784599088103904e-05 2.8784599088103904e-05 2.8784599088103904e-05 0.9997985078063834 2.8784599088103904e-05 0.00011505891016200296 0.999194587628866 0.00011505891016200296 0.00011505891016200296 0.00011505891016200296 0.00011505891016200296 0.00011505891016200296 0.00011505891016200296 0.125 0.125 0.125 0.125 0.125 0.125 0.125 0.125 0.00011505891016200296 0.00011505891016200296 0.999194587628866 0.00011505891016200296 0.00011505891016200296 0.00011505891016200296 0.00011505891016200296 0.00011505891016200296 0.125 0.125 0.125 0.125 0.125 0.125 0.125 0.125 0.125 0.125 0.125 0.125 0.125 0.125 0.125 0.125 0.125 0.125 0.125 0.125 0.125 0.125 0.125 0.125 3.8376519710180524e-05 3.8376519710180524e-05 3.8376519710180524e-05 3.8376519710180524e-05 3.8376519710180524e-05 0.9997313643620288 3.8376519710180524e-05 3.8376519710180524e-05 0.125 0.125 0.125 0.125 0.125 0.125 0.125 0.125 2.302873986735446e-05 2.302873986735446e-05 2.302873986735446e-05 2.302873986735446e-05 2.302873986735446e-05 2.302873986735446e-05 0.9998387988209285 2.302873986735446e-05 0.999194587628866 0.00011505891016200296 0.00011505891016200296 0.00011505891016200296 0.00011505891016200296 0.00011505891016200296 0.00011505891016200296 0.00011505891016200296 0.125 0.125 0.125 0.125 0.125 0.125 0.125 0.125 0.125 0.125 0.125 0.125 0.125 0.125 0.125 0.125 5.755594437793536e-05 5.755594437793536e-05 5.755594437793536e-05 0.4998273321668662 0.4998273321668662 5.755594437793536e-05 5.755594437793536e-05 5.755594437793536e-05 0.125 0.125 0.125 0.125 0.125 0.125 0.125 0.125 0.125 0.125 0.125 0.125 0.125 0.125 0.125 0.125 2.8784599088103904e-05 2.8784599088103904e-05 2.8784599088103904e-05 2.8784599088103904e-05 2.8784599088103904e-05 0.9997985078063834 2.8784599088103904e-05 2.8784599088103904e-05 0.125 0.125 0.125 0.125 0.125 0.125 0.125 0.125 2.8784599088103904e-05 2.8784599088103904e-05 2.8784599088103904e-05 2.8784599088103904e-05 2.8784599088103904e-05 2.8784599088103904e-05 0.9997985078063834 2.8784599088103904e-05 0.999194587628866 0.00011505891016200296 0.00011505891016200296 0.00011505891016200296 0.00011505891016200296 0.00011505891016200296 0.00011505891016200296 0.00011505891016200296 0.125 0.125 0.125 0.125 0.125 0.125 0.125 0.125 0.125 0.125 0.125 0.125 0.125 0.125 0.125 0.125 0.00011505891016200296 0.00011505891016200296 0.00011505891016200296 0.00011505891016200296 0.999194587628866 0.00011505891016200296 0.00011505891016200296 0.00011505891016200296 0.125 0.125 0.125 0.125 0.125 0.125 0.125 0.125 0.125 0.125 0.125 0.125 0.125 0.125 0.125 0.125 1.91912058218442e-05 1.91912058218442e-05 1.91912058218442e-05 1.91912058218442e-05 1.91912058218442e-05 0.999865661559247 1.91912058218442e-05 1.91912058218442e-05 0.125 0.125 0.125 0.125 0.125 0.125 0.125 0.125 1.91912058218442e-05 1.91912058218442e-05 1.91912058218442e-05 1.91912058218442e-05 1.91912058218442e-05 1.91912058218442e-05 0.999865661559247 1.91912058218442e-05 0.125 0.125 0.125 0.125 0.125 0.125 0.125 0.125 0.125 0.125 0.125 0.125 0.125 0.125 0.125 0.125 0.00011505891016200296 0.00011505891016200296 0.999194587628866 0.00011505891016200296 0.00011505891016200296 0.00011505891016200296 0.00011505891016200296 0.00011505891016200296 0.00011505891016200296 0.00011505891016200296 0.00011505891016200296 0.999194587628866 0.00011505891016200296 0.00011505891016200296 0.00011505891016200296 0.00011505891016200296 0.125 0.125 0.125 0.125 0.125 0.125 0.125 0.125 0.125 0.125 0.125 0.125 0.125 0.125 0.125 0.125 2.8784599088103904e-05 2.8784599088103904e-05 2.8784599088103904e-05 2.8784599088103904e-05 2.8784599088103904e-05 0.9997985078063834 2.8784599088103904e-05 2.8784599088103904e-05 0.125 0.125 0.125 0.125 0.125 0.125 0.125 0.125 2.8784599088103904e-05 2.8784599088103904e-05 2.8784599088103904e-05 2.8784599088103904e-05 2.8784599088103904e-05 2.8784599088103904e-05 0.9997985078063834 2.8784599088103904e-05 0.125 0.125 0.125 0.125 0.125 0.125 0.125 0.125 0.125 0.125 0.125 0.125 0.125 0.125 0.125 0.125 0.125 0.125 0.125 0.125 0.125 0.125 0.125 0.125 0.125 0.125 0.125 0.125 0.125 0.125 0.125 0.125 0.125 0.125 0.125 0.125 0.125 0.125 0.125 0.125 0.125 0.125 0.125 0.125 0.125 0.125 0.125 0.125 5.755594437793536e-05 5.755594437793536e-05 5.755594437793536e-05 5.755594437793536e-05 5.755594437793536e-05 0.9995971083893544 5.755594437793536e-05 5.755594437793536e-05 0.125 0.125 0.125 0.125 0.125 0.125 0.125 0.125 1.91912058218442e-05 1.91912058218442e-05 1.91912058218442e-05 1.91912058218442e-05 1.91912058218442e-05 1.91912058218442e-05 0.999865661559247 1.91912058218442e-05 0.125 0.125 0.125 0.125 0.125 0.125 0.125 0.125 0.125 0.125 0.125 0.125 0.125 0.125 0.125 0.125 0.125 0.125 0.125 0.125 0.125 0.125 0.125 0.125 0.00011505891016200296 0.00011505891016200296 0.00011505891016200296 0.00011505891016200296 0.999194587628866 0.00011505891016200296 0.00011505891016200296 0.00011505891016200296 0.125 0.125 0.125 0.125 0.125 0.125 0.125 0.125 0.125 0.125 0.125 0.125 0.125 0.125 0.125 0.125 5.755594437793536e-05 5.755594437793536e-05 5.755594437793536e-05 5.755594437793536e-05 5.755594437793536e-05 0.9995971083893544 5.755594437793536e-05 5.755594437793536e-05 0.125 0.125 0.125 0.125 0.125 0.125 0.125 0.125 2.302873986735446e-05 2.302873986735446e-05 2.302873986735446e-05 2.302873986735446e-05 2.302873986735446e-05 2.302873986735446e-05 0.9998387988209285 2.302873986735446e-05 0.999194587628866 0.00011505891016200296 0.00011505891016200296 0.00011505891016200296 0.00011505891016200296 0.00011505891016200296 0.00011505891016200296 0.00011505891016200296 0.125 0.125 0.125 0.125 0.125 0.125 0.125 0.125 0.125 0.125 0.125 0.125 0.125 0.125 0.125 0.125 0.00011505891016200296 0.00011505891016200296 0.00011505891016200296 0.00011505891016200296 0.999194587628866 0.00011505891016200296 0.00011505891016200296 0.00011505891016200296 0.125 0.125 0.125 0.125 0.125 0.125 0.125 0.125 0.125 0.125 0.125 0.125 0.125 0.125 0.125 0.125 5.755594437793536e-05 5.755594437793536e-05 5.755594437793536e-05 5.755594437793536e-05 5.755594437793536e-05 0.9995971083893544 5.755594437793536e-05 5.755594437793536e-05 0.125 0.125 0.125 0.125 0.125 0.125 0.125 0.125 2.8784599088103904e-05 2.8784599088103904e-05 2.8784599088103904e-05 2.8784599088103904e-05 2.8784599088103904e-05 2.8784599088103904e-05 0.9997985078063834 2.8784599088103904e-05 0.125 0.125 0.125 0.125 0.125 0.125 0.125 0.125 0.125 0.125 0.125 0.125 0.125 0.125 0.125 0.125 0.00011505891016200296 0.00011505891016200296 0.999194587628866 0.00011505891016200296 0.00011505891016200296 0.00011505891016200296 0.00011505891016200296 0.00011505891016200296 5.755594437793536e-05 5.755594437793536e-05 5.755594437793536e-05 5.755594437793536e-05 0.9995971083893544 5.755594437793536e-05 5.755594437793536e-05 5.755594437793536e-05 0.125 0.125 0.125 0.125 0.125 0.125 0.125 0.125 0.125 0.125 0.125 0.125 0.125 0.125 0.125 0.125 2.8784599088103904e-05 2.8784599088103904e-05 2.8784599088103904e-05 2.8784599088103904e-05 2.8784599088103904e-05 0.9997985078063834 2.8784599088103904e-05 2.8784599088103904e-05 0.125 0.125 0.125 0.125 0.125 0.125 0.125 0.125 2.302873986735446e-05 2.302873986735446e-05 2.302873986735446e-05 2.302873986735446e-05 2.302873986735446e-05 2.302873986735446e-05 0.9998387988209285 2.302873986735446e-05 0.125 0.125 0.125 0.125 0.125 0.125 0.125 0.125 0.125 0.125 0.125 0.125 0.125 0.125 0.125 0.125 0.125 0.125 0.125 0.125 0.125 0.125 0.125 0.125 0.00011505891016200296 0.00011505891016200296 0.00011505891016200296 0.00011505891016200296 0.999194587628866 0.00011505891016200296 0.00011505891016200296 0.00011505891016200296 0.125 0.125 0.125 0.125 0.125 0.125 0.125 0.125 0.125 0.125 0.125 0.125 0.125 0.125 0.125 0.125 3.8376519710180524e-05 3.8376519710180524e-05 3.8376519710180524e-05 3.8376519710180524e-05 3.8376519710180524e-05 0.9997313643620288 3.8376519710180524e-05 3.8376519710180524e-05 0.125 0.125 0.125 0.125 0.125 0.125 0.125 0.125 2.8784599088103904e-05 2.8784599088103904e-05 2.8784599088103904e-05 2.8784599088103904e-05 2.8784599088103904e-05 2.8784599088103904e-05 0.9997985078063834 2.8784599088103904e-05 0.125 0.125 0.125 0.125 0.125 0.125 0.125 0.125 0.125 0.125 0.125 0.125 0.125 0.125 0.125 0.125 0.125 0.125 0.125 0.125 0.125 0.125 0.125 0.125 3.8376519710180524e-05 3.8376519710180524e-05 3.8376519710180524e-05 0.6665003684145893 0.3332693724671497 3.8376519710180524e-05 3.8376519710180524e-05 3.8376519710180524e-05 0.125 0.125 0.125 0.125 0.125 0.125 0.125 0.125 0.125 0.125 0.125 0.125 0.125 0.125 0.125 0.125 0.00011505891016200296 0.00011505891016200296 0.00011505891016200296 0.00011505891016200296 0.00011505891016200296 0.999194587628866 0.00011505891016200296 0.00011505891016200296 0.125 0.125 0.125 0.125 0.125 0.125 0.125 0.125 1.91912058218442e-05 1.91912058218442e-05 1.91912058218442e-05 1.91912058218442e-05 1.91912058218442e-05 1.91912058218442e-05 0.999865661559247 1.91912058218442e-05 0.125 0.125 0.125 0.125 0.125 0.125 0.125 0.125 0.125 0.125 0.125 0.125 0.125 0.125 0.125 0.125 0.125 0.125 0.125 0.125 0.125 0.125 0.125 0.125 5.755594437793536e-05 5.755594437793536e-05 5.755594437793536e-05 0.4998273321668662 0.4998273321668662 5.755594437793536e-05 5.755594437793536e-05 5.755594437793536e-05 0.125 0.125 0.125 0.125 0.125 0.125 0.125 0.125 0.125 0.125 0.125 0.125 0.125 0.125 0.125 0.125 5.755594437793536e-05 5.755594437793536e-05 5.755594437793536e-05 5.755594437793536e-05 5.755594437793536e-05 0.9995971083893544 5.755594437793536e-05 5.755594437793536e-05 0.125 0.125 0.125 0.125 0.125 0.125 0.125 0.125 1.91912058218442e-05 1.91912058218442e-05 1.91912058218442e-05 1.91912058218442e-05 1.91912058218442e-05 1.91912058218442e-05 0.999865661559247 1.91912058218442e-05 0.125 0.125 0.125 0.125 0.125 0.125 0.125 0.125 0.125 0.125 0.125 0.125 0.125 0.125 0.125 0.125 0.00011505891016200296 0.00011505891016200296 0.999194587628866 0.00011505891016200296 0.00011505891016200296 0.00011505891016200296 0.00011505891016200296 0.00011505891016200296 0.00011505891016200296 0.00011505891016200296 0.00011505891016200296 0.00011505891016200296 0.999194587628866 0.00011505891016200296 0.00011505891016200296 0.00011505891016200296 0.125 0.125 0.125 0.125 0.125 0.125 0.125 0.125 0.125 0.125 0.125 0.125 0.125 0.125 0.125 0.125 2.8784599088103904e-05 2.8784599088103904e-05 2.8784599088103904e-05 2.8784599088103904e-05 2.8784599088103904e-05 0.9997985078063834 2.8784599088103904e-05 2.8784599088103904e-05 0.125 0.125 0.125 0.125 0.125 0.125 0.125 0.125 2.302873986735446e-05 2.302873986735446e-05 2.302873986735446e-05 2.302873986735446e-05 2.302873986735446e-05 2.302873986735446e-05 0.9998387988209285 2.302873986735446e-05 0.999194587628866 0.00011505891016200296 0.00011505891016200296 0.00011505891016200296 0.00011505891016200296 0.00011505891016200296 0.00011505891016200296 0.00011505891016200296 0.125 0.125 0.125 0.125 0.125 0.125 0.125 0.125 5.755594437793536e-05 5.755594437793536e-05 0.9995971083893544 5.755594437793536e-05 5.755594437793536e-05 5.755594437793536e-05 5.755594437793536e-05 5.755594437793536e-05 5.755594437793536e-05 5.755594437793536e-05 5.755594437793536e-05 0.4998273321668662 0.4998273321668662 5.755594437793536e-05 5.755594437793536e-05 5.755594437793536e-05 0.125 0.125 0.125 0.125 0.125 0.125 0.125 0.125 0.125 0.125 0.125 0.125 0.125 0.125 0.125 0.125 0.00011505891016200296 0.00011505891016200296 0.00011505891016200296 0.00011505891016200296 0.00011505891016200296 0.999194587628866 0.00011505891016200296 0.00011505891016200296 0.125 0.125 0.125 0.125 0.125 0.125 0.125 0.125 2.302873986735446e-05 2.302873986735446e-05 2.302873986735446e-05 2.302873986735446e-05 2.302873986735446e-05 2.302873986735446e-05 0.9998387988209285 2.302873986735446e-05 0.125 0.125 0.125 0.125 0.125 0.125 0.125 0.125 0.125 0.125 0.125 0.125 0.125 0.125 0.125 0.125 0.125 0.125 0.125 0.125 0.125 0.125 0.125 0.125 3.8376519710180524e-05 3.8376519710180524e-05 3.8376519710180524e-05 0.3332693724671497 0.6665003684145893 3.8376519710180524e-05 3.8376519710180524e-05 3.8376519710180524e-05 0.125 0.125 0.125 0.125 0.125 0.125 0.125 0.125 0.125 0.125 0.125 0.125 0.125 0.125 0.125 0.125 3.8376519710180524e-05 3.8376519710180524e-05 3.8376519710180524e-05 3.8376519710180524e-05 3.8376519710180524e-05 0.9997313643620288 3.8376519710180524e-05 3.8376519710180524e-05 0.125 0.125 0.125 0.125 0.125 0.125 0.125 0.125 1.644996578407117e-05 1.644996578407117e-05 1.644996578407117e-05 1.644996578407117e-05 1.644996578407117e-05 1.644996578407117e-05 0.9998848502395116 1.644996578407117e-05 0.125 0.125 0.125 0.125 0.125 0.125 0.125 0.125 0.125 0.125 0.125 0.125 0.125 0.125 0.125 0.125 0.125 0.125 0.125 0.125 0.125 0.125 0.125 0.125 0.125 0.125 0.125 0.125 0.125 0.125 0.125 0.125 0.125 0.125 0.125 0.125 0.125 0.125 0.125 0.125 0.125 0.125 0.125 0.125 0.125 0.125 0.125 0.125 2.8784599088103904e-05 2.8784599088103904e-05 2.8784599088103904e-05 2.8784599088103904e-05 2.8784599088103904e-05 0.9997985078063834 2.8784599088103904e-05 2.8784599088103904e-05 0.125 0.125 0.125 0.125 0.125 0.125 0.125 0.125 5.755594437793536e-05 5.755594437793536e-05 5.755594437793536e-05 5.755594437793536e-05 5.755594437793536e-05 5.755594437793536e-05 0.9995971083893544 5.755594437793536e-05 0.125 0.125 0.125 0.125 0.125 0.125 0.125 0.125 0.125 0.125 0.125 0.125 0.125 0.125 0.125 0.125 0.125 0.125 0.125 0.125 0.125 0.125 0.125 0.125 3.8376519710180524e-05 3.8376519710180524e-05 3.8376519710180524e-05 0.6665003684145893 0.3332693724671497 3.8376519710180524e-05 3.8376519710180524e-05 3.8376519710180524e-05 0.125 0.125 0.125 0.125 0.125 0.125 0.125 0.125 0.125 0.125 0.125 0.125 0.125 0.125 0.125 0.125 0.00011505891016200296 0.00011505891016200296 0.00011505891016200296 0.00011505891016200296 0.00011505891016200296 0.999194587628866 0.00011505891016200296 0.00011505891016200296 0.125 0.125 0.125 0.125 0.125 0.125 0.125 0.125 2.8784599088103904e-05 2.8784599088103904e-05 2.8784599088103904e-05 2.8784599088103904e-05 2.8784599088103904e-05 2.8784599088103904e-05 0.9997985078063834 2.8784599088103904e-05 0.125 0.125 0.125 0.125 0.125 0.125 0.125 0.125 0.125 0.125 0.125 0.125 0.125 0.125 0.125 0.125 0.125 0.125 0.125 0.125 0.125 0.125 0.125 0.125 3.8376519710180524e-05 3.8376519710180524e-05 3.8376519710180524e-05 0.9997313643620288 3.8376519710180524e-05 3.8376519710180524e-05 3.8376519710180524e-05 3.8376519710180524e-05 0.125 0.125 0.125 0.125 0.125 0.125 0.125 0.125 0.125 0.125 0.125 0.125 0.125 0.125 0.125 0.125 2.8784599088103904e-05 2.8784599088103904e-05 2.8784599088103904e-05 2.8784599088103904e-05 2.8784599088103904e-05 0.9997985078063834 2.8784599088103904e-05 2.8784599088103904e-05 0.125 0.125 0.125 0.125 0.125 0.125 0.125 0.125 1.644996578407117e-05 1.644996578407117e-05 1.644996578407117e-05 1.644996578407117e-05 1.644996578407117e-05 1.644996578407117e-05 0.9998848502395116 1.644996578407117e-05 0.125 0.125 0.125 0.125 0.125 0.125 0.125 0.125 0.125 0.125 0.125 0.125 0.125 0.125 0.125 0.125 0.125 0.125 0.125 0.125 0.125 0.125 0.125 0.125 0.125 0.125 0.125 0.125 0.125 0.125 0.125 0.125 0.125 0.125 0.125 0.125 0.125 0.125 0.125 0.125 0.125 0.125 0.125 0.125 0.125 0.125 0.125 0.125 3.8376519710180524e-05 3.8376519710180524e-05 3.8376519710180524e-05 3.8376519710180524e-05 3.8376519710180524e-05 0.9997313643620288 3.8376519710180524e-05 3.8376519710180524e-05 0.125 0.125 0.125 0.125 0.125 0.125 0.125 0.125 1.4393956841159808e-05 1.4393956841159808e-05 1.4393956841159808e-05 1.4393956841159808e-05 1.4393956841159808e-05 1.4393956841159808e-05 0.9998992423021119 1.4393956841159808e-05 0.125 0.125 0.125 0.125 0.125 0.125 0.125 0.125 0.125 0.125 0.125 0.125 0.125 0.125 0.125 0.125 5.755594437793536e-05 0.9995971083893544 5.755594437793536e-05 5.755594437793536e-05 5.755594437793536e-05 5.755594437793536e-05 5.755594437793536e-05 5.755594437793536e-05 0.00011505891016200296 0.00011505891016200296 0.00011505891016200296 0.999194587628866 0.00011505891016200296 0.00011505891016200296 0.00011505891016200296 0.00011505891016200296 5.755594437793536e-05 5.755594437793536e-05 5.755594437793536e-05 5.755594437793536e-05 0.9995971083893544 5.755594437793536e-05 5.755594437793536e-05 5.755594437793536e-05 0.125 0.125 0.125 0.125 0.125 0.125 0.125 0.125 0.125 0.125 0.125 0.125 0.125 0.125 0.125 0.125 5.755594437793536e-05 5.755594437793536e-05 5.755594437793536e-05 5.755594437793536e-05 5.755594437793536e-05 0.9995971083893544 5.755594437793536e-05 5.755594437793536e-05 0.125 0.125 0.125 0.125 0.125 0.125 0.125 0.125 0.125 0.125 0.125 0.125 0.125 0.125 0.125 0.125 1.91912058218442e-05 1.91912058218442e-05 1.91912058218442e-05 1.91912058218442e-05 1.91912058218442e-05 1.91912058218442e-05 0.999865661559247 1.91912058218442e-05 0.125 0.125 0.125 0.125 0.125 0.125 0.125 0.125 0.125 0.125 0.125 0.125 0.125 0.125 0.125 0.125 0.00011505891016200296 0.00011505891016200296 0.00011505891016200296 0.00011505891016200296 0.999194587628866 0.00011505891016200296 0.00011505891016200296 0.00011505891016200296 0.125 0.125 0.125 0.125 0.125 0.125 0.125 0.125 0.125 0.125 0.125 0.125 0.125 0.125 0.125 0.125 3.8376519710180524e-05 3.8376519710180524e-05 3.8376519710180524e-05 3.8376519710180524e-05 3.8376519710180524e-05 0.9997313643620288 3.8376519710180524e-05 3.8376519710180524e-05 0.125 0.125 0.125 0.125 0.125 0.125 0.125 0.125 0.999194587628866 0.00011505891016200296 0.00011505891016200296 0.00011505891016200296 0.00011505891016200296 0.00011505891016200296 0.00011505891016200296 0.00011505891016200296 2.8784599088103904e-05 2.8784599088103904e-05 2.8784599088103904e-05 2.8784599088103904e-05 2.8784599088103904e-05 2.8784599088103904e-05 0.9997985078063834 2.8784599088103904e-05 0.125 0.125 0.125 0.125 0.125 0.125 0.125 0.125 5.755594437793536e-05 5.755594437793536e-05 5.755594437793536e-05 0.9995971083893544 5.755594437793536e-05 5.755594437793536e-05 5.755594437793536e-05 5.755594437793536e-05 3.8376519710180524e-05 3.8376519710180524e-05 3.8376519710180524e-05 3.8376519710180524e-05 0.9997313643620288 3.8376519710180524e-05 3.8376519710180524e-05 3.8376519710180524e-05 0.125 0.125 0.125 0.125 0.125 0.125 0.125 0.125 0.125 0.125 0.125 0.125 0.125 0.125 0.125 0.125 3.8376519710180524e-05 3.8376519710180524e-05 3.8376519710180524e-05 3.8376519710180524e-05 3.8376519710180524e-05 0.9997313643620288 3.8376519710180524e-05 3.8376519710180524e-05 0.125 0.125 0.125 0.125 0.125 0.125 0.125 0.125 0.999194587628866 0.00011505891016200296 0.00011505891016200296 0.00011505891016200296 0.00011505891016200296 0.00011505891016200296 0.00011505891016200296 0.00011505891016200296 2.302873986735446e-05 2.302873986735446e-05 2.302873986735446e-05 2.302873986735446e-05 2.302873986735446e-05 2.302873986735446e-05 0.9998387988209285 2.302873986735446e-05 0.00011505891016200296 0.999194587628866 0.00011505891016200296 0.00011505891016200296 0.00011505891016200296 0.00011505891016200296 0.00011505891016200296 0.00011505891016200296 3.8376519710180524e-05 3.8376519710180524e-05 3.8376519710180524e-05 0.9997313643620288 3.8376519710180524e-05 3.8376519710180524e-05 3.8376519710180524e-05 3.8376519710180524e-05 0.00011505891016200296 0.00011505891016200296 0.00011505891016200296 0.00011505891016200296 0.999194587628866 0.00011505891016200296 0.00011505891016200296 0.00011505891016200296 0.125 0.125 0.125 0.125 0.125 0.125 0.125 0.125 0.125 0.125 0.125 0.125 0.125 0.125 0.125 0.125 2.302873986735446e-05 2.302873986735446e-05 2.302873986735446e-05 2.302873986735446e-05 2.302873986735446e-05 0.9998387988209285 2.302873986735446e-05 2.302873986735446e-05 0.125 0.125 0.125 0.125 0.125 0.125 0.125 0.125 0.6665003684145893 3.8376519710180524e-05 3.8376519710180524e-05 3.8376519710180524e-05 3.8376519710180524e-05 3.8376519710180524e-05 3.8376519710180524e-05 0.3332693724671497 2.302873986735446e-05 2.302873986735446e-05 2.302873986735446e-05 2.302873986735446e-05 2.302873986735446e-05 2.302873986735446e-05 0.9998387988209285 2.302873986735446e-05 0.00011505891016200296 0.00011505891016200296 0.999194587628866 0.00011505891016200296 0.00011505891016200296 0.00011505891016200296 0.00011505891016200296 0.00011505891016200296 0.00011505891016200296 0.00011505891016200296 0.00011505891016200296 0.999194587628866 0.00011505891016200296 0.00011505891016200296 0.00011505891016200296 0.00011505891016200296 5.755594437793536e-05 5.755594437793536e-05 5.755594437793536e-05 5.755594437793536e-05 0.9995971083893544 5.755594437793536e-05 5.755594437793536e-05 5.755594437793536e-05 0.125 0.125 0.125 0.125 0.125 0.125 0.125 0.125 0.125 0.125 0.125 0.125 0.125 0.125 0.125 0.125 5.755594437793536e-05 5.755594437793536e-05 5.755594437793536e-05 5.755594437793536e-05 5.755594437793536e-05 0.9995971083893544 5.755594437793536e-05 5.755594437793536e-05 0.125 0.125 0.125 0.125 0.125 0.125 0.125 0.125 0.125 0.125 0.125 0.125 0.125 0.125 0.125 0.125 1.644996578407117e-05 1.644996578407117e-05 1.644996578407117e-05 1.644996578407117e-05 1.644996578407117e-05 1.644996578407117e-05 0.9998848502395116 1.644996578407117e-05 0.00011505891016200296 0.999194587628866 0.00011505891016200296 0.00011505891016200296 0.00011505891016200296 0.00011505891016200296 0.00011505891016200296 0.00011505891016200296 5.755594437793536e-05 5.755594437793536e-05 5.755594437793536e-05 0.9995971083893544 5.755594437793536e-05 5.755594437793536e-05 5.755594437793536e-05 5.755594437793536e-05 0.00011505891016200296 0.00011505891016200296 0.00011505891016200296 0.00011505891016200296 0.999194587628866 0.00011505891016200296 0.00011505891016200296 0.00011505891016200296 0.125 0.125 0.125 0.125 0.125 0.125 0.125 0.125 0.125 0.125 0.125 0.125 0.125 0.125 0.125 0.125 5.755594437793536e-05 5.755594437793536e-05 5.755594437793536e-05 5.755594437793536e-05 5.755594437793536e-05 0.9995971083893544 5.755594437793536e-05 5.755594437793536e-05 0.125 0.125 0.125 0.125 0.125 0.125 0.125 0.125 0.125 0.125 0.125 0.125 0.125 0.125 0.125 0.125 2.8784599088103904e-05 2.8784599088103904e-05 2.8784599088103904e-05 2.8784599088103904e-05 2.8784599088103904e-05 2.8784599088103904e-05 0.9997985078063834 2.8784599088103904e-05 0.00011505891016200296 0.999194587628866 0.00011505891016200296 0.00011505891016200296 0.00011505891016200296 0.00011505891016200296 0.00011505891016200296 0.00011505891016200296 0.125 0.125 0.125 0.125 0.125 0.125 0.125 0.125 5.755594437793536e-05 5.755594437793536e-05 5.755594437793536e-05 5.755594437793536e-05 0.9995971083893544 5.755594437793536e-05 5.755594437793536e-05 5.755594437793536e-05 0.125 0.125 0.125 0.125 0.125 0.125 0.125 0.125 0.125 0.125 0.125 0.125 0.125 0.125 0.125 0.125 2.8784599088103904e-05 2.8784599088103904e-05 2.8784599088103904e-05 2.8784599088103904e-05 2.8784599088103904e-05 0.9997985078063834 2.8784599088103904e-05 2.8784599088103904e-05 0.125 0.125 0.125 0.125 0.125 0.125 0.125 0.125 0.999194587628866 0.00011505891016200296 0.00011505891016200296 0.00011505891016200296 0.00011505891016200296 0.00011505891016200296 0.00011505891016200296 0.00011505891016200296 3.8376519710180524e-05 3.8376519710180524e-05 3.8376519710180524e-05 3.8376519710180524e-05 3.8376519710180524e-05 3.8376519710180524e-05 0.9997313643620288 3.8376519710180524e-05 5.755594437793536e-05 5.755594437793536e-05 0.9995971083893544 5.755594437793536e-05 5.755594437793536e-05 5.755594437793536e-05 5.755594437793536e-05 5.755594437793536e-05 5.755594437793536e-05 5.755594437793536e-05 5.755594437793536e-05 0.9995971083893544 5.755594437793536e-05 5.755594437793536e-05 5.755594437793536e-05 5.755594437793536e-05 5.755594437793536e-05 5.755594437793536e-05 5.755594437793536e-05 5.755594437793536e-05 0.9995971083893544 5.755594437793536e-05 5.755594437793536e-05 5.755594437793536e-05 0.125 0.125 0.125 0.125 0.125 0.125 0.125 0.125 0.125 0.125 0.125 0.125 0.125 0.125 0.125 0.125 5.755594437793536e-05 5.755594437793536e-05 5.755594437793536e-05 5.755594437793536e-05 5.755594437793536e-05 0.9995971083893544 5.755594437793536e-05 5.755594437793536e-05 0.125 0.125 0.125 0.125 0.125 0.125 0.125 0.125 0.9995971083893544 5.755594437793536e-05 5.755594437793536e-05 5.755594437793536e-05 5.755594437793536e-05 5.755594437793536e-05 5.755594437793536e-05 5.755594437793536e-05 5.755594437793536e-05 5.755594437793536e-05 5.755594437793536e-05 5.755594437793536e-05 5.755594437793536e-05 5.755594437793536e-05 0.9995971083893544 5.755594437793536e-05 3.8376519710180524e-05 3.8376519710180524e-05 0.9997313643620288 3.8376519710180524e-05 3.8376519710180524e-05 3.8376519710180524e-05 3.8376519710180524e-05 3.8376519710180524e-05 0.00011505891016200296 0.00011505891016200296 0.00011505891016200296 0.999194587628866 0.00011505891016200296 0.00011505891016200296 0.00011505891016200296 0.00011505891016200296 0.00011505891016200296 0.00011505891016200296 0.00011505891016200296 0.00011505891016200296 0.999194587628866 0.00011505891016200296 0.00011505891016200296 0.00011505891016200296 0.125 0.125 0.125 0.125 0.125 0.125 0.125 0.125 0.125 0.125 0.125 0.125 0.125 0.125 0.125 0.125 2.302873986735446e-05 2.302873986735446e-05 2.302873986735446e-05 2.302873986735446e-05 2.302873986735446e-05 0.9998387988209285 2.302873986735446e-05 2.302873986735446e-05 0.125 0.125 0.125 0.125 0.125 0.125 0.125 0.125 0.125 0.125 0.125 0.125 0.125 0.125 0.125 0.125 5.755594437793536e-05 5.755594437793536e-05 5.755594437793536e-05 5.755594437793536e-05 5.755594437793536e-05 5.755594437793536e-05 0.9995971083893544 5.755594437793536e-05 5.755594437793536e-05 0.4998273321668662 0.4998273321668662 5.755594437793536e-05 5.755594437793536e-05 5.755594437793536e-05 5.755594437793536e-05 5.755594437793536e-05 0.00011505891016200296 0.00011505891016200296 0.00011505891016200296 0.999194587628866 0.00011505891016200296 0.00011505891016200296 0.00011505891016200296 0.00011505891016200296 0.125 0.125 0.125 0.125 0.125 0.125 0.125 0.125 0.125 0.125 0.125 0.125 0.125 0.125 0.125 0.125 0.125 0.125 0.125 0.125 0.125 0.125 0.125 0.125 3.8376519710180524e-05 3.8376519710180524e-05 3.8376519710180524e-05 3.8376519710180524e-05 3.8376519710180524e-05 0.9997313643620288 3.8376519710180524e-05 3.8376519710180524e-05 0.125 0.125 0.125 0.125 0.125 0.125 0.125 0.125 0.125 0.125 0.125 0.125 0.125 0.125 0.125 0.125 1.1515430677107325e-05 1.1515430677107325e-05 1.1515430677107325e-05 1.1515430677107325e-05 1.1515430677107325e-05 1.1515430677107325e-05 0.9999193919852603 1.1515430677107325e-05 0.00011505891016200296 0.00011505891016200296 0.999194587628866 0.00011505891016200296 0.00011505891016200296 0.00011505891016200296 0.00011505891016200296 0.00011505891016200296 3.8376519710180524e-05 3.8376519710180524e-05 3.8376519710180524e-05 0.9997313643620288 3.8376519710180524e-05 3.8376519710180524e-05 3.8376519710180524e-05 3.8376519710180524e-05 5.755594437793536e-05 5.755594437793536e-05 5.755594437793536e-05 5.755594437793536e-05 0.9995971083893544 5.755594437793536e-05 5.755594437793536e-05 5.755594437793536e-05 0.125 0.125 0.125 0.125 0.125 0.125 0.125 0.125 0.125 0.125 0.125 0.125 0.125 0.125 0.125 0.125 2.8784599088103904e-05 2.8784599088103904e-05 2.8784599088103904e-05 2.8784599088103904e-05 2.8784599088103904e-05 0.9997985078063834 2.8784599088103904e-05 2.8784599088103904e-05 0.125 0.125 0.125 0.125 0.125 0.125 0.125 0.125 0.125 0.125 0.125 0.125 0.125 0.125 0.125 0.125 5.755594437793536e-05 5.755594437793536e-05 5.755594437793536e-05 5.755594437793536e-05 5.755594437793536e-05 5.755594437793536e-05 0.9995971083893544 5.755594437793536e-05 0.125 0.125 0.125 0.125 0.125 0.125 0.125 0.125 0.125 0.125 0.125 0.125 0.125 0.125 0.125 0.125 3.8376519710180524e-05 3.8376519710180524e-05 3.8376519710180524e-05 3.8376519710180524e-05 0.9997313643620288 3.8376519710180524e-05 3.8376519710180524e-05 3.8376519710180524e-05 0.125 0.125 0.125 0.125 0.125 0.125 0.125 0.125 0.125 0.125 0.125 0.125 0.125 0.125 0.125 0.125 1.644996578407117e-05 1.644996578407117e-05 1.644996578407117e-05 1.644996578407117e-05 1.644996578407117e-05 0.9998848502395116 1.644996578407117e-05 1.644996578407117e-05 0.125 0.125 0.125 0.125 0.125 0.125 0.125 0.125 0.125 0.125 0.125 0.125 0.125 0.125 0.125 0.125 2.8784599088103904e-05 2.8784599088103904e-05 2.8784599088103904e-05 2.8784599088103904e-05 2.8784599088103904e-05 2.8784599088103904e-05 0.9997985078063834 2.8784599088103904e-05 2.8784599088103904e-05 0.7498560770045595 0.2499712154009119 2.8784599088103904e-05 2.8784599088103904e-05 2.8784599088103904e-05 2.8784599088103904e-05 2.8784599088103904e-05 5.755594437793536e-05 5.755594437793536e-05 5.755594437793536e-05 0.9995971083893544 5.755594437793536e-05 5.755594437793536e-05 5.755594437793536e-05 5.755594437793536e-05 5.755594437793536e-05 5.755594437793536e-05 5.755594437793536e-05 5.755594437793536e-05 0.9995971083893544 5.755594437793536e-05 5.755594437793536e-05 5.755594437793536e-05 0.125 0.125 0.125 0.125 0.125 0.125 0.125 0.125 0.125 0.125 0.125 0.125 0.125 0.125 0.125 0.125 0.00011505891016200296 0.00011505891016200296 0.00011505891016200296 0.00011505891016200296 0.00011505891016200296 0.999194587628866 0.00011505891016200296 0.00011505891016200296 0.125 0.125 0.125 0.125 0.125 0.125 0.125 0.125 0.125 0.125 0.125 0.125 0.125 0.125 0.125 0.125 1.644996578407117e-05 1.644996578407117e-05 1.644996578407117e-05 1.644996578407117e-05 1.644996578407117e-05 1.644996578407117e-05 0.9998848502395116 1.644996578407117e-05 0.125 0.125 0.125 0.125 0.125 0.125 0.125 0.125 0.125 0.125 0.125 0.125 0.125 0.125 0.125 0.125 5.755594437793536e-05 5.755594437793536e-05 5.755594437793536e-05 5.755594437793536e-05 0.9995971083893544 5.755594437793536e-05 5.755594437793536e-05 5.755594437793536e-05 0.125 0.125 0.125 0.125 0.125 0.125 0.125 0.125 0.125 0.125 0.125 0.125 0.125 0.125 0.125 0.125 2.302873986735446e-05 2.302873986735446e-05 2.302873986735446e-05 2.302873986735446e-05 2.302873986735446e-05 0.9998387988209285 2.302873986735446e-05 2.302873986735446e-05 0.125 0.125 0.125 0.125 0.125 0.125 0.125 0.125 0.125 0.125 0.125 0.125 0.125 0.125 0.125 0.125 5.755594437793536e-05 5.755594437793536e-05 5.755594437793536e-05 5.755594437793536e-05 5.755594437793536e-05 5.755594437793536e-05 0.9995971083893544 5.755594437793536e-05 5.755594437793536e-05 5.755594437793536e-05 0.9995971083893544 5.755594437793536e-05 5.755594437793536e-05 5.755594437793536e-05 5.755594437793536e-05 5.755594437793536e-05 0.00011505891016200296 0.00011505891016200296 0.00011505891016200296 0.999194587628866 0.00011505891016200296 0.00011505891016200296 0.00011505891016200296 0.00011505891016200296 3.8376519710180524e-05 3.8376519710180524e-05 3.8376519710180524e-05 3.8376519710180524e-05 0.9997313643620288 3.8376519710180524e-05 3.8376519710180524e-05 3.8376519710180524e-05 0.125 0.125 0.125 0.125 0.125 0.125 0.125 0.125 0.125 0.125 0.125 0.125 0.125 0.125 0.125 0.125 5.755594437793536e-05 5.755594437793536e-05 5.755594437793536e-05 5.755594437793536e-05 5.755594437793536e-05 0.9995971083893544 5.755594437793536e-05 5.755594437793536e-05 0.125 0.125 0.125 0.125 0.125 0.125 0.125 0.125 5.755594437793536e-05 5.755594437793536e-05 5.755594437793536e-05 5.755594437793536e-05 5.755594437793536e-05 5.755594437793536e-05 5.755594437793536e-05 0.9995971083893544 1.644996578407117e-05 1.644996578407117e-05 1.644996578407117e-05 1.644996578407117e-05 1.644996578407117e-05 1.644996578407117e-05 0.9998848502395116 1.644996578407117e-05 0.00011505891016200296 0.00011505891016200296 0.999194587628866 0.00011505891016200296 0.00011505891016200296 0.00011505891016200296 0.00011505891016200296 0.00011505891016200296 0.00011505891016200296 0.00011505891016200296 0.00011505891016200296 0.999194587628866 0.00011505891016200296 0.00011505891016200296 0.00011505891016200296 0.00011505891016200296 3.8376519710180524e-05 3.8376519710180524e-05 3.8376519710180524e-05 3.8376519710180524e-05 0.9997313643620288 3.8376519710180524e-05 3.8376519710180524e-05 3.8376519710180524e-05 0.125 0.125 0.125 0.125 0.125 0.125 0.125 0.125 0.125 0.125 0.125 0.125 0.125 0.125 0.125 0.125 0.00011505891016200296 0.00011505891016200296 0.00011505891016200296 0.00011505891016200296 0.00011505891016200296 0.999194587628866 0.00011505891016200296 0.00011505891016200296 0.125 0.125 0.125 0.125 0.125 0.125 0.125 0.125 0.125 0.125 0.125 0.125 0.125 0.125 0.125 0.125 5.755594437793536e-05 5.755594437793536e-05 5.755594437793536e-05 5.755594437793536e-05 5.755594437793536e-05 5.755594437793536e-05 0.9995971083893544 5.755594437793536e-05 0.125 0.125 0.125 0.125 0.125 0.125 0.125 0.125 0.125 0.125 0.125 0.125 0.125 0.125 0.125 0.125 5.755594437793536e-05 5.755594437793536e-05 5.755594437793536e-05 5.755594437793536e-05 0.9995971083893544 5.755594437793536e-05 5.755594437793536e-05 5.755594437793536e-05 0.125 0.125 0.125 0.125 0.125 0.125 0.125 0.125 0.125 0.125 0.125 0.125 0.125 0.125 0.125 0.125 5.755594437793536e-05 5.755594437793536e-05 5.755594437793536e-05 5.755594437793536e-05 5.755594437793536e-05 0.9995971083893544 5.755594437793536e-05 5.755594437793536e-05 0.125 0.125 0.125 0.125 0.125 0.125 0.125 0.125 0.125 0.125 0.125 0.125 0.125 0.125 0.125 0.125 0.00011505891016200296 0.00011505891016200296 0.00011505891016200296 0.00011505891016200296 0.00011505891016200296 0.00011505891016200296 0.999194587628866 0.00011505891016200296 0.00011505891016200296 0.999194587628866 0.00011505891016200296 0.00011505891016200296 0.00011505891016200296 0.00011505891016200296 0.00011505891016200296 0.00011505891016200296 5.755594437793536e-05 5.755594437793536e-05 5.755594437793536e-05 0.9995971083893544 5.755594437793536e-05 5.755594437793536e-05 5.755594437793536e-05 5.755594437793536e-05 5.755594437793536e-05 5.755594437793536e-05 5.755594437793536e-05 5.755594437793536e-05 0.9995971083893544 5.755594437793536e-05 5.755594437793536e-05 5.755594437793536e-05 0.125 0.125 0.125 0.125 0.125 0.125 0.125 0.125 0.125 0.125 0.125 0.125 0.125 0.125 0.125 0.125 0.00011505891016200296 0.00011505891016200296 0.00011505891016200296 0.00011505891016200296 0.00011505891016200296 0.999194587628866 0.00011505891016200296 0.00011505891016200296 0.125 0.125 0.125 0.125 0.125 0.125 0.125 0.125 0.00011505891016200296 0.00011505891016200296 0.00011505891016200296 0.00011505891016200296 0.00011505891016200296 0.00011505891016200296 0.00011505891016200296 0.999194587628866 5.755594437793536e-05 5.755594437793536e-05 5.755594437793536e-05 5.755594437793536e-05 5.755594437793536e-05 5.755594437793536e-05 0.9995971083893544 5.755594437793536e-05 0.125 0.125 0.125 0.125 0.125 0.125 0.125 0.125 0.00011505891016200296 0.00011505891016200296 0.00011505891016200296 0.999194587628866 0.00011505891016200296 0.00011505891016200296 0.00011505891016200296 0.00011505891016200296 5.755594437793536e-05 5.755594437793536e-05 5.755594437793536e-05 5.755594437793536e-05 0.9995971083893544 5.755594437793536e-05 5.755594437793536e-05 5.755594437793536e-05 0.125 0.125 0.125 0.125 0.125 0.125 0.125 0.125 0.125 0.125 0.125 0.125 0.125 0.125 0.125 0.125 2.8784599088103904e-05 2.8784599088103904e-05 2.8784599088103904e-05 2.8784599088103904e-05 2.8784599088103904e-05 0.9997985078063834 2.8784599088103904e-05 2.8784599088103904e-05 0.125 0.125 0.125 0.125 0.125 0.125 0.125 0.125 0.125 0.125 0.125 0.125 0.125 0.125 0.125 0.125 3.8376519710180524e-05 3.8376519710180524e-05 3.8376519710180524e-05 3.8376519710180524e-05 3.8376519710180524e-05 3.8376519710180524e-05 0.9997313643620288 3.8376519710180524e-05 0.00011505891016200296 0.00011505891016200296 0.999194587628866 0.00011505891016200296 0.00011505891016200296 0.00011505891016200296 0.00011505891016200296 0.00011505891016200296 0.00011505891016200296 0.00011505891016200296 0.00011505891016200296 0.999194587628866 0.00011505891016200296 0.00011505891016200296 0.00011505891016200296 0.00011505891016200296 3.8376519710180524e-05 3.8376519710180524e-05 3.8376519710180524e-05 3.8376519710180524e-05 0.9997313643620288 3.8376519710180524e-05 3.8376519710180524e-05 3.8376519710180524e-05 0.125 0.125 0.125 0.125 0.125 0.125 0.125 0.125 0.125 0.125 0.125 0.125 0.125 0.125 0.125 0.125 2.8784599088103904e-05 2.8784599088103904e-05 2.8784599088103904e-05 2.8784599088103904e-05 2.8784599088103904e-05 0.9997985078063834 2.8784599088103904e-05 2.8784599088103904e-05 0.125 0.125 0.125 0.125 0.125 0.125 0.125 0.125 0.125 0.125 0.125 0.125 0.125 0.125 0.125 0.125 3.8376519710180524e-05 3.8376519710180524e-05 3.8376519710180524e-05 3.8376519710180524e-05 3.8376519710180524e-05 3.8376519710180524e-05 0.9997313643620288 3.8376519710180524e-05 5.755594437793536e-05 0.4998273321668662 0.4998273321668662 5.755594437793536e-05 5.755594437793536e-05 5.755594437793536e-05 5.755594437793536e-05 5.755594437793536e-05 5.755594437793536e-05 5.755594437793536e-05 5.755594437793536e-05 0.9995971083893544 5.755594437793536e-05 5.755594437793536e-05 5.755594437793536e-05 5.755594437793536e-05 0.00011505891016200296 0.00011505891016200296 0.00011505891016200296 0.00011505891016200296 0.999194587628866 0.00011505891016200296 0.00011505891016200296 0.00011505891016200296 0.125 0.125 0.125 0.125 0.125 0.125 0.125 0.125 0.125 0.125 0.125 0.125 0.125 0.125 0.125 0.125 3.8376519710180524e-05 3.8376519710180524e-05 3.8376519710180524e-05 3.8376519710180524e-05 3.8376519710180524e-05 0.9997313643620288 3.8376519710180524e-05 3.8376519710180524e-05 0.125 0.125 0.125 0.125 0.125 0.125 0.125 0.125 0.125 0.125 0.125 0.125 0.125 0.125 0.125 0.125 2.8784599088103904e-05 2.8784599088103904e-05 2.8784599088103904e-05 2.8784599088103904e-05 2.8784599088103904e-05 2.8784599088103904e-05 0.9997985078063834 2.8784599088103904e-05 0.125 0.125 0.125 0.125 0.125 0.125 0.125 0.125 5.755594437793536e-05 5.755594437793536e-05 5.755594437793536e-05 0.9995971083893544 5.755594437793536e-05 5.755594437793536e-05 5.755594437793536e-05 5.755594437793536e-05 0.00011505891016200296 0.00011505891016200296 0.00011505891016200296 0.00011505891016200296 0.999194587628866 0.00011505891016200296 0.00011505891016200296 0.00011505891016200296 0.125 0.125 0.125 0.125 0.125 0.125 0.125 0.125 0.125 0.125 0.125 0.125 0.125 0.125 0.125 0.125 3.8376519710180524e-05 3.8376519710180524e-05 3.8376519710180524e-05 3.8376519710180524e-05 3.8376519710180524e-05 0.9997313643620288 3.8376519710180524e-05 3.8376519710180524e-05 0.125 0.125 0.125 0.125 0.125 0.125 0.125 0.125 0.125 0.125 0.125 0.125 0.125 0.125 0.125 0.125 3.8376519710180524e-05 3.8376519710180524e-05 3.8376519710180524e-05 3.8376519710180524e-05 3.8376519710180524e-05 3.8376519710180524e-05 0.9997313643620288 3.8376519710180524e-05 0.00011505891016200296 0.00011505891016200296 0.999194587628866 0.00011505891016200296 0.00011505891016200296 0.00011505891016200296 0.00011505891016200296 0.00011505891016200296 0.00011505891016200296 0.00011505891016200296 0.00011505891016200296 0.999194587628866 0.00011505891016200296 0.00011505891016200296 0.00011505891016200296 0.00011505891016200296 3.8376519710180524e-05 3.8376519710180524e-05 3.8376519710180524e-05 3.8376519710180524e-05 0.9997313643620288 3.8376519710180524e-05 3.8376519710180524e-05 3.8376519710180524e-05 0.125 0.125 0.125 0.125 0.125 0.125 0.125 0.125 0.125 0.125 0.125 0.125 0.125 0.125 0.125 0.125 5.755594437793536e-05 5.755594437793536e-05 5.755594437793536e-05 