<?xml version='1.0' encoding='utf-8'?>
<BIF VERSION="0.3">
  <NETWORK>
    <NAME>UNTITLED</NAME>
    <VARIABLE TYPE="nature">
      <NAME>AMCINInScen</NAME>
      <OUTCOME>0</OUTCOME>
      <OUTCOME>1</OUTCOME>
      <OUTCOME>2</OUTCOME>
      <PROPERTY>weight = None</PROPERTY>
    </VARIABLE>
    <VARIABLE TYPE="nature">
      <NAME>AMDewptCalPl</NAME>
      <OUTCOME>0</OUTCOME>
      <OUTCOME>1</OUTCOME>
      <OUTCOME>2</OUTCOME>
      <PROPERTY>weight = None</PROPERTY>
    </VARIABLE>
    <VARIABLE TYPE="nature">
      <NAME>AMInsWliScen</NAME>
      <OUTCOME>0</OUTCOME>
      <OUTCOME>1</OUTCOME>
      <OUTCOME>2</OUTCOME>
      <PROPERTY>weight = None</PROPERTY>
    </VARIABLE>
    <VARIABLE TYPE="nature">
      <NAME>AMInstabMt</NAME>
      <OUTCOME>0</OUTCOME>
      <OUTCOME>1</OUTCOME>
      <OUTCOME>2</OUTCOME>
      <PROPERTY>weight = None</PROPERTY>
    </VARIABLE>
    <VARIABLE TYPE="nature">
      <NAME>AreaMeso_ALS</NAME>
      <OUTCOME>0</OUTCOME>
      <OUTCOME>1</OUTCOME>
      <OUTCOME>2</OUTCOME>
      <OUTCOME>3</OUTCOME>
      <PROPERTY>weight = None</PROPERTY>
    </VARIABLE>
    <VARIABLE TYPE="nature">
      <NAME>AreaMoDryAir</NAME>
      <OUTCOME>0</OUTCOME>
      <OUTCOME>1</OUTCOME>
      <OUTCOME>2</OUTCOME>
      <OUTCOME>3</OUTCOME>
      <PROPERTY>weight = None</PROPERTY>
    </VARIABLE>
    <VARIABLE TYPE="nature">
      <NAME>Boundaries</NAME>
      <OUTCOME>0</OUTCOME>
      <OUTCOME>1</OUTCOME>
      <OUTCOME>2</OUTCOME>
      <PROPERTY>weight = None</PROPERTY>
    </VARIABLE>
    <VARIABLE TYPE="nature">
      <NAME>CapChange</NAME>
      <OUTCOME>0</OUTCOME>
      <OUTCOME>1</OUTCOME>
      <OUTCOME>2</OUTCOME>
      <PROPERTY>weight = None</PROPERTY>
    </VARIABLE>
    <VARIABLE TYPE="nature">
      <NAME>CapInScen</NAME>
      <OUTCOME>0</OUTCOME>
      <OUTCOME>1</OUTCOME>
      <OUTCOME>2</OUTCOME>
      <PROPERTY>weight = None</PROPERTY>
    </VARIABLE>
    <VARIABLE TYPE="nature">
      <NAME>CldShadeConv</NAME>
      <OUTCOME>0</OUTCOME>
      <OUTCOME>1</OUTCOME>
      <OUTCOME>2</OUTCOME>
      <PROPERTY>weight = None</PROPERTY>
    </VARIABLE>
    <VARIABLE TYPE="nature">
      <NAME>CldShadeOth</NAME>
      <OUTCOME>0</OUTCOME>
      <OUTCOME>1</OUTCOME>
      <OUTCOME>2</OUTCOME>
      <PROPERTY>weight = None</PROPERTY>
    </VARIABLE>
    <VARIABLE TYPE="nature">
      <NAME>CombClouds</NAME>
      <OUTCOME>0</OUTCOME>
      <OUTCOME>1</OUTCOME>
      <OUTCOME>2</OUTCOME>
      <PROPERTY>weight = None</PROPERTY>
    </VARIABLE>
    <VARIABLE TYPE="nature">
      <NAME>CombMoisture</NAME>
      <OUTCOME>0</OUTCOME>
      <OUTCOME>1</OUTCOME>
      <OUTCOME>2</OUTCOME>
      <OUTCOME>3</OUTCOME>
      <PROPERTY>weight = None</PROPERTY>
    </VARIABLE>
    <VARIABLE TYPE="nature">
      <NAME>CombVerMo</NAME>
      <OUTCOME>0</OUTCOME>
      <OUTCOME>1</OUTCOME>
      <OUTCOME>2</OUTCOME>
      <OUTCOME>3</OUTCOME>
      <PROPERTY>weight = None</PROPERTY>
    </VARIABLE>
    <VARIABLE TYPE="nature">
      <NAME>CompPlFcst</NAME>
      <OUTCOME>0</OUTCOME>
      <OUTCOME>1</OUTCOME>
      <OUTCOME>2</OUTCOME>
      <PROPERTY>weight = None</PROPERTY>
    </VARIABLE>
    <VARIABLE TYPE="nature">
      <NAME>CurPropConv</NAME>
      <OUTCOME>0</OUTCOME>
      <OUTCOME>1</OUTCOME>
      <OUTCOME>2</OUTCOME>
      <OUTCOME>3</OUTCOME>
      <PROPERTY>weight = None</PROPERTY>
    </VARIABLE>
    <VARIABLE TYPE="nature">
      <NAME>Date</NAME>
      <OUTCOME>0</OUTCOME>
      <OUTCOME>1</OUTCOME>
      <OUTCOME>2</OUTCOME>
      <OUTCOME>3</OUTCOME>
      <OUTCOME>4</OUTCOME>
      <OUTCOME>5</OUTCOME>
      <PROPERTY>weight = None</PROPERTY>
    </VARIABLE>
    <VARIABLE TYPE="nature">
      <NAME>Dewpoints</NAME>
      <OUTCOME>0</OUTCOME>
      <OUTCOME>1</OUTCOME>
      <OUTCOME>2</OUTCOME>
      <OUTCOME>3</OUTCOME>
      <OUTCOME>4</OUTCOME>
      <OUTCOME>5</OUTCOME>
      <OUTCOME>6</OUTCOME>
      <PROPERTY>weight = None</PROPERTY>
    </VARIABLE>
    <VARIABLE TYPE="nature">
      <NAME>IRCloudCover</NAME>
      <OUTCOME>0</OUTCOME>
      <OUTCOME>1</OUTCOME>
      <OUTCOME>2</OUTCOME>
      <PROPERTY>weight = None</PROPERTY>
    </VARIABLE>
    <VARIABLE TYPE="nature">
      <NAME>InsChange</NAME>
      <OUTCOME>0</OUTCOME>
      <OUTCOME>1</OUTCOME>
      <OUTCOME>2</OUTCOME>
      <PROPERTY>weight = None</PROPERTY>
    </VARIABLE>
    <VARIABLE TYPE="nature">
      <NAME>InsInMt</NAME>
      <OUTCOME>0</OUTCOME>
      <OUTCOME>1</OUTCOME>
      <OUTCOME>2</OUTCOME>
      <PROPERTY>weight = None</PROPERTY>
    </VARIABLE>
    <VARIABLE TYPE="nature">
      <NAME>InsSclInScen</NAME>
      <OUTCOME>0</OUTCOME>
      <OUTCOME>1</OUTCOME>
      <OUTCOME>2</OUTCOME>
      <PROPERTY>weight = None</PROPERTY>
    </VARIABLE>
    <VARIABLE TYPE="nature">
      <NAME>LIfr12ZDENSd</NAME>
      <OUTCOME>0</OUTCOME>
      <OUTCOME>1</OUTCOME>
      <OUTCOME>2</OUTCOME>
      <OUTCOME>3</OUTCOME>
      <PROPERTY>weight = None</PROPERTY>
    </VARIABLE>
    <VARIABLE TYPE="nature">
      <NAME>LLIW</NAME>
      <OUTCOME>0</OUTCOME>
      <OUTCOME>1</OUTCOME>
      <OUTCOME>2</OUTCOME>
      <OUTCOME>3</OUTCOME>
      <PROPERTY>weight = None</PROPERTY>
    </VARIABLE>
    <VARIABLE TYPE="nature">
      <NAME>LatestCIN</NAME>
      <OUTCOME>0</OUTCOME>
      <OUTCOME>1</OUTCOME>
      <OUTCOME>2</OUTCOME>
      <OUTCOME>3</OUTCOME>
      <PROPERTY>weight = None</PROPERTY>
    </VARIABLE>
    <VARIABLE TYPE="nature">
      <NAME>LoLevMoistAd</NAME>
      <OUTCOME>0</OUTCOME>
      <OUTCOME>1</OUTCOME>
      <OUTCOME>2</OUTCOME>
      <OUTCOME>3</OUTCOME>
      <PROPERTY>weight = None</PROPERTY>
    </VARIABLE>
    <VARIABLE TYPE="nature">
      <NAME>LowLLapse</NAME>
      <OUTCOME>0</OUTCOME>
      <OUTCOME>1</OUTCOME>
      <OUTCOME>2</OUTCOME>
      <OUTCOME>3</OUTCOME>
      <PROPERTY>weight = None</PROPERTY>
    </VARIABLE>
    <VARIABLE TYPE="nature">
      <NAME>MeanRH</NAME>
      <OUTCOME>0</OUTCOME>
      <OUTCOME>1</OUTCOME>
      <OUTCOME>2</OUTCOME>
      <PROPERTY>weight = None</PROPERTY>
    </VARIABLE>
    <VARIABLE TYPE="nature">
      <NAME>MidLLapse</NAME>
      <OUTCOME>0</OUTCOME>
      <OUTCOME>1</OUTCOME>
      <OUTCOME>2</OUTCOME>
      <PROPERTY>weight = None</PROPERTY>
    </VARIABLE>
    <VARIABLE TYPE="nature">
      <NAME>MorningBound</NAME>
      <OUTCOME>0</OUTCOME>
      <OUTCOME>1</OUTCOME>
      <OUTCOME>2</OUTCOME>
      <PROPERTY>weight = None</PROPERTY>
    </VARIABLE>
    <VARIABLE TYPE="nature">
      <NAME>MorningCIN</NAME>
      <OUTCOME>0</OUTCOME>
      <OUTCOME>1</OUTCOME>
      <OUTCOME>2</OUTCOME>
      <OUTCOME>3</OUTCOME>
      <PROPERTY>weight = None</PROPERTY>
    </VARIABLE>
    <VARIABLE TYPE="nature">
      <NAME>MountainFcst</NAME>
      <OUTCOME>0</OUTCOME>
      <OUTCOME>1</OUTCOME>
      <OUTCOME>2</OUTCOME>
      <PROPERTY>weight = None</PROPERTY>
    </VARIABLE>
    <VARIABLE TYPE="nature">
      <NAME>MvmtFeatures</NAME>
      <OUTCOME>0</OUTCOME>
      <OUTCOME>1</OUTCOME>
      <OUTCOME>2</OUTCOME>
      <OUTCOME>3</OUTCOME>
      <PROPERTY>weight = None</PROPERTY>
    </VARIABLE>
    <VARIABLE TYPE="nature">
      <NAME>N0_7muVerMo</NAME>
      <OUTCOME>0</OUTCOME>
      <OUTCOME>1</OUTCOME>
      <OUTCOME>2</OUTCOME>
      <OUTCOME>3</OUTCOME>
      <PROPERTY>weight = None</PROPERTY>
    </VARIABLE>
    <VARIABLE TYPE="nature">
      <NAME>N34StarFcst</NAME>
      <OUTCOME>0</OUTCOME>
      <OUTCOME>1</OUTCOME>
      <OUTCOME>2</OUTCOME>
      <PROPERTY>weight = None</PROPERTY>
    </VARIABLE>
    <VARIABLE TYPE="nature">
      <NAME>OutflowFrMt</NAME>
      <OUTCOME>0</OUTCOME>
      <OUTCOME>1</OUTCOME>
      <OUTCOME>2</OUTCOME>
      <PROPERTY>weight = None</PROPERTY>
    </VARIABLE>
    <VARIABLE TYPE="nature">
      <NAME>PlainsFcst</NAME>
      <OUTCOME>0</OUTCOME>
      <OUTCOME>1</OUTCOME>
      <OUTCOME>2</OUTCOME>
      <PROPERTY>weight = None</PROPERTY>
    </VARIABLE>
    <VARIABLE TYPE="nature">
      <NAME>QGVertMotion</NAME>
      <OUTCOME>0</OUTCOME>
      <OUTCOME>1</OUTCOME>
      <OUTCOME>2</OUTCOME>
      <OUTCOME>3</OUTCOME>
      <PROPERTY>weight = None</PROPERTY>
    </VARIABLE>
    <VARIABLE TYPE="nature">
      <NAME>R5Fcst</NAME>
      <OUTCOME>0</OUTCOME>
      <OUTCOME>1</OUTCOME>
      <OUTCOME>2</OUTCOME>
      <PROPERTY>weight = None</PROPERTY>
    </VARIABLE>
    <VARIABLE TYPE="nature">
      <NAME>RHRatio</NAME>
      <OUTCOME>0</OUTCOME>
      <OUTCOME>1</OUTCOME>
      <OUTCOME>2</OUTCOME>
      <PROPERTY>weight = None</PROPERTY>
    </VARIABLE>
    <VARIABLE TYPE="nature">
      <NAME>RaoContMoist</NAME>
      <OUTCOME>0</OUTCOME>
      <OUTCOME>1</OUTCOME>
      <OUTCOME>2</OUTCOME>
      <OUTCOME>3</OUTCOME>
      <PROPERTY>weight = None</PROPERTY>
    </VARIABLE>
    <VARIABLE TYPE="nature">
      <NAME>SatContMoist</NAME>
      <OUTCOME>0</OUTCOME>
      <OUTCOME>1</OUTCOME>
      <OUTCOME>2</OUTCOME>
      <OUTCOME>3</OUTCOME>
      <PROPERTY>weight = None</PROPERTY>
    </VARIABLE>
    <VARIABLE TYPE="nature">
      <NAME>ScenRel3_4</NAME>
      <OUTCOME>0</OUTCOME>
      <OUTCOME>1</OUTCOME>
      <OUTCOME>2</OUTCOME>
      <OUTCOME>3</OUTCOME>
      <OUTCOME>4</OUTCOME>
      <PROPERTY>weight = None</PROPERTY>
    </VARIABLE>
    <VARIABLE TYPE="nature">
      <NAME>ScenRelAMCIN</NAME>
      <OUTCOME>0</OUTCOME>
      <OUTCOME>1</OUTCOME>
      <PROPERTY>weight = None</PROPERTY>
    </VARIABLE>
    <VARIABLE TYPE="nature">
      <NAME>ScenRelAMIns</NAME>
      <OUTCOME>0</OUTCOME>
      <OUTCOME>1</OUTCOME>
      <OUTCOME>2</OUTCOME>
      <OUTCOME>3</OUTCOME>
      <OUTCOME>4</OUTCOME>
      <OUTCOME>5</OUTCOME>
      <PROPERTY>weight = None</PROPERTY>
    </VARIABLE>
    <VARIABLE TYPE="nature">
      <NAME>Scenario</NAME>
      <OUTCOME>0</OUTCOME>
      <OUTCOME>1</OUTCOME>
      <OUTCOME>2</OUTCOME>
      <OUTCOME>3</OUTCOME>
      <OUTCOME>4</OUTCOME>
      <OUTCOME>5</OUTCOME>
      <OUTCOME>6</OUTCOME>
      <OUTCOME>7</OUTCOME>
      <OUTCOME>8</OUTCOME>
      <OUTCOME>9</OUTCOME>
      <OUTCOME>10</OUTCOME>
      <PROPERTY>weight = None</PROPERTY>
    </VARIABLE>
    <VARIABLE TYPE="nature">
      <NAME>ScnRelPlFcst</NAME>
      <OUTCOME>0</OUTCOME>
      <OUTCOME>1</OUTCOME>
      <OUTCOME>2</OUTCOME>
      <OUTCOME>3</OUTCOME>
      <OUTCOME>4</OUTCOME>
      <OUTCOME>5</OUTCOME>
      <OUTCOME>6</OUTCOME>
      <OUTCOME>7</OUTCOME>
      <OUTCOME>8</OUTCOME>
      <OUTCOME>9</OUTCOME>
      <OUTCOME>10</OUTCOME>
      <PROPERTY>weight = None</PROPERTY>
    </VARIABLE>
    <VARIABLE TYPE="nature">
      <NAME>SfcWndShfDis</NAME>
      <OUTCOME>0</OUTCOME>
      <OUTCOME>1</OUTCOME>
      <OUTCOME>2</OUTCOME>
      <OUTCOME>3</OUTCOME>
      <OUTCOME>4</OUTCOME>
      <OUTCOME>5</OUTCOME>
      <OUTCOME>6</OUTCOME>
      <PROPERTY>weight = None</PROPERTY>
    </VARIABLE>
    <VARIABLE TYPE="nature">
      <NAME>SubjVertMo</NAME>
      <OUTCOME>0</OUTCOME>
      <OUTCOME>1</OUTCOME>
      <OUTCOME>2</OUTCOME>
      <OUTCOME>3</OUTCOME>
      <PROPERTY>weight = None</PROPERTY>
    </VARIABLE>
    <VARIABLE TYPE="nature">
      <NAME>SynForcng</NAME>
      <OUTCOME>0</OUTCOME>
      <OUTCOME>1</OUTCOME>
      <OUTCOME>2</OUTCOME>
      <OUTCOME>3</OUTCOME>
      <OUTCOME>4</OUTCOME>
      <PROPERTY>weight = None</PROPERTY>
    </VARIABLE>
    <VARIABLE TYPE="nature">
      <NAME>TempDis</NAME>
      <OUTCOME>0</OUTCOME>
      <OUTCOME>1</OUTCOME>
      <OUTCOME>2</OUTCOME>
      <OUTCOME>3</OUTCOME>
      <PROPERTY>weight = None</PROPERTY>
    </VARIABLE>
    <VARIABLE TYPE="nature">
      <NAME>VISCloudCov</NAME>
      <OUTCOME>0</OUTCOME>
      <OUTCOME>1</OUTCOME>
      <OUTCOME>2</OUTCOME>
      <PROPERTY>weight = None</PROPERTY>
    </VARIABLE>
    <VARIABLE TYPE="nature">
      <NAME>WindAloft</NAME>
      <OUTCOME>0</OUTCOME>
      <OUTCOME>1</OUTCOME>
      <OUTCOME>2</OUTCOME>
      <OUTCOME>3</OUTCOME>
      <PROPERTY>weight = None</PROPERTY>
    </VARIABLE>
    <VARIABLE TYPE="nature">
      <NAME>WindFieldMt</NAME>
      <OUTCOME>0</OUTCOME>
      <OUTCOME>1</OUTCOME>
      <PROPERTY>weight = None</PROPERTY>
    </VARIABLE>
    <VARIABLE TYPE="nature">
      <NAME>WindFieldPln</NAME>
      <OUTCOME>0</OUTCOME>
      <OUTCOME>1</OUTCOME>
      <OUTCOME>2</OUTCOME>
      <OUTCOME>3</OUTCOME>
      <OUTCOME>4</OUTCOME>
      <OUTCOME>5</OUTCOME>
      <PROPERTY>weight = None</PROPERTY>
    </VARIABLE>
    <VARIABLE TYPE="nature">
      <NAME>WndHodograph</NAME>
      <OUTCOME>0</OUTCOME>
      <OUTCOME>1</OUTCOME>
      <OUTCOME>2</OUTCOME>
      <OUTCOME>3</OUTCOME>
      <PROPERTY>weight = None</PROPERTY>
    </VARIABLE>
    <DEFINITION>
      <FOR>AMCINInScen</FOR>
      <GIVEN>CapInScen</GIVEN>
      <GIVEN>CompPlFcst</GIVEN>
      <GIVEN>MorningCIN</GIVEN>
      <GIVEN>ScenRelAMCIN</GIVEN>
      <TABLE>0.8246036524182219 0.0010034115994380893 0.17439293598233993 0.8123514948655963 0.00010330791958511538 0.18754519721481847 0.3748199366176895 0.0014405070584845867 0.623739556323826 0.3692116034881651 0.00017796760989499907 0.6306104289019399 0.1447282252783235 0.0032743942370661427 0.8519973804846103 0.018922852983988356 0.0004281188457915917 0.98064902817022 0.3333333333333333 0.3333333333333333 0.3333333333333333 0.9969278033794162 0.0015360983102918585 0.0015360983102918585 0.2808468828246331 0.718994643592913 0.00015847358245380493 0.5805360555061668 0.41941285266137357 5.109183245966299e-05 0.7051229786655796 0.2941975811930969 0.0006794401413235493 0.9588724295268454 0.040815050940683786 0.00031251953247077936 0.9567099567099567 0.021645021645021644 0.021645021645021644 0.9567099567099567 0.021645021645021644 0.021645021645021644 0.0004917871545195241 0.999016425690961 0.0004917871545195241 0.19614070108580586 0.8037080724677131 0.00015122644648096057 0.9996144206670522 0.00019278966647387697 0.00019278966647387697 0.985520318801155 0.011363256735151647 0.0031164244636934166 0.9670321473856941 0.016483926307152983 0.016483926307152983 0.9734502496650834 0.005383022774327122 0.02116672756058945 0.6591251885369532 0.007541478129713423 0.3333333333333333 0.3990867579908676 0.0045662100456621 0.5963470319634704 0.007541478129713422 0.984917043740573 0.007541478129713422 0.9553699381730335 0.044425336772714236 0.00020472505425213935 0.3102106356852744 0.6692925285727779 0.02049683574194767 0.5620335537473139 0.3937897394253769 0.04417670682730923 0.5095639561236516 0.2745897924032273 0.21584625147312123 0.5634476234307484 0.027741556083966144 0.40881082048528544 0.4537850271852782 0.002091175240485153 0.5441237975742368 0.12856973575068137 0.0005924872615238773 0.8708377769877947 0.00037904631946023806 0.9992419073610797 0.00037904631946023806 0.25100281332244306 0.7489064343406843 9.075233687267446e-05 0.00026894734011080623 0.9994621053197783 0.00026894734011080623 0.000129269112438274 0.9997414617751234 0.000129269112438274 0.0010488777008600795 0.9979022445982798 0.0010488777008600795 0.021645021645021644 0.9567099567099567 0.021645021645021644 0.3333333333333333 0.3333333333333333 0.3333333333333333 0.3333333333333333 0.3333333333333333 0.3333333333333333 0.0005252652589557728 0.9989494694820886 0.0005252652589557728 0.0001606735434943282 0.9996786529130113 0.0001606735434943282 0.011579862034721854 0.9883314713340781 8.866663120001418e-05 0.04784825767425563 0.9521056368548692 4.6105470875174044e-05 0.0005502366017387478 0.9988995267965226 0.0005502366017387478 0.748558246828143 0.2502883506343714 0.0011534025374855823 0.3333333333333333 0.3333333333333333 0.3333333333333333 0.3333333333333333 0.3333333333333333 0.3333333333333333 0.00019278966647387697 0.9996144206670522 0.00019278966647387697 0.017254870754254033 0.9826788153689041 6.631387684186793e-05 0.005688282138794083 0.005688282138794083 0.9886234357224117 0.0006999860002799944 0.0006999860002799944 0.9986000279994399 0.0022988505747126436 0.0022988505747126436 0.9954022988505747 0.00034006665306400053 0.00034006665306400053 0.9993198666938721 0.002552322613578356 0.002552322613578356 0.9948953547728433 0.0005136106831022085 0.0005136106831022085 0.9989727786337955 0.3333333333333333 0.3333333333333333 0.3333333333333333 0.3333333333333333 0.3333333333333333 0.3333333333333333 0.5264893203088202 0.38493989473899776 0.08857078495218201 0.7050203263892942 0.15295170294294996 0.14202797066775594 0.4205868311850465 0.11123352061988177 0.46817964819507185 0.32279655860310713 0.005029615423126989 0.6721738259737658 0.05117955952660867 0.0003918802413982287 0.9484285602319931 0.01969325710137036 9.075233687267446e-05 0.9802159905617569 0.000745045447772314 0.9985099091044554 0.000745045447772314 0.44546072689785265 0.5544296023337939 0.00010967076835340308 0.34994232987312573 0.0011534025374855825 0.6489042675893888 0.10945597416058042 0.00012051968086388506 0.8904235061585557 0.0873279067430409 0.0005024620641141594 0.9121696311928449 0.03307211707376686 7.637902326505048e-05 0.966851503902968 0.000491787154519524 0.000491787154519524 0.9990164256909609 0.004525813520099936 0.00010239397104298497 0.995371792508857 0.3333333333333333 0.3333333333333333 0.3333333333333333 0.984917043740573 0.007541478129713422 0.007541478129713422 </TABLE>
    </DEFINITION>
    <DEFINITION>
      <FOR>AMDewptCalPl</FOR>
      <GIVEN>InsChange</GIVEN>
      <GIVEN>InsSclInScen</GIVEN>
      <TABLE>0.38722819417856963 0.2772296667157513 0.3355421391056791 0.23155907453428112 0.2497640100945886 0.5186769153711303 0.507331652190156 0.30307275614084245 0.1895955916690016 0.1727051646675735 0.2673014302790487 0.5599934050533778 0.10044197319646421 0.2332477901340177 0.666310236669518 0.366392902935163 0.2873306303496552 0.34627646671518175 0.2477364376474169 0.27033401810849883 0.48192954424408435 0.16443761672389903 0.2075426230495813 0.6280197602265196 0.4786000821251461 0.28159449129789316 0.2398054265769607 </TABLE>
    </DEFINITION>
    <DEFINITION>
      <FOR>AMInsWliScen</FOR>
      <GIVEN>AMDewptCalPl</GIVEN>
      <GIVEN>InsChange</GIVEN>
      <GIVEN>InsSclInScen</GIVEN>
      <TABLE>0.35614991338150165 0.0002112646300756327 0.6436388219884226 0.3528008874098724 0.31236827509706044 0.33483083749306713 0.00030682376043200785 0.00030682376043200785 0.9993863524791359 0.7027844073190136 0.29681782020684166 0.00039777247414478914 0.0011828720132481666 0.9976342559735036 0.0011828720132481666 0.19926542450896936 0.04732179450802358 0.753412780983007 0.7258394758394758 0.05001023751023751 0.22415028665028666 0.203089698968065 0.7966049948097943 0.00030530622214080725 0.07673354452657515 0.00010999648011263638 0.9231564589933122 0.5643885741265344 0.0002950897072710103 0.4353163361661945 0.3562411621030981 0.4874405450572053 0.15631829283969664 0.0005136106831022084 0.0005136106831022084 0.9989727786337956 0.658082755075816 0.3416602415831406 0.00025700334104343357 0.0005093724531377342 0.9989812550937244 0.0005093724531377342 0.3403887515326941 0.11895716496814007 0.5406540834991658 0.8095506145041749 0.061028239046814904 0.12942114644901023 0.19225931301403001 0.8074987905176585 0.00024189646831156267 0.17281734903720322 0.0001869508319312021 0.8269957001308657 0.7111858786814902 0.00024380729471425787 0.2885703140237956 0.2698212251770415 0.6739587976031297 0.056219977219828646 0.0008210180623973726 0.0008210180623973726 0.9983579638752053 0.4373374552235144 0.5625398694734776 0.00012267530300799843 0.00017831033130059556 0.9996433793373989 0.00017831033130059556 0.4134934534234009 0.2581269285297306 0.32837961804686844 0.778075992000842 0.17277128723292287 0.049152720766235135 0.10497705725294577 0.8949430028618478 7.993988520632482e-05 0.29895504039339654 0.00021952932911837016 0.700825430277485 </TABLE>
    </DEFINITION>
    <DEFINITION>
      <FOR>AMInstabMt</FOR>
      <GIVEN>CldShadeOth</GIVEN>
      <GIVEN>InsInMt</GIVEN>
      <TABLE>0.5035051168153885 0.4147044564120707 0.08179042677254085 0.00025843800072362634 0.2709980875587946 0.7287434744404817 0.00026585845695751583 0.00026585845695751583 0.999468283086085 0.6207659339140053 0.37906124706207656 0.00017281902391815289 0.10359604993478667 0.747531209241662 0.14887274082355134 0.0003053062221408072 0.0036026134212615254 0.9960920803565978 0.607713021734949 0.3869974995191383 0.005289478745912676 0.0001793464614943147 0.5018472685533915 0.49797338498511423 0.00025313892264074525 0.00025313892264074525 0.9994937221547185 </TABLE>
    </DEFINITION>
    <DEFINITION>
      <FOR>AreaMeso_ALS</FOR>
      <TABLE>0.17413793103448275 0.44240379810094954 0.1140679660169915 0.2693903048475762 </TABLE>
    </DEFINITION>
    <DEFINITION>
      <FOR>AreaMoDryAir</FOR>
      <GIVEN>AreaMeso_ALS</GIVEN>
      <GIVEN>CombMoisture</GIVEN>
      <GIVEN>CombVerMo</GIVEN>
      <GIVEN>Scenario</GIVEN>
      <TABLE>0.9996450544249882 0.0001183151916706105 0.0001183151916706105 0.0001183151916706105 0.9998731951442192 4.2268285260203557e-05 4.2268285260203557e-05 4.2268285260203557e-05 0.9998282101791197 5.7263273626826706e-05 5.7263273626826706e-05 5.7263273626826706e-05 0.9720797664602152 0.02782161031993372 4.931160992544083e-05 4.931160992544083e-05 0.9766241701621692 0.02329325890940317 4.128546421375961e-05 4.128546421375961e-05 0.9991132655474106 0.00029557815086308814 0.00029557815086308814 0.00029557815086308814 0.9998163655060969 6.121149796777828e-05 6.121149796777828e-05 6.121149796777828e-05 0.9441705450816442 0.05563224737713972 9.860377060818809e-05 9.860377060818809e-05 0.9996867952894014 0.00010440157019961584 0.00010440157019961584 0.00010440157019961584 0.9653420498506441 0.0345355271534205 6.121149796777828e-05 6.121149796777828e-05 0.9998731951442192 4.2268285260203557e-05 4.2268285260203557e-05 4.2268285260203557e-05 0.25 0.25 0.25 0.25 0.25 0.25 0.25 0.25 0.25 0.25 0.25 0.25 0.25 0.25 0.25 0.25 0.25 0.25 0.25 0.25 0.25 0.25 0.25 0.25 0.25 0.25 0.25 0.25 0.25 0.25 0.25 0.25 0.25 0.25 0.25 0.25 0.25 0.25 0.25 0.25 0.25 0.25 0.25 0.25 0.25 0.25 0.25 0.25 0.25 0.25 0.25 0.25 0.25 0.25 0.25 0.25 0.25 0.25 0.25 0.25 0.25 0.25 0.25 0.25 0.25 0.25 0.25 0.25 0.25 0.25 0.25 0.25 0.25 0.25 0.25 0.25 0.25 0.25 0.25 0.25 0.25 0.25 0.25 0.25 0.25 0.25 0.25 0.25 0.25 0.25 0.25 0.25 0.25 0.25 0.25 0.25 0.25 0.25 0.25 0.25 0.25 0.25 0.25 0.25 0.25 0.25 0.25 0.25 0.25 0.25 0.25 0.25 0.25 0.25 0.25 0.25 0.25 0.25 0.25 0.25 0.25 0.25 0.25 0.25 0.25 0.25 0.25 0.25 0.25 0.25 0.25 0.25 0.4117309218495469 0.47054216615847294 5.221168706403242e-05 0.11767470030491628 0.4936489814997933 0.45567771165566967 2.2473526186152714e-05 0.05065083331835099 0.42645215865655745 0.5293825845395493 2.610856987697642e-05 0.04413914823401634 0.4545124431102934 0.477236047900326 4.034730964139311e-05 0.0682111616797392 0.4110983981693364 0.533310976090902 1.9726978615955182e-05 0.05557089876114575 0.6665023270489865 0.33330046540979735 9.860377060818806e-05 9.860377060818806e-05 0.43747226085155483 0.5416235168801964 3.698553126017102e-05 0.02086723673698849 0.48885119141549627 0.5110699068960075 3.9450844248066906e-05 3.9450844248066906e-05 0.43997301519670495 0.539958812668655 3.550632012498224e-05 0.02003266581451498 0.4034896469239777 0.5789063862656666 3.1146438093339644e-05 0.017572820372262224 0.548352919616063 0.4193354408631708 2.8634916271504817e-05 0.032283004604494535 0.25 0.25 0.25 0.25 0.25 0.25 0.25 0.25 0.25 0.25 0.25 0.25 0.25 0.25 0.25 0.25 0.25 0.25 0.25 0.25 0.25 0.25 0.25 0.25 0.25 0.25 0.25 0.25 0.25 0.25 0.25 0.25 0.25 0.25 0.25 0.25 0.25 0.25 0.25 0.25 0.25 0.25 0.25 0.25 0.25 0.25 0.25 0.25 0.25 0.25 0.25 0.25 0.25 0.25 0.25 0.25 0.25 0.25 0.25 0.25 0.25 0.25 0.25 0.25 0.25 0.25 0.25 0.25 0.25 0.25 0.25 0.25 0.25 0.25 0.25 0.25 0.25 0.25 0.25 0.25 0.25 0.25 0.25 0.25 0.25 0.25 0.25 0.25 0.25 0.25 0.25 0.25 0.25 0.25 0.25 0.25 0.25 0.25 0.25 0.25 0.25 0.25 0.25 0.25 0.25 0.25 0.25 0.25 0.25 0.25 0.25 0.25 0.25 0.25 0.25 0.25 0.25 0.25 0.25 0.25 0.25 0.25 0.25 0.25 0.25 0.25 0.25 0.25 0.25 0.25 0.25 0.25 9.860377060818805e-05 0.0556322473771397 0.16669953459020273 0.7775696142620494 4.9311609925440844e-05 0.0833662077399503 0.11113850644995858 0.8054459742001656 4.128546421375962e-05 0.06979720579978202 0.25581299336129737 0.6743485153747069 6.121149796777827e-05 0.034535527153420495 0.17243278977523138 0.7929704715733803 5.726327362682669e-05 0.03230793898025562 0.1935613175133996 0.7740734802327178 0.0001365075898219941 0.0001365075898219941 0.23077973135306323 0.7689472534672928 4.797911948719917e-05 0.054091659309868347 0.16217901969063064 0.7836813418800138 6.121149796777827e-05 0.034535527153420495 0.27585573674158953 0.6895475246070221 8.068159814109599e-05 0.04552055767120636 0.09096043374427162 0.863438326986381 5.072022722661797e-05 0.1143132481233516 0.14287888009738284 0.7427571515520389 4.226828526020356e-05 4.226828526020356e-05 0.30951374564636663 0.6904017177831129 0.25 0.25 0.25 0.25 0.25 0.25 0.25 0.25 0.25 0.25 0.25 0.25 0.25 0.25 0.25 0.25 0.25 0.25 0.25 0.25 0.25 0.25 0.25 0.25 0.25 0.25 0.25 0.25 0.25 0.25 0.25 0.25 0.25 0.25 0.25 0.25 0.25 0.25 0.25 0.25 0.25 0.25 0.25 0.25 0.25 0.25 0.25 0.25 0.25 0.25 0.25 0.25 0.25 0.25 0.25 0.25 0.25 0.25 0.25 0.25 0.25 0.25 0.25 0.25 0.25 0.25 0.25 0.25 0.25 0.25 0.25 0.25 0.25 0.25 0.25 0.25 0.25 0.25 0.25 0.25 0.25 0.25 0.25 0.25 0.25 0.25 0.25 0.25 0.25 0.25 0.25 0.25 0.25 0.25 0.25 0.25 0.25 0.25 0.25 0.25 0.25 0.25 0.25 0.25 0.25 0.25 0.25 0.25 0.25 0.25 0.25 0.25 0.25 0.25 0.25 0.25 0.25 0.25 0.25 0.25 0.25 0.25 0.25 0.25 0.25 0.25 0.25 0.25 0.25 0.25 0.25 0.25 0.18520223005312156 0.5554752011781413 0.07412033871561563 0.18520223005312156 0.10146456433585148 0.3478160186080978 0.10146456433585148 0.44925485272019927 0.15557045920782706 0.5555073378570301 3.9450844248066906e-05 0.28888275209089476 0.03576862605873104 0.49993660293148046 0.03576862605873104 0.42852614495105745 0.10295653445286883 0.4117478121018443 0.05884349478872946 0.42645215865655745 0.16669953459020273 0.27776682180326573 0.0556322473771397 0.4999013962293918 0.12282286397727557 0.4561146687264845 0.052656168240600015 0.36840629905564 0.08826907815045322 0.47054216615847294 5.221168706403242e-05 0.4411365440040099 0.11431324812335161 0.5427977277338203 0.028616352201257866 0.3142726719415704 0.12501387008721512 0.43747919486917736 0.0937673376090189 0.34373959743458865 0.1379447559810956 0.3965337806401058 0.01726987780689081 0.44825158557190786 0.25 0.25 0.25 0.25 0.25 0.25 0.25 0.25 0.25 0.25 0.25 0.25 0.25 0.25 0.25 0.25 0.25 0.25 0.25 0.25 0.25 0.25 0.25 0.25 0.25 0.25 0.25 0.25 0.25 0.25 0.25 0.25 0.25 0.25 0.25 0.25 0.25 0.25 0.25 0.25 0.25 0.25 0.25 0.25 0.25 0.25 0.25 0.25 0.25 0.25 0.25 0.25 0.25 0.25 0.25 0.25 0.25 0.25 0.25 0.25 0.25 0.25 0.25 0.25 0.25 0.25 0.25 0.25 0.25 0.25 0.25 0.25 0.25 0.25 0.25 0.25 0.25 0.25 0.25 0.25 0.25 0.25 0.25 0.25 0.25 0.25 0.25 0.25 0.25 0.25 0.25 0.25 0.25 0.25 0.25 0.25 0.25 0.25 0.25 0.25 0.25 0.25 0.25 0.25 0.25 0.25 0.25 0.25 0.25 0.25 0.25 0.25 0.25 0.25 0.25 0.25 0.25 0.25 0.25 0.25 0.25 0.25 0.25 0.25 0.25 0.25 0.25 0.25 0.25 0.25 0.25 0.25 0.25 0.25 0.25 0.25 0.25 0.25 0.25 0.25 0.25 0.25 0.25 0.25 0.25 0.25 0.25 0.25 0.25 0.25 0.25 0.25 0.25 0.25 0.25 0.25 0.25 0.25 0.25 0.25 0.25 0.25 0.25 0.25 0.25 0.25 0.25 0.25 0.25 0.25 0.25 0.25 0.25 0.25 0.25 0.25 0.7618182125587528 0.23809725087072664 4.2268285260203557e-05 4.2268285260203557e-05 0.7555156632210211 0.24444488282174706 1.9726978615955186e-05 1.9726978615955186e-05 0.7041799195823082 0.29577006941527134 2.500550121026626e-05 2.500550121026626e-05 0.7173191515638024 0.28260366173700946 3.859334959399796e-05 3.859334959399796e-05 0.6578693263228717 0.342099525298713 1.557418920770985e-05 1.557418920770985e-05 0.8063241559393468 0.19356131751339964 5.7263273626826706e-05 5.7263273626826706e-05 0.7575393466377814 0.24242478587107794 1.7933745570364848e-05 1.7933745570364848e-05 0.7868227432536263 0.21311904817341495 2.910428647931267e-05 2.910428647931267e-05 0.6718281884556491 0.32811633119549055 2.774017443021682e-05 2.774017443021682e-05 0.6794480761877015 0.32050640056813007 2.2761622084236213e-05 2.2761622084236213e-05 0.7167848209459885 0.28318375504355375 1.5712005228955342e-05 1.5712005228955342e-05 0.25 0.25 0.25 0.25 0.25 0.25 0.25 0.25 0.25 0.25 0.25 0.25 0.25 0.25 0.25 0.25 0.25 0.25 0.25 0.25 0.25 0.25 0.25 0.25 0.25 0.25 0.25 0.25 0.25 0.25 0.25 0.25 0.25 0.25 0.25 0.25 0.25 0.25 0.25 0.25 0.25 0.25 0.25 0.25 0.25 0.25 0.25 0.25 0.25 0.25 0.25 0.25 0.25 0.25 0.25 0.25 0.25 0.25 0.25 0.25 0.25 0.25 0.25 0.25 0.25 0.25 0.25 0.25 0.25 0.25 0.25 0.25 0.25 0.25 0.25 0.25 0.25 0.25 0.25 0.25 0.25 0.25 0.25 0.25 0.25 0.25 0.25 0.25 0.25 0.25 0.25 0.25 0.25 0.25 0.25 0.25 0.25 0.25 0.25 0.25 0.25 0.25 0.25 0.25 0.25 0.25 0.25 0.25 0.25 0.25 0.25 0.25 0.25 0.25 0.25 0.25 0.25 0.25 0.25 0.25 0.25 0.25 0.25 0.25 0.25 0.25 0.25 0.25 0.25 0.25 0.25 0.25 0.09260294330391784 0.8425536252087801 1.6439365045964468e-05 0.06482699212225629 0.07556106183516935 0.7822054228086235 7.891165051608219e-06 0.14222562419115561 0.09460205188249184 0.7972710346747028 1.1996506617273052e-05 0.10811491693618819 0.09924481453772677 0.816763165598673 0.015279901115701138 0.06871211874789926 0.08654404283070535 0.7259452870517697 0.028853705006248426 0.15865696511127655 0.03706504300255122 0.8702887877751768 3.287656821230372e-05 0.09261329265405958 0.09822391031412885 0.8124643323652874 0.008943857557734013 0.08036789976284987 0.13159001289502703 0.7631099441215498 2.3360556168121252e-05 0.10527668242725524 0.09775249100248835 0.7668896910409347 0.0075317449298888265 0.12782607302668816 0.10735035670435669 0.813536709653086 0.011309012703329511 0.06780392093922785 0.0710724405701802 0.8070865148205029 0.025388808375332573 0.09645223623398441 0.25 0.25 0.25 0.25 0.25 0.25 0.25 0.25 0.25 0.25 0.25 0.25 0.25 0.25 0.25 0.25 0.25 0.25 0.25 0.25 0.25 0.25 0.25 0.25 0.25 0.25 0.25 0.25 0.25 0.25 0.25 0.25 0.25 0.25 0.25 0.25 0.25 0.25 0.25 0.25 0.25 0.25 0.25 0.25 0.25 0.25 0.25 0.25 0.25 0.25 0.25 0.25 0.25 0.25 0.25 0.25 0.25 0.25 0.25 0.25 0.25 0.25 0.25 0.25 0.25 0.25 0.25 0.25 0.25 0.25 0.25 0.25 0.25 0.25 0.25 0.25 0.25 0.25 0.25 0.25 0.25 0.25 0.25 0.25 0.25 0.25 0.25 0.25 0.25 0.25 0.25 0.25 0.25 0.25 0.25 0.25 0.25 0.25 0.25 0.25 0.25 0.25 0.25 0.25 0.25 0.25 0.25 0.25 0.25 0.25 0.25 0.25 0.25 0.25 0.25 0.25 0.25 0.25 0.25 0.25 0.25 0.25 0.25 0.25 0.25 0.25 0.25 0.25 0.25 0.25 0.25 0.25 4.128546421375962e-05 0.023293258909403175 0.7441044357102752 0.23256101991610795 1.7071605140601738e-05 0.009631799620327501 0.6826627606834104 0.3076883680911214 2.1918672955864562e-05 0.03705570849918463 0.6542855389363307 0.30863683389152885 3.0090753713199012e-05 3.0090753713199012e-05 0.711808815387208 0.28813100310536577 1.5712005228955342e-05 0.008864713350176603 0.7256338222909361 0.2654857523536584 5.9171597633136094e-05 5.9171597633136094e-05 0.5665917159763313 0.4332899408284024 2.3672000757504024e-05 0.013355742827383771 0.773283779945081 0.21333680522677775 3.0090753713199012e-05 3.0090753713199012e-05 0.711808815387208 0.28813100310536577 3.287656821230373e-05 3.287656821230373e-05 0.7962244549064991 0.20370979195707636 2.6899653532462503e-05 0.015176784523015343 0.6969216036497451 0.2878747121737072 1.585228209453033e-05 1.585228209453033e-05 0.7142562743332529 0.28571202110255794 0.25 0.25 0.25 0.25 0.25 0.25 0.25 0.25 0.25 0.25 0.25 0.25 0.25 0.25 0.25 0.25 0.25 0.25 0.25 0.25 0.25 0.25 0.25 0.25 0.25 0.25 0.25 0.25 0.25 0.25 0.25 0.25 0.25 0.25 0.25 0.25 0.25 0.25 0.25 0.25 0.25 0.25 0.25 0.25 0.25 0.25 0.25 0.25 0.25 0.25 0.25 0.25 0.25 0.25 0.25 0.25 0.25 0.25 0.25 0.25 0.25 0.25 0.25 0.25 0.25 0.25 0.25 0.25 0.25 0.25 0.25 0.25 0.25 0.25 0.25 0.25 0.25 0.25 0.25 0.25 0.25 0.25 0.25 0.25 0.25 0.25 0.25 0.25 0.25 0.25 0.25 0.25 0.25 0.25 0.25 0.25 0.25 0.25 0.25 0.25 0.25 0.25 0.25 0.25 0.25 0.25 0.25 0.25 0.25 0.25 0.25 0.25 0.25 0.25 0.25 0.25 0.25 0.25 0.25 0.25 0.25 0.25 0.25 0.25 0.25 0.25 0.25 0.25 0.25 0.25 0.25 0.25 1.8116729712886064e-05 0.20408496021566153 0.27550835543574353 0.520388567618882 9.597297401051863e-06 0.19459672156320781 0.23243310683711466 0.5729605743022764 1.4434680185225817e-05 0.18699550792752637 0.170736284166888 0.6422537732254004 1.888759613786434e-05 0.21276877049304177 0.22340626463788696 0.5638060772729333 1.2078111563100887e-05 0.12245514189365465 0.19047906621703886 0.6870537137777435 4.329904049326267e-05 0.170745436281132 0.14635941667532648 0.6828518480030482 1.6288555009707975e-05 0.1467957154584902 0.2935751423619708 0.5596128536245293 2.68996535324625e-05 0.28787471217370714 0.1969754029568099 0.5151229852159503 1.8494133660802793e-05 0.2812476882332924 0.17708872745565105 0.5416450901773957 1.4203738423953185e-05 0.1760042043065735 0.23200102266916653 0.591980569285836 1.0631692650523504e-05 0.22155809582131952 0.22155809582131952 0.5568731766647104 0.25 0.25 0.25 0.25 0.25 0.25 0.25 0.25 0.25 0.25 0.25 0.25 0.25 0.25 0.25 0.25 0.25 0.25 0.25 0.25 0.25 0.25 0.25 0.25 0.25 0.25 0.25 0.25 0.25 0.25 0.25 0.25 0.25 0.25 0.25 0.25 0.25 0.25 0.25 0.25 0.25 0.25 0.25 0.25 0.25 0.25 0.25 0.25 0.25 0.25 0.25 0.25 0.25 0.25 0.25 0.25 0.25 0.25 0.25 0.25 0.25 0.25 0.25 0.25 0.25 0.25 0.25 0.25 0.25 0.25 0.25 0.25 0.25 0.25 0.25 0.25 0.25 0.25 0.25 0.25 0.25 0.25 0.25 0.25 0.25 0.25 0.25 0.25 0.25 0.25 0.25 0.25 0.25 0.25 0.25 0.25 0.25 0.25 0.25 0.25 0.25 0.25 0.25 0.25 0.25 0.25 0.25 0.25 0.25 0.25 0.25 0.25 0.25 0.25 0.25 0.25 0.25 0.25 0.25 0.25 0.25 0.25 0.25 0.25 0.25 0.25 0.25 0.25 0.25 0.25 0.25 0.25 0.25 0.25 0.25 0.25 0.25 0.25 0.25 0.25 0.25 0.25 0.25 0.25 0.25 0.25 0.25 0.25 0.25 0.25 0.25 0.25 0.25 0.25 0.25 0.25 0.25 0.25 0.25 0.25 0.25 0.25 0.25 0.25 0.25 0.25 0.25 0.25 0.25 0.25 0.25 0.25 0.25 0.25 0.25 0.25 0.2856961768583308 0.49987323800831557 0.00012676199168441333 0.2143038231416692 0.24242587253087752 0.48479795154279814 5.3793518956836087e-05 0.2727223824073676 0.347795888127431 0.47819040563067233 7.717478545409643e-05 0.17393653145644256 0.3332840411688158 0.4165680823376316 0.00014787649355258486 0.25 0.17650129457947047 0.6468930092708595 0.0001044015701996158 0.17650129457947047 0.3331365139348134 0.0005904581955597543 0.0005904581955597543 0.6656825696740671 0.26922551750505214 0.5383827625757824 6.827243432191818e-05 0.1923234474848435 0.26665877898722196 0.666469474680549 0.0001183151916706105 0.06675343114055844 0.10010645848119232 0.5997515968772179 0.00017743080198722496 0.29996451383960254 0.26665877898722196 0.5331992427827733 0.0001183151916706105 0.20002366303833413 0.25 0.37494453811340844 0.00011092377318306859 0.37494453811340844 0.25 0.25 0.25 0.25 0.25 0.25 0.25 0.25 0.25 0.25 0.25 0.25 0.25 0.25 0.25 0.25 0.25 0.25 0.25 0.25 0.25 0.25 0.25 0.25 0.25 0.25 0.25 0.25 0.25 0.25 0.25 0.25 0.25 0.25 0.25 0.25 0.25 0.25 0.25 0.25 0.25 0.25 0.25 0.25 0.25 0.25 0.25 0.25 0.25 0.25 0.25 0.25 0.25 0.25 0.25 0.25 0.25 0.25 0.25 0.25 0.25 0.25 0.25 0.25 0.25 0.25 0.25 0.25 0.25 0.25 0.25 0.25 0.25 0.25 0.25 0.25 0.25 0.25 0.25 0.25 0.25 0.25 0.25 0.25 0.25 0.25 0.25 0.25 0.25 0.25 0.25 0.25 0.25 0.25 0.25 0.25 0.25 0.25 0.25 0.25 0.25 0.25 0.25 0.25 0.25 0.25 0.25 0.25 0.25 0.25 0.25 0.25 0.25 0.25 0.25 0.25 0.25 0.25 0.25 0.25 0.25 0.25 0.25 0.25 0.25 0.25 0.25 0.25 0.25 0.25 0.25 0.25 0.0435420139532012 0.21740137062418965 0.17393653145644256 0.5651200839661665 0.017886580942960764 0.21429024322199397 0.14287072966598188 0.6249524461690634 0.031298539919229575 0.15627080282252695 0.3749722629032974 0.4374583943549461 6.339706851955165e-05 0.2857052289902115 0.17858954201957702 0.5356418319216919 0.07019784217476889 0.17544788577978224 0.12282286397727556 0.6315314080681733 0.000161311136920893 0.1818621757646148 0.4544134727061556 0.3635630403923087 3.8593349593997964e-05 0.21739633826299057 0.17392478928031124 0.6086402791071043 6.339706851955165e-05 0.321410457980423 0.17858954201957702 0.49993660293148046 0.03230793898025562 0.3870653717531724 0.1935613175133996 0.3870653717531724 3.623083388887279e-05 0.24489869858844673 0.14287267035738097 0.6121924002202835 3.0609496290129054e-05 0.24138036584469968 0.25861963415530037 0.4999693905037099 0.25 0.25 0.25 0.25 0.25 0.25 0.25 0.25 0.25 0.25 0.25 0.25 0.25 0.25 0.25 0.25 0.25 0.25 0.25 0.25 0.25 0.25 0.25 0.25 0.25 0.25 0.25 0.25 0.25 0.25 0.25 0.25 0.25 0.25 0.25 0.25 0.25 0.25 0.25 0.25 0.25 0.25 0.25 0.25 0.25 0.25 0.25 0.25 0.25 0.25 0.25 0.25 0.25 0.25 0.25 0.25 0.25 0.25 0.25 0.25 0.25 0.25 0.25 0.25 0.25 0.25 0.25 0.25 0.25 0.25 0.25 0.25 0.25 0.25 0.25 0.25 0.25 0.25 0.25 0.25 0.25 0.25 0.25 0.25 0.25 0.25 0.25 0.25 0.25 0.25 0.25 0.25 0.25 0.25 0.25 0.25 0.25 0.25 0.25 0.25 0.25 0.25 0.25 0.25 0.25 0.25 0.25 0.25 0.25 0.25 0.25 0.25 0.25 0.25 0.25 0.25 0.25 0.25 0.25 0.25 0.25 0.25 0.25 0.25 0.25 0.25 0.25 0.25 0.25 0.25 0.25 0.25 0.0001365075898219941 0.0001365075898219941 0.999590477230534 0.0001365075898219941 5.72632736268267e-05 5.72632736268267e-05 0.9998282101791196 5.72632736268267e-05 9.34160376653464e-05 9.34160376653464e-05 0.999719751887004 9.34160376653464e-05 8.068159814109599e-05 8.068159814109599e-05 0.9997579552055768 8.068159814109599e-05 6.339706851955166e-05 6.339706851955166e-05 0.9998098087944414 6.339706851955166e-05 0.0002533954996959254 0.0002533954996959254 0.9992398135009122 0.0002533954996959254 7.717478545409645e-05 7.717478545409645e-05 0.9997684756436378 7.717478545409645e-05 9.34160376653464e-05 9.34160376653464e-05 0.999719751887004 9.34160376653464e-05 0.0002533954996959254 0.0002533954996959254 0.9992398135009122 0.0002533954996959254 8.068159814109599e-05 8.068159814109599e-05 0.9997579552055768 8.068159814109599e-05 7.717478545409645e-05 7.717478545409645e-05 0.9997684756436378 7.717478545409645e-05 0.25 0.25 0.25 0.25 0.25 0.25 0.25 0.25 0.25 0.25 0.25 0.25 0.25 0.25 0.25 0.25 0.25 0.25 0.25 0.25 0.25 0.25 0.25 0.25 0.25 0.25 0.25 0.25 0.25 0.25 0.25 0.25 0.25 0.25 0.25 0.25 0.25 0.25 0.25 0.25 0.25 0.25 0.25 0.25 0.25 0.25 0.25 0.25 0.25 0.25 0.25 0.25 0.25 0.25 0.25 0.25 0.25 0.25 0.25 0.25 0.25 0.25 0.25 0.25 0.25 0.25 0.25 0.25 0.25 0.25 0.25 0.25 0.25 0.25 0.25 0.25 0.25 0.25 0.25 0.25 0.25 0.25 0.25 0.25 0.25 0.25 0.25 0.25 0.25 0.25 0.25 0.25 0.25 0.25 0.25 0.25 0.25 0.25 0.25 0.25 0.25 0.25 0.25 0.25 0.25 0.25 0.25 0.25 0.25 0.25 0.25 0.25 0.25 0.25 0.25 0.25 0.25 0.25 0.25 0.25 0.25 0.25 0.25 0.25 0.25 0.25 0.25 0.25 0.25 0.25 0.25 0.25 8.452228007302726e-05 0.09529041855433094 0.8569375887483941 0.04768747041720198 3.9450844248066906e-05 3.9450844248066906e-05 0.7332570617011205 0.26666403661038346 5.9171597633136094e-05 0.03338461538461538 0.7332189349112426 0.23333727810650887 6.339706851955165e-05 0.03576862605873104 0.6070522899021149 0.35711568697063445 4.551909981428207e-05 0.025681876115217942 0.7178635155311168 0.2564090892538509 0.0001365075898219941 0.0001365075898219941 0.46142295511630443 0.5383040297040516 4.3299040493262674e-05 0.048815338252104344 0.5121497107624096 0.43899165194499296 0.00012676199168441333 0.00012676199168441333 0.785442652874962 0.2143038231416692 8.874689385871494e-05 8.874689385871494e-05 0.5998757543485977 0.3999467518636848 4.671674701947154e-05 4.671674701947154e-05 0.7367511305452779 0.2631554359606832 5.221168706403241e-05 5.221168706403241e-05 0.7940040098575665 0.20589156676830542 0.25 0.25 0.25 0.25 0.25 0.25 0.25 0.25 0.25 0.25 0.25 0.25 0.25 0.25 0.25 0.25 0.25 0.25 0.25 0.25 0.25 0.25 0.25 0.25 0.25 0.25 0.25 0.25 0.25 0.25 0.25 0.25 0.25 0.25 0.25 0.25 0.25 0.25 0.25 0.25 0.25 0.25 0.25 0.25 0.25 0.25 0.25 0.25 0.25 0.25 0.25 0.25 0.25 0.25 0.25 0.25 0.25 0.25 0.25 0.25 0.25 0.25 0.25 0.25 0.25 0.25 0.25 0.25 0.25 0.25 0.25 0.25 0.25 0.25 0.25 0.25 0.25 0.25 0.25 0.25 0.25 0.25 0.25 0.25 0.25 0.25 0.25 0.25 0.25 0.25 0.25 0.25 0.25 0.25 0.25 0.25 0.25 0.25 0.25 0.25 0.25 0.25 0.25 0.25 0.25 0.25 0.25 0.25 0.25 0.25 0.25 0.25 0.25 0.25 0.25 0.25 0.25 0.25 0.25 0.25 0.25 0.25 0.25 0.25 0.25 0.25 0.25 0.25 0.25 0.25 0.25 0.25 0.25 0.25 0.25 0.25 0.25 0.25 0.25 0.25 0.25 0.25 0.25 0.25 0.25 0.25 0.25 0.25 0.25 0.25 0.25 0.25 0.25 0.25 0.25 0.25 0.25 0.25 0.25 0.25 0.25 0.25 0.25 0.25 0.25 0.25 0.25 0.25 0.25 0.25 0.25 0.25 0.25 0.25 0.25 0.25 0.3703387156156314 0.5554752011781413 6.574449061168673e-05 0.07412033871561563 0.5285431672922797 0.4428375773561936 2.536268641574516e-05 0.028593892665111094 0.5105989182002235 0.4893255371226543 3.777233856102499e-05 3.777233856102499e-05 0.5134629409281081 0.4864411008329175 4.797911948719917e-05 4.797911948719917e-05 0.5832938809326547 0.39998224641969454 2.9589300508935963e-05 0.01669428334714167 0.5997515968772179 0.3998935415188077 0.00017743080198722496 0.00017743080198722496 0.4047357386805532 0.49995773171473973 4.226828526020356e-05 0.09526426131944679 0.6085849231339138 0.3912607272951782 7.717478545409645e-05 7.717478545409645e-05 0.5999289916818826 0.399969567863664 5.072022722661797e-05 5.072022722661797e-05 0.5166351047461237 0.46664102260622553 2.9589300508935967e-05 0.016694283347141674 0.5396498861510021 0.4285512996821245 2.818044502558784e-05 0.031770633721847734 0.25 0.25 0.25 0.25 0.25 0.25 0.25 0.25 0.25 0.25 0.25 0.25 0.25 0.25 0.25 0.25 0.25 0.25 0.25 0.25 0.25 0.25 0.25 0.25 0.25 0.25 0.25 0.25 0.25 0.25 0.25 0.25 0.25 0.25 0.25 0.25 0.25 0.25 0.25 0.25 0.25 0.25 0.25 0.25 0.25 0.25 0.25 0.25 0.25 0.25 0.25 0.25 0.25 0.25 0.25 0.25 0.25 0.25 0.25 0.25 0.25 0.25 0.25 0.25 0.25 0.25 0.25 0.25 0.25 0.25 0.25 0.25 0.25 0.25 0.25 0.25 0.25 0.25 0.25 0.25 0.25 0.25 0.25 0.25 0.25 0.25 0.25 0.25 0.25 0.25 0.25 0.25 0.25 0.25 0.25 0.25 0.25 0.25 0.25 0.25 0.25 0.25 0.25 0.25 0.25 0.25 0.25 0.25 0.25 0.25 0.25 0.25 0.25 0.25 0.25 0.25 0.25 0.25 0.25 0.25 0.25 0.25 0.25 0.25 0.25 0.25 0.25 0.25 0.25 0.25 0.25 0.25 0.03335897739377441 0.5999585749792874 0.03335897739377441 0.3333234702331636 0.04795503409897947 0.5205347848505191 1.216083433052175e-05 0.43149802021617106 0.0412523977567247 0.5463700525676131 0.0206353506215864 0.3917421990540758 0.08001609696051509 0.6132989300255657 2.367200075750402e-05 0.3066613010131616 0.03650741812074275 0.4963375944760661 0.007311851368023805 0.45984313603516747 0.06254160564505394 0.6874029201615409 5.54741934052279e-05 0.25000000000000006 0.04212080436570232 0.4841930178664872 0.02106974657995066 0.45261643118785977 0.0655952408670749 0.5737327993666906 0.016420638431628207 0.34425132133460606 0.036162876259903824 0.4578135427896709 0.02411571435905334 0.48190786659137186 0.052097974522481466 0.5312291940996315 0.010434390211424935 0.40623844116646196 0.04688627007112976 0.5390464618218539 0.02345007046395242 0.3906171976430641 0.25 0.25 0.25 0.25 0.25 0.25 0.25 0.25 0.25 0.25 0.25 0.25 0.25 0.25 0.25 0.25 0.25 0.25 0.25 0.25 0.25 0.25 0.25 0.25 0.25 0.25 0.25 0.25 0.25 0.25 0.25 0.25 0.25 0.25 0.25 0.25 0.25 0.25 0.25 0.25 0.25 0.25 0.25 0.25 0.25 0.25 0.25 0.25 0.25 0.25 0.25 0.25 0.25 0.25 0.25 0.25 0.25 0.25 0.25 0.25 0.25 0.25 0.25 0.25 0.25 0.25 0.25 0.25 0.25 0.25 0.25 0.25 0.25 0.25 0.25 0.25 0.25 0.25 0.25 0.25 0.25 0.25 0.25 0.25 0.25 0.25 0.25 0.25 0.25 0.25 0.25 0.25 0.25 0.25 0.25 0.25 0.25 0.25 0.25 0.25 0.25 0.25 0.25 0.25 0.25 0.25 0.25 0.25 0.25 0.25 0.25 0.25 0.25 0.25 0.25 0.25 0.25 0.25 0.25 0.25 0.25 0.25 0.25 0.25 0.25 0.25 0.25 0.25 0.25 0.25 0.25 0.25 4.551909981428207e-05 4.551909981428207e-05 0.8460453006081352 0.15386366119223627 3.481021470940432e-05 3.481021470940432e-05 0.7842393271881701 0.2156910523824111 3.9450844248066906e-05 3.9450844248066906e-05 0.8665693545841882 0.13335174372731576 4.797911948719917e-05 4.797911948719917e-05 0.7296376616896326 0.2702663800713929 2.6498208721090456e-05 2.6498208721090456e-05 0.7909874292497828 0.20895957433277512 0.0001183151916706105 0.0001183151916706105 0.666469474680549 0.3332938949361098 3.349679770613929e-05 3.349679770613929e-05 0.8678417343301981 0.1320912720743897 6.827243432191818e-05 6.827243432191818e-05 0.7306379376263039 0.26922551750505214 5.9171597633136094e-05 5.9171597633136094e-05 0.799869822485207 0.20001183431952663 3.287656821230373e-05 3.287656821230373e-05 0.8888048709923464 0.11112937587122906 3.6230833888872786e-05 3.6230833888872786e-05 0.7754340453899887 0.22449349294223356 0.25 0.25 0.25 0.25 0.25 0.25 0.25 0.25 0.25 0.25 0.25 0.25 0.25 0.25 0.25 0.25 0.25 0.25 0.25 0.25 0.25 0.25 0.25 0.25 0.25 0.25 0.25 0.25 0.25 0.25 0.25 0.25 0.25 0.25 0.25 0.25 0.25 0.25 0.25 0.25 0.25 0.25 0.25 0.25 0.25 0.25 0.25 0.25 0.25 0.25 0.25 0.25 0.25 0.25 0.25 0.25 0.25 0.25 0.25 0.25 0.25 0.25 0.25 0.25 0.25 0.25 0.25 0.25 0.25 0.25 0.25 0.25 0.25 0.25 0.25 0.25 0.25 0.25 0.25 0.25 0.25 0.25 0.25 0.25 0.25 0.25 0.25 0.25 0.25 0.25 0.25 0.25 0.25 0.25 0.25 0.25 0.25 0.25 0.25 0.25 0.25 0.25 0.25 0.25 0.25 0.25 0.25 0.25 0.25 0.25 0.25 0.25 0.25 0.25 0.25 0.25 0.25 0.25 0.25 0.25 0.25 0.25 0.25 0.25 0.25 0.25 0.25 0.25 0.25 0.25 0.25 0.25 4.438132433871827e-05 0.050035505059470985 0.3499822474702646 0.5999378661459258 1.793374557036484e-05 0.14142193081878307 0.3333273554181432 0.5252327800175033 2.6108569876976414e-05 0.1029565344528688 0.3529304258829918 0.5440869310942623 2.8180445025587844e-05 0.07938431363708096 0.38093761976689133 0.5396498861510021 1.7071605140601738e-05 0.0384759836658882 0.4038356482429904 0.5576712964859808 0.0001044015701996158 0.11770233024304685 0.3528981875887413 0.5292950805980122 2.399186196042302e-05 0.13514615842306288 0.43241492485748834 0.43241492485748834 2.9589300508935967e-05 0.1666765297668363 0.18334122381346904 0.6499526571191857 3.8593349593997964e-05 0.06524591682361297 0.4130183086850474 0.5216971811417457 2.040716373075604e-05 0.08047360945586338 0.27585995787961404 0.6436460255007918 2.064443673718806e-05 0.06978232505904308 0.4185907281705726 0.5116063023336471 </TABLE>
    </DEFINITION>
    <DEFINITION>
      <FOR>Boundaries</FOR>
      <GIVEN>InsInMt</GIVEN>
      <GIVEN>MorningBound</GIVEN>
      <GIVEN>WndHodograph</GIVEN>
      <TABLE>0.830436841913506 0.14577185120413888 0.023791306882355083 0.6188116085687537 0.3214384051985242 0.05974998623272206 0.7354619109257394 0.2591207632197133 0.005417325854547197 0.6944728512296079 0.2737277818358899 0.03179936693450207 0.47407840141404156 0.46922512320436194 0.05669647538159649 0.20877985217137335 0.5994248612702477 0.1917952865583788 0.5511540914654117 0.43200427505128336 0.016841633483304887 0.3688265688046594 0.5778422888024685 0.05333114239287214 0.249124194203758 0.5918909717875224 0.15898483400871963 0.05023297574265855 0.39296273936129045 0.556804284896051 0.41892102830109385 0.5498961372669092 0.031182834431996927 0.23804819978977496 0.646999227486291 0.11495257272393399 0.7059472299991517 0.21116484262322902 0.08288792737761942 0.5249726005949585 0.3727884765930797 0.1022389228119618 0.5838786745611302 0.34829126415290335 0.06783006128596655 0.3774884423058779 0.48957448815926036 0.13293706953486178 0.36571991603478554 0.4952662468405946 0.13901383712461982 0.15349984582176998 0.5731113166820845 0.27338883749614556 0.33653632279015966 0.5575425953111793 0.10592108189866098 0.15885837372105546 0.6928574925343907 0.14828413374455376 0.052900143853649266 0.6039953315419483 0.34310452460440244 0.02323994712379003 0.2857447443605816 0.6910153085156283 0.29779971211186507 0.5509767633148263 0.15122352457330868 0.11897447567034553 0.49990518451094174 0.3811203398187128 0.6399709151345175 0.2473252311208061 0.11270385374467642 0.6761904761904762 0.3077469793887705 0.016062544420753378 0.3513175971025353 0.44573498189084554 0.20294742100661922 0.5065198126345107 0.23306747689580962 0.26041271046967973 0.23370951701474468 0.49055216846110605 0.27573831452414926 0.21689630635875543 0.5452487224270651 0.23785497121417945 0.08882253059312607 0.4872065109198431 0.4239709584870309 0.12370068027210887 0.44696598639455787 0.4293333333333334 0.016483682666424703 0.5391222817046245 0.4443940356289508 0.011173466808230953 0.33333333333333337 0.6554931998584357 0.04150575792366837 0.2218627144000278 0.7366315276763038 0.020696649868466928 0.1884250895375741 0.7908782605939589 </TABLE>
    </DEFINITION>
    <DEFINITION>
      <FOR>CapChange</FOR>
      <GIVEN>CapInScen</GIVEN>
      <GIVEN>InsChange</GIVEN>
      <GIVEN>MorningCIN</GIVEN>
      <GIVEN>ScenRelAMCIN</GIVEN>
      <TABLE>0.130053463086442 0.389559680422899 0.48038685649065893 0.20927521323560927 0.17409455231237408 0.6166302344520166 0.12560107713021737 0.20869397961146374 0.665704943258319 0.4027443041228831 0.14592371220154887 0.451331983675568 0.7428896473265074 0.005688282138794083 0.2514220705346985 0.9598650328538447 0.0008879417510211329 0.039247025395134076 0.0019179133103183733 0.747602608362102 0.25047947832757955 0.10471457168495893 0.38800303720577073 0.5072823911092703 0.025823545695416616 0.6152173053347569 0.35895914896982634 0.07423673642973394 0.3816195173017314 0.5441437462685347 0.07186090018708045 0.42841421811378894 0.49972488169913065 0.2596645758263268 0.22122870234441036 0.5191067218292629 0.494407158836689 0.494407158836689 0.011185682326621923 0.9348890809564966 0.06367041198501872 0.0014405070584845863 0.0010488777008600795 0.9979022445982798 0.0010488777008600795 0.045225292818140125 0.6484515026468258 0.3063232045350339 0.10542975407840276 0.4630630630630631 0.43150718285853423 0.12756800232735238 0.2643341804211481 0.6080978172514995 0.21756607376143103 0.2392724349311627 0.5431614913074063 0.30823111787265056 0.205540236442585 0.4862286456847643 0.5963470319634704 0.0045662100456621 0.3990867579908676 0.776069689982065 0.0012810658467845245 0.22264924417115037 0.0014405070584845863 0.9971189858830307 0.0014405070584845863 0.029331177289673455 0.5338453937025559 0.43682342900777077 0.5221029113375738 0.08382919544946765 0.39406789321295854 0.6728413950021577 0.05427013455729473 0.27288847044054765 0.6092886934956601 0.0736106414158494 0.3171006650884906 0.9399746682086016 0.0002753455586761385 0.059749986232722055 0.9908675799086759 0.004566210045662101 0.004566210045662101 0.9974378683064309 0.0012810658467845245 0.0012810658467845245 0.35209432610253405 0.14103315744902614 0.5068725164484398 0.4854333506174262 0.10380057997733863 0.41076606940523513 0.3177139826933738 0.21879142864029694 0.4634945886663292 0.3809440944790543 0.22558266337196486 0.39347324214898083 0.27285454290914185 0.27285454290914185 0.4542909141817164 0.8129947488047652 0.01732110666980171 0.16968414452543304 0.9776286353467559 0.01118568232662192 0.01118568232662192 0.9948953547728432 0.0025523226135783558 0.0025523226135783558 0.1595951471278236 0.2175078758629935 0.6228969770091829 0.22981782373215162 0.28086656819300837 0.48931560807484 0.3959170249254117 0.13712500293654709 0.4669579721380412 0.5452552513210184 0.10757675007642255 0.34716799860255904 0.4144966745575471 0.24405365798669826 0.3414496674557547 0.9145701073751862 0.0003918802413982287 0.08503801238341564 0.988623435722412 0.005688282138794085 0.005688282138794085 0.9961641733793631 0.0019179133103183733 0.0019179133103183733 0.2941496598639456 0.22361904761904763 0.4822312925170068 0.30882978542379225 0.19488828764442628 0.4962819269317814 0.017928125253508558 0.841486168573051 0.14058570617344043 0.05596044101369902 0.7266232552790834 0.2174163037072175 0.10449773668496581 0.49975922180487337 0.3957430415101609 0.12997685817890267 0.4566591956850526 0.41336394613604477 0.15189696206075878 0.3635727285454291 0.48453030939381214 0.14111120999080418 0.410222182670345 0.44866660733885083 0.0025523226135783558 0.9948953547728432 0.0025523226135783558 0.0005024620641141595 0.9772887147020402 0.022208823233845848 0.0001896309781165851 0.950468388515948 0.04934198050593544 0.012495763842321199 0.8893479561891164 0.0981562799685623 0.04314502808060787 0.7567228278823918 0.20013214403700033 0.04851984365959356 0.7626790416474784 0.18880111469292807 0.04697409437815759 0.6042136945071482 0.34881221111469424 0.03878704200864207 0.5855385952801002 0.3756743627112577 0.0015360983102918585 0.9969278033794162 0.0015360983102918585 0.00020841148764119875 0.9905798007586177 0.009211787753740985 0.042537945410722436 0.8727118754478536 0.084750179141424 0.015569993123338568 0.8535784298631852 0.1308515770134762 0.03157742611460366 0.7651564419394464 0.20326613194594986 0.04914029333674092 0.5705016257045903 0.38035808095866874 0.051783386657186875 0.5380969309159853 0.41011968242682784 0.08474742280663092 0.44969269570753445 0.4655598814858346 0.003274394237066143 0.9934512115258678 0.003274394237066143 0.00040561369351829323 0.9816662610529733 0.01792812525350856 </TABLE>
    </DEFINITION>
    <DEFINITION>
      <FOR>CapInScen</FOR>
      <GIVEN>AreaMeso_ALS</GIVEN>
      <GIVEN>MorningCIN</GIVEN>
      <TABLE>0.3473429649550733 0.26428586319761505 0.38837117184731174 0.16183710350844394 0.07509191749236618 0.7630709789991899 0.0310187372067391 0.038576602109903955 0.930404660683357 0.30799969840910807 0.499811505692528 0.19218879589836385 0.3251689258701431 0.37771083841551234 0.2971202357143445 0.27254391519500926 0.14758788902178754 0.5798681957832031 0.08508356985178178 0.0608640807316304 0.8540523494165879 0.20420170655823552 0.6329975664602778 0.16280072698148662 0.32779717530118585 0.4938819162656098 0.17832090843320436 0.2967054842241465 0.25848511993629936 0.44480939583955414 0.14023654356746318 0.128650736181511 0.7311127202510258 0.1696783725423344 0.7424707353108309 0.08785089214683489 0.3611784857828023 0.37104487838300787 0.2677766358341898 0.2710978911642451 0.19604926972505055 0.5328528391107044 0.1264703023233207 0.06581121804218917 0.8077184796344901 0.18610147332428217 0.6543470608940514 0.1595514657816664 </TABLE>
    </DEFINITION>
    <DEFINITION>
      <FOR>CldShadeConv</FOR>
      <GIVEN>InsInMt</GIVEN>
      <GIVEN>WndHodograph</GIVEN>
      <TABLE>0.698453566512833 0.3014654683831269 8.096510404015869e-05 0.11552695471795958 0.36331706857129387 0.5211559767107465 0.7946753991600525 0.20523209561340217 9.250522654529981e-05 0.40264084164673397 0.4978511560974661 0.09950800225579992 0.1112500521028719 0.6124379975824267 0.2763119503147013 0.012051332160771285 0.18559051527587778 0.802358152563351 0.1132025309725102 0.6970277024512149 0.18976976657627476 0.028487794678793577 0.465056714233443 0.5064554910877633 0.0002279046446966589 0.0002279046446966589 0.9995441907106066 0.0003548364204101909 0.0003548364204101909 0.9992903271591796 0.0002786602017499861 0.0002786602017499861 0.9994426795965 0.00025940337224383917 0.00025940337224383917 0.9994811932555122 </TABLE>
    </DEFINITION>
    <DEFINITION>
      <FOR>CldShadeOth</FOR>
      <GIVEN>AreaMeso_ALS</GIVEN>
      <GIVEN>CapChange</GIVEN>
      <GIVEN>InsInMt</GIVEN>
      <TABLE>0.7188592041483486 0.02491263668132116 0.2562281591703303 0.544565521095278 0.0013970382788488403 0.4540374406258731 0.5698642137538327 0.09680245291283399 0.33333333333333337 0.6281245229073851 0.08550887565752037 0.28636660143509457 0.4158343062221646 0.13564232282613398 0.4485233709517015 0.5223244451374811 0.1293726285149956 0.3483029263475233 0.7101173485569299 0.05930859498889946 0.2305740564541706 0.5514629673921709 0.02622976959260145 0.42230726301522764 0.5226944939339951 0.16535165860693987 0.31195384745906507 0.6815573699447015 0.05625184183611559 0.26219078821918285 0.5292783598675558 0.03451716786864427 0.4362044722638001 0.6106477050002279 0.09868271115365332 0.2906695838461188 0.42730906113448613 0.19353714197696006 0.3791537968885538 0.23515246467635706 0.210085008849044 0.5547625264745989 0.2244747705818937 0.3863427204122952 0.38918250900581103 0.5442590232287005 0.10355593759571587 0.3521850391755837 0.4177239662630803 0.12540177384663717 0.4568742598902825 0.427313239986288 0.1852437834559502 0.3874429765577618 0.29646292841727934 0.42287574527232163 0.2806613263103991 0.21551049448594808 0.3384560654571327 0.44603344005691925 0.22949011622974466 0.43106812590141685 0.33944175786883857 0.08113990342107053 0.7275385975651227 0.1913214990138067 0.05524769101595298 0.7262804366078925 0.21847187237615448 0.04982583674087536 0.9003483265182493 0.04982583674087536 0.25586399827845924 0.4324940822035722 0.3116419195179686 0.14314741440617698 0.43939855735040134 0.41745402824342176 0.05598356445814073 0.7216230097586029 0.22239342578325633 0.4556531927357938 0.1393087287639133 0.4050380785002929 0.26349301099338407 0.156046361239616 0.5804606277669999 0.35501176985821425 0.18355504461597416 0.46143318552581153 0.2598046482515524 0.36653983627349246 0.3736555154749551 0.16843021391599103 0.3118959278090788 0.5196738582749302 0.112401453996129 0.5304725487419157 0.3571259972619554 0.5034193372731787 0.1471035730873332 0.34947708963948815 0.35376020252280566 0.1274933438086509 0.5187464536685436 0.3402012686602757 0.20627652978490013 0.4535222015548243 </TABLE>
    </DEFINITION>
    <DEFINITION>
      <FOR>CombClouds</FOR>
      <GIVEN>AreaMeso_ALS</GIVEN>
      <GIVEN>CldShadeOth</GIVEN>
      <GIVEN>CombMoisture</GIVEN>
      <GIVEN>CombVerMo</GIVEN>
      <TABLE>0.8635579094791452 0.011411269244804767 0.12503082127605017 0.3333333333333333 0.3333333333333333 0.3333333333333333 0.3333333333333333 0.3333333333333333 0.3333333333333333 0.3333333333333333 0.3333333333333333 0.3333333333333333 0.7641456147169323 0.00599559528436326 0.22985878999870452 0.3333333333333333 0.3333333333333333 0.3333333333333333 0.3333333333333333 0.3333333333333333 0.3333333333333333 0.3333333333333333 0.3333333333333333 0.3333333333333333 0.6609075940785112 0.0043286173010586865 0.3347637886204302 0.3333333333333333 0.3333333333333333 0.3333333333333333 0.3333333333333333 0.3333333333333333 0.3333333333333333 0.3333333333333333 0.3333333333333333 0.3333333333333333 0.705051931620914 0.010198016888810429 0.2847500514902757 0.3333333333333333 0.3333333333333333 0.3333333333333333 0.3333333333333333 0.3333333333333333 0.3333333333333333 0.3333333333333333 0.3333333333333333 0.3333333333333333 0.00032119226569024214 0.8883535684460717 0.11132523928823791 0.3333333333333333 0.3333333333333333 0.3333333333333333 0.3333333333333333 0.3333333333333333 0.3333333333333333 0.3333333333333333 0.3333333333333333 0.3333333333333333 0.00016685020188874426 0.9035605833083058 0.09627256648980544 0.3333333333333333 0.3333333333333333 0.3333333333333333 0.3333333333333333 0.3333333333333333 0.3333333333333333 0.3333333333333333 0.3333333333333333 0.3333333333333333 0.00025511505689065764 0.9994897698862186 0.00025511505689065764 0.3333333333333333 0.3333333333333333 0.3333333333333333 0.3333333333333333 0.3333333333333333 0.3333333333333333 0.3333333333333333 0.3333333333333333 0.3333333333333333 0.00021687269572760788 0.9495987855129039 0.05018434179136846 0.3333333333333333 0.3333333333333333 0.3333333333333333 0.3333333333333333 0.3333333333333333 0.3333333333333333 0.3333333333333333 0.3333333333333333 0.3333333333333333 8.265145879824778e-05 0.2000330605835193 0.7998842879576824 0.3333333333333333 0.3333333333333333 0.3333333333333333 0.3333333333333333 0.3333333333333333 0.3333333333333333 0.3333333333333333 0.3333333333333333 0.3333333333333333 0.009655909132637306 0.25481752251237244 0.7355265683549902 0.3333333333333333 0.3333333333333333 0.3333333333333333 0.3333333333333333 0.3333333333333333 0.3333333333333333 0.3333333333333333 0.3333333333333333 0.3333333333333333 0.04422836434167878 0.30883291223234566 0.6469387234259756 0.3333333333333333 0.3333333333333333 0.3333333333333333 0.3333333333333333 0.3333333333333333 0.3333333333333333 0.3333333333333333 0.3333333333333333 0.3333333333333333 0.02385749563456392 0.1488381223975285 0.8273043819679076 0.3333333333333333 0.3333333333333333 0.3333333333333333 0.3333333333333333 0.3333333333333333 0.3333333333333333 0.3333333333333333 0.3333333333333333 0.3333333333333333 0.3333333333333333 0.3333333333333333 0.3333333333333333 0.8055270909434311 0.009278793796991727 0.18519411525957719 0.3333333333333333 0.3333333333333333 0.3333333333333333 0.3333333333333333 0.3333333333333333 0.3333333333333333 0.3333333333333333 0.3333333333333333 0.3333333333333333 0.862182336144819 0.008860239974891963 0.1289574238802891 0.3333333333333333 0.3333333333333333 0.3333333333333333 0.3333333333333333 0.3333333333333333 0.3333333333333333 0.3333333333333333 0.3333333333333333 0.3333333333333333 0.9287808747326195 3.2508273355568996e-05 0.071186616994025 0.3333333333333333 0.3333333333333333 0.3333333333333333 0.3333333333333333 0.3333333333333333 0.3333333333333333 0.3333333333333333 0.3333333333333333 0.3333333333333333 0.9225081987756087 1.528196758389036e-05 0.07747651925680736 0.3333333333333333 0.3333333333333333 0.3333333333333333 0.3333333333333333 0.3333333333333333 0.3333333333333333 0.3333333333333333 0.3333333333333333 0.3333333333333333 8.035613840541278e-05 0.9535541520016714 0.046365491859923176 0.3333333333333333 0.3333333333333333 0.3333333333333333 0.3333333333333333 0.3333333333333333 0.3333333333333333 0.3333333333333333 0.3333333333333333 0.3333333333333333 4.152858412445287e-05 0.8946668992267378 0.10529157218913782 0.3333333333333333 0.3333333333333333 0.3333333333333333 0.3333333333333333 0.3333333333333333 0.3333333333333333 0.3333333333333333 0.3333333333333333 0.3333333333333333 0.01790603721727989 0.6844693799530909 0.29762458282962917 0.3333333333333333 0.3333333333333333 0.3333333333333333 0.3333333333333333 0.3333333333333333 0.3333333333333333 0.3333333333333333 0.3333333333333333 0.3333333333333333 0.03401842067564949 0.8009117644580396 0.1650698148663111 0.3333333333333333 0.3333333333333333 0.3333333333333333 0.3333333333333333 0.3333333333333333 0.3333333333333333 0.3333333333333333 0.3333333333333333 0.3333333333333333 0.040920501552023446 0.08924296104130772 0.8698365374066689 0.3333333333333333 0.3333333333333333 0.3333333333333333 0.3333333333333333 0.3333333333333333 0.3333333333333333 0.3333333333333333 0.3333333333333333 0.3333333333333333 0.06503864119673297 0.07206819644922031 0.8628931623540468 0.3333333333333333 0.3333333333333333 0.3333333333333333 0.3333333333333333 0.3333333333333333 0.3333333333333333 0.3333333333333333 0.3333333333333333 0.3333333333333333 0.22715447389048385 0.04157229347298162 0.7312732326365347 0.3333333333333333 0.3333333333333333 0.3333333333333333 0.3333333333333333 0.3333333333333333 0.3333333333333333 0.3333333333333333 0.3333333333333333 0.3333333333333333 0.15514599642606283 0.046137272671026734 0.7987167309029105 0.3333333333333333 0.3333333333333333 0.3333333333333333 0.3333333333333333 0.3333333333333333 0.3333333333333333 0.3333333333333333 0.3333333333333333 0.3333333333333333 0.3333333333333333 0.3333333333333333 0.3333333333333333 0.8860365156354745 0.00019716865807011317 0.11376631570645529 0.3333333333333333 0.3333333333333333 0.3333333333333333 0.3333333333333333 0.3333333333333333 0.3333333333333333 0.3333333333333333 0.3333333333333333 0.3333333333333333 0.9138159490883302 9.331317768695295e-05 0.08609073773398279 0.3333333333333333 0.3333333333333333 0.3333333333333333 0.3333333333333333 0.3333333333333333 0.3333333333333333 0.3333333333333333 0.3333333333333333 0.3333333333333333 0.999174304351416 0.0004128478242919659 0.0004128478242919659 0.3333333333333333 0.3333333333333333 0.3333333333333333 0.3333333333333333 0.3333333333333333 0.3333333333333333 0.3333333333333333 0.3333333333333333 0.3333333333333333 0.983051337671728 0.00014461315979754158 0.01680404916847433 0.3333333333333333 0.3333333333333333 0.3333333333333333 0.3333333333333333 0.3333333333333333 0.3333333333333333 0.3333333333333333 0.3333333333333333 0.3333333333333333 0.19123089094760481 0.4117346808564939 0.3970344281959013 0.3333333333333333 0.3333333333333333 0.3333333333333333 0.3333333333333333 0.3333333333333333 0.3333333333333333 0.3333333333333333 0.3333333333333333 0.3333333333333333 0.14502451937681726 0.300004339712711 0.5549711409104717 0.3333333333333333 0.3333333333333333 0.3333333333333333 0.3333333333333333 0.3333333333333333 0.3333333333333333 0.3333333333333333 0.3333333333333333 0.3333333333333333 0.16669559682925417 0.24668171035121214 0.5866226928195336 0.3333333333333333 0.3333333333333333 0.3333333333333333 0.3333333333333333 0.3333333333333333 0.3333333333333333 0.3333333333333333 0.3333333333333333 0.3333333333333333 0.16281651477994086 0.23257339509723776 0.6046100901228213 0.3333333333333333 0.3333333333333333 0.3333333333333333 0.3333333333333333 0.3333333333333333 0.3333333333333333 0.3333333333333333 0.3333333333333333 0.3333333333333333 0.40275266951093114 0.027888254151903002 0.5693590763371659 0.3333333333333333 0.3333333333333333 0.3333333333333333 0.3333333333333333 0.3333333333333333 0.3333333333333333 0.3333333333333333 0.3333333333333333 0.3333333333333333 0.5634445041396317 0.04767808681516992 0.38887740904519846 0.3333333333333333 0.3333333333333333 0.3333333333333333 0.3333333333333333 0.3333333333333333 0.3333333333333333 0.3333333333333333 0.3333333333333333 0.3333333333333333 0.7671791147157325 0.00020175120041964248 0.23261913408384777 0.3333333333333333 0.3333333333333333 0.3333333333333333 0.3333333333333333 0.3333333333333333 0.3333333333333333 0.3333333333333333 0.3333333333333333 0.3333333333333333 0.6592473918101887 0.03305296484903968 0.30769964334077166 0.3333333333333333 0.3333333333333333 0.3333333333333333 0.3333333333333333 0.3333333333333333 0.3333333333333333 0.3333333333333333 0.3333333333333333 0.3333333333333333 0.3333333333333333 0.3333333333333333 0.3333333333333333 0.93361529092461 4.795197130554038e-05 0.06633675710408456 0.3333333333333333 0.3333333333333333 0.3333333333333333 0.3333333333333333 0.3333333333333333 0.3333333333333333 0.3333333333333333 0.3333333333333333 0.3333333333333333 0.9037598611202673 0.002553453314874635 0.09368668556485817 0.3333333333333333 0.3333333333333333 0.3333333333333333 0.3333333333333333 0.3333333333333333 0.3333333333333333 0.3333333333333333 0.3333333333333333 0.3333333333333333 0.9165401026976205 7.232226802632531e-05 0.08338757503435307 0.3333333333333333 0.3333333333333333 0.3333333333333333 0.3333333333333333 0.3333333333333333 0.3333333333333333 0.3333333333333333 0.3333333333333333 0.3333333333333333 0.8589705353797212 3.823594637790881e-05 0.14099122867390093 0.3333333333333333 0.3333333333333333 0.3333333333333333 0.3333333333333333 0.3333333333333333 0.3333333333333333 0.3333333333333333 0.3333333333333333 0.3333333333333333 0.00014461315979754158 0.833116413593637 0.16673897324656542 0.3333333333333333 0.3333333333333333 0.3333333333333333 0.3333333333333333 0.3333333333333333 0.3333333333333333 0.3333333333333333 0.3333333333333333 0.3333333333333333 0.009129285517023711 0.6408726871030103 0.34999802737996616 0.3333333333333333 0.3333333333333333 0.3333333333333333 0.3333333333333333 0.3333333333333333 0.3333333333333333 0.3333333333333333 0.3333333333333333 0.3333333333333333 0.030134554898659665 0.5112433603487203 0.4586220847526199 0.3333333333333333 0.3333333333333333 0.3333333333333333 0.3333333333333333 0.3333333333333333 0.3333333333333333 0.3333333333333333 0.3333333333333333 0.3333333333333333 0.030871703105523562 0.5418263017427944 0.427301995151682 0.3333333333333333 0.3333333333333333 0.3333333333333333 0.3333333333333333 0.3333333333333333 0.3333333333333333 0.3333333333333333 0.3333333333333333 0.3333333333333333 0.17169188589138973 0.09015593452686947 0.7381521795817408 0.3333333333333333 0.3333333333333333 0.3333333333333333 0.3333333333333333 0.3333333333333333 0.3333333333333333 0.3333333333333333 0.3333333333333333 0.3333333333333333 0.25570132067594 0.05318302678708771 0.6911156525369724 0.3333333333333333 0.3333333333333333 0.3333333333333333 0.3333333333333333 0.3333333333333333 0.3333333333333333 0.3333333333333333 0.3333333333333333 0.3333333333333333 0.4459956154291256 0.018817795815913217 0.5351865887549612 0.3333333333333333 0.3333333333333333 0.3333333333333333 0.3333333333333333 0.3333333333333333 0.3333333333333333 0.3333333333333333 0.3333333333333333 0.3333333333333333 0.39654604770883845 0.027613660171799708 0.5758402921193619 </TABLE>
    </DEFINITION>
    <DEFINITION>
      <FOR>CombMoisture</FOR>
      <GIVEN>RaoContMoist</GIVEN>
      <GIVEN>SatContMoist</GIVEN>
      <TABLE>0.27407388191345855 0.23754799211372835 0.20766317318667635 0.2807149527861368 0.491470432791121 0.4238211286628692 7.340419284749545e-05 0.08463503435316225 0.1334345186470078 0.24722463139635734 0.2694275802254987 0.3499132697311362 0.3281079442086113 0.2582474226804124 0.12240751970891449 0.2912371134020619 0.25279099270536 0.22843323818585473 0.26294005708848717 0.25583571202029814 0.13793137370637076 0.7108664856569472 4.9187423759493175e-05 0.15115295321292252 0.0001318982800464282 0.1875329745700116 0.30571383349161124 0.5066212936583306 0.07670821615869879 0.4573420992627499 0.054818727673481796 0.41113095690506957 0.24462816854121203 0.255371831458788 0.2231408427060601 0.2768591572939399 0.1012588222901085 0.3591330454018751 0.26306225639945224 0.2765458759085642 0.00030012004801920766 0.00030012004801920766 0.8953781512605042 0.10402160864345739 0.0002747856671795999 0.038964607606067264 0.5348977797318092 0.42586282699494393 0.2484609465178915 0.2443568038989355 0.2484609465178915 0.2587213030652815 0.0476376197905059 0.49099249684273083 0.10944580640368472 0.35192407696307854 0.00030963586821897447 0.043906366113450584 0.6146271984146644 0.34115679960366607 0.07064242621881624 0.1932577857492255 0.12803684982879504 0.6080629382031633 </TABLE>
    </DEFINITION>
    <DEFINITION>
      <FOR>CombVerMo</FOR>
      <GIVEN>AreaMeso_ALS</GIVEN>
      <TABLE>0.9994619027120103 0.00017936576266322285 0.00017936576266322285 0.00017936576266322285 7.060152499293985e-05 0.9997881954250212 7.060152499293985e-05 7.060152499293985e-05 0.0002738225629791895 0.0002738225629791895 0.9991785323110625 0.0002738225629791895 0.00011594471755866803 0.00011594471755866803 0.00011594471755866803 0.999652165847324 </TABLE>
    </DEFINITION>
    <DEFINITION>
      <FOR>CompPlFcst</FOR>
      <GIVEN>CapChange</GIVEN>
      <TABLE>0.9995212103801588 0.0002393948099205209 0.0002393948099205209 0.00013597672078540153 0.9997280465584292 0.00013597672078540153 0.00015437816475237742 0.00015437816475237742 0.9996912436704952 </TABLE>
    </DEFINITION>
    <DEFINITION>
      <FOR>CurPropConv</FOR>
      <GIVEN>LLIW</GIVEN>
      <GIVEN>LatestCIN</GIVEN>
      <GIVEN>PlainsFcst</GIVEN>
      <TABLE>0.4306229649198255 0.3038182711801929 0.1209835964858389 0.14457516741414264 0.3377966419660445 0.31978707438326615 0.17120814182534472 0.17120814182534472 0.21875350737390287 0.394380345237828 0.06252104424341735 0.3243451031448517 0.2547123502847045 0.4055075593952484 0.019094836049479678 0.32068525427056743 0.24138961970820377 0.4365582396555847 0.05770150681655106 0.26435063381966034 0.13282440593779987 0.41187842185471585 0.002779815995936107 0.45251735621154826 0.024369124195942605 0.26187530925284513 0.0006185056902523504 0.71313706086096 0.07829888712241655 0.07829888712241655 0.0019872813990461052 0.8414149443561209 0.0673867412978835 0.20172293160748644 0.00021864614308203604 0.730671680951548 0.32441940036781997 0.10064796202044395 0.5728262264231642 0.0021064111885719175 0.3249755938821998 0.07193296452977546 0.5936381386267491 0.009453302961275625 0.3960841336399297 0.1805288786690112 0.40127823616934943 0.022108751521709727 0.31031774526523653 0.10351404721299705 0.5860560093348891 0.00011219818687730008 0.32647641977057074 0.0681560685455318 0.6051904829344287 0.00017702874946891377 0.37164403759906617 0.20060514836886403 0.4158782330896356 0.01187258094243411 0.42592908285032394 0.19681213774292533 0.24590862598022503 0.13135015342652573 0.45188025729836717 0.21437407224146462 0.3093765462642256 0.024369124195942605 0.3076593067154788 0.346098844525798 0.12644434275254549 0.21979750600617778 0.18245778611632266 0.27251407129455907 0.0924015009380863 0.4526266416510319 0.25000000000000006 0.25000000000000006 0.00634517766497462 0.4936548223350254 0.03064922786006933 0.37858493539237315 0.0003939489442168295 0.5903718878033406 0.17539228264087633 0.019071351031283927 0.8054130070068094 0.00012335932103029707 0.16173170427627478 0.006140132153098118 0.8319723226530358 0.0001558409175913228 0.21914572218294015 0.02167834415375715 0.7590955839814874 8.034968181526001e-05 0.015290282520956225 0.07489909965849115 0.000388078236572493 0.90942253958398 0.03298727394507703 0.19373744139316812 0.0008372404554588078 0.772438044206296 0.015770677716591245 0.09951747451065916 6.81533177035058e-05 0.8846436944550461 0.001127141568981064 0.08769161406672676 0.001127141568981064 0.9100541027953111 0.0019872813990461052 0.15461049284578696 0.0019872813990461052 0.8414149443561209 0.00015966279218290971 0.06760122621024396 0.00015966279218290971 0.9320794482053902 0.0036656891495601175 0.0036656891495601175 0.0036656891495601175 0.9890029325513197 0.006345177664974619 0.006345177664974619 0.006345177664974619 0.9809644670050761 0.0006659563132658499 0.0006659563132658499 0.0006659563132658499 0.9980021310602024 0.025940250733528937 0.29481194985329423 0.00033342224593224857 0.6789143771672446 0.05611656087709175 0.22230236583958454 0.0007212925562608194 0.720859780727063 0.008545625698652703 0.2598840971936224 7.354238983350003e-05 0.7314967347178915 0.14982570406384732 0.36118246032474083 0.004517934134483075 0.4844739014769287 0.13343451864700784 0.3166088464874241 0.00021682567215958371 0.5497398091934086 0.06846942185585386 0.248128550740782 0.0064442464074857975 0.6769577809958783 0.026621954557897613 0.27627977005201204 0.0003421845058855735 0.6967560908842046 0.02047817047817048 0.3597713097713098 0.0005197505197505197 0.6192307692307693 0.010937234704850304 0.19838417567491087 7.074537325258928e-05 0.7906078442469863 0.0013631406761177754 0.0013631406761177754 0.0013631406761177754 0.9959105779716467 0.0028604118993135015 0.2225400457665904 0.0028604118993135015 0.7717391304347827 0.0001913362926679933 0.007538649931118936 0.0001913362926679933 0.9920786774835451 0.35928344511118954 0.4168902223791034 0.16613130956583125 0.05769502294387575 0.3761725595299454 0.41575610761777143 0.15351510153592415 0.05455623131635914 0.24421671262952155 0.5616549305202282 0.07457361642882004 0.1195547404214303 </TABLE>
    </DEFINITION>
    <DEFINITION>
      <FOR>Date</FOR>
      <GIVEN>ScenRelAMIns</GIVEN>
      <GIVEN>Scenario</GIVEN>
      <GIVEN>ScnRelPlFcst</GIVEN>
      <GIVEN>WindFieldPln</GIVEN>
      <TABLE>0.058172090123650703 0.17174513620697804 0.14404439325982504 0.06094216441836601 0.12188379890210263 0.44321241708907755 0.044119715655063535 0.23529295923316443 0.05882534977645592 0.05882534977645592 0.10294225214063306 0.4999943734182272 0.09677678137257081 0.19354739177978048 0.16129052164404392 0.03226304110109769 0.19354739177978048 0.3225748723227267 1.5940726004425147e-05 0.16666666666666666 0.41664275557766 0.08334130369633554 0.16666666666666666 0.16666666666666666 0.0533342005851399 0.19333312927408472 0.15333343536295763 0.046667584933285385 0.11333374145183053 0.43999790839270186 0.16666666666666669 0.16666666666666669 0.16666666666666669 0.16666666666666669 0.16666666666666669 0.16666666666666669 0.16666666666666669 0.16666666666666669 0.16666666666666669 0.16666666666666669 0.16666666666666669 0.16666666666666669 0.16666666666666669 0.16666666666666669 0.16666666666666669 0.16666666666666669 0.16666666666666669 0.16666666666666669 0.16666666666666669 0.16666666666666669 0.16666666666666669 0.16666666666666669 0.16666666666666669 0.16666666666666669 0.16666666666666669 0.16666666666666669 0.16666666666666669 0.16666666666666669 0.16666666666666669 0.16666666666666669 0.16666666666666669 0.16666666666666669 0.16666666666666669 0.16666666666666669 0.16666666666666669 0.16666666666666669 0.16666666666666669 0.16666666666666669 0.16666666666666669 0.16666666666666669 0.16666666666666669 0.16666666666666669 0.16666666666666669 0.16666666666666669 0.16666666666666669 0.16666666666666669 0.16666666666666669 0.16666666666666669 0.16666666666666669 0.16666666666666669 0.16666666666666669 0.16666666666666669 0.16666666666666669 0.16666666666666669 0.16666666666666669 0.16666666666666669 0.16666666666666669 0.16666666666666669 0.16666666666666669 0.16666666666666669 0.16666666666666669 0.16666666666666669 0.16666666666666669 0.16666666666666669 0.16666666666666669 0.16666666666666669 0.16666666666666669 0.16666666666666669 0.16666666666666669 0.16666666666666669 0.16666666666666669 0.16666666666666669 0.16666666666666669 0.16666666666666669 0.16666666666666669 0.16666666666666669 0.16666666666666669 0.16666666666666669 0.16666666666666669 0.16666666666666669 0.16666666666666669 0.16666666666666669 0.16666666666666669 0.16666666666666669 0.16666666666666669 0.16666666666666669 0.16666666666666669 0.16666666666666669 0.16666666666666669 0.16666666666666669 0.16666666666666669 0.16666666666666669 0.16666666666666669 0.16666666666666669 0.16666666666666669 0.16666666666666669 0.16666666666666669 0.16666666666666669 0.16666666666666669 0.16666666666666669 0.16666666666666669 0.16666666666666669 0.16666666666666669 0.16666666666666669 0.16666666666666669 0.16666666666666669 0.16666666666666669 0.16666666666666669 0.16666666666666669 0.16666666666666669 0.16666666666666669 0.16666666666666669 0.16666666666666669 0.16666666666666669 0.16666666666666669 0.16666666666666669 0.16666666666666669 0.16666666666666669 0.16666666666666669 0.16666666666666669 0.16666666666666669 0.16666666666666669 0.16666666666666669 0.16666666666666669 0.16666666666666669 0.16666666666666669 0.16666666666666669 0.16666666666666669 0.16666666666666669 0.16666666666666669 0.16666666666666669 0.16666666666666669 0.16666666666666669 0.16666666666666669 0.16666666666666669 0.16666666666666669 0.16666666666666669 0.16666666666666669 0.16666666666666669 0.16666666666666669 0.16666666666666669 0.16666666666666669 0.16666666666666669 0.16666666666666669 0.16666666666666669 0.16666666666666669 0.16666666666666669 0.16666666666666669 0.16666666666666669 0.16666666666666669 0.16666666666666669 0.16666666666666669 0.16666666666666669 0.16666666666666669 0.16666666666666669 0.16666666666666669 0.16666666666666669 0.16666666666666669 0.16666666666666669 0.16666666666666669 0.16666666666666669 0.16666666666666669 0.16666666666666669 0.16666666666666669 0.16666666666666669 0.16666666666666669 0.16666666666666669 0.16666666666666669 0.16666666666666669 0.16666666666666669 0.16666666666666669 0.16666666666666669 0.16666666666666669 0.16666666666666669 0.16666666666666669 0.16666666666666669 0.16666666666666669 0.16666666666666669 0.16666666666666669 0.16666666666666669 0.16666666666666669 0.16666666666666669 0.16666666666666669 0.16666666666666669 0.16666666666666669 0.16666666666666669 0.16666666666666669 0.16666666666666669 0.16666666666666669 0.16666666666666669 0.16666666666666669 0.16666666666666669 0.16666666666666669 0.16666666666666669 0.16666666666666669 0.16666666666666669 0.16666666666666669 0.16666666666666669 0.16666666666666669 0.16666666666666669 0.16666666666666669 0.16666666666666669 0.16666666666666669 0.16666666666666669 0.16666666666666669 0.16666666666666669 0.16666666666666669 0.16666666666666669 0.16666666666666669 0.16666666666666669 0.16666666666666669 0.16666666666666669 0.16666666666666669 0.16666666666666669 0.16666666666666669 0.16666666666666669 0.16666666666666669 0.16666666666666669 0.16666666666666669 0.16666666666666669 0.16666666666666669 0.16666666666666669 0.16666666666666669 0.16666666666666669 0.16666666666666669 0.16666666666666669 0.16666666666666669 0.16666666666666669 0.16666666666666669 0.16666666666666669 0.16666666666666669 0.16666666666666669 0.16666666666666669 0.16666666666666669 0.16666666666666669 0.16666666666666669 0.16666666666666669 0.16666666666666669 0.16666666666666669 0.16666666666666669 0.16666666666666669 0.16666666666666669 0.16666666666666669 0.16666666666666669 0.16666666666666669 0.16666666666666669 0.16666666666666669 0.16666666666666669 0.16666666666666669 0.16666666666666669 0.16666666666666669 0.16666666666666669 0.16666666666666669 0.16666666666666669 0.16666666666666669 0.16666666666666669 0.16666666666666669 0.16666666666666669 0.16666666666666669 0.16666666666666669 0.16666666666666669 0.16666666666666669 0.16666666666666669 0.16666666666666669 0.16666666666666669 0.16666666666666669 0.16666666666666669 0.16666666666666669 0.16666666666666669 0.16666666666666669 0.16666666666666669 0.16666666666666669 0.16666666666666669 0.16666666666666669 0.16666666666666669 0.16666666666666669 0.16666666666666669 0.16666666666666669 0.16666666666666669 0.16666666666666669 0.16666666666666669 0.16666666666666669 0.16666666666666669 0.16666666666666669 0.16666666666666669 0.16666666666666669 0.16666666666666669 0.16666666666666669 0.16666666666666669 0.16666666666666669 0.16666666666666669 0.16666666666666669 0.16666666666666669 0.16666666666666669 0.16666666666666669 0.16666666666666669 0.16666666666666669 0.16666666666666669 0.16666666666666669 0.16666666666666669 0.16666666666666669 0.16666666666666669 0.16666666666666669 0.16666666666666669 0.16666666666666669 0.16666666666666669 0.16666666666666669 0.16666666666666669 0.16666666666666669 0.16666666666666669 0.16666666666666669 0.16666666666666669 0.16666666666666669 0.16666666666666669 0.16666666666666669 0.16666666666666669 0.16666666666666669 0.16666666666666669 0.16666666666666669 0.16666666666666669 0.16666666666666669 0.16666666666666669 0.16666666666666669 0.16666666666666669 0.16666666666666669 0.16666666666666669 0.16666666666666669 0.16666666666666669 0.16666666666666669 0.16666666666666669 0.16666666666666669 0.16666666666666669 0.16666666666666669 0.16666666666666669 0.16666666666666669 0.16666666666666669 0.16666666666666669 0.16666666666666669 0.16666666666666669 0.16666666666666669 0.16666666666666669 0.16666666666666669 0.16666666666666669 0.16666666666666669 0.16666666666666669 0.16666666666666669 0.16666666666666669 0.16666666666666669 0.16666666666666669 0.16666666666666669 0.16666666666666669 0.16666666666666669 0.16666666666666669 0.16666666666666669 0.16666666666666669 0.16666666666666669 0.16666666666666669 0.16666666666666669 0.16666666666666669 0.16666666666666669 0.16666666666666669 0.16666666666666669 0.16666666666666669 0.16666666666666669 0.16666666666666669 0.16666666666666669 0.16666666666666669 0.16666666666666669 0.16666666666666669 0.16666666666666669 0.16666666666666669 0.16666666666666669 0.16666666666666669 0.16666666666666669 0.16666666666666669 0.16666666666666669 0.16666666666666669 0.16666666666666669 0.16666666666666669 0.16666666666666669 0.16666666666666669 0.16666666666666669 0.16666666666666669 0.16666666666666669 0.16666666666666669 0.16666666666666669 0.16666666666666669 0.16666666666666669 0.16666666666666669 0.16666666666666669 0.16666666666666669 0.16666666666666669 0.16666666666666669 0.16666666666666669 0.16666666666666669 0.16666666666666669 0.16666666666666669 0.16666666666666669 0.16666666666666669 0.16666666666666669 0.16666666666666669 0.16666666666666669 0.05199532239974809 0.17049576252092227 0.2176541009364916 0.1051996016378263 0.13784768207937428 0.3168075304256374 0.04032375017510601 0.23387034565153936 0.28225699452064773 0.08871039904421435 0.12903260643513795 0.22580590417335464 0.01709548447943094 0.2649563006754216 0.17948705371128687 0.1196585808363926 0.1367524302292195 0.2820501500682485 8.695319483428462e-06 0.27272173934214694 0.2272695653383697 0.09091304332703794 0.18181739133459243 0.2272695653383697 0.06642108880476122 0.17343170566348237 0.19557183328942468 0.12546142914060737 0.15867162057952083 0.2804423225222035 0.16666666666666669 0.16666666666666669 0.16666666666666669 0.16666666666666669 0.16666666666666669 0.16666666666666669 0.16666666666666669 0.16666666666666669 0.16666666666666669 0.16666666666666669 0.16666666666666669 0.16666666666666669 0.16666666666666669 0.16666666666666669 0.16666666666666669 0.16666666666666669 0.16666666666666669 0.16666666666666669 0.16666666666666669 0.16666666666666669 0.16666666666666669 0.16666666666666669 0.16666666666666669 0.16666666666666669 0.16666666666666669 0.16666666666666669 0.16666666666666669 0.16666666666666669 0.16666666666666669 0.16666666666666669 0.16666666666666669 0.16666666666666669 0.16666666666666669 0.16666666666666669 0.16666666666666669 0.16666666666666669 0.16666666666666669 0.16666666666666669 0.16666666666666669 0.16666666666666669 0.16666666666666669 0.16666666666666669 0.16666666666666669 0.16666666666666669 0.16666666666666669 0.16666666666666669 0.16666666666666669 0.16666666666666669 0.16666666666666669 0.16666666666666669 0.16666666666666669 0.16666666666666669 0.16666666666666669 0.16666666666666669 0.16666666666666669 0.16666666666666669 0.16666666666666669 0.16666666666666669 0.16666666666666669 0.16666666666666669 0.16666666666666669 0.16666666666666669 0.16666666666666669 0.16666666666666669 0.16666666666666669 0.16666666666666669 0.16666666666666669 0.16666666666666669 0.16666666666666669 0.16666666666666669 0.16666666666666669 0.16666666666666669 0.16666666666666669 0.16666666666666669 0.16666666666666669 0.16666666666666669 0.16666666666666669 0.16666666666666669 0.16666666666666669 0.16666666666666669 0.16666666666666669 0.16666666666666669 0.16666666666666669 0.16666666666666669 0.16666666666666669 0.16666666666666669 0.16666666666666669 0.16666666666666669 0.16666666666666669 0.16666666666666669 0.16666666666666669 0.16666666666666669 0.16666666666666669 0.16666666666666669 0.16666666666666669 0.16666666666666669 0.16666666666666669 0.16666666666666669 0.16666666666666669 0.16666666666666669 0.16666666666666669 0.16666666666666669 0.16666666666666669 0.16666666666666669 0.16666666666666669 0.16666666666666669 0.16666666666666669 0.16666666666666669 0.16666666666666669 0.16666666666666669 0.16666666666666669 0.16666666666666669 0.16666666666666669 0.16666666666666669 0.16666666666666669 0.16666666666666669 0.16666666666666669 0.16666666666666669 0.16666666666666669 0.16666666666666669 0.16666666666666669 0.16666666666666669 0.16666666666666669 0.16666666666666669 0.16666666666666669 0.16666666666666669 0.16666666666666669 0.16666666666666669 0.16666666666666669 0.16666666666666669 0.16666666666666669 0.16666666666666669 0.16666666666666669 0.16666666666666669 0.16666666666666669 0.16666666666666669 0.16666666666666669 0.16666666666666669 0.16666666666666669 0.16666666666666669 0.16666666666666669 0.16666666666666669 0.16666666666666669 0.16666666666666669 0.16666666666666669 0.16666666666666669 0.16666666666666669 0.16666666666666669 0.16666666666666669 0.16666666666666669 0.16666666666666669 0.16666666666666669 0.16666666666666669 0.16666666666666669 0.16666666666666669 0.16666666666666669 0.16666666666666669 0.16666666666666669 0.16666666666666669 0.16666666666666669 0.16666666666666669 0.16666666666666669 0.16666666666666669 0.16666666666666669 0.16666666666666669 0.16666666666666669 0.16666666666666669 0.16666666666666669 0.16666666666666669 0.16666666666666669 0.16666666666666669 0.16666666666666669 0.16666666666666669 0.16666666666666669 0.16666666666666669 0.16666666666666669 0.16666666666666669 0.16666666666666669 0.16666666666666669 0.16666666666666669 0.16666666666666669 0.16666666666666669 0.16666666666666669 0.16666666666666669 0.16666666666666669 0.16666666666666669 0.16666666666666669 0.16666666666666669 0.16666666666666669 0.16666666666666669 0.16666666666666669 0.16666666666666669 0.16666666666666669 0.16666666666666669 0.16666666666666669 0.16666666666666669 0.16666666666666669 0.16666666666666669 0.16666666666666669 0.16666666666666669 0.16666666666666669 0.16666666666666669 0.16666666666666669 0.16666666666666669 0.16666666666666669 0.16666666666666669 0.16666666666666669 0.16666666666666669 0.16666666666666669 0.16666666666666669 0.16666666666666669 0.16666666666666669 0.16666666666666669 0.16666666666666669 0.16666666666666669 0.16666666666666669 0.16666666666666669 0.16666666666666669 0.16666666666666669 0.16666666666666669 0.16666666666666669 0.16666666666666669 0.16666666666666669 0.16666666666666669 0.16666666666666669 0.16666666666666669 0.16666666666666669 0.16666666666666669 0.16666666666666669 0.16666666666666669 0.16666666666666669 0.16666666666666669 0.16666666666666669 0.16666666666666669 0.16666666666666669 0.16666666666666669 0.16666666666666669 0.16666666666666669 0.16666666666666669 0.16666666666666669 0.16666666666666669 0.16666666666666669 0.16666666666666669 0.16666666666666669 0.16666666666666669 0.16666666666666669 0.16666666666666669 0.16666666666666669 0.16666666666666669 0.16666666666666669 0.16666666666666669 0.16666666666666669 0.16666666666666669 0.16666666666666669 0.16666666666666669 0.16666666666666669 0.16666666666666669 0.16666666666666669 0.16666666666666669 0.16666666666666669 0.16666666666666669 0.16666666666666669 0.16666666666666669 0.16666666666666669 0.16666666666666669 0.16666666666666669 0.16666666666666669 0.16666666666666669 0.16666666666666669 0.16666666666666669 0.16666666666666669 0.16666666666666669 0.16666666666666669 0.16666666666666669 0.16666666666666669 0.16666666666666669 0.16666666666666669 0.16666666666666669 0.16666666666666669 0.16666666666666669 0.16666666666666669 0.16666666666666669 0.16666666666666669 0.16666666666666669 0.16666666666666669 0.16666666666666669 0.16666666666666669 0.16666666666666669 0.16666666666666669 0.16666666666666669 0.16666666666666669 0.16666666666666669 0.16666666666666669 0.16666666666666669 0.16666666666666669 0.16666666666666669 0.16666666666666669 0.16666666666666669 0.16666666666666669 0.16666666666666669 0.16666666666666669 0.16666666666666669 0.16666666666666669 0.16666666666666669 0.16666666666666669 0.16666666666666669 0.16666666666666669 0.16666666666666669 0.16666666666666669 0.16666666666666669 0.16666666666666669 0.16666666666666669 0.16666666666666669 0.16666666666666669 0.16666666666666669 0.16666666666666669 0.16666666666666669 0.16666666666666669 0.16666666666666669 0.16666666666666669 0.16666666666666669 0.16666666666666669 0.16666666666666669 0.16666666666666669 0.16666666666666669 0.16666666666666669 0.16666666666666669 0.16666666666666669 0.16666666666666669 0.16666666666666669 0.16666666666666669 0.16666666666666669 0.16666666666666669 0.16666666666666669 0.16666666666666669 0.16666666666666669 0.16666666666666669 0.16666666666666669 0.16666666666666669 0.16666666666666669 0.16666666666666669 0.16666666666666669 0.16666666666666669 0.16666666666666669 0.16666666666666669 0.16666666666666669 0.16666666666666669 0.16666666666666669 0.16666666666666669 0.16666666666666669 0.16666666666666669 0.16666666666666669 0.16666666666666669 0.16666666666666669 0.16666666666666669 0.16666666666666669 0.16666666666666669 0.16666666666666669 0.16666666666666669 0.16666666666666669 0.16666666666666669 0.16666666666666669 0.16666666666666669 0.16666666666666669 0.16666666666666669 0.16666666666666669 0.16666666666666669 0.16666666666666669 0.16666666666666669 0.16666666666666669 0.16666666666666669 0.16666666666666669 0.16666666666666669 0.16666666666666669 0.16666666666666669 0.16666666666666669 0.16666666666666669 0.16666666666666669 0.16666666666666669 0.16666666666666669 0.16666666666666669 0.16666666666666669 0.16666666666666669 0.16666666666666669 0.16666666666666669 0.16666666666666669 0.16666666666666669 0.16666666666666669 0.16666666666666669 0.16666666666666669 0.16666666666666669 0.16666666666666669 0.16666666666666669 0.16666666666666669 0.16666666666666669 0.16666666666666669 0.16666666666666669 0.16666666666666669 0.16666666666666669 0.16666666666666669 0.16666666666666669 0.16666666666666669 0.16666666666666669 0.16666666666666669 0.16666666666666669 0.16666666666666669 0.16666666666666669 0.16666666666666669 0.16666666666666669 0.16666666666666669 0.16666666666666669 0.16666666666666669 0.16666666666666669 0.16666666666666669 0.16666666666666669 0.16666666666666669 0.16666666666666669 0.16666666666666669 0.16666666666666669 0.16666666666666669 0.16666666666666669 0.16666666666666669 0.16666666666666669 0.16666666666666669 0.16666666666666669 0.16666666666666669 0.16666666666666669 0.16666666666666669 0.16666666666666669 0.16666666666666669 0.16666666666666669 0.16666666666666669 0.16666666666666669 0.16666666666666669 0.16666666666666669 0.16666666666666669 0.16666666666666669 0.16666666666666669 0.16666666666666669 0.16666666666666669 0.16666666666666669 0.16666666666666669 0.16666666666666669 0.16666666666666669 0.16666666666666669 0.16666666666666669 0.16666666666666669 0.16666666666666669 0.16666666666666669 0.16666666666666669 0.16666666666666669 0.16666666666666669 0.16666666666666669 0.16666666666666669 0.16666666666666669 0.16666666666666669 0.16666666666666669 0.16666666666666669 0.16666666666666669 0.16666666666666669 0.16666666666666669 0.16666666666666669 0.16666666666666669 0.16666666666666669 0.16666666666666669 0.16666666666666669 0.16666666666666669 0.16666666666666669 0.16666666666666669 0.16666666666666669 0.16666666666666669 0.16666666666666669 0.16666666666666669 0.16666666666666669 0.16666666666666669 0.16666666666666669 0.16666666666666669 0.16666666666666669 0.16666666666666669 0.16666666666666669 0.16666666666666669 0.16666666666666669 0.16666666666666669 0.16666666666666669 0.16666666666666669 0.16666666666666669 0.16666666666666669 0.16666666666666669 0.16666666666666669 0.16666666666666669 0.16666666666666669 0.16666666666666669 0.16666666666666669 0.16666666666666669 0.16666666666666669 0.16666666666666669 0.16666666666666669 0.16666666666666669 0.16666666666666669 0.16666666666666669 0.16666666666666669 0.16666666666666669 0.16666666666666669 0.16666666666666669 0.16666666666666669 0.16666666666666669 0.16666666666666669 0.16666666666666669 0.16666666666666669 0.16666666666666669 0.16666666666666669 0.16666666666666669 0.16666666666666669 0.16666666666666669 0.16666666666666669 0.16666666666666669 0.16666666666666669 0.16666666666666669 0.16666666666666669 0.16666666666666669 0.16666666666666669 0.16666666666666669 0.16666666666666669 0.16666666666666669 0.16666666666666669 0.16666666666666669 0.16666666666666669 0.16666666666666669 0.16666666666666669 0.16666666666666669 0.16666666666666669 0.16666666666666669 0.16666666666666669 0.16666666666666669 0.16666666666666669 0.16666666666666669 0.16666666666666669 0.16666666666666669 0.16666666666666669 0.16666666666666669 0.16666666666666669 0.16666666666666669 0.16666666666666669 0.16666666666666669 0.16666666666666669 0.16666666666666669 0.16666666666666669 0.16666666666666669 0.16666666666666669 0.16666666666666669 0.16666666666666669 0.16666666666666669 0.16666666666666669 0.16666666666666669 0.16666666666666669 0.16666666666666669 0.16666666666666669 0.16666666666666669 0.16666666666666669 0.16666666666666669 0.16666666666666669 0.16666666666666669 0.16666666666666669 0.16666666666666669 0.16666666666666669 0.16666666666666669 0.16666666666666669 0.16666666666666669 0.16666666666666669 0.16666666666666669 0.16666666666666669 0.16666666666666669 0.16666666666666669 0.16666666666666669 0.16666666666666669 0.16666666666666669 0.16666666666666669 0.16666666666666669 0.16666666666666669 0.16666666666666669 0.16666666666666669 0.16666666666666669 0.16666666666666669 0.16666666666666669 0.16666666666666669 0.16666666666666669 0.16666666666666669 0.16666666666666669 0.16666666666666669 0.16666666666666669 0.16666666666666669 0.16666666666666669 0.16666666666666669 0.16666666666666669 0.16666666666666669 0.16666666666666669 0.16666666666666669 0.16666666666666669 0.16666666666666669 0.16666666666666669 0.16666666666666669 0.16666666666666669 0.16666666666666669 0.16666666666666669 0.16666666666666669 0.16666666666666669 0.16666666666666669 0.16666666666666669 0.16666666666666669 0.16666666666666669 0.16666666666666669 0.16666666666666669 0.16666666666666669 0.16666666666666669 0.16666666666666669 0.16666666666666669 0.16666666666666669 0.16666666666666669 0.16666666666666669 0.16666666666666669 0.16666666666666669 0.16666666666666669 0.16666666666666669 0.16666666666666669 0.16666666666666669 0.16666666666666669 0.16666666666666669 0.16666666666666669 0.16666666666666669 0.16666666666666669 0.16666666666666669 0.16666666666666669 0.16666666666666669 0.16666666666666669 0.16666666666666669 0.16666666666666669 0.16666666666666669 0.16666666666666669 0.16666666666666669 0.16666666666666669 0.16666666666666669 0.16666666666666669 0.16666666666666669 0.16666666666666669 0.16666666666666669 0.16666666666666669 0.16666666666666669 0.16666666666666669 0.16666666666666669 0.16666666666666669 0.16666666666666669 0.16666666666666669 0.16666666666666669 0.16666666666666669 0.16666666666666669 0.16666666666666669 0.16666666666666669 0.16666666666666669 0.16666666666666669 0.16666666666666669 0.16666666666666669 0.16666666666666669 0.16666666666666669 0.16666666666666669 0.16666666666666669 0.16666666666666669 0.16666666666666669 0.16666666666666669 0.16666666666666669 0.16666666666666669 0.16666666666666669 0.16666666666666669 0.16666666666666669 0.16666666666666669 0.16666666666666669 0.16666666666666669 0.16666666666666669 0.16666666666666669 0.16666666666666669 0.16666666666666669 0.16666666666666669 0.16666666666666669 0.16666666666666669 0.16666666666666669 0.16666666666666669 0.16666666666666669 0.16666666666666669 0.16666666666666669 0.16666666666666669 0.16666666666666669 0.16666666666666669 0.16666666666666669 0.16666666666666669 0.16666666666666669 0.16666666666666669 0.16666666666666669 0.16666666666666669 0.16666666666666669 0.16666666666666669 0.16666666666666669 0.16666666666666669 0.16666666666666669 0.16666666666666669 0.16666666666666669 0.16666666666666669 0.16666666666666669 0.16666666666666669 0.16666666666666669 0.16666666666666669 0.16666666666666669 0.16666666666666669 0.16666666666666669 0.16666666666666669 0.16666666666666669 0.16666666666666669 0.16666666666666669 0.16666666666666669 0.16666666666666669 0.16666666666666669 0.16666666666666669 0.16666666666666669 0.16666666666666669 0.16666666666666669 0.16666666666666669 0.16666666666666669 0.16666666666666669 0.16666666666666669 0.16666666666666669 0.16666666666666669 0.16666666666666669 0.16666666666666669 0.16666666666666669 0.16666666666666669 0.16666666666666669 0.16666666666666669 0.16666666666666669 0.16666666666666669 0.16666666666666669 0.16666666666666669 0.16666666666666669 0.16666666666666669 0.16666666666666669 0.16666666666666669 0.16666666666666669 0.16666666666666669 0.16666666666666669 0.16666666666666669 0.16666666666666669 0.16666666666666669 0.16666666666666669 0.16666666666666669 0.16666666666666669 0.16666666666666669 0.16666666666666669 0.16666666666666669 0.16666666666666669 0.16666666666666669 0.16666666666666669 0.16666666666666669 0.16666666666666669 0.16666666666666669 0.16666666666666669 0.16666666666666669 0.16666666666666669 0.16666666666666669 0.16666666666666669 0.16666666666666669 0.16666666666666669 0.16666666666666669 0.16666666666666669 0.16666666666666669 0.16666666666666669 0.16666666666666669 0.16666666666666669 0.16666666666666669 0.16666666666666669 0.16666666666666669 0.16666666666666669 0.16666666666666669 0.16666666666666669 0.16666666666666669 0.16666666666666669 0.16666666666666669 0.16666666666666669 0.16666666666666669 0.16666666666666669 0.16666666666666669 0.16666666666666669 0.16666666666666669 0.16666666666666669 0.16666666666666669 0.16666666666666669 0.16666666666666669 0.16666666666666669 0.16666666666666669 0.16666666666666669 0.16666666666666669 0.16666666666666669 0.16666666666666669 0.16666666666666669 0.16666666666666669 0.16666666666666669 0.16666666666666669 0.16666666666666669 0.16666666666666669 0.16666666666666669 0.16666666666666669 0.16666666666666669 0.16666666666666669 0.16666666666666669 0.16666666666666669 0.16666666666666669 0.16666666666666669 0.16666666666666669 0.16666666666666669 0.16666666666666669 