<?xml version='1.0' encoding='utf-8'?>
<BIF VERSION="0.3">
  <NETWORK>
    <NAME>UNTITLED</NAME>
    <VARIABLE TYPE="nature">
      <NAME>AMCINInScen</NAME>
      <OUTCOME>Average</OUTCOME>
      <OUTCOME>LessThanAve</OUTCOME>
      <OUTCOME>MoreThanAve</OUTCOME>
      <PROPERTY>weight = None</PROPERTY>
    </VARIABLE>
    <VARIABLE TYPE="nature">
      <NAME>AMDewptCalPl</NAME>
      <OUTCOME>Instability</OUTCOME>
      <OUTCOME>Neutral</OUTCOME>
      <OUTCOME>Stability</OUTCOME>
      <PROPERTY>weight = None</PROPERTY>
    </VARIABLE>
    <VARIABLE TYPE="nature">
      <NAME>AMInsWliScen</NAME>
      <OUTCOME>Average</OUTCOME>
      <OUTCOME>LessUnstable</OUTCOME>
      <OUTCOME>MoreUnstable</OUTCOME>
      <PROPERTY>weight = None</PROPERTY>
    </VARIABLE>
    <VARIABLE TYPE="nature">
      <NAME>AMInstabMt</NAME>
      <OUTCOME>Strong</OUTCOME>
      <OUTCOME>Weak</OUTCOME>
      <PROPERTY>weight = None</PROPERTY>
    </VARIABLE>
    <VARIABLE TYPE="nature">
      <NAME>AreaMeso_ALS</NAME>
      <OUTCOME>Down</OUTCOME>
      <OUTCOME>Neutral</OUTCOME>
      <OUTCOME>StrongUp</OUTCOME>
      <OUTCOME>WeakUp</OUTCOME>
      <PROPERTY>weight = None</PROPERTY>
    </VARIABLE>
    <VARIABLE TYPE="nature">
      <NAME>AreaMoDryAir</NAME>
      <OUTCOME>Dry</OUTCOME>
      <OUTCOME>Neutral</OUTCOME>
      <OUTCOME>VeryWet</OUTCOME>
      <OUTCOME>Wet</OUTCOME>
      <PROPERTY>weight = None</PROPERTY>
    </VARIABLE>
    <VARIABLE TYPE="nature">
      <NAME>Boundaries</NAME>
      <OUTCOME>Strong</OUTCOME>
      <OUTCOME>Weak</OUTCOME>
      <PROPERTY>weight = None</PROPERTY>
    </VARIABLE>
    <VARIABLE TYPE="nature">
      <NAME>CapChange</NAME>
      <OUTCOME>Decreasing</OUTCOME>
      <OUTCOME>Increasing</OUTCOME>
      <OUTCOME>LittleChange</OUTCOME>
      <PROPERTY>weight = None</PROPERTY>
    </VARIABLE>
    <VARIABLE TYPE="nature">
      <NAME>CapInScen</NAME>
      <OUTCOME>Average</OUTCOME>
      <OUTCOME>LessThanAve</OUTCOME>
      <OUTCOME>MoreThanAve</OUTCOME>
      <PROPERTY>weight = None</PROPERTY>
    </VARIABLE>
    <VARIABLE TYPE="nature">
      <NAME>CldShadeConv</NAME>
      <OUTCOME>Marked</OUTCOME>
      <OUTCOME>Some</OUTCOME>
      <PROPERTY>weight = None</PROPERTY>
    </VARIABLE>
    <VARIABLE TYPE="nature">
      <NAME>CldShadeOth</NAME>
      <OUTCOME>Clear</OUTCOME>
      <OUTCOME>Cloudy</OUTCOME>
      <OUTCOME>PC</OUTCOME>
      <PROPERTY>weight = None</PROPERTY>
    </VARIABLE>
    <VARIABLE TYPE="nature">
      <NAME>CombClouds</NAME>
      <OUTCOME>Clear</OUTCOME>
      <OUTCOME>Cloudy</OUTCOME>
      <OUTCOME>PC</OUTCOME>
      <PROPERTY>weight = None</PROPERTY>
    </VARIABLE>
    <VARIABLE TYPE="nature">
      <NAME>CombMoisture</NAME>
      <OUTCOME>Dry</OUTCOME>
      <OUTCOME>Neutral</OUTCOME>
      <OUTCOME>VeryWet</OUTCOME>
      <OUTCOME>Wet</OUTCOME>
      <PROPERTY>weight = None</PROPERTY>
    </VARIABLE>
    <VARIABLE TYPE="nature">
      <NAME>CombVerMo</NAME>
      <OUTCOME>Down</OUTCOME>
      <OUTCOME>Neutral</OUTCOME>
      <OUTCOME>StrongUp</OUTCOME>
      <OUTCOME>WeakUp</OUTCOME>
      <PROPERTY>weight = None</PROPERTY>
    </VARIABLE>
    <VARIABLE TYPE="nature">
      <NAME>CompPlFcst</NAME>
      <OUTCOME>DecCapIncIns</OUTCOME>
      <OUTCOME>IncCapDecIns</OUTCOME>
      <OUTCOME>LittleChange</OUTCOME>
      <PROPERTY>weight = None</PROPERTY>
    </VARIABLE>
    <VARIABLE TYPE="nature">
      <NAME>CurPropConv</NAME>
      <OUTCOME>Moderate</OUTCOME>
      <OUTCOME>Slight</OUTCOME>
      <OUTCOME>Strong</OUTCOME>
      <PROPERTY>weight = None</PROPERTY>
    </VARIABLE>
    <VARIABLE TYPE="nature">
      <NAME>Date</NAME>
      <OUTCOME>Aug11_Aug20</OUTCOME>
      <OUTCOME>Aug20_Sep15</OUTCOME>
      <OUTCOME>Jul16_Aug10</OUTCOME>
      <OUTCOME>Jul2_Jul15</OUTCOME>
      <OUTCOME>Jun15_Jul1</OUTCOME>
      <OUTCOME>May15_Jun14</OUTCOME>
      <PROPERTY>weight = None</PROPERTY>
    </VARIABLE>
    <VARIABLE TYPE="nature">
      <NAME>Dewpoints</NAME>
      <OUTCOME>HighEvrywher</OUTCOME>
      <OUTCOME>LowAtStation</OUTCOME>
      <OUTCOME>LowEvrywhere</OUTCOME>
      <OUTCOME>LowMtsHighPl</OUTCOME>
      <OUTCOME>LowNHighS</OUTCOME>
      <OUTCOME>LowSHighN</OUTCOME>
      <OUTCOME>Other</OUTCOME>
      <PROPERTY>weight = None</PROPERTY>
    </VARIABLE>
    <VARIABLE TYPE="nature">
      <NAME>IRCloudCover</NAME>
      <OUTCOME>Clear</OUTCOME>
      <OUTCOME>Cloudy</OUTCOME>
      <OUTCOME>PC</OUTCOME>
      <PROPERTY>weight = None</PROPERTY>
    </VARIABLE>
    <VARIABLE TYPE="nature">
      <NAME>InsChange</NAME>
      <OUTCOME>Decreasing</OUTCOME>
      <OUTCOME>Increasing</OUTCOME>
      <OUTCOME>LittleChange</OUTCOME>
      <PROPERTY>weight = None</PROPERTY>
    </VARIABLE>
    <VARIABLE TYPE="nature">
      <NAME>InsInMt</NAME>
      <OUTCOME>Strong</OUTCOME>
      <OUTCOME>Weak</OUTCOME>
      <PROPERTY>weight = None</PROPERTY>
    </VARIABLE>
    <VARIABLE TYPE="nature">
      <NAME>InsSclInScen</NAME>
      <OUTCOME>Average</OUTCOME>
      <OUTCOME>LessUnstable</OUTCOME>
      <OUTCOME>MoreUnstable</OUTCOME>
      <PROPERTY>weight = None</PROPERTY>
    </VARIABLE>
    <VARIABLE TYPE="nature">
      <NAME>LIfr12ZDENSd</NAME>
      <OUTCOME>LIGt0</OUTCOME>
      <OUTCOME>LILt_8</OUTCOME>
      <OUTCOME>N1GtLIGt_4</OUTCOME>
      <OUTCOME>N5GtLIGt_8</OUTCOME>
      <PROPERTY>weight = None</PROPERTY>
    </VARIABLE>
    <VARIABLE TYPE="nature">
      <NAME>LLIW</NAME>
      <OUTCOME>Moderate</OUTCOME>
      <OUTCOME>Strong</OUTCOME>
      <OUTCOME>Unfavorable</OUTCOME>
      <OUTCOME>Weak</OUTCOME>
      <PROPERTY>weight = None</PROPERTY>
    </VARIABLE>
    <VARIABLE TYPE="nature">
      <NAME>LatestCIN</NAME>
      <OUTCOME>PartInhibit</OUTCOME>
      <OUTCOME>Stifling</OUTCOME>
      <OUTCOME>TotalInhibit</OUTCOME>
      <PROPERTY>weight = None</PROPERTY>
    </VARIABLE>
    <VARIABLE TYPE="nature">
      <NAME>LoLevMoistAd</NAME>
      <OUTCOME>Negative</OUTCOME>
      <OUTCOME>Neutral</OUTCOME>
      <OUTCOME>StrongPos</OUTCOME>
      <OUTCOME>WeakPos</OUTCOME>
      <PROPERTY>weight = None</PROPERTY>
    </VARIABLE>
    <VARIABLE TYPE="nature">
      <NAME>LowLLapse</NAME>
      <OUTCOME>CloseToDryAd</OUTCOME>
      <OUTCOME>ModerateOrLe</OUTCOME>
      <OUTCOME>Stable</OUTCOME>
      <OUTCOME>Steep</OUTCOME>
      <PROPERTY>weight = None</PROPERTY>
    </VARIABLE>
    <VARIABLE TYPE="nature">
      <NAME>MeanRH</NAME>
      <OUTCOME>Average</OUTCOME>
      <OUTCOME>Dry</OUTCOME>
      <OUTCOME>VeryMoist</OUTCOME>
      <PROPERTY>weight = None</PROPERTY>
    </VARIABLE>
    <VARIABLE TYPE="nature">
      <NAME>MidLLapse</NAME>
      <OUTCOME>CloseToDryAd</OUTCOME>
      <OUTCOME>ModerateOrLe</OUTCOME>
      <OUTCOME>Steep</OUTCOME>
      <PROPERTY>weight = None</PROPERTY>
    </VARIABLE>
    <VARIABLE TYPE="nature">
      <NAME>MorningBound</NAME>
      <OUTCOME>Strong</OUTCOME>
      <OUTCOME>Weak</OUTCOME>
      <PROPERTY>weight = None</PROPERTY>
    </VARIABLE>
    <VARIABLE TYPE="nature">
      <NAME>MorningCIN</NAME>
      <OUTCOME>PartInhibit</OUTCOME>
      <OUTCOME>Stifling</OUTCOME>
      <OUTCOME>TotalInhibit</OUTCOME>
      <PROPERTY>weight = None</PROPERTY>
    </VARIABLE>
    <VARIABLE TYPE="nature">
      <NAME>MountainFcst</NAME>
      <OUTCOME>SIG</OUTCOME>
      <OUTCOME>SVR</OUTCOME>
      <OUTCOME>XNIL</OUTCOME>
      <PROPERTY>weight = None</PROPERTY>
    </VARIABLE>
    <VARIABLE TYPE="nature">
      <NAME>MvmtFeatures</NAME>
      <OUTCOME>MarkedUpper</OUTCOME>
      <OUTCOME>NoMajor</OUTCOME>
      <OUTCOME>OtherRapid</OUTCOME>
      <OUTCOME>StrongFront</OUTCOME>
      <PROPERTY>weight = None</PROPERTY>
    </VARIABLE>
    <VARIABLE TYPE="nature">
      <NAME>N0_7muVerMo</NAME>
      <OUTCOME>Down</OUTCOME>
      <OUTCOME>Neutral</OUTCOME>
      <OUTCOME>StrongUp</OUTCOME>
      <OUTCOME>WeakUp</OUTCOME>
      <PROPERTY>weight = None</PROPERTY>
    </VARIABLE>
    <VARIABLE TYPE="nature">
      <NAME>N34StarFcst</NAME>
      <OUTCOME>SIG</OUTCOME>
      <OUTCOME>SVR</OUTCOME>
      <OUTCOME>XNIL</OUTCOME>
      <PROPERTY>weight = None</PROPERTY>
    </VARIABLE>
    <VARIABLE TYPE="nature">
      <NAME>OutflowFrMt</NAME>
      <OUTCOME>Strong</OUTCOME>
      <OUTCOME>Weak</OUTCOME>
      <PROPERTY>weight = None</PROPERTY>
    </VARIABLE>
    <VARIABLE TYPE="nature">
      <NAME>PlainsFcst</NAME>
      <OUTCOME>SIG</OUTCOME>
      <OUTCOME>SVR</OUTCOME>
      <OUTCOME>XNIL</OUTCOME>
      <PROPERTY>weight = None</PROPERTY>
    </VARIABLE>
    <VARIABLE TYPE="nature">
      <NAME>QGVertMotion</NAME>
      <OUTCOME>Down</OUTCOME>
      <OUTCOME>Neutral</OUTCOME>
      <OUTCOME>StrongUp</OUTCOME>
      <OUTCOME>WeakUp</OUTCOME>
      <PROPERTY>weight = None</PROPERTY>
    </VARIABLE>
    <VARIABLE TYPE="nature">
      <NAME>R5Fcst</NAME>
      <OUTCOME>SIG</OUTCOME>
      <OUTCOME>SVR</OUTCOME>
      <OUTCOME>XNIL</OUTCOME>
      <PROPERTY>weight = None</PROPERTY>
    </VARIABLE>
    <VARIABLE TYPE="nature">
      <NAME>RHRatio</NAME>
      <OUTCOME>DryMMoistL</OUTCOME>
      <OUTCOME>MoistMDryL</OUTCOME>
      <OUTCOME>Other</OUTCOME>
      <PROPERTY>weight = None</PROPERTY>
    </VARIABLE>
    <VARIABLE TYPE="nature">
      <NAME>RaoContMoist</NAME>
      <OUTCOME>Dry</OUTCOME>
      <OUTCOME>Neutral</OUTCOME>
      <OUTCOME>VeryWet</OUTCOME>
      <OUTCOME>Wet</OUTCOME>
      <PROPERTY>weight = None</PROPERTY>
    </VARIABLE>
    <VARIABLE TYPE="nature">
      <NAME>SatContMoist</NAME>
      <OUTCOME>Dry</OUTCOME>
      <OUTCOME>Neutral</OUTCOME>
      <OUTCOME>VeryWet</OUTCOME>
      <OUTCOME>Wet</OUTCOME>
      <PROPERTY>weight = None</PROPERTY>
    </VARIABLE>
    <VARIABLE TYPE="nature">
      <NAME>ScenRel3_4</NAME>
      <OUTCOME>ACEFK</OUTCOME>
      <OUTCOME>B</OUTCOME>
      <OUTCOME>D</OUTCOME>
      <OUTCOME>GJ</OUTCOME>
      <OUTCOME>HI</OUTCOME>
      <PROPERTY>weight = None</PROPERTY>
    </VARIABLE>
    <VARIABLE TYPE="nature">
      <NAME>ScenRelAMCIN</NAME>
      <OUTCOME>AB</OUTCOME>
      <OUTCOME>CThruK</OUTCOME>
      <PROPERTY>weight = None</PROPERTY>
    </VARIABLE>
    <VARIABLE TYPE="nature">
      <NAME>ScenRelAMIns</NAME>
      <OUTCOME>ABI</OUTCOME>
      <OUTCOME>CDEJ</OUTCOME>
      <OUTCOME>F</OUTCOME>
      <OUTCOME>G</OUTCOME>
      <OUTCOME>H</OUTCOME>
      <OUTCOME>K</OUTCOME>
      <PROPERTY>weight = None</PROPERTY>
    </VARIABLE>
    <VARIABLE TYPE="nature">
      <NAME>Scenario</NAME>
      <OUTCOME>A</OUTCOME>
      <OUTCOME>B</OUTCOME>
      <OUTCOME>C</OUTCOME>
      <OUTCOME>D</OUTCOME>
      <OUTCOME>E</OUTCOME>
      <OUTCOME>F</OUTCOME>
      <OUTCOME>G</OUTCOME>
      <OUTCOME>H</OUTCOME>
      <OUTCOME>I</OUTCOME>
      <OUTCOME>J</OUTCOME>
      <OUTCOME>K</OUTCOME>
      <PROPERTY>weight = None</PROPERTY>
    </VARIABLE>
    <VARIABLE TYPE="nature">
      <NAME>ScnRelPlFcst</NAME>
      <OUTCOME>A</OUTCOME>
      <OUTCOME>B</OUTCOME>
      <OUTCOME>C</OUTCOME>
      <OUTCOME>D</OUTCOME>
      <OUTCOME>E</OUTCOME>
      <OUTCOME>F</OUTCOME>
      <OUTCOME>G</OUTCOME>
      <OUTCOME>H</OUTCOME>
      <OUTCOME>I</OUTCOME>
      <OUTCOME>J</OUTCOME>
      <OUTCOME>K</OUTCOME>
      <PROPERTY>weight = None</PROPERTY>
    </VARIABLE>
    <VARIABLE TYPE="nature">
      <NAME>SfcWndShfDis</NAME>
      <OUTCOME>DenvCyclone</OUTCOME>
      <OUTCOME>DryLine</OUTCOME>
      <OUTCOME>E_W_N</OUTCOME>
      <OUTCOME>E_W_S</OUTCOME>
      <OUTCOME>MovingFtorOt</OUTCOME>
      <OUTCOME>Other</OUTCOME>
      <PROPERTY>weight = None</PROPERTY>
    </VARIABLE>
    <VARIABLE TYPE="nature">
      <NAME>SubjVertMo</NAME>
      <OUTCOME>Down</OUTCOME>
      <OUTCOME>Neutral</OUTCOME>
      <OUTCOME>StronUp</OUTCOME>
      <OUTCOME>WeakUp</OUTCOME>
      <PROPERTY>weight = None</PROPERTY>
    </VARIABLE>
    <VARIABLE TYPE="nature">
      <NAME>SynForcng</NAME>
      <OUTCOME>LittleChange</OUTCOME>
      <OUTCOME>NegToPos</OUTCOME>
      <OUTCOME>PosToNeg</OUTCOME>
      <OUTCOME>SigNegative</OUTCOME>
      <OUTCOME>SigPositive</OUTCOME>
      <PROPERTY>weight = None</PROPERTY>
    </VARIABLE>
    <VARIABLE TYPE="nature">
      <NAME>TempDis</NAME>
      <OUTCOME>Moving</OUTCOME>
      <OUTCOME>Other</OUTCOME>
      <OUTCOME>QStationary</OUTCOME>
      <PROPERTY>weight = None</PROPERTY>
    </VARIABLE>
    <VARIABLE TYPE="nature">
      <NAME>VISCloudCov</NAME>
      <OUTCOME>Clear</OUTCOME>
      <OUTCOME>Cloudy</OUTCOME>
      <OUTCOME>PC</OUTCOME>
      <PROPERTY>weight = None</PROPERTY>
    </VARIABLE>
    <VARIABLE TYPE="nature">
      <NAME>WindAloft</NAME>
      <OUTCOME>AllElse</OUTCOME>
      <OUTCOME>LV</OUTCOME>
      <OUTCOME>NWQuad</OUTCOME>
      <OUTCOME>SWQuad</OUTCOME>
      <PROPERTY>weight = None</PROPERTY>
    </VARIABLE>
    <VARIABLE TYPE="nature">
      <NAME>WindFieldMt</NAME>
      <OUTCOME>LVorOther</OUTCOME>
      <OUTCOME>Westerly</OUTCOME>
      <PROPERTY>weight = None</PROPERTY>
    </VARIABLE>
    <VARIABLE TYPE="nature">
      <NAME>WindFieldPln</NAME>
      <OUTCOME>DenvCyclone</OUTCOME>
      <OUTCOME>E_NE</OUTCOME>
      <OUTCOME>LV</OUTCOME>
      <OUTCOME>LongAnticyc</OUTCOME>
      <OUTCOME>SEQuad</OUTCOME>
      <OUTCOME>WidespdDnsl</OUTCOME>
      <PROPERTY>weight = None</PROPERTY>
    </VARIABLE>
    <VARIABLE TYPE="nature">
      <NAME>WndHodograph</NAME>
      <OUTCOME>DCVZFavor</OUTCOME>
      <OUTCOME>Other</OUTCOME>
      <OUTCOME>StrongWest</OUTCOME>
      <OUTCOME>Westerly</OUTCOME>
      <PROPERTY>weight = None</PROPERTY>
    </VARIABLE>
    <DEFINITION>
      <FOR>AMCINInScen</FOR>
      <GIVEN>CurPropConv</GIVEN>
      <GIVEN>LatestCIN</GIVEN>
      <TABLE>0.4443665591850086 0.33711855694191317 0.2185148838730782 0.3754954954954955 0.36576576576576575 0.2587387387387387 0.3976190476190476 0.26904761904761904 0.3333333333333333 0.42181289040318004 0.34802668938103354 0.2301604202157865 0.42331083895692745 0.29959176872448556 0.27709739231858704 0.4403025391680173 0.36736898973527826 0.19232847109670448 0.4214726151614073 0.3705476967718535 0.20797968806673922 0.3725124378109453 0.3389303482587065 0.2885572139303483 0.11904761904761905 0.11904761904761905 0.761904761904762 </TABLE>
    </DEFINITION>
    <DEFINITION>
      <FOR>AMDewptCalPl</FOR>
      <GIVEN>CurPropConv</GIVEN>
      <GIVEN>LatestCIN</GIVEN>
      <TABLE>0.29295761484181504 0.25258189635029676 0.4544604888078882 0.2927927927927928 0.24900900900900902 0.45819819819819824 0.3333333333333333 0.26904761904761904 0.3976190476190476 0.30011357183418513 0.27328222600795005 0.4266042021578649 0.29959176872448556 0.29284345580271604 0.4075647754727985 0.19232847109670448 0.309022150189087 0.4986493787142085 0.29807762060210374 0.26282190787087417 0.43910047152702214 0.3053482587064677 0.27176616915422885 0.4228855721393035 0.11904761904761905 0.761904761904762 0.11904761904761905 </TABLE>
    </DEFINITION>
    <DEFINITION>
      <FOR>AMInsWliScen</FOR>
      <GIVEN>AMDewptCalPl</GIVEN>
      <GIVEN>AMInstabMt</GIVEN>
      <GIVEN>CurPropConv</GIVEN>
      <GIVEN>LatestCIN</GIVEN>
      <TABLE>0.24011508425811753 0.20016440608302505 0.5597205096588574 0.24034440344403443 0.24034440344403443 0.5193111931119311 0.9435028248587572 0.028248587570621472 0.028248587570621472 0.24568522426013095 0.1054482497430071 0.648866525996862 0.3657803815532522 0.14676280606879974 0.48745681237794797 0.11337406653088934 0.0033944331296673455 0.8832315003394434 0.31376102452579435 0.11803793645040472 0.5682010390238008 0.25095347063310447 0.3745232646834477 0.3745232646834477 0.3333333333333333 0.3333333333333333 0.3333333333333333 0.28576671805035603 0.1549585260221684 0.5592747559274757 0.060310581437342 0.29433008306247743 0.6453593355001805 0.4926253687315634 0.014749262536873156 0.4926253687315634 0.2347869863444717 0.18381473790195707 0.5813982757535712 0.15718255406548265 0.15718255406548265 0.6856348918690347 0.656686626746507 0.00998003992015968 0.3333333333333333 0.16698754973687588 0.1461943267873187 0.6868181234758054 0.014749262536873156 0.4926253687315634 0.4926253687315634 0.3333333333333333 0.3333333333333333 0.3333333333333333 0.3866009042334566 0.25343197698314834 0.359967118783395 0.15511551155115513 0.30787364450730786 0.537010843941537 0.3333333333333333 0.3333333333333333 0.3333333333333333 0.3267387189350919 0.27727911094828106 0.39598217011662695 0.39011566771819134 0.2441039507285564 0.3657803815532522 0.49746707193515705 0.33333333333333337 0.1691995947315096 0.3791640144281774 0.2760449819647783 0.34479100360704434 0.20242424242424237 0.39878787878787875 0.39878787878787875 0.3333333333333333 0.3333333333333333 0.3333333333333333 0.4037208200023699 0.2885412963621282 0.3077378836355018 0.3499231950844854 0.3001536098310292 0.3499231950844854 0.3333333333333333 0.3333333333333333 0.3333333333333333 0.45542994176087703 0.26673518328194584 0.2778348749571771 0.20857399563599022 0.35412655628289047 0.4372994480811192 0.5975535168195719 0.10214067278287461 0.30030581039755355 0.30649169897604134 0.29038671836166613 0.4031215826622925 0.5951515151515152 0.3987878787878788 0.006060606060606061 0.3333333333333333 0.3333333333333333 0.3333333333333333 0.3185961464985536 0.53965394902025 0.14174990448119643 0.2904506650784197 0.45126067103434586 0.2582886638872345 0.3333333333333333 0.3333333333333333 0.3333333333333333 0.3504138330961042 0.5041383309610418 0.14544783594285413 0.3333333333333333 0.5084874040436804 0.15817926262298626 0.44331296673455534 0.44331296673455534 0.11337406653088934 0.29874289374649693 0.5192569461125791 0.18200016014092402 0.39938837920489295 0.30030581039755355 0.30030581039755355 0.3333333333333333 0.3333333333333333 0.3333333333333333 0.37603458274026047 0.4443565817913438 0.1796088354683958 0.5618388151567608 0.3748797845739565 0.06328140026928256 0.02824858757062147 0.02824858757062147 0.943502824858757 0.36967657506075907 0.4423630585156104 0.1879603664236306 0.32259667959041655 0.5480664081916692 0.1293369122179143 0.3569864213753833 0.5698642137538327 0.07314936487078405 0.34209458911332846 0.578648495173197 0.07925691571347449 0.6632722335369994 0.33333333333333337 0.0033944331296673455 0.3333333333333333 0.3333333333333333 0.3333333333333333 </TABLE>
    </DEFINITION>
    <DEFINITION>
      <FOR>AMInstabMt</FOR>
      <GIVEN>CurPropConv</GIVEN>
      <GIVEN>LatestCIN</GIVEN>
      <TABLE>0.5096795009679501 0.4903204990320499 0.5 0.5 0.4052631578947368 0.5947368421052631 0.4846839546191248 0.5153160453808752 0.4634011090573013 0.5365988909426987 0.4709051724137931 0.5290948275862069 0.45779430789133246 0.5422056921086675 0.5884831460674157 0.41151685393258425 0.5 0.5 </TABLE>
    </DEFINITION>
    <DEFINITION>
      <FOR>AreaMeso_ALS</FOR>
      <GIVEN>AMInstabMt</GIVEN>
      <GIVEN>CurPropConv</GIVEN>
      <GIVEN>LatestCIN</GIVEN>
      <TABLE>0.1749841738763452 0.4522578603080819 0.11421185904199198 0.2585461067735809 0.20308740978348036 0.448476343223737 0.13091419406575783 0.2175220529270249 0.016233766233766232 0.7175324675324675 0.24999999999999994 0.016233766233766232 0.14466644373850523 0.4787242935963885 0.11457114194950675 0.26203812071559934 0.15845632229756682 0.43129238133226966 0.144096529716793 0.26615476665337057 0.20881006864988558 0.5383295194508009 0.08524027459954234 0.16762013729977118 0.19118685976686683 0.45187212998940307 0.10853055457435534 0.24841045566937478 0.21778042959427207 0.43257756563245825 0.08890214797136038 0.2607398568019093 0.25 0.25 0.25 0.25 0.2095305988155297 0.43852818600570304 0.11477297652994077 0.2371682386488265 0.18865276663993585 0.448476343223737 0.18865276663993585 0.17421812349639135 0.17035398230088494 0.4889380530973451 0.17035398230088494 0.17035398230088494 0.18135713162446923 0.4219610001572574 0.14738952665513444 0.24929234156313881 0.10583878746124697 0.5088701343437823 0.13064071650017223 0.2546503616947985 0.14918533604887985 0.4424643584521385 0.2225050916496945 0.18584521384928718 0.19363256784968685 0.3976289889651059 0.1292126453921861 0.27952579779302117 0.25 0.3114334470989761 0.06569965870307166 0.3728668941979522 0.25 0.25 0.25 0.25 </TABLE>
    </DEFINITION>
    <DEFINITION>
      <FOR>AreaMoDryAir</FOR>
      <GIVEN>AMInstabMt</GIVEN>
      <GIVEN>AreaMeso_ALS</GIVEN>
      <GIVEN>CurPropConv</GIVEN>
      <GIVEN>LatestCIN</GIVEN>
      <TABLE>0.41279770877298766 0.26085318058486584 0.06549593005728067 0.26085318058486584 0.285538005923001 0.42769002961500496 0.00123395853899309 0.285538005923001 0.25 0.25 0.25 0.25 0.3124097081768275 0.374819416353655 0.02116440335163248 0.291606472117885 0.3179672750157332 0.3179672750157332 0.1367212083071114 0.22734424166142228 0.20068493150684932 0.5952054794520548 0.20068493150684932 0.003424657534246575 0.39965357967667436 0.23337182448036953 0.0338337182448037 0.3331408775981524 0.0034246575342465765 0.7924657534246577 0.0034246575342465765 0.20068493150684938 0.25 0.25 0.25 0.25 0.10092732998950191 0.3528811384579494 0.2940919164819783 0.2520996150705704 0.1293026374608851 0.4833482342422888 0.258046490835941 0.1293026374608851 0.005656108597285068 0.005656108597285068 0.33144796380090497 0.6572398190045249 0.15727320352746005 0.41502226490875754 0.1698463284728892 0.2578582030908932 0.23335260115606937 0.4164739884393064 0.1667630057803468 0.18341040462427746 0.30738575982996813 0.3839001062699256 0.07784272051009565 0.23087141339001066 0.19723470783662303 0.40829587649013094 0.21130545241352355 0.18316396325972248 0.2003448275862069 0.2996551724137931 0.2003448275862069 0.2996551724137931 0.25 0.25 0.25 0.25 0.0338337182448037 0.10034642032332564 0.3663972286374134 0.4994226327944573 0.22243491577335375 0.33269525267993877 0.11217457886676876 0.33269525267993877 0.016233766233766232 0.016233766233766232 0.9512987012987012 0.016233766233766232 0.02672382342210872 0.1580627508208683 0.4470083910981394 0.3682050346588836 0.000865051903114187 0.25 0.44930795847750865 0.29982698961937715 0.008389261744966443 0.008389261744966443 0.9748322147651006 0.008389261744966443 0.05960130187144021 0.2353539462978031 0.411106590724166 0.2939381611065907 0.008389261744966443 0.9748322147651006 0.008389261744966443 0.008389261744966443 0.25 0.25 0.25 0.25 0.07370944705162212 0.27938175882472965 0.2646908794123648 0.3822179147112834 0.1338709677419355 0.3329493087557604 0.26658986175115207 0.26658986175115207 0.25 0.25 0.25 0.25 0.14950550327005901 0.24138618599457648 0.27584144201627053 0.33326686871909394 0.08139752716373173 0.32418508804795804 0.32418508804795804 0.2702322967403522 0.25 0.25 0.004266211604095563 0.49573378839590443 0.026039815143974406 0.3587806612157839 0.23080341272662638 0.38437611091361534 0.002860411899313501 0.4971395881006865 0.33237986270022885 0.16762013729977118 0.25 0.25 0.25 0.25 0.41487830410887205 0.24528919131117508 0.05685684375817849 0.2829756608217744 0.6134431455897982 0.07784272051009565 0.0013283740701381512 0.30738575982996813 0.9512987012987012 0.016233766233766232 0.016233766233766232 0.016233766233766232 0.37486451333188814 0.3124322566659441 0.015879037502709734 0.2968241924994581 0.411106590724166 0.11818551668022784 0.17676973148901548 0.2939381611065907 0.9872013651877136 0.004266211604095565 0.004266211604095565 0.004266211604095565 0.25 0.3054485945321525 0.05592991913746631 0.38862148633038124 0.49573378839590443 0.004266211604095563 0.004266211604095563 0.49573378839590443 0.25 0.25 0.25 0.25 0.14421032887332746 0.37829811179192196 0.18022383393772662 0.2972677253970239 0.1293026374608851 0.4833482342422888 0.22586052749217703 0.16148860080464908 0.005656108597285068 0.6572398190045249 0.33144796380090497 0.005656108597285068 0.12757383769682287 0.38248858660206836 0.15440696916053293 0.33553060654057576 0.24390759857843966 0.35357082416652563 0.1342443729903537 0.268277204264681 0.08429228998849253 0.33285385500575376 0.33285385500575376 0.25000000000000006 0.20274704669041815 0.39175885992874554 0.1892462028876805 0.21624789049315582 0.003424657534246575 0.20068493150684932 0.20068493150684932 0.5952054794520548 0.25 0.25 0.25 0.25 0.13819875776397514 0.2413999044433827 0.34460105112279027 0.2758002866698519 0.0013283740701381512 0.30738575982996813 0.4604144527098831 0.23087141339001066 0.016233766233766232 0.016233766233766232 0.9512987012987012 0.016233766233766232 0.01953854361162977 0.19238463590290744 0.4612563350226727 0.3268204854627901 0.0008239947264337509 0.238134475939354 0.3330586684245221 0.4279828609096902 0.002860411899313501 0.16762013729977118 0.6618993135011441 0.16762013729977118 0.0007212925562608194 0.25 0.25 0.4992787074437392 0.016233766233766232 0.016233766233766232 0.9512987012987012 0.016233766233766232 0.25 0.25 0.25 0.25 0.10017341040462427 0.3498843930635838 0.18341040462427746 0.36653179190751445 0.1671461449942463 0.33285385500575376 0.1671461449942463 0.33285385500575376 0.016233766233766232 0.016233766233766232 0.9512987012987012 0.016233766233766232 0.06832518530200282 0.4203201387793723 0.12509856489512694 0.38625611102349783 0.24391274940818397 0.2682617517754481 0.24391274940818397 0.24391274940818397 0.003424657534246575 0.5952054794520548 0.20068493150684932 0.20068493150684932 0.03874366497732729 0.3460256068284876 0.2692051213656975 0.3460256068284876 0.002860411899313502 0.6618993135011443 0.002860411899313502 0.3323798627002289 0.25 0.25 0.25 0.25 </TABLE>
    </DEFINITION>
    <DEFINITION>
      <FOR>Boundaries</FOR>
      <GIVEN>AMInstabMt</GIVEN>
      <GIVEN>CurPropConv</GIVEN>
      <GIVEN>LatestCIN</GIVEN>
      <TABLE>0.467849487973327 0.5321505120266731 0.46568160152526217 0.5343183984747378 0.5 0.5 0.4265963795504277 0.5734036204495723 0.43215077605321506 0.5678492239467849 0.43556085918854415 0.5644391408114559 0.41025129637016355 0.5897487036298364 0.3204488778054863 0.6795511221945137 0.5 0.5 0.45076842927845795 0.549231570721542 0.4746954076850984 0.5253045923149016 0.022123893805309734 0.9778761061946902 0.37012025901942647 0.6298797409805735 0.36463257412978084 0.6353674258702192 0.3204488778054863 0.6795511221945137 0.4001788908765653 0.5998211091234347 0.35992217898832685 0.6400778210116731 0.5 0.5 </TABLE>
    </DEFINITION>
    <DEFINITION>
      <FOR>CapChange</FOR>
      <GIVEN>AMInstabMt</GIVEN>
      <GIVEN>Boundaries</GIVEN>
      <GIVEN>CurPropConv</GIVEN>
      <GIVEN>LatestCIN</GIVEN>
      <TABLE>0.3027912106558073 0.3944175786883855 0.3027912106558073 0.25963834868645513 0.48072330262708973 0.25963834868645513 0.021645021645021644 0.48917748917748916 0.48917748917748916 0.2605891039092252 0.36970544804538746 0.36970544804538746 0.2409782794595519 0.42568838720711477 0.3333333333333333 0.20182648401826483 0.5963470319634704 0.20182648401826483 0.2808296872467996 0.2633284718846216 0.4558418408685788 0.4267185473411154 0.28664072632944226 0.28664072632944226 0.3333333333333333 0.3333333333333333 0.3333333333333333 0.19370478108450812 0.4756470500484822 0.3306481688670098 0.09782931906036275 0.5795420755278026 0.32262860541183463 0.48917748917748916 0.48917748917748916 0.021645021645021644 0.1938710610002891 0.46238797340271753 0.34374096559699335 0.1131068592997527 0.5348171287257583 0.3520760119744892 0.15574348132487667 0.4601832276250881 0.38407329105003524 0.14665764851764176 0.4875436816593395 0.36579866982301884 0.0691131498470948 0.399388379204893 0.5314984709480122 0.3333333333333333 0.3333333333333333 0.3333333333333333 0.33333333333333337 0.23971877106809208 0.4269478955985746 0.07272128989799277 0.4281013491280027 0.49917736097400467 0.3333333333333333 0.3333333333333333 0.3333333333333333 0.27934682995917687 0.3783220861451304 0.3423310838956928 0.2979768218424671 0.31919072873698684 0.3828324494205461 0.4267185473411154 0.4267185473411154 0.1465629053177691 0.322604678885412 0.22604678885412008 0.4513485322604679 0.3981981981981982 0.20360360360360358 0.3981981981981982 0.3333333333333333 0.3333333333333333 0.3333333333333333 0.17966959133665325 0.45284957710852897 0.3674808315548178 0.22628605411834676 0.3547427891763307 0.41897115670532264 0.49622926093514325 0.17043740573152336 0.3333333333333333 0.19586821363881138 0.4866598129926078 0.3174719733685808 0.19535565325217003 0.45102017810844325 0.3536241686393868 0.0691131498470948 0.4654434250764526 0.4654434250764526 0.2689134108758326 0.4084899095337509 0.32259667959041655 0.22391084093211752 0.4427558257345492 0.3333333333333333 0.3333333333333333 0.3333333333333333 0.3333333333333333 </TABLE>
    </DEFINITION>
    <DEFINITION>
      <FOR>CapInScen</FOR>
      <GIVEN>AMCINInScen</GIVEN>
      <GIVEN>AMInstabMt</GIVEN>
      <GIVEN>CurPropConv</GIVEN>
      <GIVEN>LatestCIN</GIVEN>
      <TABLE>0.495275278673683 0.2019464720194647 0.30277824930685227 0.5854020793549756 0.1041799278591131 0.3104179927859113 0.014749262536873156 0.014749262536873156 0.9705014749262537 0.4962402629564591 0.1607006168670359 0.3430591201765051 0.47033949498610605 0.15718255406548265 0.37247795094841124 0.39938837920489295 0.30030581039755355 0.30030581039755355 0.5946304534457192 0.17739795520174823 0.22797159135253256 0.7452326468344775 0.003813882532418002 0.2509534706331045 0.3333333333333333 0.3333333333333333 0.3333333333333333 0.5170946987823682 0.16392832456000422 0.3189769766576275 0.7375033413525796 0.0013365410318096765 0.2611601176156108 0.4926253687315634 0.4926253687315634 0.014749262536873156 0.4382896015549077 0.2192504330924917 0.3424599653526007 0.4673712867323245 0.18200016014092402 0.3506285531267515 0.3333333333333333 0.13456032719836403 0.5321063394683027 0.6107543454062848 0.1946228272968576 0.1946228272968576 0.6632722335369994 0.11337406653088934 0.22335369993211138 0.3333333333333333 0.3333333333333333 0.3333333333333333 0.17186818663178224 0.6461720550675887 0.1819597583006292 0.35990159901599017 0.5591635916359163 0.0809348093480935 0.028248587570621472 0.9435028248587572 0.028248587570621472 0.11683371883834491 0.7829863788229248 0.1001799023387304 0.23277467411545621 0.6736857183784558 0.09353960750608795 0.12738367658276126 0.6216628527841342 0.2509534706331045 0.17053349062786732 0.7226373050203172 0.10682920435181543 0.12738367658276126 0.7452326468344775 0.12738367658276126 0.3333333333333333 0.3333333333333333 0.3333333333333333 0.1192835645599354 0.7257579094178962 0.1549585260221684 0.12580066615424035 0.7483986676915194 0.12580066615424035 0.014749262536873153 0.9705014749262536 0.014749262536873153 0.161152056871047 0.6692279546286133 0.16961998850033977 0.07592140448785024 0.791652133472852 0.13242646203929775 0.11337406653088934 0.6632722335369994 0.22335369993211138 0.12682431905096386 0.7463513618980723 0.12682431905096386 0.009980039920159679 0.9800399201596806 0.009980039920159679 0.3333333333333333 0.3333333333333333 0.3333333333333333 0.055014005602240894 0.055014005602240894 0.8899719887955182 0.13456032719836403 0.002044989775051125 0.863394683026585 0.02824858757062147 0.02824858757062147 0.943502824858757 0.013727907932593507 0.053678586107685985 0.9325935059597206 0.04503764544832307 0.06721423682409308 0.8877481177275839 0.005065856129685917 0.005065856129685917 0.9898682877406281 0.03315465554893786 0.0653166567401231 0.9015286877109391 0.004351610095735422 0.004351610095735422 0.9912967798085291 0.3333333333333333 0.3333333333333333 0.3333333333333333 0.20776653877456108 0.05708638530403441 0.7351470759214045 0.04666107851355127 0.13718915898295614 0.8161497625034926 0.014749262536873156 0.4926253687315634 0.4926253687315634 0.1125892052934248 0.05646781680870228 0.830942977897873 0.193964661504864 0.0653166567401231 0.7407186817550129 0.00998003992015968 0.00998003992015968 0.9800399201596807 0.2003518029903254 0.11486367634124889 0.6847845206684257 0.007541478129713423 0.007541478129713423 0.9849170437405731 0.3333333333333333 0.3333333333333333 0.3333333333333333 </TABLE>
    </DEFINITION>
    <DEFINITION>
      <FOR>CldShadeConv</FOR>
      <GIVEN>AMInstabMt</GIVEN>
      <GIVEN>Boundaries</GIVEN>
      <GIVEN>CurPropConv</GIVEN>
      <GIVEN>LatestCIN</GIVEN>
      <TABLE>0.5685341310851237 0.43146586891487626 0.80605738575983 0.19394261424017006 0.5 0.5 0.6854689564068692 0.3145310435931308 0.6150772509323389 0.38492274906766116 0.7735562310030395 0.2264437689969605 0.6300421432871764 0.3699578567128236 0.4027027027027027 0.5972972972972973 0.5 0.5 0.6281610606432605 0.3718389393567395 0.642152023692004 0.3578479763079961 0.9675324675324675 0.032467532467532464 0.6303036396541323 0.36969636034586767 0.650461944566652 0.349538055433348 0.5448877805486284 0.4551122194513716 0.6079055826152117 0.3920944173847883 0.5707269155206287 0.4292730844793713 0.5 0.5 0.5 0.5 0.39195678271308526 0.6080432172869148 0.5 0.5 0.6198335644937587 0.38016643550624135 0.42246153846153844 0.5775384615384616 0.5 0.5 0.5 0.5 0.5972972972972973 0.4027027027027027 0.5 0.5 0.473158365642708 0.526841634357292 0.5414269275028769 0.45857307249712315 0.5 0.5 0.5126471104865624 0.4873528895134376 0.521695460024106 0.47830453997589395 0.5 0.5 0.5070285044904335 0.4929714955095666 0.6628959276018099 0.33710407239819007 0.5 0.5 </TABLE>
    </DEFINITION>
    <DEFINITION>
      <FOR>CldShadeOth</FOR>
      <GIVEN>AMInstabMt</GIVEN>
      <GIVEN>CldShadeConv</GIVEN>
      <GIVEN>CurPropConv</GIVEN>
      <GIVEN>LatestCIN</GIVEN>
      <TABLE>0.503427164437346 0.19438344313568912 0.3021893924269648 0.4745098039215686 0.30011534025374853 0.22537485582468278 0.6519174041297935 0.014749262536873156 0.3333333333333333 0.4635860856980411 0.17889078410089423 0.3575231302010648 0.39462483278608784 0.22388422716770037 0.38149094004621187 0.3079633544749824 0.15574348132487667 0.536293164200141 0.4131854590264942 0.2002464571780653 0.38656808379544055 0.3004566210045662 0.20182648401826483 0.497716894977169 0.3333333333333333 0.3333333333333333 0.3333333333333333 0.4629683698296837 0.15815085158150852 0.3788807785888078 0.38063950941743324 0.14410862899693389 0.475251861585633 0.04065040650406504 0.9186991869918699 0.04065040650406504 0.3486043946720964 0.23865275303300248 0.4127428522949012 0.3265498398341813 0.30619935933672504 0.36725080082909367 0.7068741893644618 0.006485084306095979 0.28664072632944226 0.4558418408685788 0.2108248257980878 0.3333333333333333 0.497716894977169 0.3004566210045662 0.20182648401826483 0.3333333333333333 0.3333333333333333 0.3333333333333333 0.49975922180487337 0.15650582683232206 0.34373495136280463 0.4990410433448408 0.2504794783275796 0.2504794783275796 0.9567099567099567 0.021645021645021644 0.021645021645021644 0.46142442032852987 0.2116468006878966 0.32692877898357353 0.43310238645111626 0.2335642802155504 0.3333333333333333 0.552178318135765 0.22391084093211752 0.22391084093211752 0.44095665171898357 0.1914662318249762 0.36757711645604024 0.28664072632944226 0.1465629053177691 0.5667963683527886 0.3333333333333333 0.3333333333333333 0.3333333333333333 0.3813745114860357 0.20636736250119153 0.4122581260127729 0.2859493254359987 0.3214873313589997 0.3925633432050017 0.021645021645021644 0.48917748917748916 0.48917748917748916 0.38800303720577073 0.2612687236833023 0.35072823911092704 0.3471954819663715 0.20857399563599024 0.4442305223976383 0.22391084093211752 0.11448834853090172 0.6616008105369807 0.4924333735101112 0.1742332931565555 0.33333333333333337 0.7873873873873874 0.009009009009009007 0.20360360360360358 0.3333333333333333 0.3333333333333333 0.3333333333333333 </TABLE>
    </DEFINITION>
    <DEFINITION>
      <FOR>CombClouds</FOR>
      <GIVEN>CldShadeConv</GIVEN>
      <GIVEN>CldShadeOth</GIVEN>
      <GIVEN>CurPropConv</GIVEN>
      <GIVEN>LatestCIN</GIVEN>
      <TABLE>0.8668015999228953 0.0002409522432653848 0.13295744783383934 0.8422773610309674 0.0009617234083477591 0.15676091556068472 0.9849170437405733 0.007541478129713425 0.007541478129713425 0.8281312744131712 0.012010367612163692 0.15985835797466508 0.8649369767227896 0.0004600239212439046 0.1346029993559665 0.8832315003394434 0.0033944331296673455 0.11337406653088934 0.8300616405879564 0.00047415836889521095 0.1694642010431484 0.8688024408848208 0.003813882532418002 0.12738367658276126 0.3333333333333333 0.3333333333333333 0.3333333333333333 0.047127918636298526 0.6040681850737716 0.3488038962899298 0.05697714090754009 0.7202320027294439 0.22279085636301604 0.3333333333333333 0.3333333333333333 0.3333333333333333 0.06192508297771455 0.5228070175438597 0.4152678994784258 0.0653166567401231 0.6442326781814572 0.2904506650784197 0.25188536953242835 0.007541478129713423 0.7405731523378583 0.1041799278591131 0.5854020793549756 0.3104179927859113 0.00998003992015968 0.656686626746507 0.3333333333333333 0.3333333333333333 0.3333333333333333 0.3333333333333333 0.21532818231483647 0.038320455787091236 0.7463513618980723 0.20081799591002047 0.20081799591002047 0.5983640081799592 0.02824858757062147 0.02824858757062147 0.943502824858757 0.18814908534978123 0.07712583689177079 0.7347250777584481 0.1767548628730216 0.05932101002778785 0.7639241270991906 0.22335369993211138 0.11337406653088934 0.6632722335369994 0.2807871121202292 0.07060222726781273 0.648610660611958 0.2012232415902141 0.10214067278287461 0.6966360856269114 0.3333333333333333 0.3333333333333333 0.3333333333333333 0.8668194967523607 0.0002729108673107363 0.1329075923803286 0.8314117345631565 0.0012810658467845247 0.16730719959005894 0.02824858757062147 0.02824858757062147 0.943502824858757 0.8305438381639225 0.014922665215222028 0.15453349662085544 0.6724730418296007 0.0005924872615238771 0.32693447090887545 0.9912967798085293 0.004351610095735423 0.004351610095735423 0.8474986341996411 0.013033637711699056 0.13946772808865998 0.8141346688925988 0.0027824151363383415 0.1830829159710629 0.3333333333333333 0.3333333333333333 0.3333333333333333 0.04942166140904311 0.6578038155325221 0.2927745230584347 0.14410862899693389 0.42794568550153306 0.42794568550153306 0.014749262536873156 0.4926253687315634 0.4926253687315634 0.06491698976041355 0.6285913112635451 0.30649169897604134 0.03212156183881515 0.6864781688786304 0.2814002692825543 0.02824858757062147 0.02824858757062147 0.943502824858757 0.11187058555479609 0.4809751651856915 0.40715424925951244 0.00998003992015968 0.656686626746507 0.3333333333333333 0.3333333333333333 0.3333333333333333 0.3333333333333333 0.210645894190198 0.09496916585524182 0.6943849399545603 0.21467809272687322 0.07229180399912108 0.7130301032740057 0.014749262536873156 0.4926253687315634 0.4926253687315634 0.2969013541516071 0.07050262637945158 0.6325960194689412 0.17412668632180825 0.07281336549629232 0.7530599481818995 0.44331296673455534 0.0033944331296673455 0.5532926001357773 0.2746164069107164 0.1376102452579437 0.5877733478313398 0.007541478129713423 0.007541478129713423 0.9849170437405731 0.3333333333333333 0.3333333333333333 0.3333333333333333 </TABLE>
    </DEFINITION>
    <DEFINITION>
      <FOR>CombMoisture</FOR>
      <GIVEN>AreaMoDryAir</GIVEN>
      <GIVEN>CldShadeConv</GIVEN>
      <GIVEN>CurPropConv</GIVEN>
      <GIVEN>LatestCIN</GIVEN>
      <TABLE>0.682194792018938 0.26826175177544803 0.00042272573554277983 0.04912073047007101 0.6454434499593166 0.3525223759153784 0.0010170870626525631 0.0010170870626525631 0.25 0.25 0.25 0.25 0.7917429992148651 0.18875948704527606 0.0003271394922795079 0.019170374247579162 0.7489172802078821 0.24999999999999994 0.0005413598960588999 0.0005413598960588999 0.5952054794520549 0.3979452054794521 0.003424657534246576 0.003424657534246576 0.7294885455514118 0.2691795418220565 0.0006659563132658499 0.0006659563132658499 0.49161073825503354 0.49161073825503354 0.008389261744966443 0.008389261744966443 0.25 0.25 0.25 0.25 0.6321115199547126 0.3468015850551938 0.00035380696292103026 0.020733088027172372 0.696896551724138 0.29965517241379314 0.0017241379310344832 0.0017241379310344832 0.25 0.25 0.25 0.25 0.6409971211724679 0.3395053650876733 0.0003271394922795079 0.019170374247579162 0.7867492650146996 0.1819613607727845 0.0005249895002099957 0.03076438471230575 0.741467576791809 0.25000000000000006 0.004266211604095564 0.004266211604095564 0.694310656231186 0.30418422636965686 0.0007525586995785672 0.0007525586995785672 0.49161073825503354 0.49161073825503354 0.008389261744966443 0.008389261744966443 0.25 0.25 0.25 0.25 0.18924620288768043 0.6077723607725483 0.013735233452090753 0.18924620288768043 0.08047091412742383 0.7984764542936288 0.0006925207756232688 0.12036011080332411 0.016233766233766232 0.9512987012987012 0.016233766233766232 0.016233766233766232 0.10178214327726148 0.7539407128573109 0.017086225149982353 0.12719091871544522 0.21057434899002184 0.683682161109759 0.017826721830128983 0.08791676807009002 0.12607573149741827 0.7456970740103271 0.0021514629948364895 0.12607573149741827 0.059083491977155275 0.6856812618982865 0.0003399510470492248 0.25489529507750874 0.2725846925972397 0.7242785445420327 0.0015683814303638648 0.0015683814303638648 0.25 0.25 0.25 0.25 0.1559289962155343 0.6749414308884483 0.013200576680482969 0.1559289962155343 0.2915464512406232 0.5408251586843624 0.0007212925562608194 0.1669070975187536 0.008389261744966443 0.9748322147651006 0.008389261744966443 0.008389261744966443 0.16827733817615773 0.7006421066286158 0.009501880918407056 0.12157867427681929 0.2291967639410575 0.624458249060965 0.000361167292689974 0.14598381970528748 0.14390962671905702 0.7097249508840865 0.14390962671905702 0.002455795677799608 0.18875948704527606 0.6975268254383669 0.0003271394922795079 0.11338654802407744 0.002860411899313501 0.4971395881006865 0.16762013729977118 0.33237986270022885 0.25 0.25 0.25 0.25 0.00028428473959517855 0.04940868774164203 0.507903115760746 0.44240391175801685 0.0014384349827387805 0.0014384349827387805 0.49856156501726123 0.49856156501726123 0.005656108597285068 0.33144796380090497 0.33144796380090497 0.33144796380090497 0.0002588527645475254 0.05989852971629737 0.6413853799958584 0.2984572375232967 0.0006185056902523504 0.07187036120732311 0.5706333498268185 0.35687778327560615 0.004266211604095563 0.25 0.49573378839590443 0.25 0.0005587840858292356 0.06493071077335719 0.6120920876173447 0.32241841752346895 0.003424657534246575 0.003424657534246575 0.7924657534246574 0.20068493150684932 0.25 0.25 0.25 0.25 0.0003852080123266564 0.1113251155624037 0.5328967642526965 0.3553929121725732 0.0015683814303638648 0.1822459222082811 0.36292346298619826 0.45326223337515686 0.016233766233766232 0.016233766233766232 0.9512987012987012 0.016233766233766232 0.00027970463190870443 0.048612665025732825 0.5641642425598569 0.3869433877825017 0.0005413598960589 0.06290601992204418 0.5618233001299264 0.37472932005197057 0.004266211604095563 0.004266211604095563 0.7414675767918089 0.25 0.0005249895002099958 0.03076438471230576 0.6355522889542209 0.33315833683326335 0.004266211604095563 0.004266211604095563 0.49573378839590443 0.49573378839590443 0.25 0.25 0.25 0.25 0.0002343896493530846 0.3377554847177949 0.2297487342958935 0.4322613913369586 0.0015683814303638648 0.36292346298619826 0.2725846925972397 0.36292346298619826 0.016233766233766236 0.016233766233766236 0.016233766233766236 0.9512987012987014 0.026685910821766367 0.292009581132539 0.23010072472669202 0.45120378331900257 0.03172368990905154 0.3123646600259853 0.25 0.4059116500649632 0.003424657534246575 0.20068493150684932 0.20068493150684932 0.5952054794520548 0.02362141244759755 0.30224121251209285 0.13971299580780394 0.5344243792325056 0.005656108597285068 0.005656108597285068 0.6572398190045249 0.33144796380090497 0.25 0.25 0.25 0.25 0.01303148905888632 0.3588774239459171 0.15393168475360255 0.4741594022415941 0.04828609096901781 0.3330586684245221 0.1432102834541859 0.47544495715227425 0.008389261744966443 0.008389261744966443 0.49161073825503354 0.49161073825503354 0.038602695849459495 0.26921793674095823 0.21156412651808354 0.48061524089149876 0.00043327556325823227 0.32487001733102255 0.20008665511265164 0.4746100519930676 0.008389261744966443 0.49161073825503354 0.008389261744966443 0.49161073825503354 0.02116440335163248 0.3124097081768275 0.2291967639410575 0.4372291245304825 0.002860411899313501 0.16762013729977118 0.16762013729977118 0.6618993135011441 0.25 0.25 0.25 0.25 </TABLE>
    </DEFINITION>
    <DEFINITION>
      <FOR>CombVerMo</FOR>
      <GIVEN>AreaMeso_ALS</GIVEN>
      <TABLE>0.9994619027120103 0.00017936576266322285 0.00017936576266322285 0.00017936576266322285 7.060152499293985e-05 0.9997881954250212 7.060152499293985e-05 7.060152499293985e-05 0.0002738225629791895 0.0002738225629791895 0.9991785323110625 0.0002738225629791895 0.00011594471755866803 0.00011594471755866803 0.00011594471755866803 0.999652165847324 </TABLE>
    </DEFINITION>
    <DEFINITION>
      <FOR>CompPlFcst</FOR>
      <GIVEN>CapChange</GIVEN>
      <TABLE>0.9995212103801588 0.0002393948099205209 0.0002393948099205209 0.00013597672078540153 0.9997280465584292 0.00013597672078540153 0.00015437816475237742 0.00015437816475237742 0.9996912436704952 </TABLE>
    </DEFINITION>
    <DEFINITION>
      <FOR>CurPropConv</FOR>
      <GIVEN>LatestCIN</GIVEN>
      <TABLE>0.3377367424242424 0.4446969696969697 0.21756628787878785 0.289650853295757 0.6264286832628777 0.08392046344136528 0.1815823605706874 0.8002594033722438 0.01815823605706874 </TABLE>
    </DEFINITION>
    <DEFINITION>
      <FOR>Date</FOR>
      <GIVEN>AMInstabMt</GIVEN>
      <GIVEN>CldShadeConv</GIVEN>
      <GIVEN>CurPropConv</GIVEN>
      <GIVEN>LatestCIN</GIVEN>
      <TABLE>0.12234644306914222 0.23733945564650294 0.13672056964131232 0.09359818992480202 0.12953350635522726 0.2804618353630132 0.05040369088811996 0.17497116493656287 0.22479815455594004 0.10023068050749712 0.22479815455594004 0.22479815455594004 0.007374631268436575 0.6445427728613567 0.007374631268436575 0.007374631268436575 0.007374631268436575 0.32595870206489663 0.10060991368170777 0.26249547733498735 0.20667286917868402 0.07828087041918644 0.09502765286607744 0.256913216519357 0.052839596254408365 0.3023835583120516 0.19731241639304392 0.07910738173416028 0.13164295269366413 0.2367140946126718 0.07787174066243834 0.1539816772374912 0.23009161381254406 0.0017618040873854826 0.23009161381254406 0.3062015503875969 0.09346888478126926 0.2132470733210105 0.2398644485520641 0.08016019716574245 0.12008626001232288 0.2531731361675909 0.00228310502283105 0.1995433789954338 0.10091324200913242 0.1995433789954338 0.3968036529680365 0.10091324200913242 0.16666666666666669 0.16666666666666669 0.16666666666666669 0.16666666666666669 0.16666666666666669 0.16666666666666669 0.05279805352798053 0.1894403892944039 0.1894403892944039 0.08433090024330901 0.13688564476885645 0.3471046228710462 0.09570740254051688 0.1903197547087166 0.23762593079281646 0.04840122645641699 0.09570740254051688 0.3322382829610162 0.02032520325203252 0.02032520325203252 0.02032520325203252 0.02032520325203252 0.02032520325203252 0.8983739837398375 0.10100110290998557 0.28425383897514206 0.16513956053279036 0.05518791889369644 0.11932637651650123 0.27509120217188426 0.04117203693235349 0.24467684190691535 0.22432636140945916 0.08187299792726585 0.16327491991709062 0.24467684190691535 0.0032425421530479894 0.0032425421530479894 0.7036316472114137 0.0032425421530479894 0.0032425421530479894 0.2833981841763943 0.0354075514503322 0.24542213579646732 0.14041484362339976 0.12291362826122182 0.15791605898557767 0.29792578188300106 0.0022831050228310497 0.19954337899543376 0.19954337899543376 0.29817351598173514 0.1009132420091324 0.19954337899543376 0.16666666666666669 0.16666666666666669 0.16666666666666669 0.16666666666666669 0.16666666666666669 0.16666666666666669 0.06265048637195415 0.19787152075508044 0.14586343060772416 0.09385534046036792 0.11465857651931043 0.3851006452855629 0.08381281166091292 0.41522823168392786 0.12523973916378978 0.16666666666666663 0.08381281166091292 0.12523973916378978 0.010822510822510822 0.47835497835497837 0.010822510822510822 0.010822510822510822 0.010822510822510822 0.47835497835497837 0.09621656881930855 0.21790310146474529 0.21149854711498545 0.11543023186858804 0.1474530036173872 0.21149854711498545 0.03364126250962279 0.1999230177059276 0.1999230177059276 0.1001539645881447 0.16666666666666666 0.2996920708237105 0.22137791286727454 0.11195542046605873 0.3308004052684903 0.22137791286727454 0.0025329280648429577 0.11195542046605873 0.029691534175839113 0.27918195406984647 0.2938578611224351 0.07371925533360511 0.08839516238619377 0.23515423291208046 0.0032425421530479894 0.14332036316472113 0.14332036316472113 0.14332036316472113 0.14332036316472113 0.42347600518806744 0.16666666666666669 0.16666666666666669 0.16666666666666669 0.16666666666666669 0.16666666666666669 0.16666666666666669 0.04141645219712133 0.20612906300638642 0.1752454484796492 0.12377275760175388 0.1752454484796492 0.2781908302354399 0.07189865087199737 0.24958868048700228 0.21405067456400131 0.14297466271799933 0.07189865087199737 0.24958868048700228 0.010822510822510822 0.010822510822510822 0.47835497835497837 0.010822510822510822 0.010822510822510822 0.47835497835497837 0.10454200317526059 0.1790915993649479 0.18654655898391662 0.11199696279422931 0.16418168012701043 0.25364119555463516 0.04190732896932358 0.20825311256578105 0.13894236940059043 0.20825311256578105 0.09735592350147607 0.3052881529970479 0.002532928064842958 0.4402228976697061 0.2213779128672746 0.002532928064842958 0.2213779128672746 0.11195542046605876 0.04372572653006563 0.27514396678719705 0.2462166867550556 0.05818936654613633 0.15943484665863134 0.21728940672291416 0.004504504504504504 0.1990990990990991 0.3936936936936937 0.004504504504504504 0.1990990990990991 0.1990990990990991 0.16666666666666669 0.16666666666666669 0.16666666666666669 0.16666666666666669 0.16666666666666669 0.16666666666666669 </TABLE>
    </DEFINITION>
    <DEFINITION>
      <FOR>Dewpoints</FOR>
      <GIVEN>AMInstabMt</GIVEN>
      <GIVEN>CldShadeConv</GIVEN>
      <GIVEN>CurPropConv</GIVEN>
      <GIVEN>LatestCIN</GIVEN>
      <TABLE>0.13669680289764138 0.10076148646721617 0.17263211932806663 0.15825799275589653 0.09357442318113111 0.19419330918632177 0.14388386618372642 0.17488877904102815 0.22471576866040532 0.17488877904102815 0.07523479980227384 0.10014829461196242 0.10014829461196242 0.14997528423133957 0.324905183312263 0.006321112515802782 0.324905183312263 0.006321112515802782 0.006321112515802782 0.006321112515802782 0.324905183312263 0.15083180116518619 0.14524954034955587 0.18432536605896818 0.21223667013711983 0.06709788893073124 0.15083180116518619 0.08942693219325255 0.06593005680929796 0.22353676968780944 0.14473341324855374 0.14473341324855374 0.10533173502892584 0.15786730598842968 0.15786730598842968 0.22983992751434618 0.001510117789187557 0.001510117789187557 0.07762005436424042 0.30594986408939906 0.1537299909392933 0.22983992751434618 0.06680749933984685 0.1732770002640613 0.14665962503300767 0.1732770002640613 0.09342487457090046 0.22651175072616847 0.12004224980195406 0.10058708414872797 0.29784735812133073 0.10058708414872797 0.19921722113502935 0.0019569471624266144 0.19921722113502935 0.10058708414872797 0.14285714285714285 0.14285714285714285 0.14285714285714285 0.14285714285714285 0.14285714285714285 0.14285714285714285 0.14285714285714285 0.17889468196037542 0.14736183524504695 0.1683837330552659 0.1894056308654849 0.06327424400417102 0.14736183524504695 0.10531803962460899 0.23746949502534262 0.14285714285714288 0.19016331894124275 0.2847756711094425 0.04824479068894312 0.04824479068894312 0.04824479068894312 0.01742160278745645 0.01742160278745645 0.01742160278745645 0.8954703832752615 0.01742160278745645 0.01742160278745645 0.01742160278745645 0.1284587135948806 0.18343453441442753 0.11929607679162275 0.25673562884049017 0.07348289277533362 0.11013343998836493 0.1284587135948806 0.08180570136477426 0.24460954534442378 0.08180570136477426 0.24460954534442378 0.10215618186223045 0.1835581038520552 0.06145522086731808 0.14285714285714285 0.42301278488048916 0.14285714285714285 0.0027793218454697055 0.14285714285714285 0.14285714285714285 0.0027793218454697055 0.12285575387179663 0.19286061532050836 0.24536426140704212 0.14035696923397456 0.035349677060907 0.17535939995833041 0.08785332314744078 0.1992172211350293 0.10058708414872795 0.10058708414872795 0.396477495107632 0.001956947162426614 0.1992172211350293 0.001956947162426614 0.14285714285714285 0.14285714285714285 0.14285714285714285 0.14285714285714285 0.14285714285714285 0.14285714285714285 0.14285714285714285 0.11462417963429235 0.13542741569323485 0.11462417963429235 0.20823874189953362 0.11462417963429235 0.1666322697816486 0.14582903372270611 0.08367581785303305 0.2079566003616637 0.33223738287029436 0.08367581785303305 0.08367581785303305 0.1665296728587868 0.04224889035015617 0.009276437847866421 0.009276437847866421 0.47680890538033405 0.009276437847866421 0.009276437847866421 0.47680890538033405 0.009276437847866421 0.08338628103794445 0.15383637888530255 0.16664548758482223 0.2050728136833812 0.10900449843698376 0.17305004193458204 0.10900449843698376 0.1832398548333883 0.1666116793137578 0.13335532827449686 0.1832398548333883 0.10009897723523588 0.14998350379412734 0.08347080171560539 0.22101606600086837 0.11159357359965259 0.11159357359965259 0.43986105080329996 0.002171081198436821 0.11159357359965259 0.002171081198436821 0.10302253800011647 0.1470502591578825 0.16172616621047117 0.11769844505270516 0.20575388736823716 0.20575388736823716 0.05899481684235048 0.14285714285714285 0.0027793218454697055 0.14285714285714285 0.14285714285714285 0.0027793218454697055 0.282934963868816 0.282934963868816 0.14285714285714285 0.14285714285714285 0.14285714285714285 0.14285714285714285 0.14285714285714285 0.14285714285714285 0.14285714285714285 0.12373871481678177 0.19580048204583522 0.13403325299236082 0.21638955839699336 0.061971485763307334 0.164916867519098 0.10314963846562362 0.24947116062614585 0.21393315470314486 0.17839514878014387 0.14285714285714288 0.0007051191651389086 0.07178113101114089 0.14285714285714288 0.009276437847866421 0.009276437847866421 0.009276437847866421 0.47680890538033405 0.47680890538033405 0.009276437847866421 0.009276437847866421 0.14179214862586162 0.14924710824483034 0.186521906339674 0.20143182557761144 0.13433718900689287 0.12688222938792415 0.05978759281720558 0.12503438032895098 0.16662082622806534 0.11117223169591287 0.1527586775950272 0.09731008306287472 0.1527586775950272 0.19434512349414157 0.22101606600086843 0.22101606600086843 0.22101606600086843 0.11159357359965262 0.0021710811984368213 0.11159357359965262 0.11159357359965262 0.14492337714515294 0.18831429719336507 0.15938701716122367 0.15938701716122367 0.10153245709694081 0.11599609711301152 0.13045973712908224 0.19845559845559846 0.003861003861003861 0.003861003861003861 0.5876447876447877 0.003861003861003861 0.19845559845559846 0.003861003861003861 0.14285714285714285 0.14285714285714285 0.14285714285714285 0.14285714285714285 0.14285714285714285 0.14285714285714285 0.14285714285714285 </TABLE>
    </DEFINITION>
    <DEFINITION>
      <FOR>IRCloudCover</FOR>
      <GIVEN>AMInstabMt</GIVEN>
      <GIVEN>CldShadeConv</GIVEN>
      <GIVEN>CurPropConv</GIVEN>
      <GIVEN>LatestCIN</GIVEN>
      <TABLE>0.4028082784321555 0.17282225327743397 0.4243694682904106 0.5741637831603229 0.22537485582468278 0.2004613610149942 0.6519174041297935 0.014749262536873156 0.3333333333333333 0.40218121672610746 0.16214400165400325 0.43567478161988943 0.4471604037455917 0.11881308524869269 0.4340265110057157 0.6124031007751938 0.003523608174770965 0.38407329105003524 0.28009858287122613 0.1603203943314849 0.559581022797289 0.20182648401826483 0.10319634703196347 0.6949771689497717 0.3333333333333333 0.3333333333333333 0.3333333333333333 0.4104136253041363 0.15815085158150852 0.43143552311435523 0.4279456855015331 0.04949627682873413 0.5225580376697329 0.04065040650406504 0.04065040650406504 0.9186991869918699 0.4493933995079325 0.14702638500042423 0.40358021549164336 0.2858488788392689 0.18409647635198795 0.5300546448087432 0.4267185473411154 0.006485084306095979 0.5667963683527886 0.47334305623075673 0.10581753362502026 0.420839410144223 0.3004566210045662 0.3990867579908676 0.3004566210045662 0.3333333333333333 0.3333333333333333 0.3333333333333333 0.35413656939227584 0.14610420880285083 0.49975922180487337 0.33333333333333337 0.25047947832757966 0.41618718833908713 0.9567099567099567 0.021645021645021644 0.021645021645021644 0.41659253988021117 0.12838759414101883 0.45501986597877014 0.39984603541185526 0.21693610469591992 0.3832178598922248 0.22391084093211752 0.3333333333333333 0.4427558257345492 0.4703084658241609 0.17679032477238754 0.3529012094034516 0.4267185473411154 0.1465629053177691 0.4267185473411154 0.3333333333333333 0.3333333333333333 0.3333333333333333 0.43284720236393104 0.10342198074540082 0.4637308168906682 0.3214873313589997 0.17933530766699576 0.49917736097400467 0.021645021645021644 0.021645021645021644 0.9567099567099567 0.47746255263339543 0.15689928901774006 0.36563815834886454 0.4858169682967527 0.1254011038377615 0.3887819278654859 0.7710233029381965 0.005065856129685916 0.22391084093211752 0.5358242935583233 0.13084237310834337 0.33333333333333337 0.20360360360360358 0.20360360360360358 0.5927927927927927 0.3333333333333333 0.3333333333333333 0.3333333333333333 </TABLE>
    </DEFINITION>
    <DEFINITION>
      <FOR>InsChange</FOR>
      <GIVEN>AMInstabMt</GIVEN>
      <GIVEN>CldShadeConv</GIVEN>
      <GIVEN>CurPropConv</GIVEN>
      <GIVEN>LatestCIN</GIVEN>
      <TABLE>0.2878152658547947 0.4243694682904106 0.2878152658547947 0.2253748558246828 0.34994232987312573 0.4246828143021915 0.014749262536873156 0.3333333333333333 0.6519174041297935 0.3017005220447615 0.3240295653072828 0.3742699126479557 0.2501520126474523 0.39462483278608784 0.35522315456646 0.15574348132487667 0.38407329105003524 0.4601832276250881 0.34664202094886015 0.34664202094886015 0.30671595810227975 0.20182648401826483 0.3004566210045662 0.497716894977169 0.3333333333333333 0.3333333333333333 0.3333333333333333 0.2737712895377129 0.3788807785888078 0.34734793187347934 0.2387209811651336 0.2387209811651336 0.5225580376697327 0.9186991869918699 0.04065040650406504 0.04065040650406504 0.31195384745906507 0.28446593704929163 0.40358021549164336 0.3265498398341813 0.38760128132654986 0.28584887883926885 0.28664072632944226 0.28664072632944226 0.4267185473411154 0.2633284718846216 0.2633284718846216 0.47334305623075684 0.3990867579908676 0.3004566210045662 0.3004566210045662 0.3333333333333333 0.3333333333333333 0.3333333333333333 0.3021284792449196 0.3645381874217471 0.33333333333333337 0.37476026083621017 0.37476026083621017 0.2504794783275796 0.9567099567099567 0.021645021645021644 0.021645021645021644 0.33333333333333337 0.3653561050821325 0.3013105615845342 0.3333333333333333 0.41647421093148573 0.2501924557351809 0.005065856129685916 0.3333333333333333 0.6616008105369807 0.3382253023508629 0.36757711645604024 0.2941975811930969 0.28664072632944226 0.28664072632944226 0.4267185473411154 0.3333333333333333 0.3333333333333333 0.3333333333333333 0.3401963587837194 0.2475455152035078 0.4122581260127729 0.2504113195129977 0.3570253372820007 0.3925633432050017 0.48917748917748916 0.48917748917748916 0.021645021645021644 0.24635880444536482 0.380548077586802 0.37309311796783323 0.2640225901681428 0.33333333333333337 0.40264407649852396 0.4427558257345492 0.22391084093211752 0.3333333333333333 0.4201151734297576 0.36226061336547477 0.21762421320476766 0.3981981981981982 0.3981981981981982 0.20360360360360358 0.3333333333333333 0.3333333333333333 0.3333333333333333 </TABLE>
    </DEFINITION>
    <DEFINITION>
      <FOR>InsInMt</FOR>
      <GIVEN>AMInstabMt</GIVEN>
      <GIVEN>CldShadeConv</GIVEN>
      <GIVEN>CurPropConv</GIVEN>
      <GIVEN>LatestCIN</GIVEN>
      <TABLE>0.9995008983829107 0.0004991016170892392 0.9982698961937717 0.001730103806228374 0.9778761061946902 0.022123893805309734 0.9940300821832841 0.005969917816715769 0.9990879241152865 0.0009120758847136083 0.9947145877378435 0.005285412262156448 0.9990757855822551 0.0009242144177449169 0.9931506849315068 0.00684931506849315 0.5 0.5 0.9677372262773722 0.03226277372262774 0.9494086727989488 0.05059132720105126 0.9390243902439025 0.06097560975609757 0.9718757953677781 0.02812420463222194 0.9782362916902205 0.02176370830977954 0.990272373540856 0.009727626459143969 0.9637822070977151 0.036217792902284884 0.8945205479452054 0.10547945205479452 0.5 0.5 0.9472695752672639 0.05273042473273621 0.9971231300345225 0.002876869965477561 0.9675324675324675 0.032467532467532464 0.9291051414339084 0.07089485856609143 0.982217090069284 0.017782909930715934 0.9924012158054711 0.007598784194528876 0.9109253974724827 0.08907460252751734 0.8501945525291829 0.14980544747081712 0.5 0.5 0.6904489562482128 0.3095510437517872 0.6776900296150049 0.3223099703849951 0.5 0.5 0.5894595154276248 0.41054048457237524 0.6524836349634193 0.3475163650365807 0.5547112462006079 0.4452887537993921 0.6229409401366011 0.37705905986339894 0.5972972972972973 0.4027027027027027 0.5 0.5 </TABLE>
    </DEFINITION>
    <DEFINITION>
      <FOR>InsSclInScen</FOR>
      <GIVEN>AMInsWliScen</GIVEN>
      <GIVEN>CldShadeConv</GIVEN>
      <GIVEN>CurPropConv</GIVEN>
      <GIVEN>LatestCIN</GIVEN>
      <TABLE>0.44174374417437445 0.20943572094357207 0.3488205348820535 0.6854622171077868 0.2504794783275796 0.06405830456463368 0.9435028248587572 0.028248587570621472 0.028248587570621472 0.46835583708395845 0.26132133133299995 0.2703228315830416 0.5764901054627325 0.19255835999526008 0.23095153454200734 0.8832315003394434 0.0033944331296673455 0.11337406653088934 0.39986310746064335 0.3555099247091033 0.24462696783025323 0.6216628527841342 0.003813882532418002 0.3745232646834478 0.3333333333333333 0.3333333333333333 0.3333333333333333 0.5354914482859869 0.21441679512589004 0.250091756588123 0.6350936015646829 0.227717239452361 0.13718915898295614 0.9435028248587572 0.028248587570621472 0.028248587570621472 0.5045247564701135 0.23373105078102482 0.26174419274886157 0.49961508852963815 0.3000769822940723 0.20030792917628942 0.3745232646834477 0.25095347063310447 0.3745232646834477 0.39118789339761617 0.3044060533011919 0.3044060533011919 0.6216628527841342 0.12738367658276126 0.2509534706331045 0.3333333333333333 0.3333333333333333 0.3333333333333333 0.24685723436624227 0.635999679718152 0.11714308591560572 0.08794439989307673 0.7375033413525796 0.17455225875434374 0.4926253687315634 0.4926253687315634 0.014749262536873156 0.13530032783241652 0.756403845085292 0.1082958270822915 0.23931967322887365 0.694924333735101 0.06575599303602517 0.2509534706331045 0.7452326468344775 0.003813882532418002 0.11898046589365924 0.8128068526062885 0.06821268150005222 0.004351610095735423 0.9912967798085293 0.004351610095735423 0.3333333333333333 0.3333333333333333 0.3333333333333333 0.061282803218287094 0.8287089254831191 0.11000827129859389 0.17455225875434374 0.7375033413525796 0.08794439989307673 0.3333333333333333 0.3333333333333333 0.3333333333333333 0.09022510021584954 0.8395312981806969 0.0702436016034536 0.218375350140056 0.7629131652661064 0.01871148459383753 0.009980039920159679 0.9800399201596806 0.009980039920159679 0.19255835999526005 0.7684559781964687 0.038985661808271115 0.3333333333333334 0.6616008105369808 0.005065856129685917 0.3333333333333333 0.3333333333333333 0.3333333333333333 0.11517471117726275 0.13813877666737545 0.7466865121553619 0.19280813815945114 0.03950792524248876 0.7676839365980601 0.4926253687315634 0.4926253687315634 0.014749262536873156 0.12418113135370344 0.038970974991632 0.8368478936546646 0.11803793645040472 0.05932101002778785 0.8226410535218074 0.20242424242424245 0.0060606060606060615 0.7915151515151516 0.17053349062786732 0.06435968016778083 0.7651068292043518 0.005065856129685917 0.16919959473150964 0.8257345491388045 0.3333333333333333 0.3333333333333333 0.3333333333333333 0.12071911447886487 0.1447886486888047 0.7344922368323304 0.048873280655545796 0.19110330699443956 0.7600234123500147 0.4962292609351432 0.007541478129713422 0.4962292609351432 0.10941792359923289 0.08422744000414659 0.8063546363966205 0.03495909042609712 0.12102858357241525 0.8440123260014877 0.16919959473150964 0.16919959473150964 0.6616008105369808 0.22051603468087327 0.08513527629792123 0.6943486890212055 0.25188536953242835 0.007541478129713423 0.7405731523378583 0.3333333333333333 0.3333333333333333 0.3333333333333333 </TABLE>
    </DEFINITION>
    <DEFINITION>
      <FOR>LIfr12ZDENSd</FOR>
      <GIVEN>AMInstabMt</GIVEN>
      <GIVEN>CldShadeConv</GIVEN>
      <GIVEN>CurPropConv</GIVEN>
      <GIVEN>LatestCIN</GIVEN>
      <TABLE>0.09368137352765023 0.05774605709722499 0.5320922339788382 0.31648033539628667 0.20017301038062282 0.1254325259515571 0.44930795847750865 0.22508650519031143 0.32964601769911506 0.011061946902654867 0.011061946902654867 0.6482300884955752 0.10625678399751898 0.08392774073499766 0.530508605985424 0.27930686928205917 0.09239328712148852 0.05299160890186064 0.5126778547975192 0.3419372491791317 0.07875264270613108 0.07875264270613108 0.45930232558139533 0.3831923890063425 0.12024029574861367 0.08031423290203328 0.4928835489833642 0.3065619223659889 0.10205479452054796 0.003424657534246575 0.5952054794520548 0.2993150684931507 0.25 0.25 0.25 0.25 0.06343065693430658 0.10547445255474452 0.5259124087591242 0.30518248175182483 0.1908672798948752 0.09625492772667545 0.4747043363994744 0.23817345597897507 0.030487804878048776 0.030487804878048776 0.030487804878048776 0.9085365853658536 0.05529396793077119 0.07361924153728684 0.5134258080936626 0.3576609824382795 0.12280949689089882 0.04140757490107406 0.570520067834935 0.26526286037309216 0.0048638132295719845 0.0048638132295719845 0.7052529182879377 0.2850194552529183 0.10561497326203209 0.10561497326203209 0.40313563441905687 0.38563441905687895 0.10205479452054796 0.003424657534246575 0.5952054794520548 0.2993150684931507 0.25 0.25 0.25 0.25 0.125180583646345 0.09397572955793122 0.47883559664836756 0.30200809014735625 0.20857307249712317 0.0014384349827387805 0.5399884925201381 0.25000000000000006 0.016233766233766232 0.016233766233766232 0.48376623376623373 0.48376623376623373 0.08988614125600426 0.0962906956057641 0.5382049457391924 0.2756182173990393 0.10034642032332564 0.11697459584295612 0.44953810623556584 0.3331408775981524 0.11322188449848025 0.11322188449848025 0.44148936170212766 0.33206686930091184 0.11791683652670198 0.13259274357929066 0.426110884631064 0.32337953526294333 0.0048638132295719845 0.0048638132295719845 0.5651750972762646 0.42509727626459143 0.25 0.25 0.25 0.25 0.12389190734915642 0.10330283099799828 0.5356734343723192 0.23713182728052618 0.00123395853899309 0.07230997038499508 0.6409180651530109 0.285538005923001 0.016233766233766232 0.48376623376623373 0.016233766233766232 0.48376623376623373 0.08971836819217228 0.05244357009732864 0.596655622282046 0.2611824394284531 0.09751636503658068 0.1252406623026569 0.4440700808625337 0.33317289179822873 0.003799392097264438 0.003799392097264438 0.5509118541033434 0.44148936170212766 0.11621132985134591 0.10174768983527521 0.6224387304138208 0.15960224989955804 0.006756756756756756 0.20135135135135135 0.5905405405405405 0.20135135135135135 0.25 0.25 0.25 0.25 </TABLE>
    </DEFINITION>
    <DEFINITION>
      <FOR>LLIW</FOR>
      <GIVEN>AMInstabMt</GIVEN>
      <GIVEN>CldShadeConv</GIVEN>
      <GIVEN>CurPropConv</GIVEN>
      <GIVEN>LatestCIN</GIVEN>
      <TABLE>0.48896985426232775 0.3452285885406268 0.007436614094629666 0.1583649431024156 0.44930795847750865 0.49913494809688586 0.000865051903114187 0.050692041522491356 0.6482300884955752 0.32964601769911506 0.011061946902654867 0.011061946902654867 0.4802682586447511 0.11183904481314931 0.03926965420995503 0.3686230423321445 0.49954396205764323 0.1843305363006202 0.02672382342210872 0.28940167821962787 0.45930232558139533 0.45930232558139533 0.002642706131078224 0.07875264270613108 0.30656192236598884 0.6792051756007392 0.00046210720887245835 0.01377079482439926 0.20068493150684938 0.7924657534246577 0.0034246575342465765 0.0034246575342465765 0.25 0.25 0.25 0.25 0.5048905109489051 0.3156934306569343 0.021386861313868615 0.15802919708029198 0.6639290407358739 0.23817345597897507 0.0016425755584756902 0.09625492772667545 0.030487804878048773 0.9085365853658535 0.030487804878048773 0.030487804878048773 0.48593789768388906 0.11026978875031815 0.036968694324255535 0.3668236192415373 0.6112210288298474 0.12280949689089882 0.08210853589598643 0.1838609383832674 0.7052529182879377 0.14494163424124515 0.0048638132295719845 0.14494163424124515 0.15811861934856586 0.8231648031113272 0.0006076810889645115 0.018108896451142442 0.10205479452054798 0.8910958904109592 0.0034246575342465765 0.0034246575342465765 0.25 0.25 0.25 0.25 0.49963883270731 0.3540161802947125 0.010762785322161227 0.13558220167581622 0.4157077100115075 0.49856156501726123 0.0014384349827387805 0.08429228998849253 0.9512987012987012 0.016233766233766232 0.016233766233766232 0.016233766233766232 0.6150595979363102 0.08348158690624442 0.051458815157445284 0.24999999999999994 0.44953810623556584 0.2998845265588915 0.017205542725173214 0.23337182448036953 0.5509118541033435 0.4414893617021277 0.0037993920972644382 0.0037993920972644382 0.2793518141051773 0.7049531186302486 0.000509580105992662 0.015185487158581328 0.2850194552529183 0.7052529182879377 0.0048638132295719845 0.0048638132295719845 0.25 0.25 0.25 0.25 0.5665570488990563 0.3091935945095796 0.00035744924220760654 0.12389190734915642 0.39215202369200397 0.6053800592300099 0.00123395853899309 0.00123395853899309 0.9512987012987012 0.016233766233766232 0.016233766233766232 0.016233766233766232 0.49974114723545243 0.097173327811141 0.03753365085939117 0.36555187409401524 0.6381401617250674 0.11137851366961879 0.014343473238351946 0.2361378513669619 0.7697568389057752 0.2226443768996961 0.0037993920972644382 0.0037993920972644382 0.3187022900763358 0.6658296504620328 0.000502209722780233 0.014965849738850944 0.006756756756756756 0.9797297297297297 0.006756756756756756 0.006756756756756756 0.25 0.25 0.25 0.25 </TABLE>
    </DEFINITION>
    <DEFINITION>
      <FOR>LatestCIN</FOR>
      <TABLE>0.6636581425149033 0.2576745222575074 0.07866733522758929 </TABLE>
    </DEFINITION>
    <DEFINITION>
      <FOR>LoLevMoistAd</FOR>
      <GIVEN>CldShadeConv</GIVEN>
      <GIVEN>CurPropConv</GIVEN>
      <GIVEN>InsChange</GIVEN>
      <GIVEN>LatestCIN</GIVEN>
      <TABLE>0.7880307371711383 0.1550533993227403 0.0003256056264652253 0.05659025787965616 0.7198055271238485 0.22236438075742063 0.0012794268167860795 0.05655066530194472 0.011061946902654864 0.011061946902654864 0.011061946902654864 0.9668141592920353 0.05786336950720513 0.2692136630492795 0.21157267390144105 0.4613502935420744 0.0009607993850883934 0.04246733282090699 0.29150653343581856 0.6650653343581859 0.0211864406779661 0.0211864406779661 0.0211864406779661 0.9364406779661018 0.16011097410604197 0.49303329223181264 0.02694204685573367 0.3199136868064119 0.3474338412189254 0.3474338412189254 0.0010024057738572572 0.30412991178829185 0.011061946902654864 0.48893805309734506 0.48893805309734506 0.011061946902654864 0.6996215306980655 0.22729184188393606 0.009293523969722455 0.06379310344827585 0.6657501099868016 0.2856357237131545 0.024307083150022 0.024307083150022 0.9668141592920351 0.011061946902654862 0.011061946902654862 0.011061946902654862 0.06680801850424056 0.2083654587509638 0.24167309175019278 0.48315343099460295 0.033116095786602004 0.32775083358593515 0.22953925431949077 0.4095938163079721 0.0028604118993135006 0.37356979405034324 0.37356979405034324 0.25 0.18187031656216548 0.5204541978895856 0.03322373451598104 0.2644517510322679 0.2174568099638409 0.4778023302531137 0.000502209722780233 0.3042386500602652 0.08460949464012249 0.7461715160796324 0.0019142419601837666 0.16730474732006123 0.6991682070240297 0.22005545286506475 0.0004621072088724585 0.08031423290203328 0.4943438914027149 0.005656108597285066 0.005656108597285066 0.4943438914027149 0.25 0.25 0.25 0.25 0.03740157480314961 0.2592434097911674 0.18529613146182813 0.5180588839438548 0.14425587467362924 0.0032637075718015664 0.28524804177545693 0.5672323759791122 0.25 0.25 0.25 0.25 0.2128391663389697 0.5101258356272119 0.021726307510814 0.2553086905230043 0.20045871559633033 0.3986238532110092 0.10137614678899083 0.2995412844036698 0.25 0.25 0.25 0.25 0.7464341430800089 0.13266102072654334 0.00027858257187430354 0.12062625362157343 0.7344810863239573 0.15834141610087293 0.0012124151309408338 0.1059650824442289 0.33083832335329333 0.654191616766467 0.007485029940119758 0.007485029940119758 0.013101731088451508 0.192376096751245 0.3460398387479251 0.4484823334123785 0.11836403033586133 0.1768689057421452 0.2938786565547129 0.4108884073672806 0.0211864406779661 0.9364406779661018 0.0211864406779661 0.0211864406779661 0.25000000000000006 0.43162707588816485 0.011614462896783688 0.30675846121505157 0.3663076923076923 0.43276923076923074 0.06723076923076923 0.13369230769230767 0.0211864406779661 0.0211864406779661 0.0211864406779661 0.9364406779661018 0.6234200403004213 0.2673108627953838 0.0002289796666056054 0.1090401172375893 0.846625150662917 0.13067496986741667 0.0005022097227802331 0.022197669746886306 0.4962006079027356 0.3320668693009119 0.0037993920972644373 0.16793313069908813 0.03756700674390455 0.1869704305723673 0.3550492823793879 0.42041328030434033 0.036722689075630255 0.2545378151260504 0.3452941176470588 0.3634453781512605 0.004545454545454544 0.3972727272727272 0.004545454545454544 0.5936363636363636 0.21189430766818254 0.5167398463227223 0.03406774345303434 0.23729810255606085 0.0772307145396374 0.5187522218272307 0.038837539992890156 0.36517952364024175 0.16793313069908813 0.16793313069908813 0.0037993920972644373 0.6603343465045592 0.710718094560967 0.15401706363313195 0.000444365446142908 0.1348204763597583 0.9886018237082068 0.0037993920972644382 0.0037993920972644382 0.0037993920972644382 0.25 0.25 0.25 0.25 0.021726307510814 0.2553086905230043 0.2977782147070389 0.4251867872591427 0.003799392097264437 0.4962006079027355 0.16793313069908813 0.33206686930091184 0.25 0.25 0.25 0.25 0.24139305068536818 0.482387631495059 0.017612368504941026 0.2586069493146318 0.3320668693009119 0.4962006079027356 0.0037993920972644373 0.16793313069908813 0.25 0.25 0.25 0.25 </TABLE>
    </DEFINITION>
    <DEFINITION>
      <FOR>LowLLapse</FOR>
      <GIVEN>AMInstabMt</GIVEN>
      <GIVEN>CldShadeConv</GIVEN>
      <GIVEN>CurPropConv</GIVEN>
      <GIVEN>LatestCIN</GIVEN>
      <TABLE>0.3236673986823717 0.23023557596326613 0.12961668995807546 0.31648033539628667 0.22508650519031143 0.22508650519031143 0.17525951557093428 0.3745674740484429 0.011061946902654867 0.011061946902654867 0.9668141592920353 0.011061946902654867 0.2681423476507986 0.22348426112575592 0.18999069623197395 0.31838269499147154 0.32880335643925573 0.30253557095950384 0.13179496534111637 0.23686610726012405 0.2309725158562368 0.3070824524312896 0.15486257928118394 0.3070824524312896 0.2666358595194085 0.31987060998151573 0.10693160813308687 0.3065619223659889 0.003424657534246575 0.20068493150684932 0.2993150684931507 0.4965753424657534 0.25 0.25 0.25 0.25 0.26313868613138686 0.2316058394160584 0.20007299270072992 0.30518248175182483 0.09625492772667545 0.38009198423127466 0.1908672798948752 0.33278580814717484 0.9085365853658535 0.030487804878048773 0.030487804878048773 0.030487804878048773 0.16524560956986512 0.2018961567828964 0.22022143038941205 0.4126368032578264 0.143159977388355 0.28561334087054835 0.20421141888072358 0.3670152628603731 0.14494163424124515 0.14494163424124515 0.0048638132295719845 0.7052529182879377 0.35063198833252307 0.15811861934856586 0.2456246961594555 0.2456246961594555 0.2993150684931507 0.39794520547945206 0.10205479452054796 0.20068493150684932 0.25 0.25 0.25 0.25 0.19799190985264375 0.2291967639410575 0.30200809014735625 0.2708032360589425 0.3742807825086306 0.3742807825086306 0.1257192174913694 0.1257192174913694 0.016233766233766236 0.016233766233766236 0.016233766233766236 0.9512987012987014 0.26921366304927946 0.17954990215264188 0.17954990215264188 0.3716865326454368 0.25 0.21674364896073903 0.1336027713625866 0.39965357967667436 0.22264437689969604 0.22264437689969604 0.33206686930091184 0.22264437689969604 0.23532409294741133 0.22064818589482266 0.20597227884223399 0.33805544231553203 0.14494163424124515 0.5651750972762646 0.0048638132295719845 0.2850194552529183 0.25 0.25 0.25 0.25 0.27830997998284246 0.23713182728052618 0.16507006005147268 0.3194881326851587 0.285538005923001 0.25000000000000006 0.21446199407699904 0.25000000000000006 0.016233766233766232 0.48376623376623373 0.48376623376623373 0.016233766233766232 0.26863739904742184 0.18663284323876578 0.1642679643818596 0.3804617933319528 0.22227570273392375 0.2777242972660762 0.18068925683480938 0.3193107431651906 0.44148936170212766 0.22264437689969604 0.003799392097264438 0.33206686930091184 0.2174568099638409 0.2029931699477702 0.2174568099638409 0.36209321012454804 0.006756756756756756 0.7851351351351351 0.006756756756756756 0.20135135135135135 0.25 0.25 0.25 0.25 </TABLE>
    </DEFINITION>
    <DEFINITION>
      <FOR>MeanRH</FOR>
      <GIVEN>AMInstabMt</GIVEN>
      <GIVEN>CldShadeConv</GIVEN>
      <GIVEN>CurPropConv</GIVEN>
      <GIVEN>LatestCIN</GIVEN>
      <TABLE>0.46749184800692084 0.3524988354295601 0.180009316563519 0.3997693194925029 0.3997693194925029 0.2004613610149942 0.6519174041297935 0.3333333333333333 0.014749262536873156 0.4077634775417377 0.430092520804259 0.16214400165400322 0.4471604037455917 0.38149094004621187 0.17134865620819653 0.3079633544749824 0.23185341789992953 0.4601832276250881 0.4398028342575478 0.3200246457178066 0.24017252002464576 0.20182648401826483 0.497716894977169 0.3004566210045662 0.3333333333333333 0.3333333333333333 0.3333333333333333 0.45245742092457425 0.3263260340632604 0.22121654501216548 0.5698642137538327 0.2860271572492335 0.14410862899693386 0.04065040650406504 0.04065040650406504 0.9186991869918699 0.44023076270467465 0.3577670314753542 0.20200220581997116 0.4283022423214622 0.3265498398341813 0.2451479178443565 0.5667963683527886 0.28664072632944226 0.1465629053177691 0.4383406255064009 0.3333333333333333 0.22832604116026572 0.3004566210045662 0.3990867579908676 0.3004566210045662 0.3333333333333333 0.3333333333333333 0.3333333333333333 0.3853414234806896 0.3853414234806896 0.22931715303862085 0.3333333333333333 0.4990410433448408 0.16762562332182587 0.021645021645021644 0.48917748917748916 0.48917748917748916 0.4229970942299709 0.41018798553045127 0.16681492023957778 0.3665896843725943 0.39984603541185526 0.2335642802155504 0.22391084093211752 0.22391084093211752 0.552178318135765 0.49966027992933826 0.3529012094034516 0.14743851066721023 0.1465629053177691 0.4267185473411154 0.4267185473411154 0.3333333333333333 0.3333333333333333 0.3333333333333333 0.4019635878371938 0.42255266418835197 0.17548374797445432 0.32148733135899965 0.49917736097400456 0.17933530766699574 0.021645021645021644 0.48917748917748916 0.48917748917748916 0.462552633395458 0.3954579968247394 0.1419893697798026 0.37491977923244774 0.43036837376460024 0.19471184700295213 0.11448834853090172 0.552178318135765 0.3333333333333333 0.4635060934779698 0.33333333333333337 0.20316057318869693 0.5927927927927927 0.009009009009009007 0.3981981981981982 0.3333333333333333 0.3333333333333333 0.3333333333333333 </TABLE>
    </DEFINITION>
    <DEFINITION>
      <FOR>MidLLapse</FOR>
      <GIVEN>AMInstabMt</GIVEN>
      <GIVEN>CldShadeConv</GIVEN>
      <GIVEN>CurPropConv</GIVEN>
      <GIVEN>LatestCIN</GIVEN>
      <TABLE>0.38843415185998537 0.33812470885739004 0.27344113928262465 0.2502883506343714 0.3997693194925029 0.3499423298731257 0.014749262536873156 0.014749262536873156 0.9705014749262537 0.3240295653072828 0.35752313020106474 0.3184473044916525 0.342089261826584 0.28955369086708016 0.3683570473063359 0.38407329105003524 0.23185341789992953 0.38407329105003524 0.26678989525569935 0.3200246457178066 0.4131854590264942 0.10319634703196347 0.3004566210045662 0.5963470319634704 0.3333333333333333 0.3333333333333333 0.3333333333333333 0.3158150851581509 0.2842822384428224 0.39990267639902677 0.38063950941743324 0.23872098116513366 0.38063950941743324 0.04065040650406504 0.04065040650406504 0.9186991869918699 0.23865275303300248 0.4493933995079325 0.31195384745906507 0.4486527228189184 0.30619935933672504 0.2451479178443565 0.4267185473411154 0.4267185473411154 0.1465629053177691 0.3333333333333333 0.3508345486955113 0.3158321179711554 0.5963470319634704 0.3990867579908676 0.0045662100456621 0.3333333333333333 0.3333333333333333 0.3333333333333333 0.3853414234806896 0.34373495136280463 0.27092362515650587 0.33333333333333337 0.2919064058304565 0.3747602608362102 0.021645021645021644 0.9567099567099567 0.021645021645021644 0.35895155073237267 0.33973788768309315 0.3013105615845342 0.2668206312548114 0.41647421093148573 0.31670515781370284 0.3333333333333333 0.3333333333333333 0.3333333333333333 0.32354939529827426 0.32354939529827426 0.3529012094034516 0.1465629053177691 0.28664072632944226 0.5667963683527886 0.3333333333333333 0.3333333333333333 0.3333333333333333 0.25784005337908683 0.36078543513487754 0.3813745114860357 0.3214873313589997 0.2859493254359987 0.3925633432050017 0.48917748917748916 0.021645021645021644 0.48917748917748916 0.2910885621591772 0.3358183198729896 0.37309311796783323 0.31947118470029523 0.3610576305994096 0.31947118470029523 0.22391084093211752 0.552178318135765 0.22391084093211752 0.2610151332529798 0.4345788134458283 0.30440605330119197 0.009009009009009007 0.009009009009009007 0.9819819819819819 0.3333333333333333 0.3333333333333333 0.3333333333333333 </TABLE>
    </DEFINITION>
    <DEFINITION>
      <FOR>MorningBound</FOR>
      <GIVEN>AMInstabMt</GIVEN>
      <GIVEN>CldShadeConv</GIVEN>
      <GIVEN>CurPropConv</GIVEN>
      <GIVEN>LatestCIN</GIVEN>
      <TABLE>0.313818783616053 0.686181216383947 0.18381430363864495 0.8161856963613551 0.06097560975609757 0.9390243902439025 0.2303155881415365 0.7696844118584635 0.2442034405385191 0.7557965594614809 0.016778523489932886 0.9832214765100671 0.41971454058876007 0.58028545941124 0.2081081081081081 0.7918918918918919 0.5 0.5 0.34584382871536523 0.6541561712846348 0.17048054919908467 0.8295194508009153 0.06097560975609757 0.9390243902439025 0.2890250399573788 0.7109749600426212 0.3342922899884926 0.6657077100115075 0.3407079646017699 0.6592920353982301 0.3009216589861752 0.6990783410138249 0.5972972972972973 0.4027027027027027 0.5 0.5 0.20075566750629725 0.7992443324937027 0.17048054919908467 0.8295194508009153 0.5 0.5 0.36273830155979203 0.637261698440208 0.3578479763079961 0.642152023692004 0.17420814479638008 0.8257918552036199 0.34556720686367975 0.6544327931363203 0.022123893805309734 0.9778761061946902 0.5 0.5 0.370702924576706 0.629297075423294 0.20275229357798166 0.7972477064220184 0.5 0.5 0.27739872068230276 0.7226012793176972 0.2757785467128028 0.7242214532871972 0.2081081081081081 0.7918918918918919 0.21522742254449573 0.7847725774555043 0.5 0.5 0.5 0.5 </TABLE>
    </DEFINITION>
    <DEFINITION>
      <FOR>MorningCIN</FOR>
      <GIVEN>CldShadeConv</GIVEN>
      <GIVEN>CurPropConv</GIVEN>
      <GIVEN>LatestCIN</GIVEN>
      <GIVEN>MorningBound</GIVEN>
      <TABLE>0.825230378137909 0.10454401016841434 0.07022561169367651 0.7424753340826777 0.20294742100661922 0.05457724491070314 0.7068741893644617 0.2866407263294422 0.006485084306095978 0.6502601040416166 0.2180872348939576 0.13165266106442577 0.3333333333333333 0.3333333333333333 0.3333333333333333 0.9186991869918699 0.04065040650406504 0.04065040650406504 0.6728878185831828 0.1527192454344772 0.17439293598233993 0.7110340535253846 0.20209833733440033 0.08686760914021519 0.7028633171258779 0.17774176121015667 0.11939492166396543 0.6354101111810363 0.20495070274805954 0.15963918607090413 0.9186991869918699 0.04065040650406504 0.04065040650406504 0.6616008105369807 0.22391084093211752 0.11448834853090172 0.7471264367816092 0.10160919540229885 0.15126436781609195 0.6205435053602593 0.35128396908501613 0.028172525554724503 0.04065040650406504 0.9186991869918699 0.04065040650406504 0.7428896473265074 0.2514220705346985 0.005688282138794083 0.3333333333333333 0.3333333333333333 0.3333333333333333 0.3333333333333333 0.3333333333333333 0.3333333333333333 0.5492502883506344 0.3499423298731257 0.10080738177623991 0.7192852741836107 0.22686383240911895 0.05385089340727049 0.5927927927927927 0.3981981981981982 0.009009009009009007 0.7366946778711484 0.21808723489395757 0.04521808723489395 0.3333333333333333 0.3333333333333333 0.3333333333333333 0.6519174041297935 0.3333333333333333 0.014749262536873156 0.7412384716732542 0.2005270092226614 0.058234519104084316 0.6516932971560647 0.2609787961008944 0.0873279067430409 0.6478160919540229 0.3002298850574713 0.051954022988505745 0.5875430019916712 0.27466956364294765 0.13778743436538113 0.021645021645021644 0.9567099567099567 0.021645021645021644 0.3981981981981982 0.3981981981981982 0.20360360360360358 0.4491954022988505 0.4491954022988505 0.10160919540229885 0.6544035674470456 0.25879917184265006 0.08679726071030419 0.25279642058165547 0.494407158836689 0.25279642058165547 0.9567099567099567 0.021645021645021644 0.021645021645021644 0.3333333333333333 0.3333333333333333 0.3333333333333333 0.3333333333333333 0.3333333333333333 0.3333333333333333 </TABLE>
    </DEFINITION>
    <DEFINITION>
      <FOR>MountainFcst</FOR>
      <GIVEN>CldShadeConv</GIVEN>
      <GIVEN>CurPropConv</GIVEN>
      <GIVEN>LatestCIN</GIVEN>
      <GIVEN>MorningBound</GIVEN>
      <TABLE>0.42386141380273823 0.33333333333333337 0.24280525286392848 0.48364648573416846 0.3118600258474998 0.20449348841833187 0.4267185473411154 0.1465629053177691 0.4267185473411154 0.5347153668970056 0.35702533728200064 0.10825929582099375 0.3333333333333333 0.3333333333333333 0.3333333333333333 0.9186991869918699 0.04065040650406504 0.04065040650406504 0.43110628281730945 0.3724425131269238 0.19645120405576677 0.5201142943078426 0.30084968794646216 0.1790360177456952 0.49885057471264366 0.15126436781609195 0.34988505747126436 0.5484338221980808 0.3137787434365381 0.13778743436538113 0.04065040650406504 0.9186991869918699 0.04065040650406504 0.7710233029381965 0.005065856129685916 0.22391084093211752 0.37476026083621017 0.3333333333333333 0.29190640583045646 0.5888336881949373 0.2822332623610125 0.12893304944405015 0.9186991869918699 0.04065040650406504 0.04065040650406504 0.552178318135765 0.22391084093211752 0.22391084093211752 0.3333333333333333 0.3333333333333333 0.3333333333333333 0.3333333333333333 0.3333333333333333 0.3333333333333333 0.6114565667985679 0.16374599585453173 0.2247974373469003 0.614954790206238 0.1212028852991974 0.2638423244945647 0.3333333333333333 0.11448834853090172 0.552178318135765 0.591265779597407 0.11224837939269872 0.29648584100989417 0.3333333333333333 0.3333333333333333 0.3333333333333333 0.6519174041297935 0.014749262536873156 0.3333333333333333 0.3900517668242179 0.3414359666891739 0.2685122664866081 0.40899537620849097 0.2546448087431694 0.33635981504833967 0.5404679708477177 0.126198695818949 0.33333333333333337 0.5433479176794684 0.12331874898719819 0.3333333333333333 0.48917748917748916 0.021645021645021644 0.48917748917748916 0.49622926093514325 0.3333333333333333 0.17043740573152336 0.49895441237975746 0.13759933082392306 0.3634462567963196 0.5689898600949814 0.180849698369914 0.25016044153510464 0.494407158836689 0.25279642058165547 0.25279642058165547 0.7360178970917225 0.011185682326621923 0.25279642058165547 0.3333333333333333 0.3333333333333333 0.3333333333333333 0.3333333333333333 0.3333333333333333 0.3333333333333333 </TABLE>
    </DEFINITION>
    <DEFINITION>
      <FOR>MvmtFeatures</FOR>
      <GIVEN>CldShadeConv</GIVEN>
      <GIVEN>CurPropConv</GIVEN>
      <GIVEN>LatestCIN</GIVEN>
      <GIVEN>MorningBound</GIVEN>
      <TABLE>0.18210393964794638 0.6045683151718357 0.09157585917854151 0.12175188600167645 0.2580524903071876 0.3868923352221891 0.15068595287801967 0.20436922159260365 0.14494163424124515 0.5651750972762646 0.14494163424124515 0.14494163424124515 0.285538005923001 0.39215202369200397 0.17892398815399804 0.14338598223099705 0.25 0.25 0.25 0.25 0.030487804878048776 0.030487804878048776 0.030487804878048776 0.9085365853658536 0.21577946768060835 0.5286529060293319 0.1766702878870179 0.07889733840304183 0.25203022783667944 0.4550530115046244 0.16270020302278368 0.13021655763591247 0.1506896551724138 0.49827586206896557 0.1506896551724138 0.20034482758620692 0.23533405757740358 0.3526615969581749 0.23533405757740358 0.1766702878870179 0.030487804878048773 0.9085365853658535 0.030487804878048773 0.030487804878048773 0.003799392097264438 0.7697568389057751 0.22264437689969604 0.003799392097264438 0.33285385500575376 0.3742807825086306 0.1257192174913694 0.1671461449942463 0.2052874378992193 0.5374378992193045 0.2308374733853797 0.02643718949609653 0.030487804878048773 0.9085365853658535 0.030487804878048773 0.030487804878048773 0.22264437689969604 0.33206686930091184 0.33206686930091184 0.11322188449848025 0.25 0.25 0.25 0.25 0.25 0.25 0.25 0.25 0.20421141888072358 0.4280667043527417 0.20421141888072358 0.1635104578858112 0.1869094788174337 0.5819110027430662 0.14302042060347456 0.0881590978360256 0.003799392097264438 0.6603343465045592 0.11322188449848025 0.22264437689969604 0.1486693961105425 0.5539918116683726 0.2223643807574207 0.07497441146366429 0.25 0.25 0.25 0.25 0.011061946902654867 0.6482300884955752 0.32964601769911506 0.011061946902654867 0.1953072248480756 0.5356178257933829 0.1953072248480756 0.07376772451046591 0.23638083228247161 0.3634930643127364 0.20914249684741487 0.19098360655737703 0.04286536248561566 0.581415420023015 0.1671461449942463 0.20857307249712317 0.14061740398638795 0.63065143412737 0.0531113271754983 0.1756198347107438 0.016233766233766232 0.48376623376623373 0.48376623376623373 0.016233766233766232 0.16855203619909503 0.33144796380090497 0.4943438914027149 0.005656108597285068 0.36292346298619826 0.5436010037641155 0.04673776662484317 0.04673776662484317 0.19455140546784752 0.5272429726607625 0.11137851366961879 0.16682710820177127 0.25 0.25 0.008389261744966443 0.49161073825503354 0.008389261744966443 0.7332214765100671 0.25 0.008389261744966443 0.25 0.25 0.25 0.25 0.25 0.25 0.25 0.25 </TABLE>
    </DEFINITION>
    <DEFINITION>
      <FOR>N0_7muVerMo</FOR>
      <GIVEN>CldShadeConv</GIVEN>
      <GIVEN>CurPropConv</GIVEN>
      <GIVEN>LatestCIN</GIVEN>
      <GIVEN>MorningBound</GIVEN>
      <TABLE>0.423512154233026 0.18210393964794638 0.18210393964794638 0.21227996647108133 0.2580524903071876 0.22584252907843722 0.290262451535938 0.22584252907843722 0.42509727626459143 0.0048638132295719845 0.42509727626459143 0.14494163424124515 0.17892398815399804 0.285538005923001 0.25000000000000006 0.285538005923001 0.25 0.25 0.25 0.25 0.030487804878048776 0.030487804878048776 0.9085365853658536 0.030487804878048776 0.23533405757740358 0.3331070070613797 0.1766702878870179 0.2548886474741988 0.21954658244980826 0.21954658244980826 0.24390931648996164 0.31699751861042186 0.2003448275862069 0.2996551724137931 0.25 0.25 0.274443237370994 0.2548886474741988 0.274443237370994 0.19622487778381315 0.030487804878048776 0.030487804878048776 0.030487804878048776 0.9085365853658536 0.33206686930091184 0.11322188449848025 0.22264437689969604 0.33206686930091184 0.33285385500575376 0.2914269275028769 0.25000000000000006 0.1257192174913694 0.2819375443577005 0.2308374733853797 0.2052874378992193 0.2819375443577005 0.030487804878048776 0.030487804878048776 0.030487804878048776 0.9085365853658536 0.22264437689969604 0.22264437689969604 0.11322188449848025 0.44148936170212766 0.25 0.25 0.25 0.25 0.25 0.25 0.25 0.25 0.24491237987563597 0.1838609383832674 0.30596382136800454 0.26526286037309216 0.2966321243523316 0.24177080158488265 0.24177080158488265 0.21982627247790307 0.11322188449848025 0.22264437689969604 0.22264437689969604 0.44148936170212766 0.1486693961105425 0.2960593654042989 0.36975435005117707 0.1855168884339816 0.25 0.25 0.25 0.25 0.32964601769911506 0.32964601769911506 0.32964601769911506 0.011061946902654867 0.1953072248480756 0.26823092505064144 0.3411546252532073 0.1953072248480756 0.24546027742749055 0.2273013871374527 0.27269861286254726 0.25453972257250945 0.25000000000000006 0.4157077100115075 0.1671461449942463 0.1671461449942463 0.26312591152163345 0.21062226543509965 0.28062712688381136 0.2456246961594555 0.48376623376623373 0.016233766233766232 0.48376623376623373 0.016233766233766232 0.33144796380090497 0.33144796380090497 0.16855203619909503 0.16855203619909503 0.2725846925972397 0.1822459222082811 0.40809284818067754 0.1370765370138018 0.41634578359645746 0.13910281093569501 0.2361378513669619 0.20841355410088563 0.49161073825503354 0.49161073825503354 0.008389261744966443 0.008389261744966443 0.008389261744966443 0.008389261744966443 0.7332214765100671 0.25 0.25 0.25 0.25 0.25 0.25 0.25 0.25 0.25 </TABLE>
    </DEFINITION>
    <DEFINITION>
      <FOR>N34StarFcst</FOR>
      <GIVEN>CldShadeConv</GIVEN>
      <GIVEN>CurPropConv</GIVEN>
      <GIVEN>LatestCIN</GIVEN>
      <GIVEN>MorningBound</GIVEN>
      <TABLE>0.24280525286392848 0.21262922604079354 0.5445655210952781 0.36554329456208373 0.20449348841833187 0.42996321701958445 0.1465629053177691 0.006485084306095979 0.8469520103761349 0.3925633432050017 0.10825929582099376 0.49917736097400467 0.3333333333333333 0.3333333333333333 0.3333333333333333 0.04065040650406504 0.04065040650406504 0.9186991869918699 0.1964512040557668 0.13778743436538116 0.6657613615788521 0.23588239717271978 0.13031054966538838 0.6338070531618918 0.20091954022988506 0.051954022988505745 0.7471264367816092 0.21600579395256203 0.1964512040557668 0.5875430019916713 0.04065040650406504 0.04065040650406504 0.9186991869918699 0.11448834853090172 0.005065856129685916 0.8804457953394123 0.3333333333333333 0.416187188339087 0.2504794783275796 0.35888336881949373 0.23113319138869176 0.4099834397918146 0.04065040650406504 0.04065040650406504 0.9186991869918699 0.3333333333333333 0.22391084093211752 0.4427558257345492 0.3333333333333333 0.3333333333333333 0.3333333333333333 0.3333333333333333 0.3333333333333333 0.3333333333333333 0.3469003203316375 0.18409647635198792 0.4690032033163746 0.3625927054759728 0.1321751498526872 0.50523214467134 0.22391084093211752 0.22391084093211752 0.552178318135765 0.40702831798021155 0.18594336403957698 0.40702831798021155 0.3333333333333333 0.3333333333333333 0.3333333333333333 0.014749262536873156 0.3333333333333333 0.6519174041297935 0.31712806662165205 0.09835696601395455 0.5845149673643935 0.2455653635981505 0.11845313156788567 0.6359815048339638 0.126198695818949 0.126198695818949 0.7476026083621021 0.17582239507373199 0.1408199643493761 0.683357640576892 0.48917748917748916 0.021645021645021644 0.48917748917748916 0.3333333333333333 0.007541478129713423 0.6591251885369532 0.31827687160184026 0.18276871601840236 0.4989544123797574 0.3887819278654859 0.27788473880118086 0.33333333333333337 0.011185682326621923 0.494407158836689 0.494407158836689 0.494407158836689 0.011185682326621923 0.494407158836689 0.3333333333333333 0.3333333333333333 0.3333333333333333 0.3333333333333333 0.3333333333333333 0.3333333333333333 </TABLE>
    </DEFINITION>
    <DEFINITION>
      <FOR>OutflowFrMt</FOR>
      <GIVEN>CldShadeConv</GIVEN>
      <GIVEN>CurPropConv</GIVEN>
      <GIVEN>LatestCIN</GIVEN>
      <GIVEN>MorningBound</GIVEN>
      <TABLE>0.6327188940092167 0.36728110599078345 0.7205740083843921 0.2794259916156079 0.6628959276018099 0.33710407239819007 0.7678002125398512 0.23219978746014883 0.5 0.5 0.9390243902439025 0.06097560975609757 0.7651738361814968 0.23482616381850327 0.7140203121129551 0.2859796878870448 0.5551301684532925 0.4448698315467075 0.6933295647258338 0.3066704352741662 0.06097560975609757 0.9390243902439025 0.5547112462006079 0.4452887537993921 0.7601839684625493 0.23981603153745076 0.7019446522064323 0.29805534779356774 0.06097560975609757 0.9390243902439025 0.6228668941979522 0.3771331058020478 0.5 0.5 0.5 0.5 0.5524399126001457 0.4475600873998543 0.46976060478790427 0.5302393952120957 0.17420814479638008 0.8257918552036199 0.5709592641261498 0.4290407358738502 0.5 0.5 0.6592920353982301 0.3407079646017699 0.45182872435325605 0.548171275646744 0.5237702211951138 0.4762297788048861 0.5 0.5 0.47734424166142225 0.5226557583385777 0.06097560975609757 0.9390243902439025 0.7918918918918919 0.2081081081081081 0.6858864027538726 0.31411359724612736 0.40764494612621854 0.5923550538737814 0.6592920353982301 0.3407079646017699 0.2583892617449664 0.7416107382550335 0.5 0.5 0.5 0.5 </TABLE>
    </DEFINITION>
    <DEFINITION>
      <FOR>PlainsFcst</FOR>
      <GIVEN>CurPropConv</GIVEN>
      <GIVEN>LatestCIN</GIVEN>
      <GIVEN>MorningBound</GIVEN>
      <GIVEN>N34StarFcst</GIVEN>
