<?xml version='1.0' encoding='utf-8'?>
<BIF VERSION="0.3">
  <NETWORK>
    <NAME>UNTITLED</NAME>
    <VARIABLE TYPE="nature">
      <NAME>AMCINInScen</NAME>
      <OUTCOME>Average</OUTCOME>
      <OUTCOME>LessThanAve</OUTCOME>
      <OUTCOME>MoreThanAve</OUTCOME>
      <PROPERTY>weight = None</PROPERTY>
    </VARIABLE>
    <VARIABLE TYPE="nature">
      <NAME>AMDewptCalPl</NAME>
      <OUTCOME>Instability</OUTCOME>
      <OUTCOME>Neutral</OUTCOME>
      <OUTCOME>Stability</OUTCOME>
      <PROPERTY>weight = None</PROPERTY>
    </VARIABLE>
    <VARIABLE TYPE="nature">
      <NAME>AMInsWliScen</NAME>
      <OUTCOME>Average</OUTCOME>
      <OUTCOME>LessUnstable</OUTCOME>
      <OUTCOME>MoreUnstable</OUTCOME>
      <PROPERTY>weight = None</PROPERTY>
    </VARIABLE>
    <VARIABLE TYPE="nature">
      <NAME>AMInstabMt</NAME>
      <OUTCOME>Strong</OUTCOME>
      <OUTCOME>Weak</OUTCOME>
      <PROPERTY>weight = None</PROPERTY>
    </VARIABLE>
    <VARIABLE TYPE="nature">
      <NAME>AreaMeso_ALS</NAME>
      <OUTCOME>Down</OUTCOME>
      <OUTCOME>Neutral</OUTCOME>
      <OUTCOME>StrongUp</OUTCOME>
      <OUTCOME>WeakUp</OUTCOME>
      <PROPERTY>weight = None</PROPERTY>
    </VARIABLE>
    <VARIABLE TYPE="nature">
      <NAME>AreaMoDryAir</NAME>
      <OUTCOME>Dry</OUTCOME>
      <OUTCOME>Neutral</OUTCOME>
      <OUTCOME>VeryWet</OUTCOME>
      <OUTCOME>Wet</OUTCOME>
      <PROPERTY>weight = None</PROPERTY>
    </VARIABLE>
    <VARIABLE TYPE="nature">
      <NAME>Boundaries</NAME>
      <OUTCOME>Strong</OUTCOME>
      <OUTCOME>Weak</OUTCOME>
      <PROPERTY>weight = None</PROPERTY>
    </VARIABLE>
    <VARIABLE TYPE="nature">
      <NAME>CapChange</NAME>
      <OUTCOME>Decreasing</OUTCOME>
      <OUTCOME>Increasing</OUTCOME>
      <OUTCOME>LittleChange</OUTCOME>
      <PROPERTY>weight = None</PROPERTY>
    </VARIABLE>
    <VARIABLE TYPE="nature">
      <NAME>CapInScen</NAME>
      <OUTCOME>Average</OUTCOME>
      <OUTCOME>LessThanAve</OUTCOME>
      <OUTCOME>MoreThanAve</OUTCOME>
      <PROPERTY>weight = None</PROPERTY>
    </VARIABLE>
    <VARIABLE TYPE="nature">
      <NAME>CldShadeConv</NAME>
      <OUTCOME>Marked</OUTCOME>
      <OUTCOME>Some</OUTCOME>
      <PROPERTY>weight = None</PROPERTY>
    </VARIABLE>
    <VARIABLE TYPE="nature">
      <NAME>CldShadeOth</NAME>
      <OUTCOME>Clear</OUTCOME>
      <OUTCOME>Cloudy</OUTCOME>
      <OUTCOME>PC</OUTCOME>
      <PROPERTY>weight = None</PROPERTY>
    </VARIABLE>
    <VARIABLE TYPE="nature">
      <NAME>CombClouds</NAME>
      <OUTCOME>Clear</OUTCOME>
      <OUTCOME>Cloudy</OUTCOME>
      <OUTCOME>PC</OUTCOME>
      <PROPERTY>weight = None</PROPERTY>
    </VARIABLE>
    <VARIABLE TYPE="nature">
      <NAME>CombMoisture</NAME>
      <OUTCOME>Dry</OUTCOME>
      <OUTCOME>Neutral</OUTCOME>
      <OUTCOME>VeryWet</OUTCOME>
      <OUTCOME>Wet</OUTCOME>
      <PROPERTY>weight = None</PROPERTY>
    </VARIABLE>
    <VARIABLE TYPE="nature">
      <NAME>CombVerMo</NAME>
      <OUTCOME>Down</OUTCOME>
      <OUTCOME>Neutral</OUTCOME>
      <OUTCOME>StrongUp</OUTCOME>
      <OUTCOME>WeakUp</OUTCOME>
      <PROPERTY>weight = None</PROPERTY>
    </VARIABLE>
    <VARIABLE TYPE="nature">
      <NAME>CompPlFcst</NAME>
      <OUTCOME>DecCapIncIns</OUTCOME>
      <OUTCOME>IncCapDecIns</OUTCOME>
      <OUTCOME>LittleChange</OUTCOME>
      <PROPERTY>weight = None</PROPERTY>
    </VARIABLE>
    <VARIABLE TYPE="nature">
      <NAME>CurPropConv</NAME>
      <OUTCOME>Moderate</OUTCOME>
      <OUTCOME>Slight</OUTCOME>
      <OUTCOME>Strong</OUTCOME>
      <PROPERTY>weight = None</PROPERTY>
    </VARIABLE>
    <VARIABLE TYPE="nature">
      <NAME>Date</NAME>
      <OUTCOME>Aug11_Aug20</OUTCOME>
      <OUTCOME>Aug20_Sep15</OUTCOME>
      <OUTCOME>Jul16_Aug10</OUTCOME>
      <OUTCOME>Jul2_Jul15</OUTCOME>
      <OUTCOME>Jun15_Jul1</OUTCOME>
      <OUTCOME>May15_Jun14</OUTCOME>
      <PROPERTY>weight = None</PROPERTY>
    </VARIABLE>
    <VARIABLE TYPE="nature">
      <NAME>Dewpoints</NAME>
      <OUTCOME>HighEvrywher</OUTCOME>
      <OUTCOME>LowAtStation</OUTCOME>
      <OUTCOME>LowEvrywhere</OUTCOME>
      <OUTCOME>LowMtsHighPl</OUTCOME>
      <OUTCOME>LowNHighS</OUTCOME>
      <OUTCOME>LowSHighN</OUTCOME>
      <OUTCOME>Other</OUTCOME>
      <PROPERTY>weight = None</PROPERTY>
    </VARIABLE>
    <VARIABLE TYPE="nature">
      <NAME>IRCloudCover</NAME>
      <OUTCOME>Clear</OUTCOME>
      <OUTCOME>Cloudy</OUTCOME>
      <OUTCOME>PC</OUTCOME>
      <PROPERTY>weight = None</PROPERTY>
    </VARIABLE>
    <VARIABLE TYPE="nature">
      <NAME>InsChange</NAME>
      <OUTCOME>Decreasing</OUTCOME>
      <OUTCOME>Increasing</OUTCOME>
      <OUTCOME>LittleChange</OUTCOME>
      <PROPERTY>weight = None</PROPERTY>
    </VARIABLE>
    <VARIABLE TYPE="nature">
      <NAME>InsInMt</NAME>
      <OUTCOME>Strong</OUTCOME>
      <OUTCOME>Weak</OUTCOME>
      <PROPERTY>weight = None</PROPERTY>
    </VARIABLE>
    <VARIABLE TYPE="nature">
      <NAME>InsSclInScen</NAME>
      <OUTCOME>Average</OUTCOME>
      <OUTCOME>LessUnstable</OUTCOME>
      <OUTCOME>MoreUnstable</OUTCOME>
      <PROPERTY>weight = None</PROPERTY>
    </VARIABLE>
    <VARIABLE TYPE="nature">
      <NAME>LIfr12ZDENSd</NAME>
      <OUTCOME>LIGt0</OUTCOME>
      <OUTCOME>LILt_8</OUTCOME>
      <OUTCOME>N1GtLIGt_4</OUTCOME>
      <OUTCOME>N5GtLIGt_8</OUTCOME>
      <PROPERTY>weight = None</PROPERTY>
    </VARIABLE>
    <VARIABLE TYPE="nature">
      <NAME>LLIW</NAME>
      <OUTCOME>Moderate</OUTCOME>
      <OUTCOME>Strong</OUTCOME>
      <OUTCOME>Unfavorable</OUTCOME>
      <OUTCOME>Weak</OUTCOME>
      <PROPERTY>weight = None</PROPERTY>
    </VARIABLE>
    <VARIABLE TYPE="nature">
      <NAME>LatestCIN</NAME>
      <OUTCOME>PartInhibit</OUTCOME>
      <OUTCOME>Stifling</OUTCOME>
      <OUTCOME>TotalInhibit</OUTCOME>
      <PROPERTY>weight = None</PROPERTY>
    </VARIABLE>
    <VARIABLE TYPE="nature">
      <NAME>LoLevMoistAd</NAME>
      <OUTCOME>Negative</OUTCOME>
      <OUTCOME>Neutral</OUTCOME>
      <OUTCOME>StrongPos</OUTCOME>
      <OUTCOME>WeakPos</OUTCOME>
      <PROPERTY>weight = None</PROPERTY>
    </VARIABLE>
    <VARIABLE TYPE="nature">
      <NAME>LowLLapse</NAME>
      <OUTCOME>CloseToDryAd</OUTCOME>
      <OUTCOME>ModerateOrLe</OUTCOME>
      <OUTCOME>Stable</OUTCOME>
      <OUTCOME>Steep</OUTCOME>
      <PROPERTY>weight = None</PROPERTY>
    </VARIABLE>
    <VARIABLE TYPE="nature">
      <NAME>MeanRH</NAME>
      <OUTCOME>Average</OUTCOME>
      <OUTCOME>Dry</OUTCOME>
      <OUTCOME>VeryMoist</OUTCOME>
      <PROPERTY>weight = None</PROPERTY>
    </VARIABLE>
    <VARIABLE TYPE="nature">
      <NAME>MidLLapse</NAME>
      <OUTCOME>CloseToDryAd</OUTCOME>
      <OUTCOME>ModerateOrLe</OUTCOME>
      <OUTCOME>Steep</OUTCOME>
      <PROPERTY>weight = None</PROPERTY>
    </VARIABLE>
    <VARIABLE TYPE="nature">
      <NAME>MorningBound</NAME>
      <OUTCOME>Strong</OUTCOME>
      <OUTCOME>Weak</OUTCOME>
      <PROPERTY>weight = None</PROPERTY>
    </VARIABLE>
    <VARIABLE TYPE="nature">
      <NAME>MorningCIN</NAME>
      <OUTCOME>PartInhibit</OUTCOME>
      <OUTCOME>Stifling</OUTCOME>
      <OUTCOME>TotalInhibit</OUTCOME>
      <PROPERTY>weight = None</PROPERTY>
    </VARIABLE>
    <VARIABLE TYPE="nature">
      <NAME>MountainFcst</NAME>
      <OUTCOME>SIG</OUTCOME>
      <OUTCOME>SVR</OUTCOME>
      <OUTCOME>XNIL</OUTCOME>
      <PROPERTY>weight = None</PROPERTY>
    </VARIABLE>
    <VARIABLE TYPE="nature">
      <NAME>MvmtFeatures</NAME>
      <OUTCOME>MarkedUpper</OUTCOME>
      <OUTCOME>NoMajor</OUTCOME>
      <OUTCOME>OtherRapid</OUTCOME>
      <OUTCOME>StrongFront</OUTCOME>
      <PROPERTY>weight = None</PROPERTY>
    </VARIABLE>
    <VARIABLE TYPE="nature">
      <NAME>N0_7muVerMo</NAME>
      <OUTCOME>Down</OUTCOME>
      <OUTCOME>Neutral</OUTCOME>
      <OUTCOME>StrongUp</OUTCOME>
      <OUTCOME>WeakUp</OUTCOME>
      <PROPERTY>weight = None</PROPERTY>
    </VARIABLE>
    <VARIABLE TYPE="nature">
      <NAME>N34StarFcst</NAME>
      <OUTCOME>SIG</OUTCOME>
      <OUTCOME>SVR</OUTCOME>
      <OUTCOME>XNIL</OUTCOME>
      <PROPERTY>weight = None</PROPERTY>
    </VARIABLE>
    <VARIABLE TYPE="nature">
      <NAME>OutflowFrMt</NAME>
      <OUTCOME>Strong</OUTCOME>
      <OUTCOME>Weak</OUTCOME>
      <PROPERTY>weight = None</PROPERTY>
    </VARIABLE>
    <VARIABLE TYPE="nature">
      <NAME>PlainsFcst</NAME>
      <OUTCOME>SIG</OUTCOME>
      <OUTCOME>SVR</OUTCOME>
      <OUTCOME>XNIL</OUTCOME>
      <PROPERTY>weight = None</PROPERTY>
    </VARIABLE>
    <VARIABLE TYPE="nature">
      <NAME>QGVertMotion</NAME>
      <OUTCOME>Down</OUTCOME>
      <OUTCOME>Neutral</OUTCOME>
      <OUTCOME>StrongUp</OUTCOME>
      <OUTCOME>WeakUp</OUTCOME>
      <PROPERTY>weight = None</PROPERTY>
    </VARIABLE>
    <VARIABLE TYPE="nature">
      <NAME>R5Fcst</NAME>
      <OUTCOME>SIG</OUTCOME>
      <OUTCOME>SVR</OUTCOME>
      <OUTCOME>XNIL</OUTCOME>
      <PROPERTY>weight = None</PROPERTY>
    </VARIABLE>
    <VARIABLE TYPE="nature">
      <NAME>RHRatio</NAME>
      <OUTCOME>DryMMoistL</OUTCOME>
      <OUTCOME>MoistMDryL</OUTCOME>
      <OUTCOME>Other</OUTCOME>
      <PROPERTY>weight = None</PROPERTY>
    </VARIABLE>
    <VARIABLE TYPE="nature">
      <NAME>RaoContMoist</NAME>
      <OUTCOME>Dry</OUTCOME>
      <OUTCOME>Neutral</OUTCOME>
      <OUTCOME>VeryWet</OUTCOME>
      <OUTCOME>Wet</OUTCOME>
      <PROPERTY>weight = None</PROPERTY>
    </VARIABLE>
    <VARIABLE TYPE="nature">
      <NAME>SatContMoist</NAME>
      <OUTCOME>Dry</OUTCOME>
      <OUTCOME>Neutral</OUTCOME>
      <OUTCOME>VeryWet</OUTCOME>
      <OUTCOME>Wet</OUTCOME>
      <PROPERTY>weight = None</PROPERTY>
    </VARIABLE>
    <VARIABLE TYPE="nature">
      <NAME>ScenRel3_4</NAME>
      <OUTCOME>ACEFK</OUTCOME>
      <OUTCOME>B</OUTCOME>
      <OUTCOME>D</OUTCOME>
      <OUTCOME>GJ</OUTCOME>
      <OUTCOME>HI</OUTCOME>
      <PROPERTY>weight = None</PROPERTY>
    </VARIABLE>
    <VARIABLE TYPE="nature">
      <NAME>ScenRelAMCIN</NAME>
      <OUTCOME>AB</OUTCOME>
      <OUTCOME>CThruK</OUTCOME>
      <PROPERTY>weight = None</PROPERTY>
    </VARIABLE>
    <VARIABLE TYPE="nature">
      <NAME>ScenRelAMIns</NAME>
      <OUTCOME>ABI</OUTCOME>
      <OUTCOME>CDEJ</OUTCOME>
      <OUTCOME>F</OUTCOME>
      <OUTCOME>G</OUTCOME>
      <OUTCOME>H</OUTCOME>
      <OUTCOME>K</OUTCOME>
      <PROPERTY>weight = None</PROPERTY>
    </VARIABLE>
    <VARIABLE TYPE="nature">
      <NAME>Scenario</NAME>
      <OUTCOME>A</OUTCOME>
      <OUTCOME>B</OUTCOME>
      <OUTCOME>C</OUTCOME>
      <OUTCOME>D</OUTCOME>
      <OUTCOME>E</OUTCOME>
      <OUTCOME>F</OUTCOME>
      <OUTCOME>G</OUTCOME>
      <OUTCOME>H</OUTCOME>
      <OUTCOME>I</OUTCOME>
      <OUTCOME>J</OUTCOME>
      <OUTCOME>K</OUTCOME>
      <PROPERTY>weight = None</PROPERTY>
    </VARIABLE>
    <VARIABLE TYPE="nature">
      <NAME>ScnRelPlFcst</NAME>
      <OUTCOME>A</OUTCOME>
      <OUTCOME>B</OUTCOME>
      <OUTCOME>C</OUTCOME>
      <OUTCOME>D</OUTCOME>
      <OUTCOME>E</OUTCOME>
      <OUTCOME>F</OUTCOME>
      <OUTCOME>G</OUTCOME>
      <OUTCOME>H</OUTCOME>
      <OUTCOME>I</OUTCOME>
      <OUTCOME>J</OUTCOME>
      <OUTCOME>K</OUTCOME>
      <PROPERTY>weight = None</PROPERTY>
    </VARIABLE>
    <VARIABLE TYPE="nature">
      <NAME>SfcWndShfDis</NAME>
      <OUTCOME>DenvCyclone</OUTCOME>
      <OUTCOME>DryLine</OUTCOME>
      <OUTCOME>E_W_N</OUTCOME>
      <OUTCOME>E_W_S</OUTCOME>
      <OUTCOME>MovingFtorOt</OUTCOME>
      <OUTCOME>Other</OUTCOME>
      <PROPERTY>weight = None</PROPERTY>
    </VARIABLE>
    <VARIABLE TYPE="nature">
      <NAME>SubjVertMo</NAME>
      <OUTCOME>Down</OUTCOME>
      <OUTCOME>Neutral</OUTCOME>
      <OUTCOME>StronUp</OUTCOME>
      <OUTCOME>WeakUp</OUTCOME>
      <PROPERTY>weight = None</PROPERTY>
    </VARIABLE>
    <VARIABLE TYPE="nature">
      <NAME>SynForcng</NAME>
      <OUTCOME>LittleChange</OUTCOME>
      <OUTCOME>NegToPos</OUTCOME>
      <OUTCOME>PosToNeg</OUTCOME>
      <OUTCOME>SigNegative</OUTCOME>
      <OUTCOME>SigPositive</OUTCOME>
      <PROPERTY>weight = None</PROPERTY>
    </VARIABLE>
    <VARIABLE TYPE="nature">
      <NAME>TempDis</NAME>
      <OUTCOME>Moving</OUTCOME>
      <OUTCOME>Other</OUTCOME>
      <OUTCOME>QStationary</OUTCOME>
      <PROPERTY>weight = None</PROPERTY>
    </VARIABLE>
    <VARIABLE TYPE="nature">
      <NAME>VISCloudCov</NAME>
      <OUTCOME>Clear</OUTCOME>
      <OUTCOME>Cloudy</OUTCOME>
      <OUTCOME>PC</OUTCOME>
      <PROPERTY>weight = None</PROPERTY>
    </VARIABLE>
    <VARIABLE TYPE="nature">
      <NAME>WindAloft</NAME>
      <OUTCOME>AllElse</OUTCOME>
      <OUTCOME>LV</OUTCOME>
      <OUTCOME>NWQuad</OUTCOME>
      <OUTCOME>SWQuad</OUTCOME>
      <PROPERTY>weight = None</PROPERTY>
    </VARIABLE>
    <VARIABLE TYPE="nature">
      <NAME>WindFieldMt</NAME>
      <OUTCOME>LVorOther</OUTCOME>
      <OUTCOME>Westerly</OUTCOME>
      <PROPERTY>weight = None</PROPERTY>
    </VARIABLE>
    <VARIABLE TYPE="nature">
      <NAME>WindFieldPln</NAME>
      <OUTCOME>DenvCyclone</OUTCOME>
      <OUTCOME>E_NE</OUTCOME>
      <OUTCOME>LV</OUTCOME>
      <OUTCOME>LongAnticyc</OUTCOME>
      <OUTCOME>SEQuad</OUTCOME>
      <OUTCOME>WidespdDnsl</OUTCOME>
      <PROPERTY>weight = None</PROPERTY>
    </VARIABLE>
    <VARIABLE TYPE="nature">
      <NAME>WndHodograph</NAME>
      <OUTCOME>DCVZFavor</OUTCOME>
      <OUTCOME>Other</OUTCOME>
      <OUTCOME>StrongWest</OUTCOME>
      <OUTCOME>Westerly</OUTCOME>
      <PROPERTY>weight = None</PROPERTY>
    </VARIABLE>
    <DEFINITION>
      <FOR>AMCINInScen</FOR>
      <GIVEN>CurPropConv</GIVEN>
      <GIVEN>LatestCIN</GIVEN>
      <GIVEN>MorningBound</GIVEN>
      <GIVEN>TempDis</GIVEN>
      <TABLE>0.38074334211296457 0.2385133157740708 0.38074334211296457 0.4239880619287446 0.4239880619287446 0.1520238761425107 0.6388683886838868 0.16063960639606395 0.2004920049200492 0.38221980807532135 0.2355603838493572 0.38221980807532135 0.33749518304431597 0.4248940269749519 0.23761078998073218 0.48189721580279515 0.30362055683944095 0.21448222735776382 0.20242424242424237 0.39878787878787875 0.39878787878787875 0.5532926001357773 0.44331296673455534 0.0033944331296673455 0.009980039920159679 0.9800399201596806 0.009980039920159679 0.49746707193515705 0.33333333333333337 0.1691995947315096 0.2504794783275796 0.49904104334484084 0.2504794783275796 0.1830829159710629 0.4535336672231497 0.36338341680578745 0.028248587570621472 0.9435028248587572 0.028248587570621472 0.3333333333333333 0.3333333333333333 0.3333333333333333 0.02824858757062147 0.02824858757062147 0.943502824858757 0.4926253687315634 0.014749262536873156 0.4926253687315634 0.028248587570621472 0.9435028248587572 0.028248587570621472 0.9435028248587572 0.028248587570621472 0.028248587570621472 0.24034440344403443 0.3997539975399754 0.35990159901599017 0.35477466746079017 0.3869366686519754 0.2582886638872345 0.4994085639933759 0.30778329784717295 0.19280813815945114 0.4128833534217222 0.39118789339761617 0.19592875318066155 0.4017291701084862 0.4195715623107 0.17869926758081392 0.5196549599507085 0.2002464571780653 0.2800985828712261 0.2509534706331045 0.498093058733791 0.2509534706331045 0.41133983387504514 0.29433008306247743 0.29433008306247743 0.4535336672231497 0.4535336672231497 0.09293266555370061 0.41133983387504514 0.3528349584687613 0.23582520765619355 0.5939424197037776 0.35130637377267426 0.054751206523548014 0.3333333333333333 0.20881373302587752 0.45785293364078916 0.4926253687315634 0.4926253687315634 0.014749262536873156 0.6616008105369808 0.16919959473150964 0.16919959473150964 0.02824858757062147 0.02824858757062147 0.943502824858757 0.009980039920159679 0.9800399201596806 0.009980039920159679 0.4962292609351433 0.4962292609351433 0.007541478129713423 0.5951515151515152 0.2024242424242424 0.2024242424242424 0.30030581039755355 0.30030581039755355 0.39938837920489295 0.5868544600938967 0.29433008306247743 0.11881545684362588 0.44387581030365064 0.22279085636301604 0.3333333333333333 0.38074334211296457 0.38074334211296457 0.2385133157740708 0.3389741982659563 0.49127755144677737 0.16974825028726626 0.3997539975399754 0.4794587945879459 0.12078720787207874 0.028248587570621472 0.9435028248587572 0.028248587570621472 0.00998003992015968 0.3333333333333333 0.656686626746507 0.02824858757062147 0.02824858757062147 0.943502824858757 0.7405731523378583 0.007541478129713423 0.25188536953242835 0.5951515151515152 0.3987878787878788 0.006060606060606061 0.014749262536873156 0.4926253687315634 0.4926253687315634 0.3333333333333333 0.3333333333333333 0.3333333333333333 0.3333333333333333 0.3333333333333333 0.3333333333333333 0.3333333333333333 0.3333333333333333 0.3333333333333333 0.3333333333333333 0.3333333333333333 0.3333333333333333 0.3333333333333333 0.3333333333333333 0.3333333333333333 0.3333333333333333 0.3333333333333333 0.3333333333333333 </TABLE>
    </DEFINITION>
    <DEFINITION>
      <FOR>AMDewptCalPl</FOR>
      <GIVEN>CurPropConv</GIVEN>
      <GIVEN>LatestCIN</GIVEN>
      <GIVEN>MorningBound</GIVEN>
      <GIVEN>TempDis</GIVEN>
      <TABLE>0.19110330699443956 0.2385133157740708 0.5703833772314896 0.1520238761425107 0.242678604737922 0.6052975191195672 0.12078720787207874 0.35990159901599017 0.5193111931119311 0.4115516929205142 0.17689661415897154 0.4115516929205142 0.23761078998073218 0.23761078998073218 0.5247784200385357 0.3571035545284472 0.30362055683944095 0.3392758886321118 0.006060606060606061 0.006060606060606061 0.9878787878787878 0.11337406653088934 0.22335369993211138 0.6632722335369994 0.3333333333333333 0.00998003992015968 0.656686626746507 0.6616008105369808 0.005065856129685917 0.3333333333333334 0.43690065209052553 0.1883390870732643 0.3747602608362102 0.1830829159710629 0.2732331663884252 0.5436839176405119 0.9435028248587572 0.028248587570621472 0.028248587570621472 0.3333333333333333 0.3333333333333333 0.3333333333333333 0.028248587570621472 0.9435028248587572 0.028248587570621472 0.014749262536873156 0.014749262536873156 0.9705014749262537 0.02824858757062147 0.02824858757062147 0.943502824858757 0.9435028248587572 0.028248587570621472 0.028248587570621472 0.35990159901599017 0.12078720787207874 0.5193111931119311 0.32261266626960494 0.193964661504864 0.4834226722255311 0.26945824461793233 0.30778329784717295 0.4227584575348947 0.4128833534217222 0.15253783313244942 0.43457881344582827 0.2768324246929897 0.25006883638966904 0.4730987389173413 0.33998767714109673 0.32002464571780653 0.33998767714109673 0.12738367658276126 0.2509534706331045 0.6216628527841342 0.23582520765619355 0.11881545684362588 0.6453593355001805 0.2732331663884252 0.4535336672231497 0.2732331663884252 0.3528349584687613 0.17732033224990973 0.469844709281329 0.3243468131136628 0.3243468131136628 0.35130637377267426 0.41634640020497055 0.20881373302587752 0.37483986676915193 0.014749262536873156 0.014749262536873156 0.9705014749262537 0.16919959473150964 0.16919959473150964 0.6616008105369808 0.02824858757062147 0.02824858757062147 0.943502824858757 0.3333333333333333 0.00998003992015968 0.656686626746507 0.007541478129713423 0.25188536953242835 0.7405731523378583 0.20242424242424237 0.39878787878787875 0.39878787878787875 0.39938837920489295 0.0030581039755351682 0.5975535168195719 0.29433008306247743 0.23582520765619355 0.469844709281329 0.388604571818492 0.2780620948481747 0.3333333333333333 0.38074334211296457 0.19110330699443956 0.4281533508925959 0.3051290086702183 0.3220516034680873 0.37281938786169433 0.28019680196801966 0.28019680196801966 0.4396063960639606 0.9435028248587572 0.028248587570621472 0.028248587570621472 0.00998003992015968 0.3333333333333333 0.656686626746507 0.9435028248587572 0.028248587570621472 0.028248587570621472 0.25188536953242835 0.25188536953242835 0.4962292609351433 0.39878787878787875 0.20242424242424237 0.39878787878787875 0.9705014749262536 0.014749262536873153 0.014749262536873153 0.3333333333333333 0.3333333333333333 0.3333333333333333 0.3333333333333333 0.3333333333333333 0.3333333333333333 0.3333333333333333 0.3333333333333333 0.3333333333333333 0.3333333333333333 0.3333333333333333 0.3333333333333333 0.3333333333333333 0.3333333333333333 0.3333333333333333 0.3333333333333333 0.3333333333333333 0.3333333333333333 </TABLE>
    </DEFINITION>
    <DEFINITION>
      <FOR>AMInsWliScen</FOR>
      <GIVEN>CurPropConv</GIVEN>
      <GIVEN>LatestCIN</GIVEN>
      <GIVEN>MorningBound</GIVEN>
      <GIVEN>TempDis</GIVEN>
      <TABLE>0.28592332455370206 0.5229733684518584 0.19110330699443956 0.2728968476030591 0.3333333333333333 0.3937698190636075 0.3997539975399754 0.3997539975399754 0.2004920049200492 0.3528879232301285 0.3528879232301285 0.29422415353974285 0.3749518304431599 0.4248940269749519 0.20015414258188824 0.21448222735776382 0.3749312204247826 0.4105865522174535 0.3987878787878788 0.3987878787878788 0.2024242424242424 0.22335369993211138 0.44331296673455534 0.33333333333333337 0.3333333333333333 0.3333333333333333 0.3333333333333333 0.005065856129685917 0.6616008105369808 0.3333333333333334 0.2504794783275796 0.49904104334484084 0.2504794783275796 0.2732331663884252 0.4535336672231497 0.2732331663884252 0.9435028248587572 0.028248587570621472 0.028248587570621472 0.3333333333333333 0.3333333333333333 0.3333333333333333 0.9435028248587572 0.028248587570621472 0.028248587570621472 0.014749262536873156 0.4926253687315634 0.4926253687315634 0.02824858757062147 0.02824858757062147 0.943502824858757 0.02824858757062147 0.02824858757062147 0.943502824858757 0.3997539975399754 0.2004920049200492 0.3997539975399754 0.2904506650784197 0.3869366686519754 0.32261266626960494 0.15448308493021054 0.5377336172226165 0.30778329784717295 0.3044060533011919 0.2827105932770858 0.4128833534217222 0.3749655818051655 0.30359601299631034 0.3214384051985241 0.2601355514479359 0.2800985828712261 0.45976586568083794 0.498093058733791 0.3745232646834478 0.12738367658276126 0.3528349584687613 0.41133983387504514 0.23582520765619355 0.36338341680578745 0.2732331663884252 0.36338341680578745 0.3528349584687613 0.11881545684362588 0.5283495846876128 0.3243468131136628 0.45914461640872023 0.21650857047761687 0.41634640020497055 0.25032026646169614 0.3333333333333333 0.4926253687315634 0.4926253687315634 0.014749262536873156 0.49746707193515705 0.33333333333333337 0.1691995947315096 0.9435028248587572 0.028248587570621472 0.028248587570621472 0.6566866267465069 0.33333333333333326 0.009980039920159679 0.25188536953242835 0.7405731523378583 0.007541478129713423 0.39878787878787875 0.006060606060606059 0.5951515151515151 0.30030581039755355 0.4984709480122324 0.2012232415902141 0.23582520765619355 0.469844709281329 0.29433008306247743 0.388604571818492 0.5544182872739679 0.05697714090754009 0.09628328943517707 0.4281533508925959 0.4755633596722271 0.2882064138723493 0.42358717225530135 0.2882064138723493 0.35990159901599017 0.3997539975399754 0.24034440344403443 0.028248587570621472 0.9435028248587572 0.028248587570621472 0.33333333333333326 0.6566866267465069 0.009980039920159679 0.028248587570621472 0.9435028248587572 0.028248587570621472 0.007541478129713423 0.25188536953242835 0.7405731523378583 0.20242424242424237 0.39878787878787875 0.39878787878787875 0.4926253687315634 0.4926253687315634 0.014749262536873156 0.3333333333333333 0.3333333333333333 0.3333333333333333 0.3333333333333333 0.3333333333333333 0.3333333333333333 0.3333333333333333 0.3333333333333333 0.3333333333333333 0.3333333333333333 0.3333333333333333 0.3333333333333333 0.3333333333333333 0.3333333333333333 0.3333333333333333 0.3333333333333333 0.3333333333333333 0.3333333333333333 </TABLE>
    </DEFINITION>
    <DEFINITION>
      <FOR>AMInstabMt</FOR>
      <GIVEN>CurPropConv</GIVEN>
      <GIVEN>LatestCIN</GIVEN>
      <GIVEN>MorningBound</GIVEN>
      <GIVEN>TempDis</GIVEN>
      <TABLE>0.690947666195191 0.3090523338048091 0.6149751596877218 0.3850248403122782 0.44472876151484136 0.5552712384851587 0.33406496927129065 0.6659350307287094 0.531852143138026 0.468147856861974 0.5404393409885172 0.4595606590114828 0.5 0.5 0.7945454545454544 0.20545454545454542 0.5 0.5 0.5981818181818181 0.4018181818181818 0.690947666195191 0.3090523338048091 0.5990825688073395 0.40091743119266054 0.5 0.5 0.5 0.5 0.5 0.5 0.5 0.5 0.9576271186440678 0.0423728813559322 0.5 0.5 0.36905916585838994 0.6309408341416101 0.5830130668716372 0.41698693312836277 0.38945752302968273 0.6105424769703173 0.5160810005955926 0.48391899940440736 0.4267570900123305 0.5732429099876696 0.5482430017867779 0.4517569982132221 0.4295039164490861 0.5704960835509139 0.5 0.5 0.6235697940503432 0.3764302059496567 0.5993865030674846 0.4006134969325154 0.4003690036900369 0.5996309963099631 0.5993865030674846 0.4006134969325154 0.5 0.5 0.4018181818181818 0.5981818181818181 0.5 0.5 0.5 0.5 0.3383233532934132 0.6616766467065869 0.011312217194570132 0.9886877828054298 0.664969450101833 0.335030549898167 0.7253756260434057 0.27462437395659434 0.5450751252086812 0.4549248747913189 0.4173047473200613 0.5826952526799387 0.436049265750829 0.563950734249171 0.4290407358738503 0.5709592641261498 0.5 0.5 0.5 0.5 0.9576271186440678 0.0423728813559322 0.9850299401197605 0.014970059880239521 0.6616766467065869 0.3383233532934132 0.9576271186440678 0.0423728813559322 0.5 0.5 0.5 0.5 0.5 0.5 0.5 0.5 0.5 0.5 0.5 0.5 </TABLE>
    </DEFINITION>
    <DEFINITION>
      <FOR>AreaMeso_ALS</FOR>
      <GIVEN>CurPropConv</GIVEN>
      <GIVEN>LatestCIN</GIVEN>
      <GIVEN>MorningBound</GIVEN>
      <GIVEN>TempDis</GIVEN>
      <TABLE>0.2855575065847234 0.47519754170324846 0.04850746268656716 0.1907374890254609 0.1215724678231673 0.3935366536094012 0.27266368214885284 0.2122271964185786 0.12047970479704796 0.5588560885608855 0.12047970479704796 0.20018450184501843 0.2939978272677892 0.41132536664856056 0.14733840304182508 0.14733840304182508 0.22502890173410406 0.4372832369942196 0.12514450867052024 0.21254335260115606 0.14303400462198745 0.4817596566523605 0.08955100693298117 0.28565533179267083 0.39727272727272733 0.2009090909090909 0.39727272727272733 0.004545454545454545 0.11252545824847252 0.5524439918533606 0.0025458248472505093 0.33248472505091653 0.007485029940119758 0.654191616766467 0.007485029940119758 0.33083832335329333 0.3320668693009119 0.4962006079027356 0.16793313069908813 0.0037993920972644373 0.1257192174913694 0.3742807825086306 0.06357882623705409 0.4364211737629459 0.3626878130217028 0.4528380634390651 0.09223706176961602 0.09223706176961602 0.0211864406779661 0.0211864406779661 0.0211864406779661 0.9364406779661018 0.25 0.25 0.25 0.25 0.9364406779661018 0.0211864406779661 0.0211864406779661 0.0211864406779661 0.011061946902654864 0.48893805309734506 0.48893805309734506 0.011061946902654864 0.0211864406779661 0.0211864406779661 0.9364406779661018 0.0211864406779661 0.0211864406779661 0.9364406779661018 0.0211864406779661 0.0211864406779661 0.08062730627306273 0.4791512915129151 0.24003690036900366 0.20018450184501843 0.12939249553305537 0.5153365098272781 0.12939249553305537 0.22587849910661106 0.11586231369765791 0.6140880056777857 0.07753726046841732 0.1925124201561391 0.10897950984331055 0.49949779027721974 0.10897950984331055 0.2825431900361591 0.13402445068561047 0.4462663142243516 0.11618205848339667 0.30352717660664136 0.12024029574861367 0.47957486136783734 0.060351201478743066 0.33983364140480593 0.0028604118993135015 0.6207093821510298 0.0028604118993135015 0.3735697940503433 0.23537378114842902 0.35238353196099675 0.05985915492957747 0.35238353196099675 0.18238731218697826 0.7232888146911518 0.092237061769616 0.0020868113522537557 0.0013542795232936076 0.5278981581798483 0.17686890574214517 0.29387865655471285 0.24326010983524712 0.405017473789316 0.18934098851722414 0.16238142785821266 0.04246733282090699 0.5405457340507301 0.12548039969254418 0.29150653343581856 0.011061946902654867 0.4889380530973451 0.011061946902654867 0.4889380530973451 0.16793313069908813 0.16793313069908813 0.16793313069908813 0.4962006079027355 0.0211864406779661 0.0211864406779661 0.0211864406779661 0.9364406779661018 0.007485029940119759 0.6541916167664671 0.3308383233532934 0.007485029940119759 0.005656108597285068 0.7386877828054299 0.25 0.005656108597285068 0.004545454545454544 0.3972727272727272 0.20090909090909087 0.3972727272727272 0.20045871559633033 0.49770642201834864 0.0022935779816513763 0.2995412844036698 0.11836403033586133 0.4108884073672806 0.1768689057421452 0.2938786565547129 0.22236438075742063 0.5539918116683725 0.05655066530194472 0.16709314227226202 0.2855575065847234 0.47519754170324846 0.04850746268656716 0.1907374890254609 0.16961767471012223 0.47422438107176434 0.08500470072077718 0.27115324349733627 0.2798892988929889 0.3994464944649446 0.08062730627306273 0.24003690036900366 0.0211864406779661 0.9364406779661018 0.0211864406779661 0.0211864406779661 0.33083832335329344 0.0074850299401197605 0.0074850299401197605 0.6541916167664671 0.9364406779661018 0.0211864406779661 0.0211864406779661 0.0211864406779661 0.005656108597285068 0.25 0.494343891402715 0.25 0.004545454545454544 0.5936363636363636 0.004545454545454544 0.3972727272727272 0.011061946902654867 0.4889380530973451 0.011061946902654867 0.4889380530973451 0.25 0.25 0.25 0.25 0.25 0.25 0.25 0.25 0.25 0.25 0.25 0.25 0.25 0.25 0.25 0.25 0.25 0.25 0.25 0.25 0.25 0.25 0.25 0.25 </TABLE>
    </DEFINITION>
    <DEFINITION>
      <FOR>AreaMoDryAir</FOR>
      <GIVEN>CurPropConv</GIVEN>
      <GIVEN>LatestCIN</GIVEN>
      <GIVEN>MorningBound</GIVEN>
      <GIVEN>TempDis</GIVEN>
      <TABLE>0.23814749780509215 0.4277875329236172 0.0010974539069359085 0.33296751536435465 0.1215724678231673 0.24244543928371573 0.24244543928371573 0.3935366536094012 0.12047970479704796 0.3595940959409594 0.12047970479704796 0.3994464944649446 0.20600217273221072 0.2939978272677892 0.14733840304182508 0.3526615969581749 0.15011560693641618 0.33739884393063585 0.18757225433526012 0.3249132947976879 0.14303400462198745 0.35696599537801255 0.3034829976890063 0.19651700231099373 0.39727272727272733 0.5936363636363636 0.004545454545454545 0.004545454545454545 0.22250509164969454 0.5524439918533606 0.0025458248472505093 0.22250509164969454 0.007485029940119758 0.9775449101796405 0.007485029940119758 0.007485029940119758 0.16793313069908813 0.33206686930091184 0.16793313069908813 0.33206686930091184 0.25 0.18785960874568472 0.25 0.3121403912543153 0.18238731218697835 0.36268781302170283 0.45283806343906513 0.002086811352253756 0.0211864406779661 0.0211864406779661 0.0211864406779661 0.9364406779661018 0.25 0.25 0.25 0.25 0.0211864406779661 0.9364406779661018 0.0211864406779661 0.0211864406779661 0.011061946902654862 0.9668141592920351 0.011061946902654862 0.011061946902654862 0.0211864406779661 0.0211864406779661 0.9364406779661018 0.0211864406779661 0.0211864406779661 0.0211864406779661 0.0211864406779661 0.9364406779661018 0.12047970479704796 0.3595940959409594 0.31974169741697417 0.20018450184501843 0.1615544967242406 0.4510125074449077 0.22587849910661106 0.1615544967242406 0.07753726046841732 0.3841376863023421 0.11586231369765791 0.42246273953158264 0.19576134993973485 0.39102049015668944 0.08728404981920448 0.32593411008437123 0.16078803898893113 0.32136956880885514 0.21431521559557248 0.30352717660664136 0.10027726432532347 0.33983364140480593 0.14020332717190387 0.41968576709796673 0.37356979405034324 0.37356979405034324 0.0028604118993135006 0.25 0.23537378114842902 0.11836403033586133 0.35238353196099675 0.2938786565547129 0.18238731218697835 0.2725375626043406 0.18238731218697835 0.36268781302170283 0.059859154929577454 0.5278981581798483 0.17686890574214517 0.235373781148429 0.21630054917623565 0.35109835247129306 0.21630054917623565 0.21630054917623565 0.1254803996925442 0.25 0.25 0.37451960030745585 0.48893805309734506 0.48893805309734506 0.011061946902654864 0.011061946902654864 0.16793313069908813 0.16793313069908813 0.33206686930091184 0.33206686930091184 0.0211864406779661 0.0211864406779661 0.9364406779661018 0.0211864406779661 0.007485029940119758 0.654191616766467 0.007485029940119758 0.33083832335329333 0.25 0.25 0.25 0.25 0.004545454545454545 0.39727272727272733 0.39727272727272733 0.2009090909090909 0.10137614678899083 0.2995412844036698 0.10137614678899083 0.49770642201834864 0.11836403033586133 0.4108884073672806 0.1768689057421452 0.2938786565547129 0.11182190378710337 0.4987205731832139 0.22236438075742063 0.16709314227226202 0.1433274802458297 0.3329675153643547 0.23814749780509217 0.28555750658472345 0.22038545910372925 0.3896114070824193 0.11884989031651519 0.27115324349733627 0.20018450184501846 0.2798892988929889 0.20018450184501846 0.3197416974169742 0.0211864406779661 0.0211864406779661 0.0211864406779661 0.9364406779661018 0.007485029940119759 0.6541916167664671 0.3308383233532934 0.007485029940119759 0.0211864406779661 0.9364406779661018 0.0211864406779661 0.0211864406779661 0.005656108597285068 0.494343891402715 0.494343891402715 0.005656108597285068 0.004545454545454545 0.5936363636363636 0.39727272727272733 0.004545454545454545 0.011061946902654862 0.9668141592920351 0.011061946902654862 0.011061946902654862 0.25 0.25 0.25 0.25 0.25 0.25 0.25 0.25 0.25 0.25 0.25 0.25 0.25 0.25 0.25 0.25 0.25 0.25 0.25 0.25 0.25 0.25 0.25 0.25 </TABLE>
    </DEFINITION>
    <DEFINITION>
      <FOR>Boundaries</FOR>
      <GIVEN>CurPropConv</GIVEN>
      <GIVEN>LatestCIN</GIVEN>
      <GIVEN>MorningBound</GIVEN>
      <GIVEN>TempDis</GIVEN>
      <TABLE>0.6493087557603686 0.3506912442396314 0.7181188690132717 0.2818811309867282 0.6810561609388097 0.3189438390611903 0.4335384615384615 0.5664615384615385 0.42263610315186245 0.5773638968481375 0.400184842883549 0.5998151571164511 0.9909090909090909 0.009090909090909089 0.7471395881006865 0.25286041189931346 0.6616766467065869 0.3383233532934132 0.5 0.5 0.6653905053598775 0.3346094946401226 0.4549248747913189 0.5450751252086812 0.0423728813559322 0.9576271186440678 0.5 0.5 0.9576271186440678 0.0423728813559322 0.5 0.5 0.0423728813559322 0.9576271186440678 0.9576271186440678 0.0423728813559322 0.6394833948339483 0.3605166051660516 0.6546785486950987 0.3453214513049013 0.7381716118684843 0.2618283881315156 0.3424890617403986 0.6575109382596014 0.33688880498395324 0.6631111950160469 0.3099428068631764 0.6900571931368236 0.5 0.5 0.5292524377031419 0.47074756229685805 0.40091743119266054 0.5990825688073395 0.7319018404907975 0.2680981595092025 0.5623196768609348 0.43768032313906513 0.3009216589861752 0.6990783410138249 0.9576271186440678 0.0423728813559322 0.6641337386018237 0.33586626139817627 0.9576271186440678 0.0423728813559322 0.9850299401197605 0.014970059880239521 0.25565610859728505 0.744343891402715 0.011312217194570132 0.9886877828054298 0.884928716904277 0.11507128309572302 0.5292524377031419 0.47074756229685805 0.6462621885157096 0.3537378114842904 0.2511520737327189 0.7488479262672811 0.3698272398553636 0.6301727601446364 0.33406496927129065 0.6659350307287094 0.9576271186440678 0.0423728813559322 0.3383233532934132 0.6616766467065869 0.9576271186440678 0.0423728813559322 0.3383233532934132 0.6616766467065869 0.5 0.5 0.5 0.5 0.5 0.5 0.5 0.5 0.5 0.5 0.5 0.5 0.5 0.5 0.5 0.5 </TABLE>
    </DEFINITION>
    <DEFINITION>
      <FOR>CapChange</FOR>
      <GIVEN>CurPropConv</GIVEN>
      <GIVEN>LatestCIN</GIVEN>
      <GIVEN>MorningBound</GIVEN>
      <GIVEN>TempDis</GIVEN>
      <TABLE>0.2385133157740708 0.28592332455370206 0.4755633596722271 0.3937698190636075 0.3031150904681962 0.3031150904681962 0.5193111931119311 0.3200492004920049 0.16063960639606395 0.3528879232301285 0.3528879232301285 0.29422415353974285 0.30003853564547206 0.3999229287090559 0.30003853564547206 0.3392758886321118 0.2501375591504347 0.4105865522174535 0.2024242424242424 0.2024242424242424 0.5951515151515152 0.0033944331296673455 0.8832315003394434 0.11337406653088934 0.33333333333333326 0.6566866267465069 0.009980039920159679 0.3333333333333334 0.6616008105369808 0.005065856129685917 0.126198695818949 0.3126198695818949 0.5611814345991561 0.2732331663884252 0.2732331663884252 0.4535336672231497 0.9435028248587572 0.028248587570621472 0.028248587570621472 0.3333333333333333 0.3333333333333333 0.3333333333333333 0.028248587570621472 0.9435028248587572 0.028248587570621472 0.4926253687315634 0.014749262536873156 0.4926253687315634 0.9435028248587572 0.028248587570621472 0.028248587570621472 0.028248587570621472 0.9435028248587572 0.028248587570621472 0.16063960639606395 0.5193111931119311 0.3200492004920049 0.2582886638872345 0.3869366686519754 0.35477466746079017 0.30778329784717295 0.4227584575348947 0.26945824461793233 0.21762421320476763 0.39118789339761617 0.39118789339761617 0.26791122859188277 0.3928079740073792 0.3392807974007379 0.1603203943314849 0.33998767714109673 0.49969192852741834 0.2509534706331045 0.12738367658276126 0.6216628527841342 0.29433008306247743 0.23582520765619355 0.469844709281329 0.2732331663884252 0.2732331663884252 0.4535336672231497 0.23582520765619355 0.469844709281329 0.29433008306247743 0.24346813113662835 0.37826593443168577 0.37826593443168577 0.3333333333333333 0.29182679989751475 0.37483986676915193 0.014749262536873156 0.4926253687315634 0.4926253687315634 0.16919959473150958 0.497467071935157 0.3333333333333333 0.028248587570621472 0.9435028248587572 0.028248587570621472 0.6566866267465069 0.33333333333333326 0.009980039920159679 0.25188536953242835 0.007541478129713423 0.7405731523378583 0.39878787878787875 0.20242424242424237 0.39878787878787875 0.10214067278287461 0.4984709480122324 0.39938837920489295 0.17732033224990973 0.469844709281329 0.3528349584687613 0.22279085636301604 0.3333333333333333 0.44387581030365064 0.2385133157740708 0.38074334211296457 0.38074334211296457 0.3051290086702183 0.3051290086702183 0.38974198265956334 0.3200492004920049 0.3200492004920049 0.35990159901599017 0.028248587570621472 0.9435028248587572 0.028248587570621472 0.00998003992015968 0.3333333333333333 0.656686626746507 0.028248587570621472 0.9435028248587572 0.028248587570621472 0.007541478129713422 0.4962292609351432 0.4962292609351432 0.39878787878787875 0.006060606060606059 0.5951515151515151 0.014749262536873156 0.014749262536873156 0.9705014749262537 0.3333333333333333 0.3333333333333333 0.3333333333333333 0.3333333333333333 0.3333333333333333 0.3333333333333333 0.3333333333333333 0.3333333333333333 0.3333333333333333 0.3333333333333333 0.3333333333333333 0.3333333333333333 0.3333333333333333 0.3333333333333333 0.3333333333333333 0.3333333333333333 0.3333333333333333 0.3333333333333333 </TABLE>
    </DEFINITION>
    <DEFINITION>
      <FOR>CapInScen</FOR>
      <GIVEN>CurPropConv</GIVEN>
      <GIVEN>LatestCIN</GIVEN>
      <GIVEN>MorningBound</GIVEN>
      <GIVEN>TempDis</GIVEN>
      <TABLE>0.2385133157740708 0.3333333333333333 0.4281533508925959 0.242678604737922 0.5146427905241558 0.242678604737922 0.35990159901599017 0.3200492004920049 0.3200492004920049 0.2355603838493572 0.3235560383849357 0.440883577765707 0.22512524084778418 0.4248940269749519 0.34998073217726394 0.3214482227357764 0.3749312204247826 0.30362055683944095 0.39878787878787875 0.20242424242424237 0.39878787878787875 0.33333333333333337 0.22335369993211138 0.44331296673455534 0.009980039920159679 0.9800399201596806 0.009980039920159679 0.16919959473150964 0.16919959473150964 0.6616008105369808 0.1883390870732643 0.43690065209052553 0.3747602608362102 0.1830829159710629 0.5436839176405119 0.2732331663884252 0.028248587570621472 0.9435028248587572 0.028248587570621472 0.3333333333333333 0.3333333333333333 0.3333333333333333 0.02824858757062147 0.02824858757062147 0.943502824858757 0.9705014749262536 0.014749262536873153 0.014749262536873153 0.028248587570621472 0.9435028248587572 0.028248587570621472 0.02824858757062147 0.02824858757062147 0.943502824858757 0.3200492004920049 0.35990159901599017 0.3200492004920049 0.22612666269604922 0.3869366686519754 0.3869366686519754 0.30778329784717295 0.3461083510764135 0.3461083510764135 0.21762421320476763 0.43457881344582827 0.347796973349404 0.18762046368192078 0.43741395451291365 0.3749655818051655 0.37991373998767713 0.2601355514479359 0.35995070856438693 0.2509534706331045 0.6216628527841342 0.12738367658276126 0.469844709281329 0.29433008306247743 0.23582520765619355 0.6338341680578743 0.2732331663884252 0.09293266555370061 0.29433008306247743 0.5283495846876128 0.17732033224990973 0.35130637377267426 0.37826593443168577 0.27042769179563986 0.16730719959005894 0.41634640020497055 0.41634640020497055 0.014749262536873156 0.4926253687315634 0.4926253687315634 0.16919959473150964 0.16919959473150964 0.6616008105369808 0.02824858757062147 0.02824858757062147 0.943502824858757 0.00998003992015968 0.656686626746507 0.3333333333333333 0.25188536953242835 0.7405731523378583 0.007541478129713423 0.5951515151515151 0.006060606060606059 0.39878787878787875 0.2012232415902141 0.30030581039755355 0.4984709480122324 0.7038642109064644 0.11881545684362588 0.17732033224990973 0.22279085636301604 0.2780620948481747 0.4991470487888093 0.38074334211296457 0.2385133157740708 0.38074334211296457 0.23743862947874228 0.5420453358403844 0.22051603468087327 0.24034440344403443 0.5193111931119311 0.24034440344403443 0.02824858757062147 0.02824858757062147 0.943502824858757 0.3333333333333333 0.00998003992015968 0.656686626746507 0.02824858757062147 0.02824858757062147 0.943502824858757 0.4962292609351432 0.007541478129713422 0.4962292609351432 0.5951515151515152 0.3987878787878788 0.006060606060606061 0.014749262536873156 0.4926253687315634 0.4926253687315634 0.3333333333333333 0.3333333333333333 0.3333333333333333 0.3333333333333333 0.3333333333333333 0.3333333333333333 0.3333333333333333 0.3333333333333333 0.3333333333333333 0.3333333333333333 0.3333333333333333 0.3333333333333333 0.3333333333333333 0.3333333333333333 0.3333333333333333 0.3333333333333333 0.3333333333333333 0.3333333333333333 </TABLE>
    </DEFINITION>
    <DEFINITION>
      <FOR>CldShadeConv</FOR>
      <GIVEN>CurPropConv</GIVEN>
      <GIVEN>LatestCIN</GIVEN>
      <GIVEN>MorningBound</GIVEN>
      <GIVEN>TempDis</GIVEN>
      <TABLE>0.31357882623705413 0.686421173762946 0.3166828322017459 0.6833171677982541 0.5381895332390382 0.4618104667609618 0.526188166828322 0.47381183317167797 0.5348087666523421 0.46519123334765794 0.5712401055408971 0.42875989445910284 0.6616766467065869 0.3383233532934132 0.5 0.5 0.0423728813559322 0.9576271186440678 0.6616766467065869 0.3383233532934132 0.5 0.5 0.664969450101833 0.335030549898167 0.5 0.5 0.5 0.5 0.5 0.5 0.0423728813559322 0.9576271186440678 0.9576271186440678 0.0423728813559322 0.0423728813559322 0.9576271186440678 0.5552712384851587 0.44472876151484136 0.4502304147465438 0.5497695852534562 0.5237050043898156 0.47629499561018435 0.5184552289815447 0.4815447710184552 0.5131418836699927 0.4868581163300073 0.44463431305536566 0.5553656869446343 0.7114882506527415 0.28851174934725843 0.4290407358738503 0.5709592641261498 0.33586626139817627 0.6641337386018237 0.6242807825086306 0.37571921749136944 0.5383250532292406 0.4616749467707594 0.4006134969325154 0.5993865030674846 0.5 0.5 0.022123893805309734 0.9778761061946902 0.5 0.5 0.9778761061946902 0.022123893805309734 0.6616766467065869 0.3383233532934132 0.6616766467065869 0.3383233532934132 0.3764302059496567 0.6235697940503432 0.5826952526799387 0.4173047473200613 0.4549248747913189 0.5450751252086812 0.35808147174770044 0.6419185282522997 0.36146741918932784 0.6385325808106721 0.33435582822085896 0.6656441717791411 0.5 0.5 0.5 0.5 0.0423728813559322 0.9576271186440678 0.5 0.5 0.6616766467065869 0.3383233532934132 0.9778761061946902 0.022123893805309734 0.5 0.5 0.5 0.5 0.5 0.5 0.5 0.5 0.5 0.5 0.5 0.5 </TABLE>
    </DEFINITION>
    <DEFINITION>
      <FOR>CldShadeOth</FOR>
      <GIVEN>CurPropConv</GIVEN>
      <GIVEN>LatestCIN</GIVEN>
      <GIVEN>MorningBound</GIVEN>
      <GIVEN>TempDis</GIVEN>
      <TABLE>0.4755633596722271 0.09628328943517707 0.4281533508925959 0.4542063047938817 0.1520238761425107 0.3937698190636075 0.4396063960639606 0.12078720787207874 0.4396063960639606 0.3235560383849357 0.2355603838493572 0.440883577765707 0.5122928709055877 0.15021194605009633 0.33749518304431597 0.4284142181137889 0.14317156377242213 0.4284142181137889 0.7915151515151516 0.20242424242424245 0.0060606060606060615 0.6632722335369994 0.33333333333333337 0.0033944331296673455 0.00998003992015968 0.3333333333333333 0.656686626746507 0.497467071935157 0.16919959473150958 0.3333333333333333 0.43690065209052553 0.3126198695818949 0.2504794783275796 0.36338341680578745 0.09293266555370061 0.5436839176405119 0.02824858757062147 0.02824858757062147 0.943502824858757 0.3333333333333333 0.3333333333333333 0.3333333333333333 0.9435028248587572 0.028248587570621472 0.028248587570621472 0.4926253687315634 0.014749262536873156 0.4926253687315634 0.9435028248587572 0.028248587570621472 0.028248587570621472 0.02824858757062147 0.02824858757062147 0.943502824858757 0.4396063960639606 0.16063960639606395 0.3997539975399754 0.2904506650784197 0.22612666269604922 0.4834226722255311 0.6527087769103384 0.23113319138869173 0.11615803170096996 0.39118789339761617 0.13084237310834337 0.4779697334940404 0.4195715623106999 0.1608568753786001 0.4195715623106999 0.41983980283425754 0.2002464571780653 0.37991373998767713 0.498093058733791 0.12738367658276126 0.3745232646834478 0.29433008306247743 0.060310581437342 0.6453593355001805 0.36338341680578745 0.2732331663884252 0.36338341680578745 0.3528349584687613 0.29433008306247743 0.3528349584687613 0.5130637377267432 0.21650857047761687 0.27042769179563986 0.37483986676915193 0.37483986676915193 0.25032026646169614 0.9705014749262536 0.014749262536873153 0.014749262536873153 0.16919959473150958 0.3333333333333333 0.497467071935157 0.028248587570621472 0.9435028248587572 0.028248587570621472 0.3333333333333333 0.3333333333333333 0.3333333333333333 0.7405731523378583 0.25188536953242835 0.007541478129713423 0.2024242424242424 0.2024242424242424 0.5951515151515152 0.4984709480122324 0.2012232415902141 0.30030581039755355 0.469844709281329 0.29433008306247743 0.23582520765619355 0.388604571818492 0.1675196178778574 0.44387581030365064 0.14369329821480833 0.28592332455370206 0.5703833772314896 0.47435495664890837 0.23743862947874228 0.2882064138723493 0.4396063960639606 0.16063960639606395 0.3997539975399754 0.028248587570621472 0.9435028248587572 0.028248587570621472 0.3333333333333333 0.00998003992015968 0.656686626746507 0.02824858757062147 0.02824858757062147 0.943502824858757 0.4962292609351433 0.25188536953242835 0.25188536953242835 0.39878787878787875 0.006060606060606059 0.5951515151515151 0.4926253687315634 0.014749262536873156 0.4926253687315634 0.3333333333333333 0.3333333333333333 0.3333333333333333 0.3333333333333333 0.3333333333333333 0.3333333333333333 0.3333333333333333 0.3333333333333333 0.3333333333333333 0.3333333333333333 0.3333333333333333 0.3333333333333333 0.3333333333333333 0.3333333333333333 0.3333333333333333 0.3333333333333333 0.3333333333333333 0.3333333333333333 </TABLE>
    </DEFINITION>
    <DEFINITION>
      <FOR>CombClouds</FOR>
      <GIVEN>CurPropConv</GIVEN>
      <GIVEN>LatestCIN</GIVEN>
      <GIVEN>MorningBound</GIVEN>
      <GIVEN>TempDis</GIVEN>
      <TABLE>0.4281533508925959 0.2385133157740708 0.3333333333333333 0.48442454765901877 0.1218056332773736 0.3937698190636075 0.4396063960639606 0.0809348093480935 0.4794587945879459 0.3528879232301285 0.17689661415897154 0.4702154626108998 0.5497495183044316 0.10026974951830442 0.34998073217726394 0.46406954990645977 0.14317156377242213 0.39275888632111805 0.5951515151515151 0.006060606060606059 0.39878787878787875 0.5532926001357773 0.33333333333333337 0.11337406653088934 0.3333333333333333 0.3333333333333333 0.3333333333333333 0.6616008105369808 0.16919959473150964 0.16919959473150964 0.43690065209052553 0.2504794783275796 0.3126198695818949 0.36338341680578745 0.09293266555370061 0.5436839176405119 0.02824858757062147 0.02824858757062147 0.943502824858757 0.3333333333333333 0.3333333333333333 0.3333333333333333 0.9435028248587572 0.028248587570621472 0.028248587570621472 0.014749262536873156 0.014749262536873156 0.9705014749262537 0.9435028248587572 0.028248587570621472 0.028248587570621472 0.028248587570621472 0.9435028248587572 0.028248587570621472 0.4794587945879459 0.16063960639606395 0.35990159901599017 0.35477466746079017 0.193964661504864 0.45126067103434586 0.5377336172226165 0.23113319138869173 0.23113319138869173 0.39118789339761617 0.08745145306013123 0.5213606535422526 0.5087835233217688 0.10732969877195879 0.38388677790627235 0.35995070856438693 0.2401725200246457 0.39987677141096734 0.3745232646834478 0.12738367658276126 0.498093058733791 0.23582520765619355 0.29433008306247743 0.469844709281329 0.36338341680578745 0.2732331663884252 0.36338341680578745 0.23582520765619355 0.23582520765619355 0.5283495846876128 0.45914461640872023 0.16258944915959392 0.37826593443168577 0.3333333333333333 0.3333333333333333 0.3333333333333333 0.9705014749262536 0.014749262536873153 0.014749262536873153 0.33333333333333337 0.005065856129685917 0.6616008105369807 0.02824858757062147 0.02824858757062147 0.943502824858757 0.3333333333333333 0.00998003992015968 0.656686626746507 0.7405731523378583 0.007541478129713423 0.25188536953242835 0.7915151515151516 0.0060606060606060615 0.20242424242424245 0.5975535168195719 0.10214067278287461 0.30030581039755355 0.5283495846876128 0.11881545684362588 0.3528349584687613 0.388604571818492 0.11224837939269876 0.4991470487888093 0.14369329821480833 0.3333333333333333 0.5229733684518584 0.44050976705317035 0.22051603468087327 0.3389741982659563 0.4794587945879459 0.16063960639606395 0.35990159901599017 0.028248587570621472 0.9435028248587572 0.028248587570621472 0.3333333333333333 0.00998003992015968 0.656686626746507 0.02824858757062147 0.02824858757062147 0.943502824858757 0.7405731523378583 0.25188536953242835 0.007541478129713423 0.39878787878787875 0.006060606060606059 0.5951515151515151 0.4926253687315634 0.014749262536873156 0.4926253687315634 0.3333333333333333 0.3333333333333333 0.3333333333333333 0.3333333333333333 0.3333333333333333 0.3333333333333333 0.3333333333333333 0.3333333333333333 0.3333333333333333 0.3333333333333333 0.3333333333333333 0.3333333333333333 0.3333333333333333 0.3333333333333333 0.3333333333333333 0.3333333333333333 0.3333333333333333 0.3333333333333333 </TABLE>
    </DEFINITION>
    <DEFINITION>
      <FOR>CombMoisture</FOR>
      <GIVEN>CurPropConv</GIVEN>
      <GIVEN>LatestCIN</GIVEN>
      <GIVEN>MorningBound</GIVEN>
      <GIVEN>TempDis</GIVEN>
      <TABLE>0.2855575065847234 0.38037752414398596 0.09591747146619842 0.23814749780509215 0.1215724678231673 0.42375489647453835 0.27266368214885284 0.1820089535534415 0.12047970479704796 0.31974169741697417 0.16033210332103318 0.3994464944649446 0.11800651819663224 0.4406572514937534 0.14733840304182508 0.2939978272677892 0.13763005780346824 0.32491329479768793 0.11265895953757228 0.4247976878612717 0.14303400462198745 0.3391383294816771 0.21434466820732914 0.3034829976890063 0.5936363636363636 0.39727272727272733 0.004545454545454545 0.004545454545454545 0.44246435845213844 0.44246435845213844 0.002545824847250509 0.11252545824847249 0.33083832335329333 0.654191616766467 0.007485029940119758 0.007485029940119758 0.16793313069908813 0.33206686930091184 0.003799392097264437 0.4962006079027355 0.18785960874568472 0.4364211737629459 0.06357882623705409 0.3121403912543153 0.1823873121869783 0.4528380634390651 0.1823873121869783 0.1823873121869783 0.0211864406779661 0.0211864406779661 0.0211864406779661 0.9364406779661018 0.25 0.25 0.25 0.25 0.0211864406779661 0.9364406779661018 0.0211864406779661 0.0211864406779661 0.011061946902654862 0.9668141592920351 0.011061946902654862 0.011061946902654862 0.0211864406779661 0.9364406779661018 0.0211864406779661 0.0211864406779661 0.0211864406779661 0.0211864406779661 0.0211864406779661 0.9364406779661018 0.08062730627306273 0.4392988929889299 0.20018450184501843 0.2798892988929889 0.2580405002977963 0.354526503871352 0.22587849910661106 0.1615544967242406 0.26916252661462026 0.3458126330731015 0.23083747338537966 0.1541873669268985 0.19576134993973485 0.4778023302531137 0.08728404981920448 0.23915226998794697 0.15186684288782423 0.3659755493143895 0.20539401949446556 0.27676358830332065 0.060351201478743066 0.41968576709796673 0.1601663585951941 0.35979667282809613 0.37356979405034324 0.37356979405034324 0.12643020594965673 0.12643020594965673 0.1768689057421452 0.2938786565547129 0.11836403033586133 0.4108884073672806 0.09223706176961603 0.36268781302170283 0.36268781302170283 0.18238731218697835 0.1768689057421452 0.35238353196099675 0.1768689057421452 0.2938786565547129 0.2971792311532701 0.2702196704942586 0.13542186719920118 0.2971792311532701 0.20849346656418138 0.25 0.20849346656418138 0.33301306687163723 0.48893805309734506 0.48893805309734506 0.011061946902654864 0.011061946902654864 0.33206686930091184 0.16793313069908813 0.16793313069908813 0.33206686930091184 0.0211864406779661 0.0211864406779661 0.9364406779661018 0.0211864406779661 0.007485029940119758 0.9775449101796405 0.007485029940119758 0.007485029940119758 0.25 0.25 0.25 0.25 0.2009090909090909 0.39727272727272733 0.39727272727272733 0.004545454545454545 0.20045871559633033 0.20045871559633033 0.20045871559633033 0.3986238532110092 0.11836403033586133 0.4108884073672806 0.05985915492957747 0.4108884073672806 0.11182190378710337 0.4987205731832139 0.05655066530194472 0.3329068577277379 0.14332748024582967 0.38037752414398596 0.1907374890254609 0.2855575065847234 0.23730805390159826 0.3896114070824193 0.10192729551864618 0.27115324349733627 0.16033210332103318 0.3595940959409594 0.20018450184501843 0.2798892988929889 0.0211864406779661 0.0211864406779661 0.0211864406779661 0.9364406779661018 0.0074850299401197605 0.33083832335329344 0.0074850299401197605 0.6541916167664671 0.0211864406779661 0.0211864406779661 0.0211864406779661 0.9364406779661018 0.005656108597285068 0.494343891402715 0.494343891402715 0.005656108597285068 0.004545454545454545 0.5936363636363636 0.2009090909090909 0.2009090909090909 0.48893805309734506 0.48893805309734506 0.011061946902654864 0.011061946902654864 0.25 0.25 0.25 0.25 0.25 0.25 0.25 0.25 0.25 0.25 0.25 0.25 0.25 0.25 0.25 0.25 0.25 0.25 0.25 0.25 0.25 0.25 0.25 0.25 </TABLE>
    </DEFINITION>
    <DEFINITION>
      <FOR>CombVerMo</FOR>
      <GIVEN>AreaMeso_ALS</GIVEN>
      <TABLE>0.9994619027120103 0.00017936576266322285 0.00017936576266322285 0.00017936576266322285 7.060152499293985e-05 0.9997881954250212 7.060152499293985e-05 7.060152499293985e-05 0.0002738225629791895 0.0002738225629791895 0.9991785323110625 0.0002738225629791895 0.00011594471755866803 0.00011594471755866803 0.00011594471755866803 0.999652165847324 </TABLE>
    </DEFINITION>
    <DEFINITION>
      <FOR>CompPlFcst</FOR>
      <GIVEN>CapChange</GIVEN>
      <TABLE>0.9995212103801588 0.0002393948099205209 0.0002393948099205209 0.00013597672078540153 0.9997280465584292 0.00013597672078540153 0.00015437816475237742 0.00015437816475237742 0.9996912436704952 </TABLE>
    </DEFINITION>
    <DEFINITION>
      <FOR>CurPropConv</FOR>
      <GIVEN>LatestCIN</GIVEN>
      <GIVEN>MorningBound</GIVEN>
      <GIVEN>OutflowFrMt</GIVEN>
      <TABLE>0.35476668899307884 0.4271042643447198 0.2181290466622014 0.4087338988375746 0.4652843229657556 0.12598177819666984 0.34734793187347934 0.46997566909975674 0.182676399026764 0.3378293992756338 0.42775071812164356 0.23441988260272262 0.19453207150368035 0.7245005257623554 0.08096740273396424 0.24268177525967893 0.6846081208687441 0.07271010387157696 0.3299116053607072 0.5968063872255489 0.07328200741374395 0.2642884541618719 0.650939777522056 0.08477176831607212 0.3333333333333333 0.3333333333333333 0.3333333333333333 0.025641025641025637 0.9487179487179486 0.025641025641025637 0.23395445134575568 0.7556935817805382 0.010351966873706004 0.22713864306784656 0.7581120943952802 0.014749262536873154 </TABLE>
    </DEFINITION>
    <DEFINITION>
      <FOR>Date</FOR>
      <GIVEN>CurPropConv</GIVEN>
      <GIVEN>LatestCIN</GIVEN>
      <GIVEN>MorningBound</GIVEN>
      <GIVEN>TempDis</GIVEN>
      <TABLE>0.048141644717588535 0.23778167983611356 0.09555165349721978 0.14296166227685103 0.09555165349721978 0.38001170617500735 0.0004663309084126096 0.3328670024249208 0.24221227382950944 0.06090281663868682 0.06090281663868682 0.30264875955978365 0.04046740467404674 0.3592865928659286 0.16002460024600243 0.1201722017220172 0.04046740467404674 0.27958179581795817 0.029784537389100127 0.17644396161506426 0.14711207676987142 0.08844830707948577 0.08844830707948577 0.4697628100669926 0.13753371868978806 0.19996146435452794 0.12504816955684006 0.12504816955684006 0.07510597302504816 0.3373025048169557 0.05375811598987564 0.33900077033124243 0.07158578188621106 0.10724111367888191 0.12506877957521734 0.3033454385385716 0.19939393939393946 0.5921212121212122 0.0030303030303030307 0.0030303030303030307 0.0030303030303030307 0.19939393939393946 0.0016972165648336728 0.3316361167684997 0.0016972165648336728 0.22165648336727767 0.22165648336727767 0.22165648336727767 0.00499001996007984 0.3283433133732535 0.00499001996007984 0.00499001996007984 0.3283433133732535 0.3283433133732535 0.0025329280648429585 0.3308004052684904 0.1666666666666667 0.0025329280648429585 0.1666666666666667 0.3308004052684904 0.0009589566551591868 0.1252397391637898 0.1873801304181051 0.1873801304181051 0.24952052167242042 0.24952052167242042 0.0013912075681691708 0.09154145798553145 0.27184195882025597 0.18169170840289373 0.09154145798553145 0.36199220923761827 0.014124293785310731 0.014124293785310731 0.9293785310734463 0.014124293785310731 0.014124293785310731 0.014124293785310731 0.16666666666666666 0.16666666666666666 0.16666666666666666 0.16666666666666666 0.16666666666666666 0.16666666666666666 0.014124293785310734 0.014124293785310734 0.014124293785310734 0.014124293785310734 0.014124293785310734 0.9293785310734464 0.007374631268436576 0.4852507374631268 0.007374631268436576 0.007374631268436576 0.007374631268436576 0.4852507374631268 0.01412429378531073 0.929378531073446 0.01412429378531073 0.01412429378531073 0.01412429378531073 0.01412429378531073 0.014124293785310731 0.014124293785310731 0.9293785310734463 0.014124293785310731 0.014124293785310731 0.014124293785310731 0.04046740467404675 0.19987699876998774 0.23972939729397297 0.08031980319803199 0.12017220172201723 0.3194341943419435 0.03265832837006155 0.2899543378995434 0.22563033551717296 0.09698233075243201 0.06482032956124678 0.2899543378995434 0.03891648923586469 0.1922167021528271 0.3455169150697895 0.03891648923586469 0.15389164892358648 0.2305417553820677 0.13050756662648988 0.173898486674702 0.13050756662648988 0.06542118655417169 0.13050756662648988 0.36915762689165665 0.0536648493859794 0.2588523597114379 0.24993116361033096 0.09827082989151385 0.08042843768930007 0.2588523597114379 0.06019716574245224 0.16001232285890327 0.16001232285890327 0.12008626001232285 0.10012322858903265 0.39956869993838573 0.001906941266209001 0.37261632341723877 0.37261632341723877 0.001906941266209001 0.001906941266209001 0.2490465293668955 0.0009028530155290719 0.2349223546406645 0.2349223546406645 0.11791260382809678 0.11791260382809678 0.2934272300469484 0.0013912075681691708 0.27184195882025597 0.27184195882025597 0.09154145798553145 0.0013912075681691708 0.36199220923761827 0.0009028530155290719 0.2934272300469484 0.2349223546406645 0.05940772842181294 0.11791260382809678 0.2934272300469484 0.10825428523880846 0.21609252787485442 0.10825428523880846 0.16217340655683143 0.1891329672158429 0.21609252787485442 0.08365359979502945 0.37419933384575965 0.24967973353830383 0.04214706635921086 0.04214706635921086 0.20817320010248525 0.007374631268436578 0.007374631268436578 0.48525073746312686 0.007374631268436578 0.007374631268436578 0.48525073746312686 0.0025329280648429585 0.0025329280648429585 0.49493414387031404 0.0025329280648429585 0.16666666666666669 0.33080040526849036 0.01412429378531073 0.929378531073446 0.01412429378531073 0.01412429378531073 0.01412429378531073 0.01412429378531073 0.004990019960079841 0.975049900199601 0.004990019960079841 0.004990019960079841 0.004990019960079841 0.004990019960079841 0.24811463046757165 0.0037707390648567115 0.0037707390648567115 0.24811463046757165 0.24811463046757165 0.24811463046757165 0.3957575757575758 0.5921212121212122 0.0030303030303030307 0.0030303030303030307 0.0030303030303030307 0.0030303030303030307 0.0015290519877675841 0.10061162079510705 0.29877675840978596 0.0015290519877675841 0.19969418960244648 0.3978593272171254 0.05940772842181294 0.11791260382809678 0.3519321054532322 0.05940772842181294 0.17641747923438064 0.2349223546406645 0.0008529512111907199 0.33248038212214265 0.05612418969634938 0.11139542818150802 0.11139542818150802 0.3877516206073013 0.048141644717588535 0.14296166227685103 0.23778167983611356 0.09555165349721978 0.048141644717588535 0.4274217149546386 0.06795153034576412 0.22025488352658518 0.22025488352658518 0.08487412514363313 0.13564190953724015 0.2710226679201922 0.08031980319803199 0.16002460024600249 0.19987699876998774 0.12017220172201723 0.08031980319803199 0.35928659286592873 0.014124293785310734 0.014124293785310734 0.014124293785310734 0.014124293785310734 0.014124293785310734 0.9293785310734464 0.00499001996007984 0.3283433133732535 0.3283433133732535 0.00499001996007984 0.00499001996007984 0.3283433133732535 0.014124293785310731 0.014124293785310731 0.014124293785310731 0.9293785310734463 0.014124293785310731 0.014124293785310731 0.0037707390648567115 0.24811463046757165 0.49245852187028655 0.0037707390648567115 0.24811463046757165 0.0037707390648567115 0.0030303030303030307 0.3957575757575758 0.19939393939393946 0.19939393939393946 0.0030303030303030307 0.19939393939393946 0.48525073746312686 0.007374631268436578 0.007374631268436578 0.007374631268436578 0.48525073746312686 0.007374631268436578 0.16666666666666666 0.16666666666666666 0.16666666666666666 0.16666666666666666 0.16666666666666666 0.16666666666666666 0.16666666666666666 0.16666666666666666 0.16666666666666666 0.16666666666666666 0.16666666666666666 0.16666666666666666 0.16666666666666666 0.16666666666666666 0.16666666666666666 0.16666666666666666 0.16666666666666666 0.16666666666666666 0.16666666666666666 0.16666666666666666 0.16666666666666666 0.16666666666666666 0.16666666666666666 0.16666666666666666 0.16666666666666666 0.16666666666666666 0.16666666666666666 0.16666666666666666 0.16666666666666666 0.16666666666666666 0.16666666666666666 0.16666666666666666 0.16666666666666666 0.16666666666666666 0.16666666666666666 0.16666666666666666 </TABLE>
    </DEFINITION>
    <DEFINITION>
      <FOR>Dewpoints</FOR>
      <GIVEN>CurPropConv</GIVEN>
      <GIVEN>LatestCIN</GIVEN>
      <GIVEN>MorningBound</GIVEN>
      <GIVEN>TempDis</GIVEN>
      <TABLE>0.0954471340775116 0.19026715163677413 0.0006271165182490907 0.0954471340775116 0.0006271165182490907 0.3799071867552991 0.23767716041640538 0.2119274122631705 0.0910544408026221 0.12127268366775922 0.2723638979934447 0.12127268366775922 0.12127268366775922 0.060836197937485 0.08023194517659463 0.04037954665260939 0.0005271481286241434 0.15993674222456514 0.08023194517659463 0.5584607274644176 0.08023194517659463 0.08838364243035618 0.059051757585163345 0.08838364243035618 0.23504306665632033 0.059051757585163345 0.23504306665632033 0.23504306665632033 0.24987613542526832 0.18744838976052844 0.12502064409578856 0.21241948802642438 0.050107349298100734 0.0625928984310487 0.1125350949628406 0.07154647927180117 0.07154647927180117 0.12502947696080743 0.07154647927180117 0.14285714285714285 0.33896146771683255 0.1785124746498137 0.002597402597402598 0.002597402597402598 0.5916883116883117 0.002597402597402598 0.002597402597402598 0.002597402597402598 0.39532467532467536 0.2214140238580157 0.2214140238580157 0.2214140238580157 0.11143439045679374 0.2214140238580157 0.0014547570555717196 0.0014547570555717196 0.3276304533789564 0.3276304533789564 0.00427715996578272 0.00427715996578272 0.00427715996578272 0.3276304533789564 0.00427715996578272 0.0021710811984368217 0.0021710811984368217 0.0021710811984368217 0.33043855840208425 0.0021710811984368217 0.33043855840208425 0.33043855840208425 0.24938352786454054 0.24938352786454054 0.1251027453559099 0.24938352786454054 0.000821962847279303 0.06296235410159462 0.06296235410159462 0.0011924636298592892 0.0011924636298592892 0.09134271404722157 0.2716432148819461 0.09134271404722157 0.18149296446458382 0.36179346529930845 0.012106537530266344 0.012106537530266344 0.012106537530266344 0.012106537530266344 0.012106537530266344 0.012106537530266344 0.927360774818402 0.14285714285714285 0.14285714285714285 0.14285714285714285 0.14285714285714285 0.14285714285714285 0.14285714285714285 0.14285714285714285 0.012106537530266342 0.012106537530266342 0.012106537530266342 0.9273607748184018 0.012106537530266342 0.012106537530266342 0.012106537530266342 0.48419721871049326 0.0063211125158027836 0.48419721871049326 0.0063211125158027836 0.0063211125158027836 0.0063211125158027836 0.0063211125158027836 0.012106537530266344 0.012106537530266344 0.012106537530266344 0.012106537530266344 0.012106537530266344 0.012106537530266344 0.927360774818402 0.9273607748184018 0.012106537530266342 0.012106537530266342 0.012106537530266342 0.012106537530266342 0.012106537530266342 0.012106537530266342 0.1599367422245651 0.08023194517659461 0.19978914074855036 0.1599367422245651 0.040379546652609385 0.1599367422245651 0.19978914074855036 0.12907342806092062 0.2255594316344763 0.12907342806092062 0.28988343401684674 0.06474942567855016 0.06474942567855016 0.09691142686973539 0.15380715806549733 0.15380715806549733 0.0005069451485349285 0.19213221129473793 0.11548210483625672 0.23045726452397852 0.15380715806549733 0.06537335705676404 0.06537335705676404 0.21724157722550652 0.1738506571772944 0.08706881708087012 0.21724157722550652 0.1738506571772944 0.14285714285714282 0.14285714285714282 0.20530551556489104 0.2409902999693186 0.08040877014939461 0.0893299662505015 0.09825116235160838 0.02022709268550304 0.10007921837866386 0.12004224980195406 0.21985740691840508 0.10007921837866386 0.3995246897280169 0.04019012410879324 0.2487741091860085 0.0016345210853220007 0.0016345210853220007 0.0016345210853220007 0.0016345210853220007 0.37234390323635175 0.37234390323635175 0.0592787494195945 0.0592787494195945 0.2347933756384461 0.41030800185729766 0.11778362482587834 0.0592787494195945 0.0592787494195945 0.09134271404722157 0.09134271404722157 0.0011924636298592892 0.18149296446458382 0.18149296446458382 0.4519437157166707 0.0011924636298592892 0.0592787494195945 0.0592787494195945 0.1762885002321622 0.41030800185729766 0.0592787494195945 0.000773874013310633 0.2347933756384461 0.13515441124028243 0.08123528992225945 0.1621139718992939 0.21603309321731684 0.1621139718992939 0.13515441124028243 0.10819485058127094 0.0835620950916877 0.0835620950916877 0.1250686285275063 0.16657516196332492 0.0005490282200505106 0.3326012957065993 0.20808169539914353 0.006321112515802781 0.4841972187104931 0.006321112515802781 0.006321112515802781 0.4841972187104931 0.006321112515802781 0.006321112515802781 0.0021710811984368213 0.3304385584020842 0.16630481980026054 0.16630481980026054 0.0021710811984368213 0.3304385584020842 0.0021710811984368213 0.012106537530266342 0.9273607748184018 0.012106537530266342 0.012106537530266342 0.012106537530266342 0.012106537530266342 0.012106537530266342 0.3276304533789564 0.00427715996578272 0.00427715996578272 0.6509837467921301 0.00427715996578272 0.00427715996578272 0.00427715996578272 0.2475759534583064 0.003232062055591467 0.2475759534583064 0.2475759534583064 0.003232062055591467 0.003232062055591467 0.2475759534583064 0.19896103896103898 0.19896103896103898 0.0025974025974025974 0.3953246753246753 0.0025974025974025974 0.0025974025974025974 0.19896103896103898 0.19947575360419398 0.10039318479685454 0.001310615989515072 0.19947575360419398 0.10039318479685454 0.2985583224115334 0.10039318479685454 0.0592787494195945 0.11778362482587834 0.2347933756384461 0.1762885002321622 0.000773874013310633 0.1762885002321622 0.2347933756384461 0.11127357800848077 0.11127357800848077 0.0007311010381634742 0.22181605497879808 0.11127357800848077 0.22181605497879808 0.22181605497879808 0.3324971779756679 0.19026715163677413 0.04803712529788035 0.14285714285714285 0.04803712529788035 0.0006271165182490907 0.23767716041640538 0.08483681783587771 0.25406276581456777 0.16944979182522274 0.1356046022294847 0.06791422303800869 0.11868200743161572 0.16944979182522274 0.08023194517659461 0.12008434370057985 0.08023194517659461 0.2794939377965208 0.040379546652609385 0.2794939377965208 0.12008434370057985 0.012106537530266344 0.012106537530266344 0.012106537530266344 0.012106537530266344 0.012106537530266344 0.927360774818402 0.012106537530266344 0.00427715996578272 0.3276304533789564 0.00427715996578272 0.00427715996578272 0.00427715996578272 0.3276304533789564 0.3276304533789564 0.012106537530266342 0.012106537530266342 0.012106537530266342 0.9273607748184018 0.012106537530266342 0.012106537530266342 0.012106537530266342 0.7362637362637364 0.003232062055591468 0.003232062055591468 0.003232062055591468 0.003232062055591468 0.24757595345830646 0.003232062055591468 0.0025974025974025974 0.19896103896103898 0.0025974025974025974 0.19896103896103898 0.0025974025974025974 0.3953246753246753 0.19896103896103898 0.006321112515802781 0.4841972187104931 0.006321112515802781 0.006321112515802781 0.006321112515802781 0.4841972187104931 0.006321112515802781 0.14285714285714285 0.14285714285714285 0.14285714285714285 0.14285714285714285 0.14285714285714285 0.14285714285714285 0.14285714285714285 0.14285714285714285 0.14285714285714285 0.14285714285714285 0.14285714285714285 0.14285714285714285 0.14285714285714285 0.14285714285714285 0.14285714285714285 0.14285714285714285 0.14285714285714285 0.14285714285714285 0.14285714285714285 0.14285714285714285 0.14285714285714285 0.14285714285714285 0.14285714285714285 0.14285714285714285 0.14285714285714285 0.14285714285714285 0.14285714285714285 0.14285714285714285 0.14285714285714285 0.14285714285714285 0.14285714285714285 0.14285714285714285 0.14285714285714285 0.14285714285714285 0.14285714285714285 0.14285714285714285 0.14285714285714285 0.14285714285714285 0.14285714285714285 0.14285714285714285 0.14285714285714285 0.14285714285714285 </TABLE>
    </DEFINITION>
    <DEFINITION>
      <FOR>IRCloudCover</FOR>
      <GIVEN>CurPropConv</GIVEN>
      <GIVEN>LatestCIN</GIVEN>
      <GIVEN>MorningBound</GIVEN>
      <GIVEN>TempDis</GIVEN>
      <TABLE>0.28592332455370206 0.19110330699443956 0.5229733684518584 0.4239880619287446 0.1218056332773736 0.4542063047938817 0.3997539975399754 0.16063960639606395 0.4396063960639606 0.49954734745609264 0.14756472931377873 0.3528879232301285 0.43737957610789974 0.1502119460500963 0.4124084778420038 0.46406954990645977 0.07186090018708044 0.46406954990645977 0.5951515151515151 0.006060606060606059 0.39878787878787875 0.44331296673455534 0.33333333333333337 0.22335369993211138 0.00998003992015968 0.00998003992015968 0.9800399201596807 0.6616008105369808 0.005065856129685917 0.3333333333333334 0.5611814345991561 0.2504794783275796 0.1883390870732643 0.2732331663884252 0.09293266555370061 0.6338341680578743 0.9435028248587572 0.028248587570621472 0.028248587570621472 0.3333333333333333 0.3333333333333333 0.3333333333333333 0.9435028248587572 0.028248587570621472 0.028248587570621472 0.4926253687315634 0.014749262536873156 0.4926253687315634 0.9435028248587572 0.028248587570621472 0.028248587570621472 0.02824858757062147 0.02824858757062147 0.943502824858757 0.3997539975399754 0.28019680196801966 0.3200492004920049 0.41909866984316063 0.0653166567401231 0.5155846734167163 0.4227584575348947 0.15448308493021054 0.4227584575348947 0.4128833534217222 0.1742332931565555 0.4128833534217222 0.46417754281623436 0.11625089487306568 0.4195715623106999 0.37991373998767713 0.12039433148490448 0.49969192852741834 0.3745232646834478 0.12738367658276126 0.498093058733791 0.29433008306247743 0.23582520765619355 0.469844709281329 0.36338341680578745 0.2732331663884252 0.36338341680578745 0.41133983387504514 0.23582520765619355 0.3528349584687613 0.4861041770677317 0.054751206523548014 0.45914461640872023 0.5408660005124264 0.12580066615424035 0.3333333333333333 0.014749262536873156 0.014749262536873156 0.9705014749262537 0.16919959473150964 0.005065856129685917 0.8257345491388045 0.02824858757062147 0.02824858757062147 0.943502824858757 0.3333333333333333 0.00998003992015968 0.656686626746507 0.7405731523378583 0.007541478129713423 0.25188536953242835 0.5951515151515152 0.2024242424242424 0.2024242424242424 0.4984709480122324 0.2012232415902141 0.30030581039755355 0.469844709281329 0.11881545684362588 0.41133983387504514 0.2780620948481747 0.22279085636301604 0.4991470487888093 0.3333333333333333 0.19110330699443956 0.4755633596722271 0.3389741982659563 0.20359343988300427 0.45743236185103936 0.3997539975399754 0.12078720787207874 0.4794587945879459 0.028248587570621472 0.9435028248587572 0.028248587570621472 0.00998003992015968 0.3333333333333333 0.656686626746507 0.9435028248587572 0.028248587570621472 0.028248587570621472 0.25188536953242835 0.007541478129713423 0.7405731523378583 0.39878787878787875 0.20242424242424237 0.39878787878787875 0.014749262536873156 0.014749262536873156 0.9705014749262537 0.3333333333333333 0.3333333333333333 0.3333333333333333 0.3333333333333333 0.3333333333333333 0.3333333333333333 0.3333333333333333 0.3333333333333333 0.3333333333333333 0.3333333333333333 0.3333333333333333 0.3333333333333333 0.3333333333333333 0.3333333333333333 0.3333333333333333 0.3333333333333333 0.3333333333333333 0.3333333333333333 </TABLE>
    </DEFINITION>
    <DEFINITION>
      <FOR>InsChange</FOR>
      <GIVEN>CurPropConv</GIVEN>
      <GIVEN>LatestCIN</GIVEN>
      <GIVEN>MorningBound</GIVEN>
      <GIVEN>TempDis</GIVEN>
      <TABLE>0.4281533508925959 0.19110330699443956 0.38074334211296457 0.3937698190636075 0.3031150904681962 0.3031150904681962 0.4794587945879459 0.3200492004920049 0.2004920049200492 0.17689661415897154 0.38221980807532135 0.440883577765707 0.34998073217726394 0.325009633911368 0.325009633911368 0.3749312204247826 0.3214482227357764 0.30362055683944095 0.5951515151515151 0.006060606060606059 0.39878787878787875 0.22335369993211138 0.33333333333333337 0.44331296673455534 0.3333333333333333 0.3333333333333333 0.3333333333333333 0.6616008105369808 0.16919959473150964 0.16919959473150964 0.3126198695818949 0.3126198695818949 0.3747602608362102 0.36338341680578745 0.2732331663884252 0.36338341680578745 0.9435028248587572 0.028248587570621472 0.028248587570621472 0.3333333333333333 0.3333333333333333 0.3333333333333333 0.02824858757062147 0.02824858757062147 0.943502824858757 0.9705014749262536 0.014749262536873153 0.014749262536873153 0.02824858757062147 0.02824858757062147 0.943502824858757 0.02824858757062147 0.02824858757062147 0.943502824858757 0.24034440344403443 0.35990159901599017 0.3997539975399754 0.3869366686519754 0.2582886638872345 0.35477466746079017 0.23113319138869173 0.46108351076413534 0.30778329784717295 0.2827105932770858 0.32610151332529796 0.39118789339761617 0.4195715623106999 0.26791122859188277 0.31251720909741726 0.43980283425754774 0.2401725200246457 0.32002464571780653 0.498093058733791 0.12738367658276126 0.3745232646834478 0.3528349584687613 0.29433008306247743 0.3528349584687613 0.2732331663884252 0.2732331663884252 0.4535336672231497 0.23582520765619355 0.469844709281329 0.29433008306247743 0.2973872524546513 0.4321850557497087 0.27042769179563986 0.25032026646169614 0.37483986676915193 0.37483986676915193 0.014749262536873153 0.9705014749262536 0.014749262536873153 0.3333333333333333 0.16919959473150958 0.497467071935157 0.028248587570621472 0.9435028248587572 0.028248587570621472 0.00998003992015968 0.656686626746507 0.3333333333333333 0.4962292609351433 0.25188536953242835 0.25188536953242835 0.20242424242424237 0.39878787878787875 0.39878787878787875 0.2012232415902141 0.4984709480122324 0.30030581039755355 0.3528349584687613 0.3528349584687613 0.29433008306247743 0.2780620948481747 0.388604571818492 0.3333333333333333 0.2385133157740708 0.4755633596722271 0.28592332455370206 0.40666457745743234 0.3220516034680873 0.2712838190744803 0.35990159901599017 0.35990159901599017 0.28019680196801966 0.9435028248587572 0.028248587570621472 0.028248587570621472 0.00998003992015968 0.656686626746507 0.3333333333333333 0.028248587570621472 0.9435028248587572 0.028248587570621472 0.007541478129713423 0.25188536953242835 0.7405731523378583 0.3987878787878788 0.3987878787878788 0.2024242424242424 0.4926253687315634 0.014749262536873156 0.4926253687315634 0.3333333333333333 0.3333333333333333 0.3333333333333333 0.3333333333333333 0.3333333333333333 0.3333333333333333 0.3333333333333333 0.3333333333333333 0.3333333333333333 0.3333333333333333 0.3333333333333333 0.3333333333333333 0.3333333333333333 0.3333333333333333 0.3333333333333333 0.3333333333333333 0.3333333333333333 0.3333333333333333 </TABLE>
    </DEFINITION>
    <DEFINITION>
      <FOR>InsInMt</FOR>
      <GIVEN>AMInstabMt</GIVEN>
      <GIVEN>CldShadeConv</GIVEN>
      <GIVEN>MorningBound</GIVEN>
      <GIVEN>TempDis</GIVEN>
      <TABLE>0.9974093264248706 0.002590673575129534 0.9984266834487098 0.0015733165512901194 0.9974093264248706 0.002590673575129534 0.9988579259936043 0.0011420740063956144 0.9993732765104036 0.0006267234895963902 0.999019223224794 0.000980776775205963 0.956198347107438 0.04380165289256198 0.9980047885075819 0.0019952114924181967 0.8958762886597937 0.10412371134020616 0.9182572614107885 0.08174273858921163 0.9895049504950495 0.010495049504950494 0.9853185595567866 0.014681440443213296 0.9718384697130713 0.028161530286928804 0.9544634806131651 0.045536519386834985 0.9303448275862068 0.0696551724137931 0.9240545567265964 0.0759454432734036 0.9336856460961472 0.06631435390385271 0.983811850946854 0.016188149053145997 0.5551301684532925 0.4448698315467075 0.42887383573243015 0.5711261642675699 0.486562150055991 0.513437849944009 0.6456869009584665 0.3543130990415336 0.6368668232136867 0.3631331767863133 0.5760028149190711 0.423997185080929 </TABLE>
    </DEFINITION>
    <DEFINITION>
      <FOR>InsSclInScen</FOR>
      <GIVEN>CurPropConv</GIVEN>
      <GIVEN>LatestCIN</GIVEN>
      <GIVEN>MorningBound</GIVEN>
      <GIVEN>TempDis</GIVEN>
      <TABLE>0.2385133157740708 0.5703833772314896 0.19110330699443956 0.3333333333333333 0.3937698190636075 0.2728968476030591 0.16063960639606395 0.4396063960639606 0.3997539975399754 0.26489226869455 0.29422415353974285 0.440883577765707 0.18766859344894027 0.4998073217726397 0.31252408477842003 0.2501375591504347 0.4462418840101243 0.30362055683944095 0.5951515151515152 0.3987878787878788 0.006060606060606061 0.22335369993211138 0.44331296673455534 0.33333333333333337 0.3333333333333333 0.00998003992015968 0.656686626746507 0.005065856129685917 0.6616008105369808 0.3333333333333334 0.06405830456463368 0.49904104334484084 0.43690065209052553 0.2732331663884252 0.4535336672231497 0.2732331663884252 0.9435028248587572 0.028248587570621472 0.028248587570621472 0.3333333333333333 0.3333333333333333 0.3333333333333333 0.9435028248587572 0.028248587570621472 0.028248587570621472 0.4926253687315634 0.4926253687315634 0.014749262536873156 0.9435028248587572 0.028248587570621472 0.028248587570621472 0.02824858757062147 0.02824858757062147 0.943502824858757 0.3200492004920049 0.3200492004920049 0.35990159901599017 0.2904506650784197 0.45126067103434586 0.2582886638872345 0.26945824461793233 0.4227584575348947 0.30778329784717295 0.23931967322887368 0.3044060533011919 0.4562742734699343 0.24114764028856212 0.3928079740073792 0.36604438570405856 0.2202094886013555 0.37991373998767713 0.39987677141096734 0.12738367658276126 0.6216628527841342 0.2509534706331045 0.23582520765619355 0.5868544600938967 0.17732033224990973 0.2732331663884252 0.36338341680578745 0.36338341680578745 0.41133983387504514 0.17732033224990973 0.41133983387504514 0.4052254950906973 0.35130637377267426 0.24346813113662835 0.3333333333333333 0.25032026646169614 0.41634640020497055 0.4926253687315634 0.014749262536873156 0.4926253687315634 0.33333333333333337 0.49746707193515705 0.1691995947315096 0.02824858757062147 0.02824858757062147 0.943502824858757 0.9800399201596806 0.009980039920159679 0.009980039920159679 0.4962292609351433 0.4962292609351433 0.007541478129713423 0.20242424242424245 0.0060606060606060615 0.7915151515151516 0.4984709480122324 0.30030581039755355 0.2012232415902141 0.23582520765619355 0.469844709281329 0.29433008306247743 0.22279085636301604 0.5544182872739679 0.22279085636301604 0.048873280655545796 0.3333333333333333 0.6177933860111209 0.3051290086702183 0.45743236185103936 0.23743862947874228 0.24034440344403443 0.4794587945879459 0.28019680196801966 0.028248587570621472 0.9435028248587572 0.028248587570621472 0.3333333333333333 0.3333333333333333 0.3333333333333333 0.028248587570621472 0.9435028248587572 0.028248587570621472 0.25188536953242835 0.25188536953242835 0.4962292609351433 0.006060606060606059 0.5951515151515151 0.39878787878787875 0.4926253687315634 0.4926253687315634 0.014749262536873156 0.3333333333333333 0.3333333333333333 0.3333333333333333 0.3333333333333333 0.3333333333333333 0.3333333333333333 0.3333333333333333 0.3333333333333333 0.3333333333333333 0.3333333333333333 0.3333333333333333 0.3333333333333333 0.3333333333333333 0.3333333333333333 0.3333333333333333 0.3333333333333333 0.3333333333333333 0.3333333333333333 </TABLE>
    </DEFINITION>
    <DEFINITION>
      <FOR>LIfr12ZDENSd</FOR>
      <GIVEN>CurPropConv</GIVEN>
      <GIVEN>LatestCIN</GIVEN>
      <GIVEN>MorningBound</GIVEN>
      <GIVEN>TempDis</GIVEN>
      <TABLE>0.09591747146619842 0.04850746268656716 0.47519754170324846 0.38037752414398596 0.061135982092893115 0.1215724678231673 0.4841913822048125 0.333100167879127 0.1603321033210332 0.0009225092250922509 0.4791512915129152 0.3595940959409594 0.17667028788701794 0.03001086366105378 0.6166485605649105 0.17667028788701794 0.10017341040462428 0.050231213872832366 0.5746242774566473 0.27497109826589594 0.07172334103664575 0.08955100693298117 0.4817596566523605 0.35696599537801255 0.004545454545454545 0.004545454545454545 0.7899999999999999 0.2009090909090909 0.0025458248472505093 0.22250509164969454 0.33248472505091653 0.4424643584521385 0.0074850299401197605 0.0074850299401197605 0.33083832335329344 0.6541916167664671 0.3320668693009119 0.16793313069908813 0.3320668693009119 0.16793313069908813 0.25 0.06357882623705409 0.5607019562715766 0.1257192174913694 0.2725375626043406 0.002086811352253756 0.36268781302170283 0.36268781302170283 0.0211864406779661 0.0211864406779661 0.9364406779661018 0.0211864406779661 0.25 0.25 0.25 0.25 0.0211864406779661 0.0211864406779661 0.0211864406779661 0.9364406779661018 0.011061946902654864 0.011061946902654864 0.9668141592920353 0.011061946902654864 0.0211864406779661 0.0211864406779661 0.0211864406779661 0.9364406779661018 0.0211864406779661 0.0211864406779661 0.9364406779661018 0.0211864406779661 0.12047970479704799 0.1603321033210332 0.43929889298892993 0.2798892988929889 0.12939249553305537 0.06506849315068494 0.5474985110184634 0.25804050029779635 0.11586231369765791 0.0008871540099361248 0.5374378992193044 0.3458126330731015 0.1523704298915227 0.0221976697468863 0.49949779027721974 0.32593411008437123 0.1072608623822898 0.11618205848339667 0.47302990252767224 0.30352717660664136 0.060351201478743066 0.040388170055452866 0.5594269870609981 0.33983364140480593 0.25 0.0028604118993135006 0.4971395881006864 0.25 0.17686890574214517 0.0013542795232936076 0.5864030335861321 0.235373781148429 0.09223706176961603 0.18238731218697835 0.2725375626043406 0.45283806343906513 0.059859154929577454 0.17686890574214517 0.5278981581798483 0.235373781148429 0.1084623065401897 0.027583624563155267 0.5937343984023964 0.2702196704942586 0.0839738662567256 0.0009607993850883934 0.5405457340507301 0.3745196003074558 0.011061946902654864 0.011061946902654864 0.011061946902654864 0.9668141592920353 0.0037993920972644373 0.16793313069908813 0.6603343465045592 0.16793313069908813 0.0211864406779661 0.0211864406779661 0.9364406779661018 0.0211864406779661 0.0074850299401197605 0.0074850299401197605 0.33083832335329344 0.6541916167664671 0.24999999999999994 0.005656108597285066 0.24999999999999994 0.4943438914027149 0.004545454545454544 0.20090909090909087 0.3972727272727272 0.3972727272727272 0.10137614678899082 0.10137614678899082 0.596788990825688 0.20045871559633027 0.11836403033586132 0.11836403033586132 0.5864030335861321 0.17686890574214517 0.22236438075742068 0.05655066530194473 0.4434493346980553 0.27763561924257935 0.04850746268656716 0.09591747146619842 0.33296751536435465 0.5226075504828797 0.06808210592290817 0.06808210592290817 0.5757599498589783 0.2880758382952053 0.12047970479704799 0.1603321033210332 0.5190036900369004 0.20018450184501846 0.0211864406779661 0.0211864406779661 0.9364406779661018 0.0211864406779661 0.0074850299401197605 0.33083832335329344 0.33083832335329344 0.33083832335329344 0.0211864406779661 0.0211864406779661 0.9364406779661018 0.0211864406779661 0.005656108597285066 0.005656108597285066 0.4943438914027149 0.4943438914027149 0.20090909090909087 0.20090909090909087 0.20090909090909087 0.3972727272727272 0.011061946902654864 0.011061946902654864 0.9668141592920353 0.011061946902654864 0.25 0.25 0.25 0.25 0.25 0.25 0.25 0.25 0.25 0.25 0.25 0.25 0.25 0.25 0.25 0.25 0.25 0.25 0.25 0.25 0.25 0.25 0.25 0.25 </TABLE>
    </DEFINITION>
    <DEFINITION>
      <FOR>LLIW</FOR>
      <GIVEN>CurPropConv</GIVEN>
      <GIVEN>LatestCIN</GIVEN>
      <GIVEN>MorningBound</GIVEN>
      <GIVEN>TempDis</GIVEN>
      <TABLE>0.570017559262511 0.33296751536435465 0.0010974539069359085 0.09591747146619842 0.36331841074426413 0.3935366536094012 0.0006994963626189143 0.24244543928371573 0.4392988929889299 0.31974169741697417 0.0009225092250922508 0.24003690036900366 0.5579847908745247 0.32332971211298206 0.030010863661053773 0.08867463335143944 0.4872254335260115 0.37485549132947976 0.0002890173410404624 0.1376300578034682 0.42827665896335426 0.4461043248596897 0.00041267745130406077 0.12520633872565204 0.5936363636363636 0.39727272727272733 0.004545454545454545 0.004545454545454545 0.5524439918533605 0.44246435845213844 0.002545824847250509 0.002545824847250509 0.33083832335329333 0.654191616766467 0.007485029940119758 0.007485029940119758 0.33206686930091195 0.6603343465045594 0.0037993920972644382 0.0037993920972644382 0.4985615650172612 0.4364211737629458 0.0014384349827387798 0.06357882623705408 0.7232888146911518 0.27253756260434053 0.0020868113522537557 0.0020868113522537557 0.9364406779661018 0.0211864406779661 0.0211864406779661 0.0211864406779661 0.25 0.25 0.25 0.25 0.0211864406779661 0.9364406779661018 0.0211864406779661 0.0211864406779661 0.48893805309734506 0.48893805309734506 0.011061946902654864 0.011061946902654864 0.9364406779661018 0.0211864406779661 0.0211864406779661 0.0211864406779661 0.9364406779661018 0.0211864406779661 0.0211864406779661 0.0211864406779661 0.638560885608856 0.08062730627306273 0.08062730627306273 0.20018450184501843 0.4831745086360929 0.09723049434187016 0.0007444907683144728 0.41885050625372244 0.42246273953158264 0.07753726046841732 0.03921220723917672 0.46078779276082327 0.5645841703495379 0.10897950984331055 0.06558858979509843 0.260847730012053 0.5890054518420618 0.0804972740789691 0.02697009747232777 0.30352717660664125 0.49953789279112754 0.12024029574861367 0.040388170055452866 0.33983364140480593 0.25000000000000006 0.25000000000000006 0.0028604118993135015 0.49713958810068654 0.7034127843986998 0.17686890574214517 0.0013542795232936076 0.11836403033586132 0.7232888146911518 0.0020868113522537557 0.0020868113522537557 0.27253756260434053 0.5278981581798483 0.29387865655471285 0.0013542795232936076 0.17686890574214517 0.43197703444832747 0.2971792311532701 0.0006240639041437843 0.2702196704942586 0.45753266717909297 0.12548039969254418 0.0839738662567256 0.3330130668716372 0.9668141592920351 0.011061946902654862 0.011061946902654862 0.011061946902654862 0.4962006079027356 0.3320668693009119 0.0037993920972644373 0.16793313069908813 0.9364406779661018 0.0211864406779661 0.0211864406779661 0.0211864406779661 0.9775449101796405 0.007485029940119758 0.007485029940119758 0.007485029940119758 0.494343891402715 0.494343891402715 0.005656108597285068 0.005656108597285068 0.39727272727272733 0.5936363636363636 0.004545454545454545 0.004545454545454545 0.3986238532110091 0.596788990825688 0.002293577981651376 0.002293577981651376 0.059859154929577454 0.9374322860238352 0.0013542795232936076 0.0013542795232936076 0.38817809621289656 0.5539918116683725 0.0012794268167860795 0.05655066530194472 0.2855575065847234 0.7122475856014047 0.0010974539069359085 0.0010974539069359085 0.22038545910372928 0.7619084926355375 0.000391726731432153 0.017314321529301163 0.2798892988929889 0.7182656826568266 0.0009225092250922508 0.0009225092250922508 0.0211864406779661 0.9364406779661018 0.0211864406779661 0.0211864406779661 0.007485029940119758 0.9775449101796405 0.007485029940119758 0.007485029940119758 0.0211864406779661 0.9364406779661018 0.0211864406779661 0.0211864406779661 0.005656108597285069 0.983031674208145 0.005656108597285069 0.005656108597285069 0.20090909090909095 0.7900000000000001 0.004545454545454546 0.004545454545454546 0.011061946902654862 0.9668141592920351 0.011061946902654862 0.011061946902654862 0.25 0.25 0.25 0.25 0.25 0.25 0.25 0.25 0.25 0.25 0.25 0.25 0.25 0.25 0.25 0.25 0.25 0.25 0.25 0.25 0.25 0.25 0.25 0.25 </TABLE>
    </DEFINITION>
    <DEFINITION>
      <FOR>LatestCIN</FOR>
      <GIVEN>MorningBound</GIVEN>
      <GIVEN>OutflowFrMt</GIVEN>
      <TABLE>0.7265105521827118 0.22000578201792426 0.05348366579936398 0.6175098672407607 0.3074991029781127 0.07499102978112668 0.6382127756827791 0.2679693749285796 0.09381784938864131 0.6510764662212324 0.26622123236822565 0.08270230141054194 </TABLE>
    </DEFINITION>
    <DEFINITION>
      <FOR>LoLevMoistAd</FOR>
      <GIVEN>CurPropConv</GIVEN>
      <GIVEN>LatestCIN</GIVEN>
      <GIVEN>MorningBound</GIVEN>
      <GIVEN>TempDis</GIVEN>
      <TABLE>0.33296751536435465 0.4277875329236172 0.0010974539069359085 0.23814749780509215 0.27266368214885284 0.333100167879127 0.1215724678231673 0.27266368214885284 0.2798892988929889 0.31974169741697417 0.08062730627306273 0.31974169741697417 0.2646659424225964 0.20600217273221072 0.08867463335143944 0.4406572514937534 0.2999421965317919 0.22502890173410406 0.15011560693641618 0.3249132947976879 0.35696599537801255 0.3034829976890063 0.08955100693298117 0.25 0.9863636363636364 0.004545454545454546 0.004545454545454546 0.004545454545454546 0.3324847250509165 0.3324847250509165 0.002545824847250509 0.3324847250509165 0.654191616766467 0.007485029940119758 0.007485029940119758 0.33083832335329333 0.33206686930091184 0.33206686930091184 0.003799392097264437 0.33206686930091184 0.4364211737629459 0.1257192174913694 0.1257192174913694 0.3121403912543153 0.1823873121869783 0.3626878130217028 0.2725375626043406 0.1823873121869783 0.0211864406779661 0.9364406779661018 0.0211864406779661 0.0211864406779661 0.25 0.25 0.25 0.25 0.9364406779661018 0.0211864406779661 0.0211864406779661 0.0211864406779661 0.48893805309734506 0.48893805309734506 0.011061946902654864 0.011061946902654864 0.0211864406779661 0.9364406779661018 0.0211864406779661 0.0211864406779661 0.0211864406779661 0.0211864406779661 0.0211864406779661 0.9364406779661018 0.24003690036900366 0.31974169741697417 0.20018450184501843 0.24003690036900366 0.3866885050625372 0.22587849910661106 0.19371649791542583 0.19371649791542583 0.11586231369765791 0.42246273953158264 0.11586231369765791 0.3458126330731015 0.2825431900361591 0.32593411008437123 0.06558858979509843 0.32593411008437123 0.35705435321328266 0.3035271766066413 0.089418470180076 0.25 0.39972273567467653 0.27994454713493533 0.12024029574861367 0.2000924214417745 0.37356979405034324 0.25 0.12643020594965673 0.25 0.35238353196099675 0.2938786565547129 0.1768689057421452 0.1768689057421452 0.1823873121869783 0.6331385642737896 0.002086811352253756 0.1823873121869783 0.1768689057421452 0.35238353196099675 0.11836403033586133 0.35238353196099675 0.2971792311532701 0.21630054917623565 0.08150274588117823 0.405017473789316 0.2915065334358186 0.25 0.20849346656418138 0.25 0.011061946902654867 0.011061946902654867 0.4889380530973451 0.4889380530973451 0.16793313069908813 0.33206686930091184 0.003799392097264437 0.4962006079027355 0.0211864406779661 0.0211864406779661 0.0211864406779661 0.9364406779661018 0.007485029940119758 0.654191616766467 0.007485029940119758 0.33083832335329333 0.25 0.494343891402715 0.25 0.005656108597285068 0.2009090909090909 0.5936363636363636 0.004545454545454545 0.2009090909090909 0.20045871559633027 0.4977064220183486 0.10137614678899082 0.20045871559633027 0.29387865655471285 0.17686890574214517 0.059859154929577454 0.46939328277356446 0.16709314227226202 0.44344933469805525 0.05655066530194472 0.3329068577277379 0.19073748902546092 0.23814749780509217 0.19073748902546092 0.380377524143986 0.44037919147602633 0.2880758382952053 0.10192729551864618 0.16961767471012223 0.3595940959409594 0.2798892988929889 0.16033210332103318 0.20018450184501843 0.0211864406779661 0.0211864406779661 0.0211864406779661 0.9364406779661018 0.007485029940119758 0.9775449101796405 0.007485029940119758 0.007485029940119758 0.0211864406779661 0.0211864406779661 0.0211864406779661 0.9364406779661018 0.24999999999999994 0.24999999999999994 0.005656108597285066 0.4943438914027149 0.3972727272727272 0.20090909090909087 0.004545454545454544 0.3972727272727272 0.9668141592920351 0.011061946902654862 0.011061946902654862 0.011061946902654862 0.25 0.25 0.25 0.25 0.25 0.25 0.25 0.25 0.25 0.25 0.25 0.25 0.25 0.25 0.25 0.25 0.25 0.25 0.25 0.25 0.25 0.25 0.25 0.25 </TABLE>
    </DEFINITION>
    <DEFINITION>
      <FOR>LowLLapse</FOR>
      <GIVEN>CurPropConv</GIVEN>
      <GIVEN>LatestCIN</GIVEN>
      <GIVEN>MorningBound</GIVEN>
      <GIVEN>TempDis</GIVEN>
      <TABLE>0.19073748902546092 0.23814749780509217 0.28555750658472345 0.28555750658472345 0.3028819250139899 0.1820089535534415 0.1820089535534415 0.333100167879127 0.1603321033210332 0.2798892988929889 0.20018450184501846 0.3595940959409594 0.030010863661053773 0.46998913633894623 0.23533405757740358 0.2646659424225964 0.1501156069364162 0.23751445086705206 0.18757225433526015 0.4247976878612717 0.1786893364146583 0.28565533179267083 0.125206338725652 0.4104489930670188 0.3972727272727272 0.004545454545454544 0.20090909090909087 0.3972727272727272 0.11252545824847249 0.2225050916496945 0.3324847250509165 0.3324847250509165 0.007485029940119758 0.9775449101796405 0.007485029940119758 0.007485029940119758 0.0037993920972644373 0.3320668693009119 0.4962006079027356 0.16793313069908813 0.18785960874568472 0.25 0.18785960874568472 0.3742807825086306 0.2725375626043406 0.4528380634390651 0.1823873121869783 0.09223706176961602 0.9364406779661018 0.0211864406779661 0.0211864406779661 0.0211864406779661 0.25 0.25 0.25 0.25 0.0211864406779661 0.0211864406779661 0.0211864406779661 0.9364406779661018 0.48893805309734506 0.48893805309734506 0.011061946902654864 0.011061946902654864 0.0211864406779661 0.0211864406779661 0.9364406779661018 0.0211864406779661 0.0211864406779661 0.9364406779661018 0.0211864406779661 0.0211864406779661 0.12047970479704799 0.2400369003690037 0.3197416974169742 0.3197416974169742 0.1615544967242406 0.2580405002977963 0.12939249553305537 0.4510125074449077 0.1925124201561391 0.23083747338537966 0.03921220723917672 0.5374378992193044 0.1306749698674166 0.260847730012053 0.23915226998794697 0.3693250301325834 0.22323641169667935 0.23215760779778624 0.16970923509003802 0.37489674541549645 0.2200554528650647 0.1801293900184843 0.1601663585951941 0.43964879852125693 0.12643020594965673 0.37356979405034324 0.25 0.25 0.11836403033586132 0.29387865655471285 0.11836403033586132 0.46939328277356446 0.09223706176961602 0.2725375626043406 0.4528380634390651 0.1823873121869783 0.1768689057421452 0.2938786565547129 0.23537378114842902 0.2938786565547129 0.18934098851722414 0.21630054917623565 0.24326010983524712 0.35109835247129306 0.20849346656418138 0.20849346656418138 0.1669869331283628 0.41602613374327446 0.9668141592920351 0.011061946902654862 0.011061946902654862 0.011061946902654862 0.3320668693009119 0.3320668693009119 0.16793313069908813 0.16793313069908813 0.9364406779661018 0.0211864406779661 0.0211864406779661 0.0211864406779661 0.0074850299401197605 0.33083832335329344 0.33083832335329344 0.33083832335329344 0.005656108597285066 0.24999999999999994 0.24999999999999994 0.4943438914027149 0.20090909090909087 0.3972727272727272 0.004545454545454544 0.3972727272727272 0.0022935779816513763 0.20045871559633033 0.20045871559633033 0.5967889908256881 0.23537378114842902 0.23537378114842902 0.1768689057421452 0.35238353196099675 0.16709314227226202 0.44344933469805525 0.11182190378710337 0.2776356192425793 0.09591747146619842 0.14332748024582967 0.2855575065847234 0.47519754170324846 0.25423064869946727 0.22038545910372925 0.22038545910372925 0.3049984330930743 0.08062730627306275 0.2400369003690037 0.20018450184501846 0.4791512915129152 0.0211864406779661 0.0211864406779661 0.0211864406779661 0.9364406779661018 0.0074850299401197605 0.33083832335329344 0.33083832335329344 0.33083832335329344 0.0211864406779661 0.9364406779661018 0.0211864406779661 0.0211864406779661 0.25 0.25 0.494343891402715 0.005656108597285068 0.004545454545454544 0.3972727272727272 0.20090909090909087 0.3972727272727272 0.011061946902654864 0.011061946902654864 0.011061946902654864 0.9668141592920353 0.25 0.25 0.25 0.25 0.25 0.25 0.25 0.25 0.25 0.25 0.25 0.25 0.25 0.25 0.25 0.25 0.25 0.25 0.25 0.25 0.25 0.25 0.25 0.25 </TABLE>
    </DEFINITION>
    <DEFINITION>
      <FOR>MeanRH</FOR>
      <GIVEN>CurPropConv</GIVEN>
      <GIVEN>LatestCIN</GIVEN>
      <GIVEN>MorningBound</GIVEN>
      <GIVEN>TempDis</GIVEN>
