<?xml version='1.0' encoding='utf-8'?>
<BIF VERSION="0.3">
  <NETWORK>
    <NAME>UNTITLED</NAME>
    <VARIABLE TYPE="nature">
      <NAME>ChHepatitis</NAME>
      <OUTCOME>absent</OUTCOME>
      <OUTCOME>active</OUTCOME>
      <OUTCOME>persistent</OUTCOME>
      <PROPERTY>weight = None</PROPERTY>
    </VARIABLE>
    <VARIABLE TYPE="nature">
      <NAME>Cirrhosis</NAME>
      <OUTCOME>absent</OUTCOME>
      <OUTCOME>compensate</OUTCOME>
      <OUTCOME>decompensate</OUTCOME>
      <PROPERTY>weight = None</PROPERTY>
    </VARIABLE>
    <VARIABLE TYPE="nature">
      <NAME>ESR</NAME>
      <OUTCOME>a14_0</OUTCOME>
      <OUTCOME>a200_50</OUTCOME>
      <OUTCOME>a49_15</OUTCOME>
      <PROPERTY>weight = None</PROPERTY>
    </VARIABLE>
    <VARIABLE TYPE="nature">
      <NAME>Hyperbilirubinemia</NAME>
      <OUTCOME>absent</OUTCOME>
      <OUTCOME>present</OUTCOME>
      <PROPERTY>weight = None</PROPERTY>
    </VARIABLE>
    <VARIABLE TYPE="nature">
      <NAME>PBC</NAME>
      <OUTCOME>absent</OUTCOME>
      <OUTCOME>present</OUTCOME>
      <PROPERTY>weight = None</PROPERTY>
    </VARIABLE>
    <VARIABLE TYPE="nature">
      <NAME>RHepatitis</NAME>
      <OUTCOME>absent</OUTCOME>
      <OUTCOME>present</OUTCOME>
      <PROPERTY>weight = None</PROPERTY>
    </VARIABLE>
    <VARIABLE TYPE="nature">
      <NAME>Steatosis</NAME>
      <OUTCOME>absent</OUTCOME>
      <OUTCOME>present</OUTCOME>
      <PROPERTY>weight = None</PROPERTY>
    </VARIABLE>
    <VARIABLE TYPE="nature">
      <NAME>THepatitis</NAME>
      <OUTCOME>absent</OUTCOME>
      <OUTCOME>present</OUTCOME>
      <PROPERTY>weight = None</PROPERTY>
    </VARIABLE>
    <VARIABLE TYPE="nature">
      <NAME>age</NAME>
      <OUTCOME>age0_30</OUTCOME>
      <OUTCOME>age31_50</OUTCOME>
      <OUTCOME>age51_65</OUTCOME>
      <OUTCOME>age65_100</OUTCOME>
      <PROPERTY>weight = None</PROPERTY>
    </VARIABLE>
    <VARIABLE TYPE="nature">
      <NAME>albumin</NAME>
      <OUTCOME>a29_0</OUTCOME>
      <OUTCOME>a49_30</OUTCOME>
      <OUTCOME>a70_50</OUTCOME>
      <PROPERTY>weight = None</PROPERTY>
    </VARIABLE>
    <VARIABLE TYPE="nature">
      <NAME>alcohol</NAME>
      <OUTCOME>absent</OUTCOME>
      <OUTCOME>present</OUTCOME>
      <PROPERTY>weight = None</PROPERTY>
    </VARIABLE>
    <VARIABLE TYPE="nature">
      <NAME>alcoholism</NAME>
      <OUTCOME>absent</OUTCOME>
      <OUTCOME>present</OUTCOME>
      <PROPERTY>weight = None</PROPERTY>
    </VARIABLE>
    <VARIABLE TYPE="nature">
      <NAME>alt</NAME>
      <OUTCOME>a199_100</OUTCOME>
      <OUTCOME>a34_0</OUTCOME>
      <OUTCOME>a850_200</OUTCOME>
      <OUTCOME>a99_35</OUTCOME>
      <PROPERTY>weight = None</PROPERTY>
    </VARIABLE>
    <VARIABLE TYPE="nature">
      <NAME>ama</NAME>
      <OUTCOME>absent</OUTCOME>
      <OUTCOME>present</OUTCOME>
      <PROPERTY>weight = None</PROPERTY>
    </VARIABLE>
    <VARIABLE TYPE="nature">
      <NAME>amylase</NAME>
      <OUTCOME>a1400_500</OUTCOME>
      <OUTCOME>a299_0</OUTCOME>
      <OUTCOME>a499_300</OUTCOME>
      <PROPERTY>weight = None</PROPERTY>
    </VARIABLE>
    <VARIABLE TYPE="nature">
      <NAME>anorexia</NAME>
      <OUTCOME>absent</OUTCOME>
      <OUTCOME>present</OUTCOME>
      <PROPERTY>weight = None</PROPERTY>
    </VARIABLE>
    <VARIABLE TYPE="nature">
      <NAME>ascites</NAME>
      <OUTCOME>absent</OUTCOME>
      <OUTCOME>present</OUTCOME>
      <PROPERTY>weight = None</PROPERTY>
    </VARIABLE>
    <VARIABLE TYPE="nature">
      <NAME>ast</NAME>
      <OUTCOME>a149_40</OUTCOME>
      <OUTCOME>a399_150</OUTCOME>
      <OUTCOME>a39_0</OUTCOME>
      <OUTCOME>a700_400</OUTCOME>
      <PROPERTY>weight = None</PROPERTY>
    </VARIABLE>
    <VARIABLE TYPE="nature">
      <NAME>bilirubin</NAME>
      <OUTCOME>a19_7</OUTCOME>
      <OUTCOME>a1_0</OUTCOME>
      <OUTCOME>a6_2</OUTCOME>
      <OUTCOME>a88_20</OUTCOME>
      <PROPERTY>weight = None</PROPERTY>
    </VARIABLE>
    <VARIABLE TYPE="nature">
      <NAME>bleeding</NAME>
      <OUTCOME>absent</OUTCOME>
      <OUTCOME>present</OUTCOME>
      <PROPERTY>weight = None</PROPERTY>
    </VARIABLE>
    <VARIABLE TYPE="nature">
      <NAME>carcinoma</NAME>
      <OUTCOME>absent</OUTCOME>
      <OUTCOME>present</OUTCOME>
      <PROPERTY>weight = None</PROPERTY>
    </VARIABLE>
    <VARIABLE TYPE="nature">
      <NAME>choledocholithotomy</NAME>
      <OUTCOME>absent</OUTCOME>
      <OUTCOME>present</OUTCOME>
      <PROPERTY>weight = None</PROPERTY>
    </VARIABLE>
    <VARIABLE TYPE="nature">
      <NAME>cholesterol</NAME>
      <OUTCOME>a239_0</OUTCOME>
      <OUTCOME>a349_240</OUTCOME>
      <OUTCOME>a999_350</OUTCOME>
      <PROPERTY>weight = None</PROPERTY>
    </VARIABLE>
    <VARIABLE TYPE="nature">
      <NAME>consciousness</NAME>
      <OUTCOME>absent</OUTCOME>
      <OUTCOME>present</OUTCOME>
      <PROPERTY>weight = None</PROPERTY>
    </VARIABLE>
    <VARIABLE TYPE="nature">
      <NAME>density</NAME>
      <OUTCOME>absent</OUTCOME>
      <OUTCOME>present</OUTCOME>
      <PROPERTY>weight = None</PROPERTY>
    </VARIABLE>
    <VARIABLE TYPE="nature">
      <NAME>diabetes</NAME>
      <OUTCOME>absent</OUTCOME>
      <OUTCOME>present</OUTCOME>
      <PROPERTY>weight = None</PROPERTY>
    </VARIABLE>
    <VARIABLE TYPE="nature">
      <NAME>edema</NAME>
      <OUTCOME>absent</OUTCOME>
      <OUTCOME>present</OUTCOME>
      <PROPERTY>weight = None</PROPERTY>
    </VARIABLE>
    <VARIABLE TYPE="nature">
      <NAME>edge</NAME>
      <OUTCOME>absent</OUTCOME>
      <OUTCOME>present</OUTCOME>
      <PROPERTY>weight = None</PROPERTY>
    </VARIABLE>
    <VARIABLE TYPE="nature">
      <NAME>encephalopathy</NAME>
      <OUTCOME>absent</OUTCOME>
      <OUTCOME>present</OUTCOME>
      <PROPERTY>weight = None</PROPERTY>
    </VARIABLE>
    <VARIABLE TYPE="nature">
      <NAME>fat</NAME>
      <OUTCOME>absent</OUTCOME>
      <OUTCOME>present</OUTCOME>
      <PROPERTY>weight = None</PROPERTY>
    </VARIABLE>
    <VARIABLE TYPE="nature">
      <NAME>fatigue</NAME>
      <OUTCOME>absent</OUTCOME>
      <OUTCOME>present</OUTCOME>
      <PROPERTY>weight = None</PROPERTY>
    </VARIABLE>
    <VARIABLE TYPE="nature">
      <NAME>fibrosis</NAME>
      <OUTCOME>absent</OUTCOME>
      <OUTCOME>present</OUTCOME>
      <PROPERTY>weight = None</PROPERTY>
    </VARIABLE>
    <VARIABLE TYPE="nature">
      <NAME>flatulence</NAME>
      <OUTCOME>absent</OUTCOME>
      <OUTCOME>present</OUTCOME>
      <PROPERTY>weight = None</PROPERTY>
    </VARIABLE>
    <VARIABLE TYPE="nature">
      <NAME>gallstones</NAME>
      <OUTCOME>absent</OUTCOME>
      <OUTCOME>present</OUTCOME>
      <PROPERTY>weight = None</PROPERTY>
    </VARIABLE>
    <VARIABLE TYPE="nature">
      <NAME>ggtp</NAME>
      <OUTCOME>a29_10</OUTCOME>
      <OUTCOME>a640_70</OUTCOME>
      <OUTCOME>a69_30</OUTCOME>
      <OUTCOME>a9_0</OUTCOME>
      <PROPERTY>weight = None</PROPERTY>
    </VARIABLE>
    <VARIABLE TYPE="nature">
      <NAME>hbc_anti</NAME>
      <OUTCOME>absent</OUTCOME>
      <OUTCOME>present</OUTCOME>
      <PROPERTY>weight = None</PROPERTY>
    </VARIABLE>
    <VARIABLE TYPE="nature">
      <NAME>hbeag</NAME>
      <OUTCOME>absent</OUTCOME>
      <OUTCOME>present</OUTCOME>
      <PROPERTY>weight = None</PROPERTY>
    </VARIABLE>
    <VARIABLE TYPE="nature">
      <NAME>hbsag</NAME>
      <OUTCOME>absent</OUTCOME>
      <OUTCOME>present</OUTCOME>
      <PROPERTY>weight = None</PROPERTY>
    </VARIABLE>
    <VARIABLE TYPE="nature">
      <NAME>hbsag_anti</NAME>
      <OUTCOME>absent</OUTCOME>
      <OUTCOME>present</OUTCOME>
      <PROPERTY>weight = None</PROPERTY>
    </VARIABLE>
    <VARIABLE TYPE="nature">
      <NAME>hcv_anti</NAME>
      <OUTCOME>absent</OUTCOME>
      <OUTCOME>present</OUTCOME>
      <PROPERTY>weight = None</PROPERTY>
    </VARIABLE>
    <VARIABLE TYPE="nature">
      <NAME>hepatalgia</NAME>
      <OUTCOME>absent</OUTCOME>
      <OUTCOME>present</OUTCOME>
      <PROPERTY>weight = None</PROPERTY>
    </VARIABLE>
    <VARIABLE TYPE="nature">
      <NAME>hepatomegaly</NAME>
      <OUTCOME>absent</OUTCOME>
      <OUTCOME>present</OUTCOME>
      <PROPERTY>weight = None</PROPERTY>
    </VARIABLE>
    <VARIABLE TYPE="nature">
      <NAME>hepatotoxic</NAME>
      <OUTCOME>absent</OUTCOME>
      <OUTCOME>present</OUTCOME>
      <PROPERTY>weight = None</PROPERTY>
    </VARIABLE>
    <VARIABLE TYPE="nature">
      <NAME>hospital</NAME>
      <OUTCOME>absent</OUTCOME>
      <OUTCOME>present</OUTCOME>
      <PROPERTY>weight = None</PROPERTY>
    </VARIABLE>
    <VARIABLE TYPE="nature">
      <NAME>injections</NAME>
      <OUTCOME>absent</OUTCOME>
      <OUTCOME>present</OUTCOME>
      <PROPERTY>weight = None</PROPERTY>
    </VARIABLE>
    <VARIABLE TYPE="nature">
      <NAME>inr</NAME>
      <OUTCOME>a109_70</OUTCOME>
      <OUTCOME>a200_110</OUTCOME>
      <OUTCOME>a69_0</OUTCOME>
      <PROPERTY>weight = None</PROPERTY>
    </VARIABLE>
    <VARIABLE TYPE="nature">
      <NAME>irregular_liver</NAME>
      <OUTCOME>absent</OUTCOME>
      <OUTCOME>present</OUTCOME>
      <PROPERTY>weight = None</PROPERTY>
    </VARIABLE>
    <VARIABLE TYPE="nature">
      <NAME>itching</NAME>
      <OUTCOME>absent</OUTCOME>
      <OUTCOME>present</OUTCOME>
      <PROPERTY>weight = None</PROPERTY>
    </VARIABLE>
    <VARIABLE TYPE="nature">
      <NAME>jaundice</NAME>
      <OUTCOME>absent</OUTCOME>
      <OUTCOME>present</OUTCOME>
      <PROPERTY>weight = None</PROPERTY>
    </VARIABLE>
    <VARIABLE TYPE="nature">
      <NAME>joints</NAME>
      <OUTCOME>absent</OUTCOME>
      <OUTCOME>present</OUTCOME>
      <PROPERTY>weight = None</PROPERTY>
    </VARIABLE>
    <VARIABLE TYPE="nature">
      <NAME>le_cells</NAME>
      <OUTCOME>absent</OUTCOME>
      <OUTCOME>present</OUTCOME>
      <PROPERTY>weight = None</PROPERTY>
    </VARIABLE>
    <VARIABLE TYPE="nature">
      <NAME>nausea</NAME>
      <OUTCOME>absent</OUTCOME>
      <OUTCOME>present</OUTCOME>
      <PROPERTY>weight = None</PROPERTY>
    </VARIABLE>
    <VARIABLE TYPE="nature">
      <NAME>obesity</NAME>
      <OUTCOME>absent</OUTCOME>
      <OUTCOME>present</OUTCOME>
      <PROPERTY>weight = None</PROPERTY>
    </VARIABLE>
    <VARIABLE TYPE="nature">
      <NAME>pain</NAME>
      <OUTCOME>absent</OUTCOME>
      <OUTCOME>present</OUTCOME>
      <PROPERTY>weight = None</PROPERTY>
    </VARIABLE>
    <VARIABLE TYPE="nature">
      <NAME>pain_ruq</NAME>
      <OUTCOME>absent</OUTCOME>
      <OUTCOME>present</OUTCOME>
      <PROPERTY>weight = None</PROPERTY>
    </VARIABLE>
    <VARIABLE TYPE="nature">
      <NAME>palms</NAME>
      <OUTCOME>absent</OUTCOME>
      <OUTCOME>present</OUTCOME>
      <PROPERTY>weight = None</PROPERTY>
    </VARIABLE>
    <VARIABLE TYPE="nature">
      <NAME>phosphatase</NAME>
      <OUTCOME>a239_0</OUTCOME>
      <OUTCOME>a4000_700</OUTCOME>
      <OUTCOME>a699_240</OUTCOME>
      <PROPERTY>weight = None</PROPERTY>
    </VARIABLE>
    <VARIABLE TYPE="nature">
      <NAME>platelet</NAME>
      <OUTCOME>a149_100</OUTCOME>
      <OUTCOME>a299_150</OUTCOME>
      <OUTCOME>a597_300</OUTCOME>
      <OUTCOME>a99_0</OUTCOME>
      <PROPERTY>weight = None</PROPERTY>
    </VARIABLE>
    <VARIABLE TYPE="nature">
      <NAME>pressure_ruq</NAME>
      <OUTCOME>absent</OUTCOME>
      <OUTCOME>present</OUTCOME>
      <PROPERTY>weight = None</PROPERTY>
    </VARIABLE>
    <VARIABLE TYPE="nature">
      <NAME>proteins</NAME>
      <OUTCOME>a10_6</OUTCOME>
      <OUTCOME>a5_2</OUTCOME>
      <PROPERTY>weight = None</PROPERTY>
    </VARIABLE>
    <VARIABLE TYPE="nature">
      <NAME>sex</NAME>
      <OUTCOME>female</OUTCOME>
      <OUTCOME>male</OUTCOME>
      <PROPERTY>weight = None</PROPERTY>
    </VARIABLE>
    <VARIABLE TYPE="nature">
      <NAME>skin</NAME>
      <OUTCOME>absent</OUTCOME>
      <OUTCOME>present</OUTCOME>
      <PROPERTY>weight = None</PROPERTY>
    </VARIABLE>
    <VARIABLE TYPE="nature">
      <NAME>spiders</NAME>
      <OUTCOME>absent</OUTCOME>
      <OUTCOME>present</OUTCOME>
      <PROPERTY>weight = None</PROPERTY>
    </VARIABLE>
    <VARIABLE TYPE="nature">
      <NAME>spleen</NAME>
      <OUTCOME>absent</OUTCOME>
      <OUTCOME>present</OUTCOME>
      <PROPERTY>weight = None</PROPERTY>
    </VARIABLE>
    <VARIABLE TYPE="nature">
      <NAME>surgery</NAME>
      <OUTCOME>absent</OUTCOME>
      <OUTCOME>present</OUTCOME>
      <PROPERTY>weight = None</PROPERTY>
    </VARIABLE>
    <VARIABLE TYPE="nature">
      <NAME>transfusion</NAME>
      <OUTCOME>absent</OUTCOME>
      <OUTCOME>present</OUTCOME>
      <PROPERTY>weight = None</PROPERTY>
    </VARIABLE>
    <VARIABLE TYPE="nature">
      <NAME>triglycerides</NAME>
      <OUTCOME>a17_4</OUTCOME>
      <OUTCOME>a1_0</OUTCOME>
      <OUTCOME>a3_2</OUTCOME>
      <PROPERTY>weight = None</PROPERTY>
    </VARIABLE>
    <VARIABLE TYPE="nature">
      <NAME>upper_pain</NAME>
      <OUTCOME>absent</OUTCOME>
      <OUTCOME>present</OUTCOME>
      <PROPERTY>weight = None</PROPERTY>
    </VARIABLE>
    <VARIABLE TYPE="nature">
      <NAME>urea</NAME>
      <OUTCOME>a165_50</OUTCOME>
      <OUTCOME>a39_0</OUTCOME>
      <OUTCOME>a49_40</OUTCOME>
      <PROPERTY>weight = None</PROPERTY>
    </VARIABLE>
    <VARIABLE TYPE="nature">
      <NAME>vh_amn</NAME>
      <OUTCOME>absent</OUTCOME>
      <OUTCOME>present</OUTCOME>
      <PROPERTY>weight = None</PROPERTY>
    </VARIABLE>
    <DEFINITION>
      <FOR>ChHepatitis</FOR>
      <GIVEN>injections</GIVEN>
      <GIVEN>transfusion</GIVEN>
      <GIVEN>vh_amn</GIVEN>
      <TABLE>0.8187001030441357 0.129710417087992 0.05158947986787238 0.6416043388881598 0.22486112933560773 0.1335345317762323 0.799851341306845 0.14629366849111425 0.05385499020204068 0.20059259259259257 0.5205925925925926 0.27881481481481485 0.9206836607041314 0.07182661532712709 0.007489723968741367 0.8005945207680565 0.13730216116333252 0.06210331806861091 0.8849321292667688 0.04935537002328619 0.0657125007099449 0.7993954383072273 0.19263533937895025 0.007969222313822478 </TABLE>
    </DEFINITION>
    <DEFINITION>
      <FOR>Cirrhosis</FOR>
      <GIVEN>Steatosis</GIVEN>
      <GIVEN>fibrosis</GIVEN>
      <TABLE>0.9987453069654768 0.0006273465172616808 0.0006273465172616808 0.31846994535519124 0.20306010928961749 0.4784699453551912 0.5167417616397209 0.1382630974467709 0.3449951409135083 0.20360360360360358 0.11711711711711713 0.6792792792792793 </TABLE>
    </DEFINITION>
    <DEFINITION>
      <FOR>ESR</FOR>
      <GIVEN>ChHepatitis</GIVEN>
      <GIVEN>PBC</GIVEN>
      <GIVEN>Steatosis</GIVEN>
      <TABLE>0.9074036850921274 0.04125475864169332 0.05134155626617939 0.8200359232864012 0.11501245726867139 0.06495161944492728 0.36009426704451386 0.4281067710615754 0.21179896189391062 0.4830930095286281 0.34648789948562275 0.17041909098574923 0.7589423984891407 0.043701605288007546 0.19735599622285172 0.6075894782233722 0.23501509271237606 0.15739542906425186 0.5022896589433395 0.28084204770692367 0.21686829334973687 0.5080603224128964 0.3395735829433177 0.15236609464378575 0.8880328710837184 0.06337955829481252 0.04858757062146892 0.9450033534540578 0.027498323272971165 0.027498323272971165 0.41560904449307073 0.38935083880379284 0.1950401167031364 0.4267185473411154 0.38002594033722437 0.1932555123216602 </TABLE>
    </DEFINITION>
    <DEFINITION>
      <FOR>Hyperbilirubinemia</FOR>
      <GIVEN>age</GIVEN>
      <GIVEN>sex</GIVEN>
      <TABLE>0.7635682617336799 0.23643173826632014 0.5565048986101617 0.4434951013898382 0.95707693114479 0.04292306885521003 0.9132601808206475 0.08673981917935245 0.9840587449933245 0.015941255006675568 0.984739383029212 0.015260616970787988 0.9949905226103439 0.005009477389656106 0.9957334416903698 0.004266558309630231 </TABLE>
    </DEFINITION>
    <DEFINITION>
      <FOR>PBC</FOR>
      <GIVEN>age</GIVEN>
      <GIVEN>sex</GIVEN>
      <TABLE>0.8773123375630637 0.12268766243693625 0.9994303941672362 0.0005696058327637275 0.38987361686506894 0.6101263831349311 0.9287149370218685 0.07128506297813152 0.3009078771695594 0.6990921228304405 0.9317158988626135 0.06828410113738646 0.3126184673707013 0.6873815326292987 0.5926452661519708 0.4073547338480293 </TABLE>
    </DEFINITION>
    <DEFINITION>
      <FOR>RHepatitis</FOR>
      <TABLE>0.9723638180909545 0.027636181909045477 </TABLE>
    </DEFINITION>
    <DEFINITION>
      <FOR>Steatosis</FOR>
      <GIVEN>alcoholism</GIVEN>
      <GIVEN>obesity</GIVEN>
      <TABLE>0.9371109512340079 0.06288904876599205 0.8159678102498941 0.18403218975010588 0.745442585980079 0.25455741401992105 0.5704607046070461 0.42953929539295393 </TABLE>
    </DEFINITION>
    <DEFINITION>
      <FOR>THepatitis</FOR>
      <GIVEN>alcoholism</GIVEN>
      <GIVEN>hepatotoxic</GIVEN>
      <TABLE>0.9663691324027475 0.033630867597252555 0.9961636828644501 0.0038363171355498722 0.8968345879173905 0.10316541208260953 0.7907662082514735 0.20923379174852652 </TABLE>
    </DEFINITION>
    <DEFINITION>
      <FOR>age</FOR>
      <TABLE>0.13655672163918042 0.39992503748125935 0.38663168415792104 0.07688655672163917 </TABLE>
    </DEFINITION>
    <DEFINITION>
      <FOR>albumin</FOR>
      <GIVEN>Cirrhosis</GIVEN>
      <TABLE>0.11951908626390141 0.1414848211602044 0.7389960925758942 0.029979674796747968 0.0025406504065040654 0.9674796747967479 0.002855977152182783 0.07813137494900041 0.9190126478988169 </TABLE>
    </DEFINITION>
    <DEFINITION>
      <FOR>alcohol</FOR>
      <GIVEN>Cirrhosis</GIVEN>
      <TABLE>0.8870513976555455 0.11294860234445445 0.7492378048780488 0.2507621951219512 0.8093635250917993 0.19063647490820074 </TABLE>
    </DEFINITION>
    <DEFINITION>
      <FOR>alcoholism</FOR>
      <TABLE>0.8578210894552724 0.14217891054472764 </TABLE>
    </DEFINITION>
    <DEFINITION>
      <FOR>alt</FOR>
      <GIVEN>ChHepatitis</GIVEN>
      <GIVEN>RHepatitis</GIVEN>
      <GIVEN>Steatosis</GIVEN>
      <GIVEN>THepatitis</GIVEN>
      <TABLE>0.16917319256258537 0.3501847917030331 0.0439241451126507 0.4367178706217308 0.0537174721189591 0.5533457249070631 0.007323420074349442 0.3856133828996282 0.0941296679917138 0.48380549801242934 0.009475953194110072 0.4125888808017468 0.10479688850475367 0.4989196197061366 0.02182368193604149 0.3744598098530683 0.22390764133360946 0.32827707599917166 0.015168772002484988 0.4326465106647339 0.22285067873303172 0.5486425339366516 0.005656108597285069 0.22285067873303172 0.14442815249266863 0.4963343108504399 0.07404692082111437 0.28519061583577715 0.9292452830188678 0.023584905660377353 0.023584905660377353 0.023584905660377353 0.21023511775612452 0.26230817783739 0.12313108998382581 0.4043256144226597 0.09676775738228252 0.4223862729449322 0.05845969672785316 0.4223862729449322 0.22024036627241508 0.2751812285387256 0.06457458985120182 0.44000381533765737 0.24999999999999994 0.4876237623762376 0.012376237623762375 0.24999999999999994 0.19392523364485983 0.5143524699599467 0.033711615487316424 0.2580106809078772 0.9292452830188678 0.023584905660377353 0.023584905660377353 0.023584905660377353 0.25 0.48762376237623767 0.25 0.012376237623762377 0.25 0.25 0.25 0.25 0.11482005266751195 0.5899980493514094 0.018848142007217402 0.2763337559738613 0.12607573149741824 0.4565404475043029 0.0021514629948364886 0.4152323580034423 0.07339622641509434 0.5081132075471698 0.055283018867924534 0.36320754716981135 0.20199999999999999 0.01 0.01 0.778 0.11425339366515838 0.4400452488687783 0.005656108597285069 0.4400452488687783 0.25 0.25 0.25 0.25 0.023584905660377357 0.023584905660377357 0.023584905660377357 0.9292452830188679 0.25 0.25 0.25 0.25 </TABLE>
    </DEFINITION>
    <DEFINITION>
      <FOR>ama</FOR>
      <GIVEN>PBC</GIVEN>
      <TABLE>0.9863041534585061 0.013695846541493945 0.4311015959517322 0.5688984040482679 </TABLE>
    </DEFINITION>
    <DEFINITION>
      <FOR>amylase</FOR>
      <GIVEN>gallstones</GIVEN>
      <TABLE>0.010357093724819681 0.9757482852819211 0.013894620993259041 0.026784738165518754 0.9280638460697498 0.04515141576473161 </TABLE>
    </DEFINITION>
    <DEFINITION>
      <FOR>anorexia</FOR>
      <GIVEN>RHepatitis</GIVEN>
      <GIVEN>THepatitis</GIVEN>
      <TABLE>0.7138121695251899 0.2861878304748101 0.8029571514785757 0.19704284852142426 0.8641563393708294 0.13584366062917064 0.6754385964912281 0.32456140350877194 </TABLE>
    </DEFINITION>
    <DEFINITION>
      <FOR>ascites</FOR>
      <GIVEN>proteins</GIVEN>
      <TABLE>0.8751463625719086 0.12485363742809143 0.3773841961852861 0.6226158038147139 </TABLE>
    </DEFINITION>
    <DEFINITION>
      <FOR>ast</FOR>
      <GIVEN>ChHepatitis</GIVEN>
      <GIVEN>RHepatitis</GIVEN>
      <GIVEN>Steatosis</GIVEN>
      <GIVEN>THepatitis</GIVEN>
      <TABLE>0.45853171856283825 0.22955854646578344 0.30121198076240124 0.010697754208977145 0.37490706319702605 0.060855018587360594 0.556914498141264 0.007323420074349443 0.4636498516320474 0.08203628016348469 0.4542438833212026 6.998488326521471e-05 0.4574330164217804 0.06331028522039758 0.47817631806395844 0.00108038029386344 0.7010250569476081 0.09468834127148476 0.199057775937047 0.005228825843860011 0.5486425339366515 0.11425339366515835 0.33144796380090497 0.005656108597285068 0.6370967741935484 0.07404692082111436 0.2851906158357771 0.0036656891495601175 0.9292452830188678 0.023584905660377353 0.023584905660377353 0.023584905660377353 0.4592390232356306 0.23769182216260998 0.26704209239023236 0.036027062211527086 0.5373104549082203 0.13507581803671187 0.307462090981644 0.02015163607342378 0.42169019458222057 0.1836131247615414 0.3575925219381916 0.037104158718046544 0.48762376237623767 0.012376237623762377 0.48762376237623767 0.012376237623762377 0.45026702269692925 0.2580106809078772 0.2580106809078772 0.033711615487316424 0.4764150943396226 0.023584905660377357 0.4764150943396226 0.023584905660377357 0.25 0.012376237623762377 0.7252475247524753 0.012376237623762377 0.25 0.25 0.25 0.25 0.38635033648688194 0.12418316590266265 0.45891446405929975 0.030552033551155763 0.45654044750430295 0.08476764199655767 0.45654044750430295 0.002151462994836489 0.4356603773584905 0.10962264150943395 0.45377358490566033 0.0009433962264150943 0.20199999999999999 0.20199999999999999 0.5860000000000001 0.01 0.4400452488687782 0.11425339366515835 0.4400452488687782 0.005656108597285068 0.25 0.25 0.25 0.25 0.4764150943396226 0.023584905660377357 0.4764150943396226 0.023584905660377357 0.25 0.25 0.25 0.25 </TABLE>
    </DEFINITION>
    <DEFINITION>
      <FOR>bilirubin</FOR>
      <GIVEN>Cirrhosis</GIVEN>
      <GIVEN>Hyperbilirubinemia</GIVEN>
      <GIVEN>PBC</GIVEN>
      <GIVEN>gallstones</GIVEN>
      <TABLE>0.017300248758608104 0.8508240729179674 0.1295585735278581 0.0023171047955665262 0.02304889078044368 0.9219157312337074 0.030709687716124905 0.024325690269723886 0.16010240955251165 0.42268221615985596 0.37983303100852694 0.03738234327910531 0.2218085529983276 0.30781635741020946 0.36897746276976984 0.10139762682169308 0.006382329877145596 0.46434172693212517 0.5270758909122594 0.0022000522784699833 0.05420205632543586 0.7408359409924007 0.1507599463567278 0.05420205632543586 0.1307049254405784 0.4452101220063263 0.3909850881156801 0.03309986443741528 0.25 0.18830334190231365 0.3116966580976864 0.25 0.0104989604989605 0.8786902286902288 0.11029106029106031 0.0005197505197505199 0.002711496746203905 0.3671366594360087 0.6274403470715836 0.002711496746203905 0.2254242246928028 0.4782036278525454 0.2956407255705091 0.0007314218841427736 0.1444281524926686 0.6370967741935484 0.1444281524926686 0.07404692082111435 0.08617747440273035 0.6595563139931739 0.24999999999999997 0.004266211604095562 0.25 0.25 0.25 0.25 0.04310344827586208 0.8706896551724139 0.04310344827586208 0.04310344827586208 0.25 0.25 0.25 0.25 0.08382685943215466 0.581301167044069 0.3053910468559484 0.0294809266678279 0.13689915174363806 0.6119227144203581 0.18213949104618285 0.06903864278982093 0.14527858581338104 0.4674983217722085 0.3815730588498545 0.005650033564555829 0.16074380165289257 0.39876033057851246 0.39876033057851246 0.04173553719008264 0.051036269430051816 0.4240932642487046 0.5235751295336787 0.0012953367875647669 0.016233766233766232 0.9512987012987012 0.016233766233766232 0.016233766233766232 0.012376237623762377 0.25 0.7252475247524753 0.012376237623762377 0.9292452830188678 0.023584905660377353 0.023584905660377353 0.023584905660377353 </TABLE>
    </DEFINITION>
    <DEFINITION>
      <FOR>bleeding</FOR>
      <GIVEN>inr</GIVEN>
      <GIVEN>platelet</GIVEN>
      <TABLE>0.871451543076257 0.12854845692374298 0.8629980072930364 0.13700199270696364 0.8907042585820455 0.10929574141795445 0.7443807512445316 0.25561924875546843 0.7860103626943005 0.21398963730569945 0.8971281130805475 0.10287188691945257 0.8859111791730474 0.11408882082695251 0.33561643835616445 0.6643835616438356 0.8022464261402315 0.19775357385976855 0.5536728023395837 0.44632719766041634 0.8901581722319859 0.10984182776801404 0.3675862068965517 0.6324137931034483 </TABLE>
    </DEFINITION>
    <DEFINITION>
      <FOR>carcinoma</FOR>
      <GIVEN>Cirrhosis</GIVEN>
      <GIVEN>PBC</GIVEN>
      <TABLE>0.9899142196328717 0.01008578036712826 0.9004132813600714 0.09958671863992863 0.8299620733249051 0.17003792667509482 0.7072936660268714 0.2927063339731286 0.6927587965323815 0.3072412034676186 0.6446059678653405 0.3553940321346596 </TABLE>
    </DEFINITION>
    <DEFINITION>
      <FOR>choledocholithotomy</FOR>
      <GIVEN>gallstones</GIVEN>
      <TABLE>0.9649490006485467 0.03505099935145333 0.29927845195145947 0.7007215480485405 </TABLE>
    </DEFINITION>
    <DEFINITION>
      <FOR>cholesterol</FOR>
      <GIVEN>ChHepatitis</GIVEN>
      <GIVEN>PBC</GIVEN>
      <GIVEN>Steatosis</GIVEN>
      <TABLE>0.9003867823968327 0.0993634840871022 0.0002497335160651744 0.7407729300654731 0.2047047917028796 0.05452227823164725 0.5034814533485251 0.3632494863030374 0.13326906034843747 0.5741630828906316 0.33738089214942235 0.08845602495994603 0.8922001888574126 0.06817752596789423 0.0396222851746931 0.623113410952997 0.31263475636050025 0.06425183268650282 0.6031713485065956 0.3005262798168273 0.09630237167657713 0.6391055642225689 0.2834113364534582 0.07748309932397297 0.9619928094504364 0.03379558294812531 0.0042116076014381085 0.7035546613011402 0.26894701542588867 0.02749832327297116 0.5363967906637491 0.3525893508388038 0.11101385849744713 0.6134889753566796 0.28664072632944226 0.09987029831387807 </TABLE>
    </DEFINITION>
    <DEFINITION>
      <FOR>consciousness</FOR>
      <GIVEN>encephalopathy</GIVEN>
      <TABLE>0.9836981715168684 0.016301828483131598 0.6361344537815126 0.3638655462184874 </TABLE>
    </DEFINITION>
    <DEFINITION>
      <FOR>density</FOR>
      <GIVEN>encephalopathy</GIVEN>
      <TABLE>0.6196497553438063 0.38035024465619366 0.2865546218487395 0.7134453781512605 </TABLE>
    </DEFINITION>
    <DEFINITION>
      <FOR>diabetes</FOR>
      <TABLE>0.964367816091954 0.035632183908045977 </TABLE>
    </DEFINITION>
    <DEFINITION>
      <FOR>edema</FOR>
      <GIVEN>Cirrhosis</GIVEN>
      <TABLE>0.8688728584310189 0.13112714156898106 0.9184451219512195 0.08155487804878048 0.6606487148102815 0.3393512851897185 </TABLE>
    </DEFINITION>
    <DEFINITION>
      <FOR>edge</FOR>
      <GIVEN>Cirrhosis</GIVEN>
      <TABLE>0.765536519386835 0.23446348061316505 0.5708841463414634 0.4291158536585366 0.2842717258261934 0.7157282741738066 </TABLE>
    </DEFINITION>
    <DEFINITION>
      <FOR>encephalopathy</FOR>
      <GIVEN>PBC</GIVEN>
      <TABLE>0.9828903519466796 0.01710964805332033 0.9501102893473465 0.049889710652653435 </TABLE>
    </DEFINITION>
    <DEFINITION>
      <FOR>fat</FOR>
      <GIVEN>gallstones</GIVEN>
      <TABLE>0.72109545427746 0.2789045457225399 0.8096097081010167 0.19039029189898327 </TABLE>
    </DEFINITION>
    <DEFINITION>
      <FOR>fatigue</FOR>
      <GIVEN>ChHepatitis</GIVEN>
      <GIVEN>RHepatitis</GIVEN>
      <TABLE>0.46072463465988445 0.5392753653401154 0.2619397501836885 0.7380602498163116 0.38009821306779434 0.6199017869322057 0.3017621145374449 0.698237885462555 0.5009768804949528 0.4990231195050472 0.7112676056338029 0.2887323943661972 </TABLE>
    </DEFINITION>
    <DEFINITION>
      <FOR>fibrosis</FOR>
      <GIVEN>ChHepatitis</GIVEN>
      <TABLE>0.9988039732414351 0.0011960267585647678 0.6881450119079121 0.31185498809208784 0.952577975811585 0.04742202418841503 </TABLE>
    </DEFINITION>
    <DEFINITION>
      <FOR>flatulence</FOR>
      <TABLE>0.5786606696651674 0.42133933033483256 </TABLE>
    </DEFINITION>
    <DEFINITION>
      <FOR>gallstones</FOR>
      <TABLE>0.8476261869065467 0.15237381309345327 </TABLE>
    </DEFINITION>
    <DEFINITION>
      <FOR>ggtp</FOR>
      <GIVEN>ChHepatitis</GIVEN>
      <GIVEN>Hyperbilirubinemia</GIVEN>
      <GIVEN>PBC</GIVEN>
      <GIVEN>RHepatitis</GIVEN>
      <TABLE>0.13579945130575938 0.07998072925071908 0.08977748455017513 0.6944423348933463 0.0743451463790447 0.05215716486902928 0.00778120184899846 0.8657164869029277 0.12567350443924263 0.25365666163413997 0.21775489286258434 0.40291494106403314 0.21343490304709142 0.2799168975069252 0.20013850415512469 0.30650969529085875 0.023998174728283417 0.0060773251472662415 0.010059736165270058 0.9598647639591803 0.23107255520504733 0.07965299684542586 0.003943217665615142 0.6853312302839117 0.08457330415754923 0.2421225382932166 0.20010940919037196 0.4731947483588621 0.016233766233766232 0.6396103896103896 0.3279220779220779 0.016233766233766232 0.1835460181785349 0.08242039366760971 0.1344278577017998 0.5996057304520557 0.04173553719008264 0.04173553719008264 0.16074380165289257 0.7557851239669421 0.1046142924751538 0.21365357311878844 0.20456696639848554 0.47716516800757214 0.10306122448979592 0.20102040816326536 0.10306122448979592 0.5928571428571429 0.1253246753246753 0.05051948051948051 0.0879220779220779 0.7362337662337661 0.4764150943396226 0.023584905660377357 0.4764150943396226 0.023584905660377357 0.11425339366515835 0.2228506787330317 0.005656108597285068 0.6572398190045248 0.25 0.25 0.25 0.25 0.15834206979182266 0.0073760670960011975 0.02894263890968998 0.805339224202486 0.012376237623762377 0.012376237623762377 0.012376237623762377 0.9628712871287128 0.12703359391506444 0.22337840693006553 0.19295372913585468 0.45663427001901546 0.008389261744966443 0.33053691275167785 0.008389261744966443 0.6526845637583891 0.07025677603423681 0.03601997146932953 0.03601997146932953 0.8577032810271041 0.25 0.25 0.25 0.25 0.007225433526011561 0.5621387283236994 0.28468208092485553 0.14595375722543352 0.04310344827586207 0.04310344827586207 0.04310344827586207 0.8706896551724138 </TABLE>
    </DEFINITION>
    <DEFINITION>
      <FOR>hbc_anti</FOR>
      <GIVEN>ChHepatitis</GIVEN>
      <GIVEN>vh_amn</GIVEN>
      <TABLE>0.8976108811354228 0.10238911886457716 0.9180014174344436 0.08199858256555634 0.8951443318677118 0.10485566813228829 0.9989256553502363 0.001074344649763644 0.8937210499227998 0.10627895007720019 0.98790658882402 0.012093411175979984 </TABLE>
    </DEFINITION>
    <DEFINITION>
      <FOR>hbeag</FOR>
      <GIVEN>ChHepatitis</GIVEN>
      <TABLE>0.9984390837218731 0.0015609162781269003 0.9985445885154803 0.0014554114845197145 0.9544875875238702 0.04551241247612985 </TABLE>
    </DEFINITION>
    <DEFINITION>
      <FOR>hbsag</FOR>
      <GIVEN>ChHepatitis</GIVEN>
      <GIVEN>hbsag_anti</GIVEN>
      <GIVEN>vh_amn</GIVEN>
      <TABLE>0.9549249852617395 0.045075014738260526 0.8887460515683537 0.11125394843164621 0.9898813677599442 0.010118632240055827 0.9225352112676056 0.07746478873239436 0.8434736125959763 0.15652638740402372 0.5041049030786773 0.49589509692132266 0.08381502890173409 0.9161849710982659 0.8568773234200744 0.14312267657992567 0.9590333419488241 0.04096665805117602 0.4949087823504455 0.5050912176495546 0.1470588235294118 0.8529411764705883 0.3536585365853658 0.6463414634146342 </TABLE>
    </DEFINITION>
    <DEFINITION>
      <FOR>hbsag_anti</FOR>
      <TABLE>0.97976011994003 0.020239880059970013 </TABLE>
    </DEFINITION>
    <DEFINITION>
      <FOR>hcv_anti</FOR>
      <TABLE>0.9978510744627687 0.0021489255372313843 </TABLE>
    </DEFINITION>
    <DEFINITION>
      <FOR>hepatalgia</FOR>
      <GIVEN>hepatomegaly</GIVEN>
      <TABLE>0.968240410001553 0.03175958999844696 0.6897428339842311 0.3102571660157689 </TABLE>
    </DEFINITION>
    <DEFINITION>
      <FOR>hepatomegaly</FOR>
      <GIVEN>Hyperbilirubinemia</GIVEN>
      <GIVEN>THepatitis</GIVEN>
      <TABLE>0.3054389178526138 0.6945610821473862 0.2219730941704036 0.7780269058295964 0.576568592697625 0.42343140730237505 0.434640522875817 0.565359477124183 </TABLE>
    </DEFINITION>
    <DEFINITION>
      <FOR>hepatotoxic</FOR>
      <TABLE>0.9188905547226387 0.08110944527736132 </TABLE>
    </DEFINITION>
    <DEFINITION>
      <FOR>hospital</FOR>
      <TABLE>0.46541729135432286 0.5345827086456771 </TABLE>
    </DEFINITION>
    <DEFINITION>
      <FOR>injections</FOR>
      <GIVEN>choledocholithotomy</GIVEN>
      <GIVEN>hospital</GIVEN>
      <GIVEN>surgery</GIVEN>
      <TABLE>0.9388783011162537 0.06112169888374626 0.7629877128691528 0.23701228713084715 0.513046922324216 0.486953077675784 0.2624406426852273 0.7375593573147726 0.9934790271413465 0.0065209728586535076 0.6950304735114862 0.30496952648851383 0.17463520645762184 0.8253647935423781 0.1911818514452982 0.8088181485547018 </TABLE>
    </DEFINITION>
    <DEFINITION>
      <FOR>inr</FOR>
      <GIVEN>ChHepatitis</GIVEN>
      <GIVEN>Cirrhosis</GIVEN>
      <TABLE>0.8853787361553633 0.06031899560006068 0.05430226824457594 0.718525460793502 0.0015620118712902215 0.2799125273352077 0.6557418699186992 0.0006351626016260162 0.34362296747967486 0.9045271354227804 0.016042571506827873 0.07943029307039166 0.8060380479735317 0.0020678246484698093 0.19189412737799832 0.788104705102717 0.01872100728959576 0.19317428760768718 0.8854932598039217 0.0893075980392157 0.02519914215686275 0.6807017543859649 0.11228070175438597 0.20701754385964913 0.7167919799498748 0.040100250626566414 0.24310776942355888 </TABLE>
    </DEFINITION>
    <DEFINITION>
      <FOR>irregular_liver</FOR>
      <GIVEN>Cirrhosis</GIVEN>
      <TABLE>0.8991704238052299 0.10082957619477005 0.6303353658536586 0.36966463414634143 0.4568543451652387 0.5431456548347613 </TABLE>
    </DEFINITION>
    <DEFINITION>
      <FOR>itching</FOR>
      <GIVEN>bilirubin</GIVEN>
      <TABLE>0.31783317353787155 0.6821668264621285 0.6684602806403772 0.3315397193596228 0.45206254500565785 0.5479374549943421 0.12199312714776632 0.8780068728522337 </TABLE>
    </DEFINITION>
    <DEFINITION>
      <FOR>jaundice</FOR>
      <GIVEN>bilirubin</GIVEN>
      <TABLE>0.42649408756791307 0.5735059124320869 0.8102255010077195 0.1897744989922805 0.6289990741693241 0.37100092583067584 0.20904925544100803 0.790950744558992 </TABLE>
    </DEFINITION>
    <DEFINITION>
      <FOR>joints</FOR>
      <GIVEN>PBC</GIVEN>
      <TABLE>0.9022596114768756 0.09774038852312444 0.8681069157908395 0.13189308420916052 </TABLE>
    </DEFINITION>
    <DEFINITION>
      <FOR>le_cells</FOR>
      <GIVEN>PBC</GIVEN>
      <TABLE>0.9606193611314313 0.03938063886856864 0.8748540288049825 0.12514597119501752 </TABLE>
    </DEFINITION>
    <DEFINITION>
      <FOR>nausea</FOR>
      <GIVEN>THepatitis</GIVEN>
      <TABLE>0.7173027724116326 0.28269722758836735 0.602683780630105 0.397316219369895 </TABLE>
    </DEFINITION>
    <DEFINITION>
      <FOR>obesity</FOR>
      <GIVEN>diabetes</GIVEN>
      <TABLE>0.9390319738819506 0.06096802611804944 0.7356241234221599 0.2643758765778401 </TABLE>
    </DEFINITION>
    <DEFINITION>
      <FOR>pain</FOR>
      <GIVEN>PBC</GIVEN>
      <GIVEN>joints</GIVEN>
      <TABLE>0.8157515427233007 0.18424845727669925 0.16902286902286903 0.830977130977131 0.8590165159554592 0.14098348404454078 0.5954254795868175 0.4045745204131825 </TABLE>
    </DEFINITION>
    <DEFINITION>
      <FOR>pain_ruq</FOR>
      <GIVEN>Hyperbilirubinemia</GIVEN>
      <GIVEN>Steatosis</GIVEN>
      <TABLE>0.5799832119195372 0.4200167880804629 0.5265654648956357 0.47343453510436434 0.710720887245841 0.28927911275415896 0.604089219330855 0.395910780669145 </TABLE>
    </DEFINITION>
    <DEFINITION>
      <FOR>palms</FOR>
      <GIVEN>Cirrhosis</GIVEN>
      <TABLE>0.8597835888187556 0.14021641118124437 0.680640243902439 0.31935975609756095 0.4715422276621787 0.5284577723378213 </TABLE>
    </DEFINITION>
    <DEFINITION>
      <FOR>phosphatase</FOR>
      <GIVEN>ChHepatitis</GIVEN>
      <GIVEN>Cirrhosis</GIVEN>
      <GIVEN>RHepatitis</GIVEN>
      <GIVEN>THepatitis</GIVEN>
      <TABLE>0.4498674824717471 0.2194508046931651 0.33068171283508774 0.8050642964048993 0.0793243532178747 0.11561135037722593 0.7726520942291358 0.00022350364310938265 0.22712440212775467 0.9908675799086759 0.004566210045662101 0.004566210045662101 0.5501824043437686 0.06456265377110376 0.3852549418851277 0.9819819819819818 0.009009009009009005 0.009009009009009005 0.494407158836689 0.011185682326621923 0.494407158836689 0.3333333333333333 0.3333333333333333 0.3333333333333333 0.4360366002157046 0.07156525066972828 0.49239814911456703 0.5485057471264368 0.002298850574712644 0.44919540229885063 0.9776286353467559 0.01118568232662192 0.01118568232662192 0.9186991869918699 0.04065040650406504 0.04065040650406504 0.7530762312860393 0.029762471565359997 0.21716129714860075 0.748558246828143 0.05098039215686274 0.2004613610149942 0.731490015360983 0.0015360983102918585 0.266973886328725 0.9186991869918699 0.04065040650406504 0.04065040650406504 0.6700380641653073 0.024034801522566613 0.3059271343121262 0.3333333333333333 0.014749262536873156 0.6519174041297935 0.04065040650406504 0.04065040650406504 0.9186991869918699 0.3333333333333333 0.3333333333333333 0.3333333333333333 0.6388174227036786 0.044098397652900016 0.3170841796434213 0.7646229739252995 0.0035236081747709656 0.23185341789992955 0.494407158836689 0.011185682326621923 0.494407158836689 0.9186991869918699 0.04065040650406504 0.04065040650406504 0.7971839116003876 0.02459438843878203 0.17822169996083037 0.7974217311233885 0.041620626151012884 0.1609576427255985 0.7710233029381965 0.005065856129685916 0.22391084093211752 0.3333333333333333 0.3333333333333333 0.3333333333333333 0.3981981981981982 0.009009009009009007 0.5927927927927927 0.6519174041297935 0.014749262536873156 0.3333333333333333 0.48917748917748916 0.021645021645021644 0.48917748917748916 0.3333333333333333 0.3333333333333333 0.3333333333333333 0.6057913787430075 0.10825929582099374 0.2859493254359986 0.9186991869918699 0.04065040650406504 0.04065040650406504 0.3333333333333333 0.3333333333333333 0.3333333333333333 0.3333333333333333 0.3333333333333333 0.3333333333333333 </TABLE>
    </DEFINITION>
    <DEFINITION>
      <FOR>platelet</FOR>
      <GIVEN>Cirrhosis</GIVEN>
      <GIVEN>PBC</GIVEN>
      <TABLE>0.14161811634511232 0.7369280089000791 0.09190649061685748 0.029547384137951233 0.15701169398393836 0.6715469872728126 0.06571408444089606 0.10572723430235287 0.1836283185840708 0.6766750948166877 0.054677623261694064 0.08501896333754742 0.20969289827255277 0.612763915547025 0.03694817658349329 0.140595009596929 0.2790668026517083 0.46570627231004597 0.0985466598674146 0.15668026517083122 0.24426166794185153 0.5977429227237949 0.042272379495026775 0.11572302983932668 </TABLE>
    </DEFINITION>
    <DEFINITION>
      <FOR>pressure_ruq</FOR>
      <GIVEN>PBC</GIVEN>
      <GIVEN>gallstones</GIVEN>
      <TABLE>0.5463687418998704 0.4536312581001296 0.7109727007686192 0.2890272992313809 0.7070440828176331 0.29295591718236685 0.6651612903225806 0.33483870967741935 </TABLE>
    </DEFINITION>
    <DEFINITION>
      <FOR>proteins</FOR>
      <GIVEN>Cirrhosis</GIVEN>
      <TABLE>0.9803246167718664 0.01967538322813345 0.9961890243902438 0.0038109756097560975 0.9984700122399021 0.001529987760097919 </TABLE>
    </DEFINITION>
    <DEFINITION>
      <FOR>sex</FOR>
      <TABLE>0.6000499750124938 0.39995002498750626 </TABLE>
    </DEFINITION>
    <DEFINITION>
      <FOR>skin</FOR>
      <GIVEN>bilirubin</GIVEN>
      <TABLE>0.10434643656120166 0.8956535634387983 0.8205688861847359 0.1794311138152641 0.297345952062545 0.702654047937455 0.0028636884306987398 0.9971363115693013 </TABLE>
    </DEFINITION>
    <DEFINITION>
      <FOR>spiders</FOR>
      <GIVEN>Cirrhosis</GIVEN>
      <GIVEN>THepatitis</GIVEN>
      <TABLE>0.8215474600816234 0.17845253991837656 0.7698551996489689 0.23014480035103113 0.5290088638195004 0.4709911361804996 0.45774647887323944 0.5422535211267605 0.386773875943551 0.6132261240564489 0.581447963800905 0.418552036199095 </TABLE>
    </DEFINITION>
    <DEFINITION>
      <FOR>spleen</FOR>
      <GIVEN>Cirrhosis</GIVEN>
      <TABLE>0.8981965734896302 0.1018034265103697 0.7309451219512195 0.2690548780487805 0.5596695226438189 0.4403304773561812 </TABLE>
    </DEFINITION>
    <DEFINITION>
      <FOR>surgery</FOR>
      <TABLE>0.5732633683158421 0.42673663168415793 </TABLE>
    </DEFINITION>
    <DEFINITION>
      <FOR>transfusion</FOR>
      <GIVEN>choledocholithotomy</GIVEN>
      <GIVEN>hospital</GIVEN>
      <GIVEN>surgery</GIVEN>
      <TABLE>0.9885379798529812 0.011462020147018786 0.6991808579435224 0.3008191420564777 0.8914076697264806 0.1085923302735194 0.6959279255838158 0.3040720744161842 0.9991187874515333 0.0008812125484666902 0.8750586029067041 0.12494139709329583 0.8154299906861223 0.18457000931387768 0.6800219538968166 0.3199780461031833 </TABLE>
    </DEFINITION>
    <DEFINITION>
      <FOR>triglycerides</FOR>
      <GIVEN>Steatosis</GIVEN>
      <TABLE>0.023496570720795664 0.9431349712532119 0.03336845802599226 0.17668856324743135 0.6476334849250462 0.1756779518275223 </TABLE>
    </DEFINITION>
    <DEFINITION>
      <FOR>upper_pain</FOR>
      <GIVEN>gallstones</GIVEN>
      <TABLE>0.609073757443547 0.39092624255645303 0.5675631354542473 0.4324368645457527 </TABLE>
    </DEFINITION>
    <DEFINITION>
      <FOR>urea</FOR>
      <GIVEN>diabetes</GIVEN>
      <GIVEN>encephalopathy</GIVEN>
      <TABLE>0.036910391009715146 0.8949768029991363 0.06811280599114863 0.21159919609532013 0.6215905828308929 0.16681022107378696 0.02696253877356239 0.9489382009067048 0.024099260319732755 0.47126436781609193 0.3333333333333333 0.19540229885057472 </TABLE>
    </DEFINITION>
    <DEFINITION>
      <FOR>vh_amn</FOR>
      <GIVEN>hbsag_anti</GIVEN>
      <TABLE>0.8269574088242795 0.1730425911757205 0.6679012345679012 0.33209876543209876 </TABLE>
    </DEFINITION>
  </NETWORK>
</BIF>
