<?xml version='1.0' encoding='utf-8'?>
<BIF VERSION="0.3">
  <NETWORK>
    <NAME>UNTITLED</NAME>
    <VARIABLE TYPE="nature">
      <NAME>ChHepatitis</NAME>
      <OUTCOME>absent</OUTCOME>
      <OUTCOME>active</OUTCOME>
      <OUTCOME>persistent</OUTCOME>
      <PROPERTY>weight = None</PROPERTY>
    </VARIABLE>
    <VARIABLE TYPE="nature">
      <NAME>Cirrhosis</NAME>
      <OUTCOME>absent</OUTCOME>
      <OUTCOME>compensate</OUTCOME>
      <OUTCOME>decompensate</OUTCOME>
      <PROPERTY>weight = None</PROPERTY>
    </VARIABLE>
    <VARIABLE TYPE="nature">
      <NAME>ESR</NAME>
      <OUTCOME>a14_0</OUTCOME>
      <OUTCOME>a200_50</OUTCOME>
      <OUTCOME>a49_15</OUTCOME>
      <PROPERTY>weight = None</PROPERTY>
    </VARIABLE>
    <VARIABLE TYPE="nature">
      <NAME>Hyperbilirubinemia</NAME>
      <OUTCOME>absent</OUTCOME>
      <OUTCOME>present</OUTCOME>
      <PROPERTY>weight = None</PROPERTY>
    </VARIABLE>
    <VARIABLE TYPE="nature">
      <NAME>PBC</NAME>
      <OUTCOME>absent</OUTCOME>
      <OUTCOME>present</OUTCOME>
      <PROPERTY>weight = None</PROPERTY>
    </VARIABLE>
    <VARIABLE TYPE="nature">
      <NAME>RHepatitis</NAME>
      <OUTCOME>absent</OUTCOME>
      <OUTCOME>present</OUTCOME>
      <PROPERTY>weight = None</PROPERTY>
    </VARIABLE>
    <VARIABLE TYPE="nature">
      <NAME>Steatosis</NAME>
      <OUTCOME>absent</OUTCOME>
      <OUTCOME>present</OUTCOME>
      <PROPERTY>weight = None</PROPERTY>
    </VARIABLE>
    <VARIABLE TYPE="nature">
      <NAME>THepatitis</NAME>
      <OUTCOME>absent</OUTCOME>
      <OUTCOME>present</OUTCOME>
      <PROPERTY>weight = None</PROPERTY>
    </VARIABLE>
    <VARIABLE TYPE="nature">
      <NAME>age</NAME>
      <OUTCOME>age0_30</OUTCOME>
      <OUTCOME>age31_50</OUTCOME>
      <OUTCOME>age51_65</OUTCOME>
      <OUTCOME>age65_100</OUTCOME>
      <PROPERTY>weight = None</PROPERTY>
    </VARIABLE>
    <VARIABLE TYPE="nature">
      <NAME>albumin</NAME>
      <OUTCOME>a29_0</OUTCOME>
      <OUTCOME>a49_30</OUTCOME>
      <OUTCOME>a70_50</OUTCOME>
      <PROPERTY>weight = None</PROPERTY>
    </VARIABLE>
    <VARIABLE TYPE="nature">
      <NAME>alcohol</NAME>
      <OUTCOME>absent</OUTCOME>
      <OUTCOME>present</OUTCOME>
      <PROPERTY>weight = None</PROPERTY>
    </VARIABLE>
    <VARIABLE TYPE="nature">
      <NAME>alcoholism</NAME>
      <OUTCOME>absent</OUTCOME>
      <OUTCOME>present</OUTCOME>
      <PROPERTY>weight = None</PROPERTY>
    </VARIABLE>
    <VARIABLE TYPE="nature">
      <NAME>alt</NAME>
      <OUTCOME>a199_100</OUTCOME>
      <OUTCOME>a34_0</OUTCOME>
      <OUTCOME>a850_200</OUTCOME>
      <OUTCOME>a99_35</OUTCOME>
      <PROPERTY>weight = None</PROPERTY>
    </VARIABLE>
    <VARIABLE TYPE="nature">
      <NAME>ama</NAME>
      <OUTCOME>absent</OUTCOME>
      <OUTCOME>present</OUTCOME>
      <PROPERTY>weight = None</PROPERTY>
    </VARIABLE>
    <VARIABLE TYPE="nature">
      <NAME>amylase</NAME>
      <OUTCOME>a1400_500</OUTCOME>
      <OUTCOME>a299_0</OUTCOME>
      <OUTCOME>a499_300</OUTCOME>
      <PROPERTY>weight = None</PROPERTY>
    </VARIABLE>
    <VARIABLE TYPE="nature">
      <NAME>anorexia</NAME>
      <OUTCOME>absent</OUTCOME>
      <OUTCOME>present</OUTCOME>
      <PROPERTY>weight = None</PROPERTY>
    </VARIABLE>
    <VARIABLE TYPE="nature">
      <NAME>ascites</NAME>
      <OUTCOME>absent</OUTCOME>
      <OUTCOME>present</OUTCOME>
      <PROPERTY>weight = None</PROPERTY>
    </VARIABLE>
    <VARIABLE TYPE="nature">
      <NAME>ast</NAME>
      <OUTCOME>a149_40</OUTCOME>
      <OUTCOME>a399_150</OUTCOME>
      <OUTCOME>a39_0</OUTCOME>
      <OUTCOME>a700_400</OUTCOME>
      <PROPERTY>weight = None</PROPERTY>
    </VARIABLE>
    <VARIABLE TYPE="nature">
      <NAME>bilirubin</NAME>
      <OUTCOME>a19_7</OUTCOME>
      <OUTCOME>a1_0</OUTCOME>
      <OUTCOME>a6_2</OUTCOME>
      <OUTCOME>a88_20</OUTCOME>
      <PROPERTY>weight = None</PROPERTY>
    </VARIABLE>
    <VARIABLE TYPE="nature">
      <NAME>bleeding</NAME>
      <OUTCOME>absent</OUTCOME>
      <OUTCOME>present</OUTCOME>
      <PROPERTY>weight = None</PROPERTY>
    </VARIABLE>
    <VARIABLE TYPE="nature">
      <NAME>carcinoma</NAME>
      <OUTCOME>absent</OUTCOME>
      <OUTCOME>present</OUTCOME>
      <PROPERTY>weight = None</PROPERTY>
    </VARIABLE>
    <VARIABLE TYPE="nature">
      <NAME>choledocholithotomy</NAME>
      <OUTCOME>absent</OUTCOME>
      <OUTCOME>present</OUTCOME>
      <PROPERTY>weight = None</PROPERTY>
    </VARIABLE>
    <VARIABLE TYPE="nature">
      <NAME>cholesterol</NAME>
      <OUTCOME>a239_0</OUTCOME>
      <OUTCOME>a349_240</OUTCOME>
      <OUTCOME>a999_350</OUTCOME>
      <PROPERTY>weight = None</PROPERTY>
    </VARIABLE>
    <VARIABLE TYPE="nature">
      <NAME>consciousness</NAME>
      <OUTCOME>absent</OUTCOME>
      <OUTCOME>present</OUTCOME>
      <PROPERTY>weight = None</PROPERTY>
    </VARIABLE>
    <VARIABLE TYPE="nature">
      <NAME>density</NAME>
      <OUTCOME>absent</OUTCOME>
      <OUTCOME>present</OUTCOME>
      <PROPERTY>weight = None</PROPERTY>
    </VARIABLE>
    <VARIABLE TYPE="nature">
      <NAME>diabetes</NAME>
      <OUTCOME>absent</OUTCOME>
      <OUTCOME>present</OUTCOME>
      <PROPERTY>weight = None</PROPERTY>
    </VARIABLE>
    <VARIABLE TYPE="nature">
      <NAME>edema</NAME>
      <OUTCOME>absent</OUTCOME>
      <OUTCOME>present</OUTCOME>
      <PROPERTY>weight = None</PROPERTY>
    </VARIABLE>
    <VARIABLE TYPE="nature">
      <NAME>edge</NAME>
      <OUTCOME>absent</OUTCOME>
      <OUTCOME>present</OUTCOME>
      <PROPERTY>weight = None</PROPERTY>
    </VARIABLE>
    <VARIABLE TYPE="nature">
      <NAME>encephalopathy</NAME>
      <OUTCOME>absent</OUTCOME>
      <OUTCOME>present</OUTCOME>
      <PROPERTY>weight = None</PROPERTY>
    </VARIABLE>
    <VARIABLE TYPE="nature">
      <NAME>fat</NAME>
      <OUTCOME>absent</OUTCOME>
      <OUTCOME>present</OUTCOME>
      <PROPERTY>weight = None</PROPERTY>
    </VARIABLE>
    <VARIABLE TYPE="nature">
      <NAME>fatigue</NAME>
      <OUTCOME>absent</OUTCOME>
      <OUTCOME>present</OUTCOME>
      <PROPERTY>weight = None</PROPERTY>
    </VARIABLE>
    <VARIABLE TYPE="nature">
      <NAME>fibrosis</NAME>
      <OUTCOME>absent</OUTCOME>
      <OUTCOME>present</OUTCOME>
      <PROPERTY>weight = None</PROPERTY>
    </VARIABLE>
    <VARIABLE TYPE="nature">
      <NAME>flatulence</NAME>
      <OUTCOME>absent</OUTCOME>
      <OUTCOME>present</OUTCOME>
      <PROPERTY>weight = None</PROPERTY>
    </VARIABLE>
    <VARIABLE TYPE="nature">
      <NAME>gallstones</NAME>
      <OUTCOME>absent</OUTCOME>
      <OUTCOME>present</OUTCOME>
      <PROPERTY>weight = None</PROPERTY>
    </VARIABLE>
    <VARIABLE TYPE="nature">
      <NAME>ggtp</NAME>
      <OUTCOME>a29_10</OUTCOME>
      <OUTCOME>a640_70</OUTCOME>
      <OUTCOME>a69_30</OUTCOME>
      <OUTCOME>a9_0</OUTCOME>
      <PROPERTY>weight = None</PROPERTY>
    </VARIABLE>
    <VARIABLE TYPE="nature">
      <NAME>hbc_anti</NAME>
      <OUTCOME>absent</OUTCOME>
      <OUTCOME>present</OUTCOME>
      <PROPERTY>weight = None</PROPERTY>
    </VARIABLE>
    <VARIABLE TYPE="nature">
      <NAME>hbeag</NAME>
      <OUTCOME>absent</OUTCOME>
      <OUTCOME>present</OUTCOME>
      <PROPERTY>weight = None</PROPERTY>
    </VARIABLE>
    <VARIABLE TYPE="nature">
      <NAME>hbsag</NAME>
      <OUTCOME>absent</OUTCOME>
      <OUTCOME>present</OUTCOME>
      <PROPERTY>weight = None</PROPERTY>
    </VARIABLE>
    <VARIABLE TYPE="nature">
      <NAME>hbsag_anti</NAME>
      <OUTCOME>absent</OUTCOME>
      <OUTCOME>present</OUTCOME>
      <PROPERTY>weight = None</PROPERTY>
    </VARIABLE>
    <VARIABLE TYPE="nature">
      <NAME>hcv_anti</NAME>
      <OUTCOME>absent</OUTCOME>
      <OUTCOME>present</OUTCOME>
      <PROPERTY>weight = None</PROPERTY>
    </VARIABLE>
    <VARIABLE TYPE="nature">
      <NAME>hepatalgia</NAME>
      <OUTCOME>absent</OUTCOME>
      <OUTCOME>present</OUTCOME>
      <PROPERTY>weight = None</PROPERTY>
    </VARIABLE>
    <VARIABLE TYPE="nature">
      <NAME>hepatomegaly</NAME>
      <OUTCOME>absent</OUTCOME>
      <OUTCOME>present</OUTCOME>
      <PROPERTY>weight = None</PROPERTY>
    </VARIABLE>
    <VARIABLE TYPE="nature">
      <NAME>hepatotoxic</NAME>
      <OUTCOME>absent</OUTCOME>
      <OUTCOME>present</OUTCOME>
      <PROPERTY>weight = None</PROPERTY>
    </VARIABLE>
    <VARIABLE TYPE="nature">
      <NAME>hospital</NAME>
      <OUTCOME>absent</OUTCOME>
      <OUTCOME>present</OUTCOME>
      <PROPERTY>weight = None</PROPERTY>
    </VARIABLE>
    <VARIABLE TYPE="nature">
      <NAME>injections</NAME>
      <OUTCOME>absent</OUTCOME>
      <OUTCOME>present</OUTCOME>
      <PROPERTY>weight = None</PROPERTY>
    </VARIABLE>
    <VARIABLE TYPE="nature">
      <NAME>inr</NAME>
      <OUTCOME>a109_70</OUTCOME>
      <OUTCOME>a200_110</OUTCOME>
      <OUTCOME>a69_0</OUTCOME>
      <PROPERTY>weight = None</PROPERTY>
    </VARIABLE>
    <VARIABLE TYPE="nature">
      <NAME>irregular_liver</NAME>
      <OUTCOME>absent</OUTCOME>
      <OUTCOME>present</OUTCOME>
      <PROPERTY>weight = None</PROPERTY>
    </VARIABLE>
    <VARIABLE TYPE="nature">
      <NAME>itching</NAME>
      <OUTCOME>absent</OUTCOME>
      <OUTCOME>present</OUTCOME>
      <PROPERTY>weight = None</PROPERTY>
    </VARIABLE>
    <VARIABLE TYPE="nature">
      <NAME>jaundice</NAME>
      <OUTCOME>absent</OUTCOME>
      <OUTCOME>present</OUTCOME>
      <PROPERTY>weight = None</PROPERTY>
    </VARIABLE>
    <VARIABLE TYPE="nature">
      <NAME>joints</NAME>
      <OUTCOME>absent</OUTCOME>
      <OUTCOME>present</OUTCOME>
      <PROPERTY>weight = None</PROPERTY>
    </VARIABLE>
    <VARIABLE TYPE="nature">
      <NAME>le_cells</NAME>
      <OUTCOME>absent</OUTCOME>
      <OUTCOME>present</OUTCOME>
      <PROPERTY>weight = None</PROPERTY>
    </VARIABLE>
    <VARIABLE TYPE="nature">
      <NAME>nausea</NAME>
      <OUTCOME>absent</OUTCOME>
      <OUTCOME>present</OUTCOME>
      <PROPERTY>weight = None</PROPERTY>
    </VARIABLE>
    <VARIABLE TYPE="nature">
      <NAME>obesity</NAME>
      <OUTCOME>absent</OUTCOME>
      <OUTCOME>present</OUTCOME>
      <PROPERTY>weight = None</PROPERTY>
    </VARIABLE>
    <VARIABLE TYPE="nature">
      <NAME>pain</NAME>
      <OUTCOME>absent</OUTCOME>
      <OUTCOME>present</OUTCOME>
      <PROPERTY>weight = None</PROPERTY>
    </VARIABLE>
    <VARIABLE TYPE="nature">
      <NAME>pain_ruq</NAME>
      <OUTCOME>absent</OUTCOME>
      <OUTCOME>present</OUTCOME>
      <PROPERTY>weight = None</PROPERTY>
    </VARIABLE>
    <VARIABLE TYPE="nature">
      <NAME>palms</NAME>
      <OUTCOME>absent</OUTCOME>
      <OUTCOME>present</OUTCOME>
      <PROPERTY>weight = None</PROPERTY>
    </VARIABLE>
    <VARIABLE TYPE="nature">
      <NAME>phosphatase</NAME>
      <OUTCOME>a239_0</OUTCOME>
      <OUTCOME>a4000_700</OUTCOME>
      <OUTCOME>a699_240</OUTCOME>
      <PROPERTY>weight = None</PROPERTY>
    </VARIABLE>
    <VARIABLE TYPE="nature">
      <NAME>platelet</NAME>
      <OUTCOME>a149_100</OUTCOME>
      <OUTCOME>a299_150</OUTCOME>
      <OUTCOME>a597_300</OUTCOME>
      <OUTCOME>a99_0</OUTCOME>
      <PROPERTY>weight = None</PROPERTY>
    </VARIABLE>
    <VARIABLE TYPE="nature">
      <NAME>pressure_ruq</NAME>
      <OUTCOME>absent</OUTCOME>
      <OUTCOME>present</OUTCOME>
      <PROPERTY>weight = None</PROPERTY>
    </VARIABLE>
    <VARIABLE TYPE="nature">
      <NAME>proteins</NAME>
      <OUTCOME>a10_6</OUTCOME>
      <OUTCOME>a5_2</OUTCOME>
      <PROPERTY>weight = None</PROPERTY>
    </VARIABLE>
    <VARIABLE TYPE="nature">
      <NAME>sex</NAME>
      <OUTCOME>female</OUTCOME>
      <OUTCOME>male</OUTCOME>
      <PROPERTY>weight = None</PROPERTY>
    </VARIABLE>
    <VARIABLE TYPE="nature">
      <NAME>skin</NAME>
      <OUTCOME>absent</OUTCOME>
      <OUTCOME>present</OUTCOME>
      <PROPERTY>weight = None</PROPERTY>
    </VARIABLE>
    <VARIABLE TYPE="nature">
      <NAME>spiders</NAME>
      <OUTCOME>absent</OUTCOME>
      <OUTCOME>present</OUTCOME>
      <PROPERTY>weight = None</PROPERTY>
    </VARIABLE>
    <VARIABLE TYPE="nature">
      <NAME>spleen</NAME>
      <OUTCOME>absent</OUTCOME>
      <OUTCOME>present</OUTCOME>
      <PROPERTY>weight = None</PROPERTY>
    </VARIABLE>
    <VARIABLE TYPE="nature">
      <NAME>surgery</NAME>
      <OUTCOME>absent</OUTCOME>
      <OUTCOME>present</OUTCOME>
      <PROPERTY>weight = None</PROPERTY>
    </VARIABLE>
    <VARIABLE TYPE="nature">
      <NAME>transfusion</NAME>
      <OUTCOME>absent</OUTCOME>
      <OUTCOME>present</OUTCOME>
      <PROPERTY>weight = None</PROPERTY>
    </VARIABLE>
    <VARIABLE TYPE="nature">
      <NAME>triglycerides</NAME>
      <OUTCOME>a17_4</OUTCOME>
      <OUTCOME>a1_0</OUTCOME>
      <OUTCOME>a3_2</OUTCOME>
      <PROPERTY>weight = None</PROPERTY>
    </VARIABLE>
    <VARIABLE TYPE="nature">
      <NAME>upper_pain</NAME>
      <OUTCOME>absent</OUTCOME>
      <OUTCOME>present</OUTCOME>
      <PROPERTY>weight = None</PROPERTY>
    </VARIABLE>
    <VARIABLE TYPE="nature">
      <NAME>urea</NAME>
      <OUTCOME>a165_50</OUTCOME>
      <OUTCOME>a39_0</OUTCOME>
      <OUTCOME>a49_40</OUTCOME>
      <PROPERTY>weight = None</PROPERTY>
    </VARIABLE>
    <VARIABLE TYPE="nature">
      <NAME>vh_amn</NAME>
      <OUTCOME>absent</OUTCOME>
      <OUTCOME>present</OUTCOME>
      <PROPERTY>weight = None</PROPERTY>
    </VARIABLE>
    <DEFINITION>
      <FOR>ChHepatitis</FOR>
      <GIVEN>alt</GIVEN>
      <GIVEN>fibrosis</GIVEN>
      <GIVEN>hbeag</GIVEN>
      <TABLE>0.8522041983439714 0.11520375113496223 0.03259205052106625 0.20784313725490197 0.0196078431372549 0.7725490196078432 0.012502948808681292 0.952347251710309 0.035149799481009665 0.07936507936507937 0.07936507936507937 0.8412698412698413 0.8548836663439252 0.06988234603761406 0.07523398761846083 0.29482551143200963 0.006016847172081829 0.6991576413959085 0.00957542908762421 0.8681120144534779 0.12231255645889791 0.031446540880503145 0.33333333333333337 0.6352201257861635 0.7322682159283466 0.24192689421447588 0.025804889857177434 0.90990990990991 0.04504504504504506 0.04504504504504506 0.028086910439851624 0.9692633810280871 0.0026497085320614736 0.33333333333333337 0.33333333333333337 0.33333333333333337 0.8789939098534123 0.08372528626793542 0.03728080387865241 0.493734335839599 0.012531328320802006 0.493734335839599 0.03404205878935751 0.9430695945160916 0.022888346694550952 0.33333333333333337 0.33333333333333337 0.33333333333333337 </TABLE>
    </DEFINITION>
    <DEFINITION>
      <FOR>Cirrhosis</FOR>
      <TABLE>0.923704814259537 0.021855738797268036 0.05443944694319507 </TABLE>
    </DEFINITION>
    <DEFINITION>
      <FOR>ESR</FOR>
      <GIVEN>ChHepatitis</GIVEN>
      <GIVEN>PBC</GIVEN>
      <GIVEN>Steatosis</GIVEN>
      <GIVEN>hcv_anti</GIVEN>
      <TABLE>0.9078452748487653 0.04113035963489897 0.0510243655163358 0.7428896473265074 0.08759954493742889 0.16951080773606372 0.8194941645565936 0.11539916761256147 0.0651066678308449 0.9371069182389935 0.03144654088050314 0.03144654088050314 0.3602225177434519 0.42826384525079525 0.21151363700575296 0.0574712643678161 0.0574712643678161 0.8850574712643678 0.48161313528839234 0.34755194447970883 0.17083492023189875 0.8850574712643678 0.0574712643678161 0.0574712643678161 0.7587348428957872 0.04367894368461873 0.19758621341959406 0.8850574712643678 0.0574712643678161 0.0574712643678161 0.6084793424183431 0.23469608479342421 0.15682457278823275 0.3333333333333333 0.3333333333333333 0.3333333333333333 0.5023763121003864 0.280815126337744 0.21680856156186956 0.3333333333333333 0.3333333333333333 0.3333333333333333 0.5087444531453928 0.339598016183764 0.15165753067084314 0.3333333333333333 0.3333333333333333 0.3333333333333333 0.891760821338286 0.06340607749058452 0.04483310117112933 0.0574712643678161 0.0574712643678161 0.8850574712643678 0.9480957195820695 0.025952140208965288 0.025952140208965288 0.3333333333333333 0.3333333333333333 0.3333333333333333 0.41569916027747356 0.3894121942314714 0.19488864549105514 0.3333333333333333 0.3333333333333333 0.3333333333333333 0.4487972508591065 0.39931271477663227 0.15189003436426116 0.0574712643678161 0.0574712643678161 0.8850574712643678 </TABLE>
    </DEFINITION>
    <DEFINITION>
      <FOR>Hyperbilirubinemia</FOR>
      <GIVEN>PBC</GIVEN>
      <GIVEN>itching</GIVEN>
      <TABLE>0.9113539967373573 0.08864600326264274 0.8760370649714471 0.12396293502855296 0.9738675958188153 0.02613240418118467 0.9657534246575342 0.03424657534246575 </TABLE>
    </DEFINITION>
    <DEFINITION>
      <FOR>PBC</FOR>
      <GIVEN>Cirrhosis</GIVEN>
      <GIVEN>carcinoma</GIVEN>
      <GIVEN>cholesterol</GIVEN>
      <GIVEN>jaundice</GIVEN>
      <TABLE>0.7863802900943002 0.2136197099056998 0.6461599188000451 0.3538400811999549 0.3694693935587838 0.6305306064412162 0.25831760582367214 0.7416823941763279 0.10376797223599403 0.8962320277640059 0.05735113297031441 0.9426488670296855 0.23154615820275626 0.7684538417972437 0.20603873908089632 0.7939612609191037 0.06965253426840931 0.9303474657315907 0.03686293913904008 0.96313706086096 0.0026567481402763023 0.9973432518597237 0.0032851511169513805 0.9967148488830487 0.730838055472711 0.269161944527289 0.6750186985789081 0.32498130142109205 0.3852284803400638 0.6147715196599363 0.33710407239819007 0.6628959276018099 0.5700389105058365 0.42996108949416345 0.06097560975609757 0.9390243902439025 0.5596685082872929 0.4403314917127072 0.3771331058020478 0.6228668941979522 0.40136986301369865 0.5986301369863014 0.06097560975609757 0.9390243902439025 0.06097560975609757 0.9390243902439025 0.5 0.5 0.732064310632489 0.26793568936751094 0.6264325323475046 0.3735674676524954 0.4501154734411085 0.5498845265588914 0.24143646408839783 0.7585635359116022 0.41762013729977115 0.5823798627002288 0.6346633416458853 0.3653366583541147 0.6947920189381129 0.305207981061887 0.48653702318623787 0.5134629768137622 0.5382571732199788 0.46174282678002126 0.28781925343811393 0.712180746561886 0.35854616895874264 0.6414538310412574 0.5 0.5 </TABLE>
    </DEFINITION>
    <DEFINITION>
      <FOR>RHepatitis</FOR>
      <GIVEN>anorexia</GIVEN>
      <GIVEN>fatigue</GIVEN>
      <TABLE>0.978156653521998 0.02184334647800201 0.9584300683943026 0.041569931605697434 0.9931013797240552 0.006898620275944811 0.9794275491949911 0.020572450805008944 </TABLE>
    </DEFINITION>
    <DEFINITION>
      <FOR>Steatosis</FOR>
      <GIVEN>Cirrhosis</GIVEN>
      <GIVEN>fibrosis</GIVEN>
      <GIVEN>obesity</GIVEN>
      <GIVEN>triglycerides</GIVEN>
      <TABLE>0.7394971189104242 0.26050288108957564 0.9660443300884428 0.033955669911557164 0.7786244315008378 0.22137556849916218 0.389739663093415 0.610260336906585 0.9194286322285471 0.08057136777145288 0.42455993294216265 0.5754400670578373 0.5 0.5 0.9539722572509458 0.046027742749054225 0.8257918552036199 0.17420814479638008 0.5 0.5 0.8945205479452054 0.10547945205479452 0.5 0.5 0.0032851511169513805 0.9967148488830487 0.04617081626221242 0.9538291837377876 0.06239870340356565 0.9376012965964344 0.022123893805309734 0.9778761061946902 0.011312217194570135 0.9886877828054298 0.5 0.5 0.6592920353982301 0.3407079646017699 0.9568527918781726 0.043147208121827416 0.9390243902439025 0.06097560975609757 0.5 0.5 0.8501945525291829 0.14980544747081712 0.5 0.5 0.0013579576317218904 0.9986420423682781 0.02310361141775745 0.9768963885822425 0.023692307692307693 0.9763076923076923 0.007598784194528876 0.9924012158054711 0.001730103806228374 0.9982698961937717 0.007598784194528876 0.9924012158054711 0.41762013729977115 0.5823798627002288 0.9227295122351781 0.0772704877648218 0.4551122194513716 0.5448877805486284 0.06097560975609757 0.9390243902439025 0.7873730043541364 0.21262699564586357 0.9390243902439025 0.06097560975609757 </TABLE>
    </DEFINITION>
    <DEFINITION>
      <FOR>THepatitis</FOR>
      <GIVEN>alcoholism</GIVEN>
      <GIVEN>hepatotoxic</GIVEN>
      <TABLE>0.9663691324027475 0.033630867597252555 0.9961636828644501 0.0038363171355498722 0.8968345879173905 0.10316541208260953 0.7907662082514735 0.20923379174852652 </TABLE>
    </DEFINITION>
    <DEFINITION>
      <FOR>age</FOR>
      <GIVEN>Hyperbilirubinemia</GIVEN>
      <GIVEN>PBC</GIVEN>
      <TABLE>0.1535615694438159 0.4082567769380459 0.37929356926279584 0.05888808435534235 0.02175730818114924 0.4022509866880728 0.458174459830089 0.117817245300689 0.6653049023515345 0.2810880829015544 0.051514547628537265 0.0020924671183738543 0.16612903225806452 0.5704301075268817 0.2435483870967742 0.01989247311827957 </TABLE>
    </DEFINITION>
    <DEFINITION>
      <FOR>albumin</FOR>
      <GIVEN>Cirrhosis</GIVEN>
      <TABLE>0.11951908626390141 0.1414848211602044 0.7389960925758942 0.029979674796747968 0.0025406504065040654 0.9674796747967479 0.002855977152182783 0.07813137494900041 0.9190126478988169 </TABLE>
    </DEFINITION>
    <DEFINITION>
      <FOR>alcohol</FOR>
      <GIVEN>Cirrhosis</GIVEN>
      <GIVEN>hbeag</GIVEN>
      <TABLE>0.886693935170941 0.11330606482905906 0.9873096446700508 0.01269035532994924 0.753651037663336 0.24634896233666412 0.22727272727272727 0.7727272727272727 0.8106317411402157 0.18936825885978428 0.6304347826086957 0.3695652173913044 </TABLE>
    </DEFINITION>
    <DEFINITION>
      <FOR>alcoholism</FOR>
      <GIVEN>Steatosis</GIVEN>
      <GIVEN>encephalopathy</GIVEN>
      <GIVEN>hbeag</GIVEN>
      <TABLE>0.8840055054552753 0.11599449454472466 0.759927797833935 0.24007220216606498 0.9070711896798853 0.09292881032011467 0.5 0.5 0.610862997504269 0.38913700249573097 0.11904761904761904 0.8809523809523809 0.8465703971119134 0.15342960288808663 0.5 0.5 </TABLE>
    </DEFINITION>
    <DEFINITION>
      <FOR>alt</FOR>
      <TABLE>0.16314342828585707 0.3684407796101949 0.047201399300349826 0.4212143928035982 </TABLE>
    </DEFINITION>
    <DEFINITION>
      <FOR>ama</FOR>
      <GIVEN>PBC</GIVEN>
      <TABLE>0.9863041534585061 0.013695846541493945 0.4311015959517322 0.5688984040482679 </TABLE>
    </DEFINITION>
    <DEFINITION>
      <FOR>amylase</FOR>
      <TABLE>0.012860236548392473 0.9684824254539398 0.018657337997667837 </TABLE>
    </DEFINITION>
    <DEFINITION>
      <FOR>anorexia</FOR>
      <TABLE>0.7213893053473264 0.2786106946526737 </TABLE>
    </DEFINITION>
    <DEFINITION>
      <FOR>ascites</FOR>
      <TABLE>0.8660169915042478 0.13398300849575212 </TABLE>
    </DEFINITION>
    <DEFINITION>
      <FOR>ast</FOR>
      <GIVEN>ChHepatitis</GIVEN>
      <GIVEN>Steatosis</GIVEN>
      <GIVEN>THepatitis</GIVEN>
      <GIVEN>hcv_anti</GIVEN>
      <TABLE>0.46525388965396003 0.2258797503589323 0.2983108207096604 0.010555539277447332 0.5339116719242901 0.1553627760252366 0.306782334384858 0.003943217665615142 0.38052874225615907 0.06241895980406281 0.5499567785621668 0.007095519377611296 0.25 0.25 0.25 0.25 0.4648413793103448 0.08216551724137931 0.4529241379310344 6.896551724137931e-05 0.9512987012987012 0.016233766233766232 0.016233766233766232 0.016233766233766232 0.47904564315352693 0.06078838174273859 0.45912863070539417 0.001037344398340249 0.25 0.25 0.25 0.25 0.45852353369902954 0.2384920787141816 0.26703172350301124 0.035952664083777675 0.8706896551724139 0.04310344827586208 0.04310344827586208 0.04310344827586208 0.5359338970023059 0.13009223674096848 0.31456571867794003 0.019408147578785548 0.25 0.25 0.25 0.25 0.41562384983437617 0.1771255060728745 0.37145748987854255 0.03579315421420685 0.25 0.25 0.25 0.25 0.48762376237623767 0.012376237623762377 0.48762376237623767 0.012376237623762377 0.25 0.25 0.25 0.25 0.38843944471038777 0.12419818094782194 0.45737194830062233 0.029990426041168024 0.04310344827586207 0.04310344827586207 0.8706896551724138 0.04310344827586207 0.45654044750430295 0.08476764199655767 0.45654044750430295 0.002151462994836489 0.25 0.25 0.25 0.25 0.445700518902891 0.10767234988880652 0.445700518902891 0.0009266123054114158 0.04310344827586207 0.04310344827586207 0.8706896551724138 0.04310344827586207 0.20199999999999999 0.20199999999999999 0.5860000000000001 0.01 0.25 0.25 0.25 0.25 </TABLE>
    </DEFINITION>
    <DEFINITION>
      <FOR>bilirubin</FOR>
      <GIVEN>PBC</GIVEN>
      <GIVEN>itching</GIVEN>
      <GIVEN>jaundice</GIVEN>
      <GIVEN>skin</GIVEN>
      <TABLE>0.0017728569487841326 0.9646855046868632 0.03350767558755604 3.396277679663089e-05 0.010078312716917327 0.689263148527187 0.2976995639405535 0.002958974815342173 0.005435382408122724 0.9095298532170842 0.0848968105065666 0.00013795386822646507 0.08797950917321896 0.42345723135573027 0.47301644031451034 0.015546819156540386 0.004960469268043866 0.9149324152002041 0.08004335628666157 6.375924509053813e-05 0.08810972043513861 0.4717803251842321 0.4231196631184934 0.01699029126213592 0.013579604578563996 0.7727887617065556 0.21337148803329864 0.00026014568158168577 0.14243697478991596 0.22695078031212484 0.5150660264105642 0.11554621848739496 0.008681487159831353 0.8476236105787658 0.1435990801073208 9.582215408202377e-05 0.16443588803324777 0.2817809558733651 0.5458073585136292 0.007975797579757976 0.0399481631733153 0.68903538426865 0.27073473067387877 0.00028172188415596125 0.32725482842677667 0.1172417026064129 0.5072660791299456 0.048237389836864805 0.04351797289334119 0.6488214496169711 0.30751325869180907 0.0001473187978786093 0.25203148806500764 0.11551549009649568 0.5835703402742509 0.04888268156424581 0.12521193624957613 0.43989487962021023 0.4344693116310614 0.000423872499152255 0.40606012152222576 0.032539174928046054 0.3531872934655154 0.20821341008421276 </TABLE>
    </DEFINITION>
    <DEFINITION>
      <FOR>bleeding</FOR>
      <GIVEN>inr</GIVEN>
      <TABLE>0.8590495411446633 0.1409504588553368 0.8475155279503106 0.15248447204968946 0.6028451492537313 0.39715485074626866 </TABLE>
    </DEFINITION>
    <DEFINITION>
      <FOR>carcinoma</FOR>
      <GIVEN>Cirrhosis</GIVEN>
      <TABLE>0.9555455365193868 0.04445446348061316 0.78125 0.21875 0.673500611995104 0.326499388004896 </TABLE>
    </DEFINITION>
    <DEFINITION>
      <FOR>choledocholithotomy</FOR>
      <GIVEN>gallstones</GIVEN>
      <GIVEN>hospital</GIVEN>
      <GIVEN>injections</GIVEN>
      <TABLE>0.9661107233385989 0.033889276661401124 0.9640781213671239 0.035921878632876075 0.9866534001235161 0.013346599876483909 0.9491240976596625 0.05087590234033749 0.3162315320785266 0.6837684679214734 0.34790874524714827 0.6520912547528517 0.42806679511881823 0.5719332048811817 0.233550621307802 0.766449378692198 </TABLE>
    </DEFINITION>
    <DEFINITION>
      <FOR>cholesterol</FOR>
      <GIVEN>carcinoma</GIVEN>
      <TABLE>0.7572005479354574 0.19264912561598263 0.050150326448559886 0.5857554333595182 0.3061010735794711 0.10814349306101073 </TABLE>
    </DEFINITION>
    <DEFINITION>
      <FOR>consciousness</FOR>
      <GIVEN>encephalopathy</GIVEN>
      <TABLE>0.9836981715168684 0.016301828483131598 0.6361344537815126 0.3638655462184874 </TABLE>
    </DEFINITION>
    <DEFINITION>
      <FOR>density</FOR>
      <GIVEN>encephalopathy</GIVEN>
      <TABLE>0.6196497553438063 0.38035024465619366 0.2865546218487395 0.7134453781512605 </TABLE>
    </DEFINITION>
    <DEFINITION>
      <FOR>diabetes</FOR>
      <GIVEN>obesity</GIVEN>
      <TABLE>0.9718691338160365 0.02813086618396353 0.861904761904762 0.1380952380952381 </TABLE>
    </DEFINITION>
    <DEFINITION>
      <FOR>edema</FOR>
      <GIVEN>Cirrhosis</GIVEN>
      <TABLE>0.8688728584310189 0.13112714156898106 0.9184451219512195 0.08155487804878048 0.6606487148102815 0.3393512851897185 </TABLE>
    </DEFINITION>
    <DEFINITION>
      <FOR>edge</FOR>
      <GIVEN>Cirrhosis</GIVEN>
      <TABLE>0.765536519386835 0.23446348061316505 0.5708841463414634 0.4291158536585366 0.2842717258261934 0.7157282741738066 </TABLE>
    </DEFINITION>
    <DEFINITION>
      <FOR>encephalopathy</FOR>
      <GIVEN>PBC</GIVEN>
      <TABLE>0.9828903519466796 0.01710964805332033 0.9501102893473465 0.049889710652653435 </TABLE>
    </DEFINITION>
    <DEFINITION>
      <FOR>fat</FOR>
      <TABLE>0.7345827086456772 0.26541729135432285 </TABLE>
    </DEFINITION>
    <DEFINITION>
      <FOR>fatigue</FOR>
      <TABLE>0.44812593703148423 0.5518740629685157 </TABLE>
    </DEFINITION>
    <DEFINITION>
      <FOR>fibrosis</FOR>
      <GIVEN>Cirrhosis</GIVEN>
      <GIVEN>alt</GIVEN>
      <TABLE>0.978129630645958 0.021870369354042043 0.9893643061709054 0.010635693829094559 0.9607489070518913 0.039251092948108725 0.9886073230967465 0.011392676903253516 0.5640569395017794 0.4359430604982206 0.7422954303931987 0.25770456960680127 0.4325842696629214 0.5674157303370787 0.5594059405940595 0.4405940594059406 0.4889400921658986 0.5110599078341014 0.6941827120032773 0.30581728799672264 0.31072555205047325 0.6892744479495269 0.6113999257333829 0.3886000742666171 </TABLE>
    </DEFINITION>
    <DEFINITION>
      <FOR>flatulence</FOR>
      <TABLE>0.5786606696651674 0.42133933033483256 </TABLE>
    </DEFINITION>
    <DEFINITION>
      <FOR>gallstones</FOR>
      <GIVEN>PBC</GIVEN>
      <GIVEN>amylase</GIVEN>
      <GIVEN>bilirubin</GIVEN>
      <GIVEN>pressure_ruq</GIVEN>
      <TABLE>0.5 0.5 0.9832214765100671 0.016778523489932886 0.696349905601007 0.3036500943989931 0.7089752176825185 0.29102478231748163 0.8958762886597937 0.10412371134020616 0.9873096446700508 0.01269035532994924 0.04716981132075473 0.9528301886792453 0.04716981132075473 0.9528301886792453 0.7557726465364121 0.2442273534635879 0.8214780600461894 0.1785219399538106 0.8018518656744269 0.19814813432557304 0.8952084763651641 0.1047915236348359 0.931083189273517 0.06891681072648312 0.9536404092306281 0.04635959076937193 0.42338387869114125 0.5766161213088588 0.46689655172413785 0.5331034482758621 0.04716981132075473 0.9528301886792453 0.5 0.5 0.5155996100097497 0.4844003899902502 0.7067916877850988 0.2932083122149012 0.8151969981238274 0.1848030018761726 0.9926686217008798 0.007331378299120236 0.02475247524752475 0.9752475247524752 0.5 0.5 0.25634517766497456 0.7436548223350253 0.25634517766497456 0.7436548223350253 0.690779014308426 0.30922098569157386 0.7938775510204082 0.20612244897959184 0.5989690721649484 0.40103092783505156 0.7938775510204082 0.20612244897959184 0.5 0.5 0.04716981132075473 0.9528301886792453 0.8098817209368079 0.19011827906319212 0.8165812711217704 0.18341872887822958 0.8902736256831121 0.10972637431688785 0.8821337653320991 0.11786623466790097 0.8736874482934176 0.12631255170658237 0.8277496684187258 0.17225033158127426 0.6928062808106628 0.3071937191893373 0.6467590705258867 0.3532409294741133 0.6638225255972696 0.33617747440273044 0.6610738255033557 0.33892617449664425 0.6647597254004577 0.33524027459954236 0.7745995423340961 0.2254004576659039 0.8079960513326753 0.1920039486673248 0.4296187683284458 0.5703812316715543 0.02475247524752475 0.9752475247524752 0.02475247524752475 0.9752475247524752 </TABLE>
    </DEFINITION>
    <DEFINITION>
      <FOR>ggtp</FOR>
      <GIVEN>ChHepatitis</GIVEN>
      <GIVEN>Hyperbilirubinemia</GIVEN>
      <GIVEN>PBC</GIVEN>
      <GIVEN>hbeag</GIVEN>
      <TABLE>0.1340031375444101 0.07907765422414985 0.08749365570064134 0.6994255525307986 0.11425339366515838 0.11425339366515838 0.005656108597285069 0.7658371040723982 0.12756426726527742 0.2544625349903312 0.21713951507119775 0.4008336826731937 0.4764150943396226 0.023584905660377357 0.4764150943396226 0.023584905660377357 0.029272344218458802 0.007880236609675068 0.009824973665019042 0.9530224455068472 0.04310344827586207 0.04310344827586207 0.04310344827586207 0.8706896551724138 0.08198981756470089 0.2550912176495545 0.2041790411540093 0.4587399236317352 0.25 0.25 0.25 0.25 0.1785423807587289 0.0809417300877244 0.13531923546156976 0.6051966536919771 0.25 0.25 0.25 0.25 0.1047444578425007 0.21382524812169554 0.200468416658937 0.4809618773768667 0.04310344827586207 0.04310344827586207 0.8706896551724138 0.04310344827586207 0.13443993917891534 0.04929042067916877 0.09794728839330967 0.7183223517486061 0.25 0.25 0.25 0.25 0.11425339366515835 0.2228506787330317 0.005656108597285068 0.6572398190045248 0.25 0.25 0.25 0.25 0.16242894453833154 0.007566446458749423 0.029689660470118295 0.8003149485328006 0.004646840148698885 0.004646840148698885 0.004646840148698885 0.9860594795539034 0.12513548666811186 0.23439193583351403 0.1927704313895513 0.4477021461088229 0.09386617100371746 0.09386617100371746 0.09386617100371746 0.7184014869888476 0.07025677603423681 0.03601997146932953 0.03601997146932953 0.8577032810271041 0.25 0.25 0.25 0.25 0.007225433526011562 0.5621387283236995 0.14595375722543355 0.2846820809248556 0.04310344827586207 0.04310344827586207 0.8706896551724138 0.04310344827586207 </TABLE>
    </DEFINITION>
    <DEFINITION>
      <FOR>hbc_anti</FOR>
      <TABLE>0.9053973013493254 0.09460269865067467 </TABLE>
    </DEFINITION>
    <DEFINITION>
      <FOR>hbeag</FOR>
      <TABLE>0.996151924037981 0.0038480759620189904 </TABLE>
    </DEFINITION>
    <DEFINITION>
      <FOR>hbsag</FOR>
      <GIVEN>ChHepatitis</GIVEN>
      <TABLE>0.9461382525846341 0.0538617474153659 0.7365705213019317 0.26342947869806826 0.7788033099936347 0.22119669000636538 </TABLE>
    </DEFINITION>
    <DEFINITION>
      <FOR>hbsag_anti</FOR>
      <TABLE>0.97976011994003 0.020239880059970013 </TABLE>
    </DEFINITION>
    <DEFINITION>
      <FOR>hcv_anti</FOR>
      <TABLE>0.9978510744627687 0.0021489255372313843 </TABLE>
    </DEFINITION>
    <DEFINITION>
      <FOR>hepatalgia</FOR>
      <GIVEN>hepatomegaly</GIVEN>
      <TABLE>0.968240410001553 0.03175958999844696 0.6897428339842311 0.3102571660157689 </TABLE>
    </DEFINITION>
    <DEFINITION>
      <FOR>hepatomegaly</FOR>
      <GIVEN>Hyperbilirubinemia</GIVEN>
      <GIVEN>proteins</GIVEN>
      <TABLE>0.3020612889927168 0.6979387110072832 0.29425113464447805 0.705748865355522 0.578593588417787 0.42140641158221304 0.19863013698630136 0.8013698630136986 </TABLE>
    </DEFINITION>
    <DEFINITION>
      <FOR>hepatotoxic</FOR>
      <TABLE>0.9188905547226387 0.08110944527736132 </TABLE>
    </DEFINITION>
    <DEFINITION>
      <FOR>hospital</FOR>
      <GIVEN>fibrosis</GIVEN>
      <GIVEN>surgery</GIVEN>
      <GIVEN>transfusion</GIVEN>
      <TABLE>0.48826434561502163 0.5117356543849784 0.06577612445045654 0.9342238755495434 0.47642503764250377 0.5235749623574962 0.43317221813596724 0.5668277818640328 0.5520325203252032 0.4479674796747967 0.10220994475138122 0.8977900552486188 0.5748074807480749 0.4251925192519252 0.6814432989690722 0.3185567010309278 </TABLE>
    </DEFINITION>
    <DEFINITION>
      <FOR>injections</FOR>
      <GIVEN>ChHepatitis</GIVEN>
      <GIVEN>hospital</GIVEN>
      <GIVEN>surgery</GIVEN>
      <TABLE>0.9381309604564863 0.06186903954351383 0.7289883983411203 0.2710116016588797 0.4312851857809233 0.5687148142190768 0.22563392286383976 0.7743660771361602 0.9698124871213682 0.030187512878631778 0.8400608238871993 0.15993917611280067 0.6201447527141134 0.3798552472858866 0.3800479808076769 0.619952019192323 0.9923239809422975 0.007676019057702487 0.8704755145493258 0.12952448545067424 0.7710540992749582 0.22894590072504187 0.49497066219614416 0.5050293378038558 </TABLE>
    </DEFINITION>
    <DEFINITION>
      <FOR>inr</FOR>
      <GIVEN>Cirrhosis</GIVEN>
      <TABLE>0.8873459573189061 0.057300871656146696 0.05535317102494741 0.7525406504065041 0.0071138211382113835 0.2403455284552846 0.7133822929416564 0.010199918400652794 0.27641778865769073 </TABLE>
    </DEFINITION>
    <DEFINITION>
      <FOR>irregular_liver</FOR>
      <GIVEN>Cirrhosis</GIVEN>
      <TABLE>0.8991704238052299 0.10082957619477005 0.6303353658536586 0.36966463414634143 0.4568543451652387 0.5431456548347613 </TABLE>
    </DEFINITION>
    <DEFINITION>
      <FOR>itching</FOR>
      <GIVEN>PBC</GIVEN>
      <GIVEN>jaundice</GIVEN>
      <TABLE>0.6305055383484698 0.36949446165153027 0.5964549217203527 0.4035450782796473 0.5366063302659521 0.46339366973404794 0.4420814479638009 0.5579185520361991 </TABLE>
    </DEFINITION>
    <DEFINITION>
      <FOR>jaundice</FOR>
      <GIVEN>cholesterol</GIVEN>
      <TABLE>0.7381919642857143 0.26180803571428574 0.6910318386397734 0.30896816136022676 0.6327351485148515 0.36726485148514854 </TABLE>
    </DEFINITION>
    <DEFINITION>
      <FOR>joints</FOR>
      <GIVEN>PBC</GIVEN>
      <TABLE>0.9022596114768756 0.09774038852312444 0.8681069157908395 0.13189308420916052 </TABLE>
    </DEFINITION>
    <DEFINITION>
      <FOR>le_cells</FOR>
      <GIVEN>PBC</GIVEN>
      <TABLE>0.9606193611314313 0.03938063886856864 0.8748540288049825 0.12514597119501752 </TABLE>
    </DEFINITION>
    <DEFINITION>
      <FOR>nausea</FOR>
      <GIVEN>PBC</GIVEN>
      <TABLE>0.7236039990246281 0.27639600097537187 0.6944985078500064 0.3055014921499935 </TABLE>
    </DEFINITION>
    <DEFINITION>
      <FOR>obesity</FOR>
      <GIVEN>Cirrhosis</GIVEN>
      <TABLE>0.936609558160505 0.06339044183949503 0.9230182926829268 0.07698170731707316 0.8534271725826194 0.14657282741738067 </TABLE>
    </DEFINITION>
    <DEFINITION>
      <FOR>pain</FOR>
      <GIVEN>PBC</GIVEN>
      <GIVEN>joints</GIVEN>
      <TABLE>0.8157515427233007 0.18424845727669925 0.16902286902286903 0.830977130977131 0.8590165159554592 0.14098348404454078 0.5954254795868175 0.4045745204131825 </TABLE>
    </DEFINITION>
    <DEFINITION>
      <FOR>pain_ruq</FOR>
      <GIVEN>Hyperbilirubinemia</GIVEN>
      <GIVEN>Steatosis</GIVEN>
      <TABLE>0.5799832119195372 0.4200167880804629 0.5265654648956357 0.47343453510436434 0.710720887245841 0.28927911275415896 0.604089219330855 0.395910780669145 </TABLE>
    </DEFINITION>
    <DEFINITION>
      <FOR>palms</FOR>
      <GIVEN>Cirrhosis</GIVEN>
      <TABLE>0.8597835888187556 0.14021641118124437 0.680640243902439 0.31935975609756095 0.4715422276621787 0.5284577723378213 </TABLE>
    </DEFINITION>
    <DEFINITION>
      <FOR>phosphatase</FOR>
      <GIVEN>ChHepatitis</GIVEN>
      <GIVEN>Cirrhosis</GIVEN>
      <GIVEN>RHepatitis</GIVEN>
      <GIVEN>THepatitis</GIVEN>
      <TABLE>0.4498674824717471 0.2194508046931651 0.33068171283508774 0.8050642964048993 0.0793243532178747 0.11561135037722593 0.7726520942291358 0.00022350364310938265 0.22712440212775467 0.9908675799086759 0.004566210045662101 0.004566210045662101 0.5501824043437686 0.06456265377110376 0.3852549418851277 0.9819819819819818 0.009009009009009005 0.009009009009009005 0.494407158836689 0.011185682326621923 0.494407158836689 0.3333333333333333 0.3333333333333333 0.3333333333333333 0.4360366002157046 0.07156525066972828 0.49239814911456703 0.5485057471264368 0.002298850574712644 0.44919540229885063 0.9776286353467559 0.01118568232662192 0.01118568232662192 0.9186991869918699 0.04065040650406504 0.04065040650406504 0.7530762312860393 0.029762471565359997 0.21716129714860075 0.748558246828143 0.05098039215686274 0.2004613610149942 0.731490015360983 0.0015360983102918585 0.266973886328725 0.9186991869918699 0.04065040650406504 0.04065040650406504 0.6700380641653073 0.024034801522566613 0.3059271343121262 0.3333333333333333 0.014749262536873156 0.6519174041297935 0.04065040650406504 0.04065040650406504 0.9186991869918699 0.3333333333333333 0.3333333333333333 0.3333333333333333 0.6388174227036786 0.044098397652900016 0.3170841796434213 0.7646229739252995 0.0035236081747709656 0.23185341789992955 0.494407158836689 0.011185682326621923 0.494407158836689 0.9186991869918699 0.04065040650406504 0.04065040650406504 0.7971839116003876 0.02459438843878203 0.17822169996083037 0.7974217311233885 0.041620626151012884 0.1609576427255985 0.7710233029381965 0.005065856129685916 0.22391084093211752 0.3333333333333333 0.3333333333333333 0.3333333333333333 0.3981981981981982 0.009009009009009007 0.5927927927927927 0.6519174041297935 0.014749262536873156 0.3333333333333333 0.48917748917748916 0.021645021645021644 0.48917748917748916 0.3333333333333333 0.3333333333333333 0.3333333333333333 0.6057913787430075 0.10825929582099374 0.2859493254359986 0.9186991869918699 0.04065040650406504 0.04065040650406504 0.3333333333333333 0.3333333333333333 0.3333333333333333 0.3333333333333333 0.3333333333333333 0.3333333333333333 </TABLE>
    </DEFINITION>
    <DEFINITION>
      <FOR>platelet</FOR>
      <GIVEN>Cirrhosis</GIVEN>
      <GIVEN>PBC</GIVEN>
      <GIVEN>bleeding</GIVEN>
      <GIVEN>hcv_anti</GIVEN>
      <TABLE>0.14181909023765044 0.7340769865751402 0.09719120649954381 0.026912716687665643 0.003424657534246575 0.8582191780821917 0.13493150684931507 0.003424657534246575 0.14304458839661446 0.7501654924582721 0.06247340299777766 0.04431651614733557 0.04310344827586208 0.8706896551724139 0.04310344827586208 0.04310344827586208 0.16567252274147626 0.6799701409624331 0.0703458093187973 0.08401152697729325 0.023584905660377353 0.9292452830188678 0.023584905660377353 0.023584905660377353 0.1099435502326646 0.624399267678694 0.040373026165229996 0.22528415592341142 0.25 0.25 0.25 0.25 0.19802944997834562 0.6969467301862279 0.052511909917713304 0.052511909917713304 0.25 0.25 0.25 0.25 0.14349112426035504 0.6263313609467456 0.058284023668639065 0.17189349112426036 0.25 0.25 0.25 0.25 0.23442569759896167 0.6082089552238805 0.03195976638546398 0.1254055807916937 0.25 0.25 0.25 0.25 0.13742964352720452 0.6327392120075047 0.0473733583489681 0.18245778611632268 0.25 0.25 0.25 0.25 0.310029046312732 0.4610698725189608 0.1047684363401646 0.12413264482814267 0.25 0.25 0.25 0.25 0.1620342089187538 0.4845754428833231 0.07406841783750762 0.27932193036041536 0.25 0.25 0.25 0.25 0.2558069199128962 0.6100290345995644 0.035143963222840545 0.09902008226469876 0.04310344827586208 0.8706896551724139 0.04310344827586208 0.04310344827586208 0.20475966069745524 0.5440622054665409 0.06903864278982093 0.18213949104618285 0.25 0.25 0.25 0.25 </TABLE>
    </DEFINITION>
    <DEFINITION>
      <FOR>pressure_ruq</FOR>
      <GIVEN>PBC</GIVEN>
      <TABLE>0.5716085507599773 0.42839144924002276 0.7007266121707538 0.2992733878292461 </TABLE>
    </DEFINITION>
    <DEFINITION>
      <FOR>proteins</FOR>
      <GIVEN>ascites</GIVEN>
      <TABLE>0.9920076172889376 0.00799238271106238 0.9147706079820962 0.08522939201790376 </TABLE>
    </DEFINITION>
    <DEFINITION>
      <FOR>sex</FOR>
      <GIVEN>Hyperbilirubinemia</GIVEN>
      <GIVEN>PBC</GIVEN>
      <GIVEN>age</GIVEN>
      <TABLE>0.6402784940691078 0.3597215059308922 0.3946930857697104 0.6053069142302896 0.33129008202833704 0.6687099179716629 0.4431316042267051 0.5568683957732949 0.9980784012298232 0.001921598770176787 0.9253939217561219 0.0746060782438781 0.939756177683688 0.06024382231631201 0.7157558552164656 0.28424414478353444 0.41732814138085966 0.5826718586191403 0.22208436724565755 0.7779156327543424 0.31431334622823986 0.6856866537717602 0.11904761904761904 0.8809523809523809 0.9919093851132686 0.008090614886731391 0.9524033930254477 0.04759660697455231 0.9591611479028698 0.04083885209713024 0.9324324324324325 0.06756756756756757 </TABLE>
    </DEFINITION>
    <DEFINITION>
      <FOR>skin</FOR>
      <GIVEN>Hyperbilirubinemia</GIVEN>
      <GIVEN>PBC</GIVEN>
      <GIVEN>itching</GIVEN>
      <GIVEN>jaundice</GIVEN>
      <TABLE>0.7758495448664109 0.22415045513358908 0.7112926436976212 0.28870735630237876 0.714334198442803 0.28566580155719706 0.5545673398421826 0.4454326601578173 0.6159532696689127 0.3840467303310873 0.4506121167730459 0.5493878832269541 0.4636220737663504 0.5363779262336495 0.24027295075019073 0.7597270492498093 0.6584356981699674 0.3415643018300326 0.4557093425605536 0.5442906574394464 0.5514634930845931 0.44853650691540686 0.4410582719356999 0.5589417280643001 0.567001675041876 0.43299832495812396 0.6126760563380281 0.3873239436619718 0.4381044487427466 0.5618955512572534 0.21482176360225141 0.7851782363977486 </TABLE>
    </DEFINITION>
    <DEFINITION>
      <FOR>spiders</FOR>
      <GIVEN>Cirrhosis</GIVEN>
      <TABLE>0.8194229035166817 0.1805770964833183 0.5251524390243902 0.47484756097560976 0.3999388004895961 0.6000611995104039 </TABLE>
    </DEFINITION>
    <DEFINITION>
      <FOR>spleen</FOR>
      <GIVEN>Cirrhosis</GIVEN>
      <TABLE>0.8981965734896302 0.1018034265103697 0.7309451219512195 0.2690548780487805 0.5596695226438189 0.4403304773561812 </TABLE>
    </DEFINITION>
    <DEFINITION>
      <FOR>surgery</FOR>
      <TABLE>0.5732633683158421 0.42673663168415793 </TABLE>
    </DEFINITION>
    <DEFINITION>
      <FOR>transfusion</FOR>
      <GIVEN>surgery</GIVEN>
      <TABLE>0.9316101473280446 0.06838985267195537 0.7071671155873053 0.29283288441269467 </TABLE>
    </DEFINITION>
    <DEFINITION>
      <FOR>triglycerides</FOR>
      <GIVEN>Cirrhosis</GIVEN>
      <GIVEN>fibrosis</GIVEN>
      <TABLE>0.031092411354004697 0.9270587517912132 0.04184883685478216 0.017409766454352445 0.9193205944798303 0.06326963906581742 0.17873210633946834 0.6940695296523518 0.12719836400818 0.03957075788061704 0.9450033534540578 0.015425888665325287 0.1821998320738875 0.6537363560033586 0.164063811922754 0.06209405040270201 0.880488438555469 0.05741751104182906 </TABLE>
    </DEFINITION>
    <DEFINITION>
      <FOR>upper_pain</FOR>
      <TABLE>0.6027486256871564 0.3972513743128436 </TABLE>
    </DEFINITION>
    <DEFINITION>
      <FOR>urea</FOR>
      <GIVEN>diabetes</GIVEN>
      <GIVEN>encephalopathy</GIVEN>
      <TABLE>0.036910391009715146 0.8949768029991363 0.06811280599114863 0.21159919609532013 0.6215905828308929 0.16681022107378696 0.02696253877356239 0.9489382009067048 0.024099260319732755 0.47126436781609193 0.3333333333333333 0.19540229885057472 </TABLE>
    </DEFINITION>
    <DEFINITION>
      <FOR>vh_amn</FOR>
      <GIVEN>ChHepatitis</GIVEN>
      <GIVEN>hbc_anti</GIVEN>
      <GIVEN>hbsag</GIVEN>
      <GIVEN>hbsag_anti</GIVEN>
      <TABLE>0.8655779580494257 0.13442204195057428 0.7477657935285054 0.2522342064714946 0.700146858281758 0.2998531417182419 0.2623762376237624 0.7376237623762376 0.8873103448275862 0.1126896551724138 0.8064833005893909 0.19351669941060903 0.827603640040445 0.17239635995955513 0.5 0.5 0.7790418562784418 0.22095814372155825 0.005422993492407809 0.9945770065075922 0.3987411813528843 0.6012588186471158 0.781524926686217 0.218475073313783 0.9985962942167321 0.001403705783267827 0.9137931034482758 0.08620689655172413 0.9926686217008798 0.007331378299120236 0.9528301886792453 0.04716981132075473 0.741199333703498 0.25880066629650195 0.08620689655172413 0.9137931034482758 0.0942479595802565 0.9057520404197434 0.3441558441558442 0.6558441558441559 0.9966622162883845 0.003337783711615487 0.5 0.5 0.596 0.40399999999999997 0.5 0.5 </TABLE>
    </DEFINITION>
  </NETWORK>
</BIF>
