<?xml version='1.0' encoding='utf-8'?>
<BIF VERSION="0.3">
  <NETWORK>
    <NAME>UNTITLED</NAME>
    <VARIABLE TYPE="nature">
      <NAME>ChHepatitis</NAME>
      <OUTCOME>0</OUTCOME>
      <OUTCOME>1</OUTCOME>
      <OUTCOME>2</OUTCOME>
      <PROPERTY>weight = None</PROPERTY>
    </VARIABLE>
    <VARIABLE TYPE="nature">
      <NAME>Cirrhosis</NAME>
      <OUTCOME>0</OUTCOME>
      <OUTCOME>1</OUTCOME>
      <OUTCOME>2</OUTCOME>
      <PROPERTY>weight = None</PROPERTY>
    </VARIABLE>
    <VARIABLE TYPE="nature">
      <NAME>ESR</NAME>
      <OUTCOME>0</OUTCOME>
      <OUTCOME>1</OUTCOME>
      <OUTCOME>2</OUTCOME>
      <PROPERTY>weight = None</PROPERTY>
    </VARIABLE>
    <VARIABLE TYPE="nature">
      <NAME>Hyperbilirubinemia</NAME>
      <OUTCOME>0</OUTCOME>
      <OUTCOME>1</OUTCOME>
      <PROPERTY>weight = None</PROPERTY>
    </VARIABLE>
    <VARIABLE TYPE="nature">
      <NAME>PBC</NAME>
      <OUTCOME>0</OUTCOME>
      <OUTCOME>1</OUTCOME>
      <PROPERTY>weight = None</PROPERTY>
    </VARIABLE>
    <VARIABLE TYPE="nature">
      <NAME>RHepatitis</NAME>
      <OUTCOME>0</OUTCOME>
      <OUTCOME>1</OUTCOME>
      <PROPERTY>weight = None</PROPERTY>
    </VARIABLE>
    <VARIABLE TYPE="nature">
      <NAME>Steatosis</NAME>
      <OUTCOME>0</OUTCOME>
      <OUTCOME>1</OUTCOME>
      <PROPERTY>weight = None</PROPERTY>
    </VARIABLE>
    <VARIABLE TYPE="nature">
      <NAME>THepatitis</NAME>
      <OUTCOME>0</OUTCOME>
      <OUTCOME>1</OUTCOME>
      <PROPERTY>weight = None</PROPERTY>
    </VARIABLE>
    <VARIABLE TYPE="nature">
      <NAME>age</NAME>
      <OUTCOME>0</OUTCOME>
      <OUTCOME>1</OUTCOME>
      <OUTCOME>2</OUTCOME>
      <OUTCOME>3</OUTCOME>
      <PROPERTY>weight = None</PROPERTY>
    </VARIABLE>
    <VARIABLE TYPE="nature">
      <NAME>albumin</NAME>
      <OUTCOME>0</OUTCOME>
      <OUTCOME>1</OUTCOME>
      <OUTCOME>2</OUTCOME>
      <PROPERTY>weight = None</PROPERTY>
    </VARIABLE>
    <VARIABLE TYPE="nature">
      <NAME>alcohol</NAME>
      <OUTCOME>0</OUTCOME>
      <OUTCOME>1</OUTCOME>
      <PROPERTY>weight = None</PROPERTY>
    </VARIABLE>
    <VARIABLE TYPE="nature">
      <NAME>alcoholism</NAME>
      <OUTCOME>0</OUTCOME>
      <OUTCOME>1</OUTCOME>
      <PROPERTY>weight = None</PROPERTY>
    </VARIABLE>
    <VARIABLE TYPE="nature">
      <NAME>alt</NAME>
      <OUTCOME>0</OUTCOME>
      <OUTCOME>1</OUTCOME>
      <OUTCOME>2</OUTCOME>
      <OUTCOME>3</OUTCOME>
      <PROPERTY>weight = None</PROPERTY>
    </VARIABLE>
    <VARIABLE TYPE="nature">
      <NAME>ama</NAME>
      <OUTCOME>0</OUTCOME>
      <OUTCOME>1</OUTCOME>
      <PROPERTY>weight = None</PROPERTY>
    </VARIABLE>
    <VARIABLE TYPE="nature">
      <NAME>amylase</NAME>
      <OUTCOME>0</OUTCOME>
      <OUTCOME>1</OUTCOME>
      <OUTCOME>2</OUTCOME>
      <PROPERTY>weight = None</PROPERTY>
    </VARIABLE>
    <VARIABLE TYPE="nature">
      <NAME>anorexia</NAME>
      <OUTCOME>0</OUTCOME>
      <OUTCOME>1</OUTCOME>
      <PROPERTY>weight = None</PROPERTY>
    </VARIABLE>
    <VARIABLE TYPE="nature">
      <NAME>ascites</NAME>
      <OUTCOME>0</OUTCOME>
      <OUTCOME>1</OUTCOME>
      <PROPERTY>weight = None</PROPERTY>
    </VARIABLE>
    <VARIABLE TYPE="nature">
      <NAME>ast</NAME>
      <OUTCOME>0</OUTCOME>
      <OUTCOME>1</OUTCOME>
      <OUTCOME>2</OUTCOME>
      <OUTCOME>3</OUTCOME>
      <PROPERTY>weight = None</PROPERTY>
    </VARIABLE>
    <VARIABLE TYPE="nature">
      <NAME>bilirubin</NAME>
      <OUTCOME>0</OUTCOME>
      <OUTCOME>1</OUTCOME>
      <OUTCOME>2</OUTCOME>
      <OUTCOME>3</OUTCOME>
      <PROPERTY>weight = None</PROPERTY>
    </VARIABLE>
    <VARIABLE TYPE="nature">
      <NAME>bleeding</NAME>
      <OUTCOME>0</OUTCOME>
      <OUTCOME>1</OUTCOME>
      <PROPERTY>weight = None</PROPERTY>
    </VARIABLE>
    <VARIABLE TYPE="nature">
      <NAME>carcinoma</NAME>
      <OUTCOME>0</OUTCOME>
      <OUTCOME>1</OUTCOME>
      <PROPERTY>weight = None</PROPERTY>
    </VARIABLE>
    <VARIABLE TYPE="nature">
      <NAME>choledocholithotomy</NAME>
      <OUTCOME>0</OUTCOME>
      <OUTCOME>1</OUTCOME>
      <PROPERTY>weight = None</PROPERTY>
    </VARIABLE>
    <VARIABLE TYPE="nature">
      <NAME>cholesterol</NAME>
      <OUTCOME>0</OUTCOME>
      <OUTCOME>1</OUTCOME>
      <OUTCOME>2</OUTCOME>
      <PROPERTY>weight = None</PROPERTY>
    </VARIABLE>
    <VARIABLE TYPE="nature">
      <NAME>consciousness</NAME>
      <OUTCOME>0</OUTCOME>
      <OUTCOME>1</OUTCOME>
      <PROPERTY>weight = None</PROPERTY>
    </VARIABLE>
    <VARIABLE TYPE="nature">
      <NAME>density</NAME>
      <OUTCOME>0</OUTCOME>
      <OUTCOME>1</OUTCOME>
      <PROPERTY>weight = None</PROPERTY>
    </VARIABLE>
    <VARIABLE TYPE="nature">
      <NAME>diabetes</NAME>
      <OUTCOME>0</OUTCOME>
      <OUTCOME>1</OUTCOME>
      <PROPERTY>weight = None</PROPERTY>
    </VARIABLE>
    <VARIABLE TYPE="nature">
      <NAME>edema</NAME>
      <OUTCOME>0</OUTCOME>
      <OUTCOME>1</OUTCOME>
      <PROPERTY>weight = None</PROPERTY>
    </VARIABLE>
    <VARIABLE TYPE="nature">
      <NAME>edge</NAME>
      <OUTCOME>0</OUTCOME>
      <OUTCOME>1</OUTCOME>
      <PROPERTY>weight = None</PROPERTY>
    </VARIABLE>
    <VARIABLE TYPE="nature">
      <NAME>encephalopathy</NAME>
      <OUTCOME>0</OUTCOME>
      <OUTCOME>1</OUTCOME>
      <PROPERTY>weight = None</PROPERTY>
    </VARIABLE>
    <VARIABLE TYPE="nature">
      <NAME>fat</NAME>
      <OUTCOME>0</OUTCOME>
      <OUTCOME>1</OUTCOME>
      <PROPERTY>weight = None</PROPERTY>
    </VARIABLE>
    <VARIABLE TYPE="nature">
      <NAME>fatigue</NAME>
      <OUTCOME>0</OUTCOME>
      <OUTCOME>1</OUTCOME>
      <PROPERTY>weight = None</PROPERTY>
    </VARIABLE>
    <VARIABLE TYPE="nature">
      <NAME>fibrosis</NAME>
      <OUTCOME>0</OUTCOME>
      <OUTCOME>1</OUTCOME>
      <PROPERTY>weight = None</PROPERTY>
    </VARIABLE>
    <VARIABLE TYPE="nature">
      <NAME>flatulence</NAME>
      <OUTCOME>0</OUTCOME>
      <OUTCOME>1</OUTCOME>
      <PROPERTY>weight = None</PROPERTY>
    </VARIABLE>
    <VARIABLE TYPE="nature">
      <NAME>gallstones</NAME>
      <OUTCOME>0</OUTCOME>
      <OUTCOME>1</OUTCOME>
      <PROPERTY>weight = None</PROPERTY>
    </VARIABLE>
    <VARIABLE TYPE="nature">
      <NAME>ggtp</NAME>
      <OUTCOME>0</OUTCOME>
      <OUTCOME>1</OUTCOME>
      <OUTCOME>2</OUTCOME>
      <OUTCOME>3</OUTCOME>
      <PROPERTY>weight = None</PROPERTY>
    </VARIABLE>
    <VARIABLE TYPE="nature">
      <NAME>hbc_anti</NAME>
      <OUTCOME>0</OUTCOME>
      <OUTCOME>1</OUTCOME>
      <PROPERTY>weight = None</PROPERTY>
    </VARIABLE>
    <VARIABLE TYPE="nature">
      <NAME>hbeag</NAME>
      <OUTCOME>0</OUTCOME>
      <OUTCOME>1</OUTCOME>
      <PROPERTY>weight = None</PROPERTY>
    </VARIABLE>
    <VARIABLE TYPE="nature">
      <NAME>hbsag</NAME>
      <OUTCOME>0</OUTCOME>
      <OUTCOME>1</OUTCOME>
      <PROPERTY>weight = None</PROPERTY>
    </VARIABLE>
    <VARIABLE TYPE="nature">
      <NAME>hbsag_anti</NAME>
      <OUTCOME>0</OUTCOME>
      <OUTCOME>1</OUTCOME>
      <PROPERTY>weight = None</PROPERTY>
    </VARIABLE>
    <VARIABLE TYPE="nature">
      <NAME>hcv_anti</NAME>
      <OUTCOME>0</OUTCOME>
      <OUTCOME>1</OUTCOME>
      <PROPERTY>weight = None</PROPERTY>
    </VARIABLE>
    <VARIABLE TYPE="nature">
      <NAME>hepatalgia</NAME>
      <OUTCOME>0</OUTCOME>
      <OUTCOME>1</OUTCOME>
      <PROPERTY>weight = None</PROPERTY>
    </VARIABLE>
    <VARIABLE TYPE="nature">
      <NAME>hepatomegaly</NAME>
      <OUTCOME>0</OUTCOME>
      <OUTCOME>1</OUTCOME>
      <PROPERTY>weight = None</PROPERTY>
    </VARIABLE>
    <VARIABLE TYPE="nature">
      <NAME>hepatotoxic</NAME>
      <OUTCOME>0</OUTCOME>
      <OUTCOME>1</OUTCOME>
      <PROPERTY>weight = None</PROPERTY>
    </VARIABLE>
    <VARIABLE TYPE="nature">
      <NAME>hospital</NAME>
      <OUTCOME>0</OUTCOME>
      <OUTCOME>1</OUTCOME>
      <PROPERTY>weight = None</PROPERTY>
    </VARIABLE>
    <VARIABLE TYPE="nature">
      <NAME>injections</NAME>
      <OUTCOME>0</OUTCOME>
      <OUTCOME>1</OUTCOME>
      <PROPERTY>weight = None</PROPERTY>
    </VARIABLE>
    <VARIABLE TYPE="nature">
      <NAME>inr</NAME>
      <OUTCOME>0</OUTCOME>
      <OUTCOME>1</OUTCOME>
      <OUTCOME>2</OUTCOME>
      <PROPERTY>weight = None</PROPERTY>
    </VARIABLE>
    <VARIABLE TYPE="nature">
      <NAME>irregular_liver</NAME>
      <OUTCOME>0</OUTCOME>
      <OUTCOME>1</OUTCOME>
      <PROPERTY>weight = None</PROPERTY>
    </VARIABLE>
    <VARIABLE TYPE="nature">
      <NAME>itching</NAME>
      <OUTCOME>0</OUTCOME>
      <OUTCOME>1</OUTCOME>
      <PROPERTY>weight = None</PROPERTY>
    </VARIABLE>
    <VARIABLE TYPE="nature">
      <NAME>jaundice</NAME>
      <OUTCOME>0</OUTCOME>
      <OUTCOME>1</OUTCOME>
      <PROPERTY>weight = None</PROPERTY>
    </VARIABLE>
    <VARIABLE TYPE="nature">
      <NAME>joints</NAME>
      <OUTCOME>0</OUTCOME>
      <OUTCOME>1</OUTCOME>
      <PROPERTY>weight = None</PROPERTY>
    </VARIABLE>
    <VARIABLE TYPE="nature">
      <NAME>le_cells</NAME>
      <OUTCOME>0</OUTCOME>
      <OUTCOME>1</OUTCOME>
      <PROPERTY>weight = None</PROPERTY>
    </VARIABLE>
    <VARIABLE TYPE="nature">
      <NAME>nausea</NAME>
      <OUTCOME>0</OUTCOME>
      <OUTCOME>1</OUTCOME>
      <PROPERTY>weight = None</PROPERTY>
    </VARIABLE>
    <VARIABLE TYPE="nature">
      <NAME>obesity</NAME>
      <OUTCOME>0</OUTCOME>
      <OUTCOME>1</OUTCOME>
      <PROPERTY>weight = None</PROPERTY>
    </VARIABLE>
    <VARIABLE TYPE="nature">
      <NAME>pain</NAME>
      <OUTCOME>0</OUTCOME>
      <OUTCOME>1</OUTCOME>
      <PROPERTY>weight = None</PROPERTY>
    </VARIABLE>
    <VARIABLE TYPE="nature">
      <NAME>pain_ruq</NAME>
      <OUTCOME>0</OUTCOME>
      <OUTCOME>1</OUTCOME>
      <PROPERTY>weight = None</PROPERTY>
    </VARIABLE>
    <VARIABLE TYPE="nature">
      <NAME>palms</NAME>
      <OUTCOME>0</OUTCOME>
      <OUTCOME>1</OUTCOME>
      <PROPERTY>weight = None</PROPERTY>
    </VARIABLE>
    <VARIABLE TYPE="nature">
      <NAME>phosphatase</NAME>
      <OUTCOME>0</OUTCOME>
      <OUTCOME>1</OUTCOME>
      <OUTCOME>2</OUTCOME>
      <PROPERTY>weight = None</PROPERTY>
    </VARIABLE>
    <VARIABLE TYPE="nature">
      <NAME>platelet</NAME>
      <OUTCOME>0</OUTCOME>
      <OUTCOME>1</OUTCOME>
      <OUTCOME>2</OUTCOME>
      <OUTCOME>3</OUTCOME>
      <PROPERTY>weight = None</PROPERTY>
    </VARIABLE>
    <VARIABLE TYPE="nature">
      <NAME>pressure_ruq</NAME>
      <OUTCOME>0</OUTCOME>
      <OUTCOME>1</OUTCOME>
      <PROPERTY>weight = None</PROPERTY>
    </VARIABLE>
    <VARIABLE TYPE="nature">
      <NAME>proteins</NAME>
      <OUTCOME>0</OUTCOME>
      <OUTCOME>1</OUTCOME>
      <PROPERTY>weight = None</PROPERTY>
    </VARIABLE>
    <VARIABLE TYPE="nature">
      <NAME>sex</NAME>
      <OUTCOME>0</OUTCOME>
      <OUTCOME>1</OUTCOME>
      <PROPERTY>weight = None</PROPERTY>
    </VARIABLE>
    <VARIABLE TYPE="nature">
      <NAME>skin</NAME>
      <OUTCOME>0</OUTCOME>
      <OUTCOME>1</OUTCOME>
      <PROPERTY>weight = None</PROPERTY>
    </VARIABLE>
    <VARIABLE TYPE="nature">
      <NAME>spiders</NAME>
      <OUTCOME>0</OUTCOME>
      <OUTCOME>1</OUTCOME>
      <PROPERTY>weight = None</PROPERTY>
    </VARIABLE>
    <VARIABLE TYPE="nature">
      <NAME>spleen</NAME>
      <OUTCOME>0</OUTCOME>
      <OUTCOME>1</OUTCOME>
      <PROPERTY>weight = None</PROPERTY>
    </VARIABLE>
    <VARIABLE TYPE="nature">
      <NAME>surgery</NAME>
      <OUTCOME>0</OUTCOME>
      <OUTCOME>1</OUTCOME>
      <PROPERTY>weight = None</PROPERTY>
    </VARIABLE>
    <VARIABLE TYPE="nature">
      <NAME>transfusion</NAME>
      <OUTCOME>0</OUTCOME>
      <OUTCOME>1</OUTCOME>
      <PROPERTY>weight = None</PROPERTY>
    </VARIABLE>
    <VARIABLE TYPE="nature">
      <NAME>triglycerides</NAME>
      <OUTCOME>0</OUTCOME>
      <OUTCOME>1</OUTCOME>
      <OUTCOME>2</OUTCOME>
      <PROPERTY>weight = None</PROPERTY>
    </VARIABLE>
    <VARIABLE TYPE="nature">
      <NAME>upper_pain</NAME>
      <OUTCOME>0</OUTCOME>
      <OUTCOME>1</OUTCOME>
      <PROPERTY>weight = None</PROPERTY>
    </VARIABLE>
    <VARIABLE TYPE="nature">
      <NAME>urea</NAME>
      <OUTCOME>0</OUTCOME>
      <OUTCOME>1</OUTCOME>
      <OUTCOME>2</OUTCOME>
      <PROPERTY>weight = None</PROPERTY>
    </VARIABLE>
    <VARIABLE TYPE="nature">
      <NAME>vh_amn</NAME>
      <OUTCOME>0</OUTCOME>
      <OUTCOME>1</OUTCOME>
      <PROPERTY>weight = None</PROPERTY>
    </VARIABLE>
    <DEFINITION>
      <FOR>ChHepatitis</FOR>
      <GIVEN>hbeag</GIVEN>
      <GIVEN>hospital</GIVEN>
      <GIVEN>phosphatase</GIVEN>
      <TABLE>0.7109402111249175 0.2055837279331923 0.08347606094189028 0.9669751406278352 0.025004536381781888 0.008020322990382871 0.8388133596853726 0.1258709149348186 0.035315725379808746 0.7831167368173114 0.1486271979681916 0.06825606521449713 0.9698343556464277 0.02148339111624737 0.0086822532373248 0.8961653674925111 0.07753669960114526 0.026297932906343607 0.10933333333333331 0.10933333333333331 0.7813333333333333 0.3333333333333333 0.3333333333333333 0.3333333333333333 0.4232209737827715 0.018726591760299626 0.5580524344569289 0.3333333333333333 0.011185682326621923 0.6554809843400448 0.471264367816092 0.0574712643678161 0.471264367816092 0.5794871794871795 0.025641025641025644 0.3948717948717949 </TABLE>
    </DEFINITION>
    <DEFINITION>
      <FOR>Cirrhosis</FOR>
      <GIVEN>edge</GIVEN>
      <GIVEN>fibrosis</GIVEN>
      <GIVEN>irregular_liver</GIVEN>
      <GIVEN>palms</GIVEN>
      <TABLE>0.9915063089972619 0.0055335362934880415 0.0029601547092500046 0.9593045776653679 0.016519698316130062 0.024175724018502067 0.9359435214870949 0.031251012014637786 0.03280546649826744 0.7304172483325578 0.05289281836513107 0.21668993330231115 0.7442870632672332 0.16411709159584512 0.09159584513692161 0.2231784279977051 0.2507171543316121 0.5261044176706827 0.24545838614279678 0.30629488804393745 0.44824672581326575 0.041963578780680924 0.38400633412509894 0.5740300870942201 0.9527944293066908 0.01749924311232213 0.029706327580986975 0.7657657657657657 0.037882603099994396 0.1963516311342398 0.7122447394984083 0.045112198152030436 0.24264306234956132 0.2858907832962689 0.08425994563874475 0.6298492710649863 0.36051647978253487 0.23003737682636763 0.40944614339109753 0.050932929904185575 0.1719616742309632 0.7771053958648512 0.053233297606287956 0.1561271882815291 0.7906395141121829 0.002350728725905031 0.002350728725905031 0.9952985425481898 </TABLE>
    </DEFINITION>
    <DEFINITION>
      <FOR>ESR</FOR>
      <GIVEN>ChHepatitis</GIVEN>
      <GIVEN>PBC</GIVEN>
      <GIVEN>Steatosis</GIVEN>
      <GIVEN>hcv_anti</GIVEN>
      <TABLE>0.9078452748487653 0.04113035963489897 0.0510243655163358 0.7428896473265074 0.08759954493742889 0.16951080773606372 0.8194941645565936 0.11539916761256147 0.0651066678308449 0.9371069182389935 0.03144654088050314 0.03144654088050314 0.3602225177434519 0.42826384525079525 0.21151363700575296 0.0574712643678161 0.0574712643678161 0.8850574712643678 0.48161313528839234 0.34755194447970883 0.17083492023189875 0.8850574712643678 0.0574712643678161 0.0574712643678161 0.7587348428957872 0.04367894368461873 0.19758621341959406 0.8850574712643678 0.0574712643678161 0.0574712643678161 0.6084793424183431 0.23469608479342421 0.15682457278823275 0.3333333333333333 0.3333333333333333 0.3333333333333333 0.5023763121003864 0.280815126337744 0.21680856156186956 0.3333333333333333 0.3333333333333333 0.3333333333333333 0.5087444531453928 0.339598016183764 0.15165753067084314 0.3333333333333333 0.3333333333333333 0.3333333333333333 0.891760821338286 0.06340607749058452 0.04483310117112933 0.0574712643678161 0.0574712643678161 0.8850574712643678 0.9480957195820695 0.025952140208965288 0.025952140208965288 0.3333333333333333 0.3333333333333333 0.3333333333333333 0.41569916027747356 0.3894121942314714 0.19488864549105514 0.3333333333333333 0.3333333333333333 0.3333333333333333 0.4487972508591065 0.39931271477663227 0.15189003436426116 0.0574712643678161 0.0574712643678161 0.8850574712643678 </TABLE>
    </DEFINITION>
    <DEFINITION>
      <FOR>Hyperbilirubinemia</FOR>
      <GIVEN>hepatomegaly</GIVEN>
      <TABLE>0.8685354868768442 0.13146451312315577 0.9528037727507185 0.047196227249281554 </TABLE>
    </DEFINITION>
    <DEFINITION>
      <FOR>PBC</FOR>
      <GIVEN>ama</GIVEN>
      <GIVEN>bilirubin</GIVEN>
      <GIVEN>cholesterol</GIVEN>
      <GIVEN>sex</GIVEN>
      <TABLE>0.2486756190710854 0.7513243809289146 0.8948705540769417 0.10512944592305833 0.06363636363636364 0.9363636363636364 0.11997563946406821 0.8800243605359318 0.0283548568220101 0.9716451431779898 0.01269035532994924 0.9873096446700508 0.8299740342429639 0.17002596575703613 0.9883486417822943 0.011651358217705686 0.5278331864359604 0.4721668135640395 0.9224107706331954 0.07758922936680458 0.23028095733610823 0.7697190426638918 0.7589211618257262 0.24107883817427386 0.5479153495491299 0.45208465045087015 0.938000703427254 0.06199929657274611 0.20013291980505094 0.799867080194949 0.7322767965158481 0.2677232034841519 0.03858309191466948 0.9614169080853305 0.7209436133486766 0.2790563866513233 0.34033264033264027 0.6596673596673597 0.7904062229904927 0.20959377700950735 0.15522745411013567 0.8447725458898644 0.6610738255033557 0.33892617449664425 0.008532423208191128 0.991467576791809 0.9752475247524752 0.02475247524752475 0.0055052872560776185 0.9944947127439223 0.003045066991473813 0.9969549330085262 0.009915570390732377 0.9900844296092677 0.004302925989672977 0.9956970740103269 0.026233766233766227 0.9737662337662337 0.007331378299120236 0.9926686217008798 0.058793331051679464 0.9412066689483206 0.52773764807859 0.47226235192141 0.006770224757715308 0.9932297752422847 0.08694362017804154 0.9130563798219584 0.0005363655867839521 0.9994636344132161 0.005154639175257732 0.9948453608247422 0.007534070455129854 0.9924659295448702 0.1575621687729311 0.8424378312270688 0.00019140953985146623 0.9998085904601486 0.0020746887966804984 0.9979253112033195 0.0005308982798895732 0.9994691017201105 0.04716981132075473 0.9528301886792453 0.0009996001599360256 0.999000399840064 0.25634517766497456 0.7436548223350253 0.0016223231667748213 0.9983776768332251 0.010204081632653062 0.989795918367347 0.00397456279809221 0.9960254372019077 0.5 0.5 </TABLE>
    </DEFINITION>
    <DEFINITION>
      <FOR>RHepatitis</FOR>
      <GIVEN>phosphatase</GIVEN>
      <TABLE>0.9593929712460064 0.040607028753993614 0.9995114324799688 0.0004885675200312683 0.9792928200692042 0.020707179930795846 </TABLE>
    </DEFINITION>
    <DEFINITION>
      <FOR>Steatosis</FOR>
      <GIVEN>Cirrhosis</GIVEN>
      <GIVEN>alcoholism</GIVEN>
      <GIVEN>fibrosis</GIVEN>
      <GIVEN>obesity</GIVEN>
      <TABLE>0.9675420833870886 0.032457916612911364 0.9008247422680412 0.09917525773195875 0.9582095884599067 0.04179041154009334 0.7938775510204082 0.20612244897959184 0.8430374516359266 0.15696254836407347 0.6759315821624924 0.32406841783750767 0.8463917525773196 0.1536082474226804 0.9528301886792453 0.04716981132075473 0.05247735748534896 0.947522642514651 0.014450867052023121 0.9855491329479769 0.9677316293929713 0.03226837060702875 0.7879999999999999 0.212 0.02290406222990493 0.9770959377700951 0.04716981132075473 0.9528301886792453 0.7938775510204082 0.20612244897959184 0.9528301886792453 0.04716981132075473 0.023971769286931132 0.9760282307130689 0.0023562676720075403 0.9976437323279925 0.9067236153210251 0.09327638467897494 0.7745995423340961 0.2254004576659039 0.010909839440098806 0.9890901605599012 0.007331378299120236 0.9926686217008798 0.7062689585439839 0.29373104145601614 0.6558441558441559 0.3441558441558442 </TABLE>
    </DEFINITION>
    <DEFINITION>
      <FOR>THepatitis</FOR>
      <GIVEN>phosphatase</GIVEN>
      <TABLE>0.9352396166134186 0.06476038338658148 0.9836818448309557 0.016318155169044363 0.9796172145328719 0.020382785467128028 </TABLE>
    </DEFINITION>
    <DEFINITION>
      <FOR>age</FOR>
      <GIVEN>Hyperbilirubinemia</GIVEN>
      <TABLE>0.10037520919937375 0.4058332883442207 0.41112400799006643 0.08266749446633914 0.5872562205783457 0.32632817753866844 0.08154001344989913 0.0048755884330867515 </TABLE>
    </DEFINITION>
    <DEFINITION>
      <FOR>albumin</FOR>
      <GIVEN>fibrosis</GIVEN>
      <TABLE>0.11399982598103192 0.13832767771687113 0.7476724963020969 0.04873294346978557 0.06042884990253411 0.8908382066276803 </TABLE>
    </DEFINITION>
    <DEFINITION>
      <FOR>alcohol</FOR>
      <TABLE>0.8798100949525237 0.12018990504747626 </TABLE>
    </DEFINITION>
    <DEFINITION>
      <FOR>alcoholism</FOR>
      <GIVEN>THepatitis</GIVEN>
      <GIVEN>carcinoma</GIVEN>
      <GIVEN>hbeag</GIVEN>
      <TABLE>0.8728353995164153 0.1271646004835847 0.6959183673469388 0.3040816326530612 0.8070487345743568 0.19295126542564317 0.9324324324324325 0.06756756756756757 0.6468241302266199 0.35317586977338017 0.5 0.5 0.395910780669145 0.604089219330855 0.5 0.5 </TABLE>
    </DEFINITION>
    <DEFINITION>
      <FOR>alt</FOR>
      <GIVEN>ChHepatitis</GIVEN>
      <GIVEN>RHepatitis</GIVEN>
      <GIVEN>THepatitis</GIVEN>
      <GIVEN>hcv_anti</GIVEN>
      <TABLE>0.16170175104163828 0.3630034585114784 0.040659295770812336 0.4346354946760709 0.25 0.4350899742930591 0.0032133676092544992 0.3116966580976864 0.06109559476958232 0.5455439888282341 0.009299225593500063 0.38406119080868345 0.25 0.25 0.25 0.25 0.21863504356243954 0.3394482090997096 0.01882865440464666 0.42308809293320426 0.25 0.25 0.25 0.25 0.3615241635687732 0.45074349442379175 0.004646840148698885 0.18308550185873607 0.25 0.25 0.25 0.25 0.21134712429762717 0.26288429190079093 0.11772126981854623 0.4080473139830357 0.04310344827586208 0.8706896551724139 0.04310344827586208 0.04310344827586208 0.10767234988880653 0.4279095626389919 0.05429948109710898 0.4101186063750927 0.25 0.25 0.25 0.25 0.2002958579881657 0.5127218934911243 0.058284023668639065 0.22869822485207106 0.25 0.25 0.25 0.25 0.9292452830188678 0.023584905660377353 0.023584905660377353 0.023584905660377353 0.25 0.25 0.25 0.25 0.1104772234273319 0.5790238611713666 0.023015184381778745 0.28748373101952285 0.023584905660377353 0.9292452830188678 0.023584905660377353 0.023584905660377353 0.13873038516405134 0.37838801711840225 0.0017831669044222538 0.4810984308131241 0.25 0.25 0.25 0.25 0.09386617100371747 0.36152416356877326 0.004646840148698886 0.5399628252788105 0.25 0.25 0.25 0.25 0.25 0.25 0.25 0.25 0.25 0.25 0.25 0.25 </TABLE>
    </DEFINITION>
    <DEFINITION>
      <FOR>ama</FOR>
      <GIVEN>age</GIVEN>
      <GIVEN>cholesterol</GIVEN>
      <GIVEN>sex</GIVEN>
      <GIVEN>skin</GIVEN>
      <TABLE>0.944078469363042 0.0559215306369581 0.9334226216192862 0.06657737838071372 0.9811522740543698 0.018847725945630313 0.993469546101125 0.0065304538988749505 0.8969058415577488 0.10309415844225128 0.8174303259329239 0.18256967406707605 0.9987012987012986 0.0012987012987012987 0.9978392394122731 0.00216076058772688 0.7670906200317965 0.2329093799682035 0.725140712945591 0.274859287054409 0.9528301886792453 0.04716981132075473 0.9528301886792453 0.04716981132075473 0.7841422423943993 0.21585775760560064 0.5917876045757213 0.4082123954242787 0.966553438785324 0.03344656121467597 0.9645242728659339 0.03547572713406617 0.5339691312259891 0.4660308687740109 0.4983170885632144 0.5016829114367857 0.8723746452223273 0.12762535477767267 0.7807929801754956 0.21920701982450438 0.4767723203484152 0.5232276796515848 0.3889959529774524 0.6110040470225477 0.6418020679468243 0.35819793205317574 0.6655172413793103 0.3344827586206896 0.7383215947836042 0.2616784052163958 0.5795145153354109 0.4204854846645891 0.9729498799454888 0.027050120054511233 0.9365138562166505 0.06348614378334959 0.4848532660145156 0.5151467339854844 0.5014920733602736 0.49850792663972643 0.9370934770488757 0.06290652295112432 0.7963925901852453 0.20360740981475461 0.5531326101394731 0.4468673898605269 0.3670994844376552 0.6329005155623448 0.8958762886597937 0.10412371134020616 0.9303448275862068 0.0696551724137931 0.7690649254650733 0.23093507453492668 0.576203916034574 0.42379608396542606 0.8941549204707099 0.10584507952929004 0.6664154356346096 0.33358456436539036 0.5587335576628939 0.4412664423371061 0.3511492156147391 0.6488507843852609 0.5171796707229778 0.4828203292770222 0.594329028635598 0.40567097136440206 0.428923988153998 0.571076011846002 0.7134914751667902 0.2865085248332098 0.5 0.5 0.04716981132075473 0.9528301886792453 </TABLE>
    </DEFINITION>
    <DEFINITION>
      <FOR>amylase</FOR>
      <GIVEN>gallstones</GIVEN>
      <TABLE>0.010357093724819681 0.9757482852819211 0.013894620993259041 0.026784738165518754 0.9280638460697498 0.04515141576473161 </TABLE>
    </DEFINITION>
    <DEFINITION>
      <FOR>anorexia</FOR>
      <TABLE>0.7213893053473264 0.2786106946526737 </TABLE>
    </DEFINITION>
    <DEFINITION>
      <FOR>ascites</FOR>
      <GIVEN>hbeag</GIVEN>
      <TABLE>0.866728540611047 0.133271459388953 0.6818181818181818 0.3181818181818182 </TABLE>
    </DEFINITION>
    <DEFINITION>
      <FOR>ast</FOR>
      <GIVEN>ChHepatitis</GIVEN>
      <GIVEN>RHepatitis</GIVEN>
      <GIVEN>THepatitis</GIVEN>
      <GIVEN>hcv_anti</GIVEN>
      <TABLE>0.45868712725688304 0.21542577816508265 0.3162073472944637 0.00967974728357071 0.6201799485861184 0.12660668380462728 0.25 0.0032133676092544992 0.3871080360543354 0.06109559476958233 0.5455439888282342 0.006252380347848166 0.25 0.25 0.25 0.25 0.6972410454985478 0.09317521781219747 0.20469506292352369 0.004888673765730879 0.25 0.25 0.25 0.25 0.6291821561338289 0.09386617100371746 0.27230483271375466 0.004646840148698885 0.25 0.25 0.25 0.25 0.45528971761926923 0.23282094413227872 0.2757685838015819 0.0361207544468702 0.8706896551724139 0.04310344827586208 0.04310344827586208 0.04310344827586208 0.5346553002223869 0.1254633061527057 0.3211638250555967 0.0187175685693106 0.25 0.25 0.25 0.25 0.42751479289940825 0.228698224852071 0.31390532544378696 0.029881656804733724 0.25 0.25 0.25 0.25 0.4764150943396226 0.023584905660377357 0.4764150943396226 0.023584905660377357 0.25 0.25 0.25 0.25 0.3936876355748373 0.12297180043383948 0.45616052060737533 0.02718004338394794 0.023584905660377357 0.023584905660377357 0.9292452830188679 0.023584905660377357 0.4126248216833096 0.10449358059914408 0.48109843081312414 0.001783166904422254 0.25 0.25 0.25 0.25 0.45074349442379175 0.09386617100371746 0.45074349442379175 0.004646840148698885 0.25 0.25 0.25 0.25 0.25 0.25 0.25 0.25 0.25 0.25 0.25 0.25 </TABLE>
    </DEFINITION>
    <DEFINITION>
      <FOR>bilirubin</FOR>
      <GIVEN>ama</GIVEN>
      <GIVEN>itching</GIVEN>
      <GIVEN>jaundice</GIVEN>
      <GIVEN>skin</GIVEN>
      <TABLE>0.002307290801679755 0.9479050511281406 0.04975800137607061 2.9656694108994282e-05 0.046605585232267224 0.5951213739941849 0.3538609777537359 0.004412063019812023 0.010606912053947738 0.873770722112953 0.11550529174861852 0.00011707408448065936 0.1827944206688857 0.3121334601363132 0.47697733396734826 0.028094785227452845 0.010410822940491088 0.8783174383981358 0.11121779657359858 5.3942087774565224e-05 0.13963767541425515 0.35021406485372236 0.4859470387695235 0.02420122096249901 0.04306880964339528 0.7047128746023774 0.25200904068307384 0.00020927507115352419 0.2790982064467578 0.13260378778377022 0.43361971654333376 0.15467828922613822 0.010550577847032852 0.8582326970523309 0.13105440851837424 0.0001623165822620439 0.16618060056167638 0.26987470295960253 0.5567617195938648 0.007182976884856341 0.04014533853243531 0.6980680609712868 0.261343495214463 0.00044310528181495923 0.29843216392424715 0.13450791679602608 0.5219652281900031 0.045094691089723686 0.04581045352857433 0.6282794386821232 0.3256558877364247 0.000254220052877771 0.25484345268984604 0.1302975263795191 0.5592890503373119 0.055569970593322957 0.09952274003368894 0.4498877035373386 0.4498877035373386 0.0007018528916339135 0.39067827023147317 0.0346761169926431 0.35909743405706085 0.2155481787188229 </TABLE>
    </DEFINITION>
    <DEFINITION>
      <FOR>bleeding</FOR>
      <GIVEN>inr</GIVEN>
      <GIVEN>platelet</GIVEN>
      <TABLE>0.871451543076257 0.12854845692374298 0.8629980072930364 0.13700199270696364 0.8907042585820455 0.10929574141795445 0.7443807512445316 0.25561924875546843 0.7860103626943005 0.21398963730569945 0.8971281130805475 0.10287188691945257 0.8859111791730474 0.11408882082695251 0.33561643835616445 0.6643835616438356 0.8022464261402315 0.19775357385976855 0.5536728023395837 0.44632719766041634 0.8901581722319859 0.10984182776801404 0.3675862068965517 0.6324137931034483 </TABLE>
    </DEFINITION>
    <DEFINITION>
      <FOR>carcinoma</FOR>
      <GIVEN>cholesterol</GIVEN>
      <GIVEN>irregular_liver</GIVEN>
      <GIVEN>sex</GIVEN>
      <TABLE>0.9422548011384019 0.05774519886159807 0.9766626963242016 0.023337303675798452 0.8749409727687707 0.12505902723122933 0.9207762985186575 0.0792237014813426 0.9029031240138845 0.09709687598611551 0.9308542118761097 0.06914578812389031 0.8477530449391012 0.15224695506089878 0.87660485021398 0.12339514978601995 0.8828235770710958 0.1171764229289042 0.8743676222596964 0.12563237774030353 0.8450210378681626 0.15497896213183732 0.7171945701357466 0.28280542986425333 </TABLE>
    </DEFINITION>
    <DEFINITION>
      <FOR>choledocholithotomy</FOR>
      <TABLE>0.8635182408795602 0.13648175912043978 </TABLE>
    </DEFINITION>
    <DEFINITION>
      <FOR>cholesterol</FOR>
      <GIVEN>age</GIVEN>
      <GIVEN>sex</GIVEN>
      <GIVEN>skin</GIVEN>
      <TABLE>0.8250409623146705 0.14982216360947928 0.025136874075850215 0.8136820642621106 0.14884342262532516 0.03747451311256415 0.8862630096026679 0.11068943706514861 0.003047553332183313 0.8646986469864699 0.12937493011293752 0.005926422900592644 0.7111709983404132 0.2259017341920553 0.06292726746753148 0.6009028419000718 0.29262337129373145 0.10647378680619679 0.8912658897339096 0.09638708030128942 0.012347029964800933 0.8333552487398641 0.1348674117904887 0.031777339469647156 0.6636770559767438 0.261714814264242 0.07460812975901426 0.5884339954060261 0.3104792788619299 0.10108672573204394 0.8873980228428832 0.10329206257798254 0.009309914579134273 0.8209222363525034 0.14492958409872356 0.034148179548773014 0.6546495685135898 0.26365029437857895 0.08170013710783128 0.5808996823445025 0.28086894148990676 0.13823137616559075 0.8042641705668228 0.14529381175247014 0.05044201768070723 0.6439526305571733 0.3457581052222869 0.0102892642205397 </TABLE>
    </DEFINITION>
    <DEFINITION>
      <FOR>consciousness</FOR>
      <GIVEN>ama</GIVEN>
      <GIVEN>density</GIVEN>
      <TABLE>0.9811325719698963 0.01886742803010368 0.9715856627213968 0.028414337278603208 0.9736159970375856 0.026384002962414367 0.9388663967611336 0.061133603238866394 </TABLE>
    </DEFINITION>
    <DEFINITION>
      <FOR>density</FOR>
      <TABLE>0.6097451274362818 0.39025487256371816 </TABLE>
    </DEFINITION>
    <DEFINITION>
      <FOR>diabetes</FOR>
      <TABLE>0.964367816091954 0.035632183908045977 </TABLE>
    </DEFINITION>
    <DEFINITION>
      <FOR>edema</FOR>
      <GIVEN>Cirrhosis</GIVEN>
      <TABLE>0.8688728584310189 0.13112714156898106 0.9184451219512195 0.08155487804878048 0.6606487148102815 0.3393512851897185 </TABLE>
    </DEFINITION>
    <DEFINITION>
      <FOR>edge</FOR>
      <GIVEN>carcinoma</GIVEN>
      <GIVEN>fibrosis</GIVEN>
      <GIVEN>irregular_liver</GIVEN>
      <GIVEN>spleen</GIVEN>
      <TABLE>0.7596026953094275 0.24039730469057252 0.7181976871045167 0.2818023128954833 0.7214552370219061 0.27854476297809394 0.553835800807537 0.446164199192463 0.6663334666133547 0.3336665333866453 0.5647773279352226 0.4352226720647773 0.5371402042711235 0.46285979572887653 0.2961264016309888 0.7038735983690112 0.744940321743643 0.25505967825635706 0.48008298755186724 0.5199170124481328 0.5747081712062256 0.4252918287937743 0.6072386058981233 0.39276139410187666 0.33505154639175255 0.6649484536082474 0.3773946360153257 0.6226053639846744 0.5159680638722555 0.48403193612774453 0.2815699658703072 0.7184300341296929 </TABLE>
    </DEFINITION>
    <DEFINITION>
      <FOR>encephalopathy</FOR>
      <GIVEN>ama</GIVEN>
      <GIVEN>consciousness</GIVEN>
      <GIVEN>density</GIVEN>
      <TABLE>0.9924232264985919 0.007576773501408073 0.9718994341008251 0.02810056589917491 0.8068340306834031 0.19316596931659694 0.4881831610044313 0.5118168389955687 0.9860701721023105 0.013929827897689455 0.9375449187868334 0.0624550812131666 0.5982456140350877 0.4017543859649123 0.4116997792494481 0.5883002207505519 </TABLE>
    </DEFINITION>
    <DEFINITION>
      <FOR>fat</FOR>
      <GIVEN>gallstones</GIVEN>
      <TABLE>0.72109545427746 0.2789045457225399 0.8096097081010167 0.19039029189898327 </TABLE>
    </DEFINITION>
    <DEFINITION>
      <FOR>fatigue</FOR>
      <GIVEN>ChHepatitis</GIVEN>
      <GIVEN>RHepatitis</GIVEN>
      <GIVEN>hbeag</GIVEN>
      <TABLE>0.46073109884030444 0.5392689011596956 0.4562043795620438 0.5437956204379563 0.25822550831792973 0.7417744916820702 0.8529411764705883 0.1470588235294118 0.38036872652782516 0.6196312734721748 0.1470588235294118 0.8529411764705883 0.29955456570155903 0.700445434298441 0.5 0.5 0.48976283910595464 0.5102371608940454 0.7348754448398577 0.2651245551601424 0.718978102189781 0.28102189781021897 0.5 0.5 </TABLE>
    </DEFINITION>
    <DEFINITION>
      <FOR>fibrosis</FOR>
      <GIVEN>ChHepatitis</GIVEN>
      <GIVEN>carcinoma</GIVEN>
      <GIVEN>irregular_liver</GIVEN>
      <GIVEN>spleen</GIVEN>
      <TABLE>0.9993296264283721 0.0006703735716278848 0.9985222773657504 0.0014777226342497075 0.9985626728860444 0.0014373271139556329 0.9904983865184653 0.0095016134815346 0.9996716143438854 0.0003283856561145409 0.9828033744321869 0.01719662556781311 0.9833228445563247 0.016677155443675266 0.9948453608247422 0.005154639175257732 0.8154380200328581 0.18456197996714188 0.6322431567721294 0.36775684322787056 0.5889142205756626 0.4110857794243374 0.22615564657694562 0.7738443534230545 0.5 0.5 0.39228007181328545 0.6077199281867145 0.25143843498273877 0.7485615650172612 0.057483731019522775 0.9425162689804771 0.9822043628013777 0.01779563719862227 0.948938321536906 0.051061678463094035 0.8481865284974094 0.1518134715025907 0.613564668769716 0.38643533123028395 0.9926686217008798 0.007331378299120236 0.7376237623762376 0.2623762376237624 0.6628959276018099 0.33710407239819 0.9528301886792453 0.04716981132075473 </TABLE>
    </DEFINITION>
    <DEFINITION>
      <FOR>flatulence</FOR>
      <GIVEN>amylase</GIVEN>
      <TABLE>0.6826424870466321 0.3173575129533679 0.5757507998211153 0.42424920017888473 0.6580357142857143 0.3419642857142857 </TABLE>
    </DEFINITION>
    <DEFINITION>
      <FOR>gallstones</FOR>
      <GIVEN>choledocholithotomy</GIVEN>
      <TABLE>0.947190230916141 0.052809769083859016 0.2176858293665324 0.7823141706334676 </TABLE>
    </DEFINITION>
    <DEFINITION>
      <FOR>ggtp</FOR>
      <GIVEN>Hyperbilirubinemia</GIVEN>
      <GIVEN>RHepatitis</GIVEN>
      <TABLE>0.13506704422420254 0.14561644596207768 0.1419519169373421 0.5773645928763776 0.11048780487804878 0.13 0.08317073170731708 0.6763414634146342 0.04605945385413066 0.05159004493605254 0.04744210162461113 0.8549083995852057 0.21296296296296297 0.16358024691358025 0.11419753086419752 0.5092592592592593 </TABLE>
    </DEFINITION>
    <DEFINITION>
      <FOR>hbc_anti</FOR>
      <TABLE>0.9053973013493254 0.09460269865067467 </TABLE>
    </DEFINITION>
    <DEFINITION>
      <FOR>hbeag</FOR>
      <TABLE>0.996151924037981 0.0038480759620189904 </TABLE>
    </DEFINITION>
    <DEFINITION>
      <FOR>hbsag</FOR>
      <GIVEN>ChHepatitis</GIVEN>
      <GIVEN>hbsag_anti</GIVEN>
      <TABLE>0.9456114959164685 0.05438850408353148 0.972538860103627 0.02746113989637306 0.7420607877879243 0.25793921221207583 0.5542986425339367 0.4457013574660634 0.7833279794410536 0.21667202055894635 0.2931034482758621 0.7068965517241379 </TABLE>
    </DEFINITION>
    <DEFINITION>
      <FOR>hbsag_anti</FOR>
      <TABLE>0.97976011994003 0.020239880059970013 </TABLE>
    </DEFINITION>
    <DEFINITION>
      <FOR>hcv_anti</FOR>
      <TABLE>0.9978510744627687 0.0021489255372313843 </TABLE>
    </DEFINITION>
    <DEFINITION>
      <FOR>hepatalgia</FOR>
      <GIVEN>hepatomegaly</GIVEN>
      <TABLE>0.968240410001553 0.03175958999844696 0.6897428339842311 0.3102571660157689 </TABLE>
    </DEFINITION>
    <DEFINITION>
      <FOR>hepatomegaly</FOR>
      <TABLE>0.32178910544727635 0.6782108945527237 </TABLE>
    </DEFINITION>
    <DEFINITION>
      <FOR>hepatotoxic</FOR>
      <TABLE>0.9188905547226387 0.08110944527736132 </TABLE>
    </DEFINITION>
    <DEFINITION>
      <FOR>hospital</FOR>
      <TABLE>0.46541729135432286 0.5345827086456771 </TABLE>
    </DEFINITION>
    <DEFINITION>
      <FOR>injections</FOR>
      <GIVEN>ChHepatitis</GIVEN>
      <GIVEN>choledocholithotomy</GIVEN>
      <GIVEN>hospital</GIVEN>
      <GIVEN>surgery</GIVEN>
      <TABLE>0.9295122120294844 0.07048778797051551 0.7381111550031906 0.2618888449968094 0.47644903833573204 0.523550961664268 0.2345119409356872 0.7654880590643127 0.9926223520818115 0.007377647918188457 0.671131239159761 0.328868760840239 0.15255508132425882 0.8474449186757411 0.17590378393585596 0.8240962160641441 0.9657308009909166 0.034269199009083394 0.853656634960237 0.14634336503976297 0.6538664904163913 0.3461335095836088 0.40582639714625446 0.5941736028537455 0.997965825874695 0.0020341741253051262 0.7338611449451887 0.26613885505481116 0.2682758620689655 0.7317241379310344 0.24404015056461728 0.7559598494353826 0.9920682430410057 0.007931756958994314 0.8606422396047756 0.13935776039522435 0.7821826952065118 0.2178173047934881 0.5057333970377449 0.4942666029622551 0.994279176201373 0.005720823798627002 0.9318766066838047 0.06812339331619538 0.6338289962825279 0.36617100371747213 0.4180887372013652 0.5819112627986348 </TABLE>
    </DEFINITION>
    <DEFINITION>
      <FOR>inr</FOR>
      <GIVEN>ChHepatitis</GIVEN>
      <GIVEN>irregular_liver</GIVEN>
      <TABLE>0.8786959353331035 0.05837643182775927 0.06292763283913727 0.8459513590844062 0.049728183118741054 0.10432045779685262 0.8940494285875132 0.01649496143669425 0.08945560997579236 0.814701690083486 0.01201384646711464 0.17328446344939932 0.8832788473180773 0.08996246518949026 0.0267586874924325 0.7909168808911738 0.06598114824335903 0.143101970865467 </TABLE>
    </DEFINITION>
    <DEFINITION>
      <FOR>irregular_liver</FOR>
      <GIVEN>ChHepatitis</GIVEN>
      <TABLE>0.8819176971416988 0.11808230285830125 0.7834083090764753 0.2165916909235247 0.8761935073201783 0.12380649267982177 </TABLE>
    </DEFINITION>
    <DEFINITION>
      <FOR>itching</FOR>
      <GIVEN>ama</GIVEN>
      <GIVEN>jaundice</GIVEN>
      <GIVEN>skin</GIVEN>
      <TABLE>0.6452496861700499 0.3547503138299501 0.5397051310123349 0.46029486898766514 0.6412612612612613 0.35873873873873874 0.4417448536619521 0.5582551463380478 0.6103185924869234 0.38968140751307656 0.4446685878962536 0.5553314121037464 0.6129943502824858 0.3870056497175141 0.366272458494428 0.633727541505572 </TABLE>
    </DEFINITION>
    <DEFINITION>
      <FOR>jaundice</FOR>
      <GIVEN>ama</GIVEN>
      <GIVEN>hbeag</GIVEN>
      <GIVEN>skin</GIVEN>
      <TABLE>0.7963943427212785 0.20360565727872149 0.6581703742853025 0.34182962571469755 0.9021164021164021 0.09788359788359788 0.08620689655172414 0.9137931034482759 0.7330730684069455 0.2669269315930544 0.5436012996541243 0.4563987003458757 0.6379310344827587 0.3620689655172414 0.30327868852459017 0.6967213114754098 </TABLE>
    </DEFINITION>
    <DEFINITION>
      <FOR>joints</FOR>
      <GIVEN>ama</GIVEN>
      <TABLE>0.8956783334411593 0.10432166655884066 0.8667911267296288 0.13320887327037118 </TABLE>
    </DEFINITION>
    <DEFINITION>
      <FOR>le_cells</FOR>
      <GIVEN>cholesterol</GIVEN>
      <GIVEN>sex</GIVEN>
      <TABLE>0.9318814101233235 0.0681185898766765 0.9518028672105034 0.04819713278949655 0.8759464501261933 0.12405354987380664 0.9305025996533796 0.06949740034662044 0.8738053097345132 0.12619469026548671 0.9496314496314495 0.05036855036855036 </TABLE>
    </DEFINITION>
    <DEFINITION>
      <FOR>nausea</FOR>
      <GIVEN>THepatitis</GIVEN>
      <TABLE>0.7173027724116326 0.28269722758836735 0.602683780630105 0.397316219369895 </TABLE>
    </DEFINITION>
    <DEFINITION>
      <FOR>obesity</FOR>
      <GIVEN>diabetes</GIVEN>
      <TABLE>0.9390319738819506 0.06096802611804944 0.7356241234221599 0.2643758765778401 </TABLE>
    </DEFINITION>
    <DEFINITION>
      <FOR>pain</FOR>
      <GIVEN>ama</GIVEN>
      <GIVEN>joints</GIVEN>
      <GIVEN>sex</GIVEN>
      <TABLE>0.8377401727481051 0.16225982725189494 0.8130344648872765 0.1869655351127235 0.349392232434035 0.6506077675659651 0.20100747481312967 0.7989925251868704 0.859849826450379 0.14015017354962103 0.8067705212702216 0.1932294787297783 0.6049240681086057 0.3950759318913944 0.4841897233201581 0.5158102766798419 </TABLE>
    </DEFINITION>
    <DEFINITION>
      <FOR>pain_ruq</FOR>
      <GIVEN>Hyperbilirubinemia</GIVEN>
      <TABLE>0.5746639313286185 0.4253360686713815 0.7010759919300605 0.29892400806993946 </TABLE>
    </DEFINITION>
    <DEFINITION>
      <FOR>palms</FOR>
      <GIVEN>edge</GIVEN>
      <GIVEN>fibrosis</GIVEN>
      <GIVEN>spiders</GIVEN>
      <TABLE>0.853573974466982 0.14642602553301795 0.85039479795634 0.14960520204366 0.7986666666666666 0.20133333333333334 0.5796324655436447 0.4203675344563553 0.8311899237653299 0.1688100762346702 0.7528478892115256 0.24715211078847443 0.694331983805668 0.305668016194332 0.4911209766925638 0.5088790233074362 </TABLE>
    </DEFINITION>
    <DEFINITION>
      <FOR>phosphatase</FOR>
      <TABLE>0.5214059636848243 0.17048142595368984 0.3081126103614859 </TABLE>
    </DEFINITION>
    <DEFINITION>
      <FOR>platelet</FOR>
      <GIVEN>fibrosis</GIVEN>
      <GIVEN>sex</GIVEN>
      <TABLE>0.15663422687578746 0.6932810531346396 0.07356519094582266 0.07651952904375027 0.14446151834172496 0.7214575295887007 0.09345779114627607 0.04062316092329824 0.22191574724172516 0.574974924774323 0.053410230692076226 0.14969909729187564 0.2317671809256662 0.6300841514726507 0.0802945301542777 0.05785413744740533 </TABLE>
    </DEFINITION>
    <DEFINITION>
      <FOR>pressure_ruq</FOR>
      <GIVEN>ama</GIVEN>
      <GIVEN>diabetes</GIVEN>
      <GIVEN>gallstones</GIVEN>
      <GIVEN>sex</GIVEN>
      <TABLE>0.6187850123088255 0.38121498769117446 0.5538906360961753 0.4461093639038247 0.7066701958708311 0.29332980412916887 0.7035207268597388 0.29647927314026123 0.6133679735474729 0.38663202645252714 0.3871252204585538 0.6128747795414462 0.5984615384615385 0.4015384615384615 0.5822622107969152 0.41773778920308485 0.6993052702349382 0.30069472976506184 0.6321505047415111 0.3678494952584888 0.6887659219043641 0.31123407809563586 0.5760095011876485 0.42399049881235157 0.646163215590743 0.353836784409257 0.37969924812030076 0.6203007518796992 0.33756345177664976 0.6624365482233503 0.8809523809523809 0.11904761904761904 </TABLE>
    </DEFINITION>
    <DEFINITION>
      <FOR>proteins</FOR>
      <GIVEN>ascites</GIVEN>
      <TABLE>0.9920076172889376 0.00799238271106238 0.9147706079820962 0.08522939201790376 </TABLE>
    </DEFINITION>
    <DEFINITION>
      <FOR>sex</FOR>
      <GIVEN>Hyperbilirubinemia</GIVEN>
      <GIVEN>ggtp</GIVEN>
      <TABLE>0.5803454855880286 0.4196545144119715 0.7662452356605002 0.23375476433949985 0.7219871116668269 0.27801288833317306 0.5541634675786976 0.44583653242130244 0.6196013289036545 0.3803986710963455 0.8446153846153847 0.15538461538461537 0.7457337883959044 0.25426621160409557 0.3981904951282561 0.6018095048717439 </TABLE>
    </DEFINITION>
    <DEFINITION>
      <FOR>skin</FOR>
      <GIVEN>Hyperbilirubinemia</GIVEN>
      <GIVEN>sex</GIVEN>
      <TABLE>0.5720680986195034 0.42793190138049664 0.7103944896681278 0.28960551033187226 0.4970171513795675 0.5029828486204325 0.5820575627679119 0.4179424372320882 </TABLE>
    </DEFINITION>
    <DEFINITION>
      <FOR>spiders</FOR>
      <GIVEN>carcinoma</GIVEN>
      <GIVEN>edge</GIVEN>
      <GIVEN>fibrosis</GIVEN>
      <GIVEN>irregular_liver</GIVEN>
      <TABLE>0.8211108700368843 0.17888912996311565 0.7558159797856583 0.24418402021434174 0.7225419664268585 0.27745803357314147 0.5368239355581128 0.46317606444188725 0.8015837608744144 0.19841623912558554 0.6535663770458678 0.34643362295413216 0.5553154710458081 0.44468452895419186 0.3788898233809924 0.6211101766190076 0.7865916069600819 0.21340839303991813 0.616062176165803 0.3839378238341969 0.5 0.5 0.42961876832844575 0.5703812316715543 0.6865778200856735 0.3134221799143265 0.4884559884559885 0.5115440115440115 0.3680412371134021 0.6319587628865979 0.46467991169977924 0.5353200883002207 </TABLE>
    </DEFINITION>
    <DEFINITION>
      <FOR>spleen</FOR>
      <GIVEN>ChHepatitis</GIVEN>
      <GIVEN>carcinoma</GIVEN>
      <GIVEN>irregular_liver</GIVEN>
      <TABLE>0.8912268145039002 0.10877318549609988 0.8686045415999246 0.13139545840007535 0.8316582914572864 0.16834170854271358 0.766152362584378 0.233847637415622 0.870261046028964 0.12973895397103585 0.6724798773476428 0.3275201226523572 0.7217782217782218 0.2782217782217782 0.6533834586466165 0.34661654135338343 0.9064333017975402 0.0935666982024598 0.7527301092043681 0.2472698907956318 0.7714932126696833 0.2285067873303167 0.8065693430656934 0.19343065693430656 </TABLE>
    </DEFINITION>
    <DEFINITION>
      <FOR>surgery</FOR>
      <TABLE>0.5732633683158421 0.42673663168415793 </TABLE>
    </DEFINITION>
    <DEFINITION>
      <FOR>transfusion</FOR>
      <GIVEN>choledocholithotomy</GIVEN>
      <GIVEN>hospital</GIVEN>
      <GIVEN>surgery</GIVEN>
      <TABLE>0.9885379798529812 0.011462020147018786 0.6991808579435224 0.3008191420564777 0.8914076697264806 0.1085923302735194 0.6959279255838158 0.3040720744161842 0.9991187874515333 0.0008812125484666902 0.8750586029067041 0.12494139709329583 0.8154299906861223 0.18457000931387768 0.6800219538968166 0.3199780461031833 </TABLE>
    </DEFINITION>
    <DEFINITION>
      <FOR>triglycerides</FOR>
      <GIVEN>Steatosis</GIVEN>
      <TABLE>0.023496570720795664 0.9431349712532119 0.03336845802599226 0.17668856324743135 0.6476334849250462 0.1756779518275223 </TABLE>
    </DEFINITION>
    <DEFINITION>
      <FOR>upper_pain</FOR>
      <TABLE>0.6027486256871564 0.3972513743128436 </TABLE>
    </DEFINITION>
    <DEFINITION>
      <FOR>urea</FOR>
      <GIVEN>diabetes</GIVEN>
      <GIVEN>encephalopathy</GIVEN>
      <TABLE>0.036910391009715146 0.8949768029991363 0.06811280599114863 0.21159919609532013 0.6215905828308929 0.16681022107378696 0.02696253877356239 0.9489382009067048 0.024099260319732755 0.47126436781609193 0.3333333333333333 0.19540229885057472 </TABLE>
    </DEFINITION>
    <DEFINITION>
      <FOR>vh_amn</FOR>
      <GIVEN>ChHepatitis</GIVEN>
      <GIVEN>hbc_anti</GIVEN>
      <GIVEN>hbsag</GIVEN>
      <GIVEN>hbsag_anti</GIVEN>
      <TABLE>0.8655779580494257 0.13442204195057428 0.7477657935285054 0.2522342064714946 0.700146858281758 0.2998531417182419 0.2623762376237624 0.7376237623762376 0.8873103448275862 0.1126896551724138 0.8064833005893909 0.19351669941060903 0.827603640040445 0.17239635995955513 0.5 0.5 0.7790418562784418 0.22095814372155825 0.005422993492407809 0.9945770065075922 0.3987411813528843 0.6012588186471158 0.781524926686217 0.218475073313783 0.9985962942167321 0.001403705783267827 0.9137931034482758 0.08620689655172413 0.9926686217008798 0.007331378299120236 0.9528301886792453 0.04716981132075473 0.741199333703498 0.25880066629650195 0.08620689655172413 0.9137931034482758 0.0942479595802565 0.9057520404197434 0.3441558441558442 0.6558441558441559 0.9966622162883845 0.003337783711615487 0.5 0.5 0.596 0.40399999999999997 0.5 0.5 </TABLE>
    </DEFINITION>
  </NETWORK>
</BIF>
