<?xml version='1.0' encoding='utf-8'?>
<BIF VERSION="0.3">
  <NETWORK>
    <NAME>UNTITLED</NAME>
    <VARIABLE TYPE="nature">
      <NAME>Akt</NAME>
      <OUTCOME>0</OUTCOME>
      <OUTCOME>1</OUTCOME>
      <OUTCOME>2</OUTCOME>
      <PROPERTY>weight = None</PROPERTY>
    </VARIABLE>
    <VARIABLE TYPE="nature">
      <NAME>Erk</NAME>
      <OUTCOME>0</OUTCOME>
      <OUTCOME>1</OUTCOME>
      <OUTCOME>2</OUTCOME>
      <PROPERTY>weight = None</PROPERTY>
    </VARIABLE>
    <VARIABLE TYPE="nature">
      <NAME>Jnk</NAME>
      <OUTCOME>0</OUTCOME>
      <OUTCOME>1</OUTCOME>
      <OUTCOME>2</OUTCOME>
      <PROPERTY>weight = None</PROPERTY>
    </VARIABLE>
    <VARIABLE TYPE="nature">
      <NAME>Mek</NAME>
      <OUTCOME>0</OUTCOME>
      <OUTCOME>1</OUTCOME>
      <OUTCOME>2</OUTCOME>
      <PROPERTY>weight = None</PROPERTY>
    </VARIABLE>
    <VARIABLE TYPE="nature">
      <NAME>P38</NAME>
      <OUTCOME>0</OUTCOME>
      <OUTCOME>1</OUTCOME>
      <OUTCOME>2</OUTCOME>
      <PROPERTY>weight = None</PROPERTY>
    </VARIABLE>
    <VARIABLE TYPE="nature">
      <NAME>PIP2</NAME>
      <OUTCOME>0</OUTCOME>
      <OUTCOME>1</OUTCOME>
      <OUTCOME>2</OUTCOME>
      <PROPERTY>weight = None</PROPERTY>
    </VARIABLE>
    <VARIABLE TYPE="nature">
      <NAME>PIP3</NAME>
      <OUTCOME>0</OUTCOME>
      <OUTCOME>1</OUTCOME>
      <OUTCOME>2</OUTCOME>
      <PROPERTY>weight = None</PROPERTY>
    </VARIABLE>
    <VARIABLE TYPE="nature">
      <NAME>PKA</NAME>
      <OUTCOME>0</OUTCOME>
      <OUTCOME>1</OUTCOME>
      <OUTCOME>2</OUTCOME>
      <PROPERTY>weight = None</PROPERTY>
    </VARIABLE>
    <VARIABLE TYPE="nature">
      <NAME>PKC</NAME>
      <OUTCOME>0</OUTCOME>
      <OUTCOME>1</OUTCOME>
      <OUTCOME>2</OUTCOME>
      <PROPERTY>weight = None</PROPERTY>
    </VARIABLE>
    <VARIABLE TYPE="nature">
      <NAME>Plcg</NAME>
      <OUTCOME>0</OUTCOME>
      <OUTCOME>1</OUTCOME>
      <OUTCOME>2</OUTCOME>
      <PROPERTY>weight = None</PROPERTY>
    </VARIABLE>
    <VARIABLE TYPE="nature">
      <NAME>Raf</NAME>
      <OUTCOME>0</OUTCOME>
      <OUTCOME>1</OUTCOME>
      <OUTCOME>2</OUTCOME>
      <PROPERTY>weight = None</PROPERTY>
    </VARIABLE>
    <DEFINITION>
      <FOR>Akt</FOR>
      <TABLE>0.6072630351490922 0.31500916208562385 0.07772780276528402 </TABLE>
    </DEFINITION>
    <DEFINITION>
      <FOR>Erk</FOR>
      <GIVEN>Akt</GIVEN>
      <GIVEN>Mek</GIVEN>
      <TABLE>0.19585146342370485 0.7594183495109524 0.04473018706534271 0.07186007174854551 0.86581534972769 0.062324578523764385 0.05208333333333332 0.9259672619047619 0.021949404761904757 0.20641302608417345 0.32199151864298287 0.47159545527284363 0.06306020184910721 0.435598842543581 0.5013409556073117 0.012712490761271247 0.535550628233555 0.4517368810051737 0.011904761904761904 0.07619047619047618 0.9119047619047619 0.005208333333333333 0.005208333333333333 0.9895833333333333 0.000254880970586736 0.000254880970586736 0.9994902380588266 </TABLE>
    </DEFINITION>
    <DEFINITION>
      <FOR>Jnk</FOR>
      <GIVEN>PKA</GIVEN>
      <GIVEN>PKC</GIVEN>
      <TABLE>0.2861759342612469 0.2618701382637398 0.4519539274750133 0.6008215537030326 0.3985743626917966 0.0006040836051709556 0.009469696969696966 0.9810606060606059 0.009469696969696966 0.5953393706549579 0.4045462861324552 0.00011434321258690083 0.6204365575272849 0.3795217862201116 4.1656252603515784e-05 0.03907053259304955 0.9440674480773185 0.01686201932963191 0.9986439435587319 0.0011728055708264613 0.00018325087044163458 0.8592097941012798 0.13800779076238173 0.0027824151363383415 0.16431924882629106 0.8298122065727699 0.005868544600938966 </TABLE>
    </DEFINITION>
    <DEFINITION>
      <FOR>Mek</FOR>
      <GIVEN>Akt</GIVEN>
      <TABLE>0.6556573581317093 0.32795669428137747 0.016385947586913186 0.5874845760620483 0.33301604089546977 0.07949938304248191 0.020002857551078727 0.04572081725960852 0.9342763251893128 </TABLE>
    </DEFINITION>
    <DEFINITION>
      <FOR>P38</FOR>
      <GIVEN>Mek</GIVEN>
      <GIVEN>PKA</GIVEN>
      <TABLE>0.4045782282055161 0.136388846871376 0.459032924923108 0.8412392338346831 0.15722733366389363 0.0015334325014232457 0.7945875671422217 0.08515515412774984 0.1202572787300284 0.5606649395509499 0.24006908462867008 0.19926597582037994 0.8415686274509804 0.15767277402764382 0.0007585985213757634 0.6333333333333334 0.24202898550724636 0.12463768115942028 0.32227162636011997 0.07045512055814626 0.6072732530817337 0.9152298850574714 0.08117816091954023 0.003591954022988506 0.3333333333333333 0.3333333333333333 0.3333333333333333 </TABLE>
    </DEFINITION>
    <DEFINITION>
      <FOR>PIP2</FOR>
      <GIVEN>PIP3</GIVEN>
      <TABLE>0.8506300783340631 0.09439011336544542 0.05497980830049141 0.8881845123051153 0.05532792165957994 0.05648756603530472 0.7867500896144947 0.16645485058819695 0.046795059797308296 </TABLE>
    </DEFINITION>
    <DEFINITION>
      <FOR>PIP3</FOR>
      <TABLE>0.22825254039646842 0.4309511910711311 0.34079626853240047 </TABLE>
    </DEFINITION>
    <DEFINITION>
      <FOR>PKA</FOR>
      <GIVEN>Akt</GIVEN>
      <GIVEN>Erk</GIVEN>
      <GIVEN>Mek</GIVEN>
      <TABLE>0.5499485718806867 0.3576865258327399 0.0923649022865733 0.3426452836695982 0.6569236075185377 0.0004311088118641145 0.976190476190476 0.011904761904761902 0.011904761904761902 0.012251061051256935 0.7467515507672217 0.24099738818152136 0.012788034921997997 0.9860168885072278 0.0011950765707742952 0.6081424936386768 0.39118789339761617 0.0006696129637069773 0.0003464283239797686 0.8197187002009285 0.17993487147509182 0.0004970673029128143 0.9909533750869867 0.008549557610100407 0.028248587570621472 0.9435028248587572 0.028248587570621472 0.5077688406499338 0.48945311238169076 0.002778046968375489 0.242678604737922 0.7563887334452527 0.000932661816825219 0.9612403100775195 0.019379844961240313 0.019379844961240313 0.11248472800314759 0.8270278105651155 0.06048746143173676 0.11387448693022252 0.8859904947072802 0.00013501836249729963 0.9767227895850585 0.022817186493697676 0.0004600239212439047 7.069336047958375e-05 0.7570693360479585 0.24285997059156203 0.007719199455667394 0.9503531123155251 0.041927688228807394 0.919393542757417 0.0800610820244328 0.0005453752181500871 0.3333333333333333 0.3333333333333333 0.3333333333333333 0.3333333333333333 0.3333333333333333 0.3333333333333333 0.3333333333333333 0.3333333333333333 0.3333333333333333 0.05208333333333332 0.8958333333333333 0.05208333333333332 0.3333333333333333 0.3333333333333333 0.3333333333333333 0.3333333333333333 0.3333333333333333 0.3333333333333333 0.4978241949521323 0.4978241949521323 0.004351610095735422 0.7975438596491228 0.20070175438596494 0.0017543859649122807 0.9984529334761394 0.0014620628687033541 8.500365515717173e-05 </TABLE>
    </DEFINITION>
    <DEFINITION>
      <FOR>PKC</FOR>
      <GIVEN>Mek</GIVEN>
      <GIVEN>P38</GIVEN>
      <GIVEN>PKA</GIVEN>
      <GIVEN>Raf</GIVEN>
      <TABLE>0.21436065298585757 0.6324646439212724 0.15317470309287004 0.6118939775205502 0.38768662976010737 0.0004193927193423922 0.6931852461264225 0.30667763608940074 0.00013711778417660768 0.21213659661239598 0.5818341451318063 0.2060292582557978 0.2926436475924531 0.6911632167604864 0.016193135647060562 0.8499160846732717 0.15002977640625847 5.413892046992584e-05 0.9571291354782975 0.02488817655316658 0.01798268796853598 0.9393326951033577 0.060490018792327044 0.00017728610431514376 0.997948717948718 0.0010256410256410256 0.0010256410256410256 0.18625764525993885 0.7668195718654435 0.046922782874617736 0.5540417801998183 0.44368755676657584 0.002270663033605813 0.4789793646716328 0.5205925164825755 0.0004281188457915918 0.07160269624685058 0.6739144661496679 0.2544828376034816 0.09894405523403388 0.8884658340948318 0.012590110671134122 0.5796958487464037 0.4198931360460337 0.0004110152075626798 0.8476993545700603 0.11409535706849883 0.038205288361440756 0.9136813374274991 0.08461276015011941 0.00170590242238144 0.9612403100775193 0.01937984496124031 0.01937984496124031 0.9992912325466015 0.00035438372669927 0.00035438372669927 0.9993953685228851 0.0003023157385573492 0.0003023157385573492 0.9998050226173764 9.748869131180782e-05 9.748869131180782e-05 0.005065856129685918 0.005065856129685918 0.9898682877406283 0.9612403100775193 0.01937984496124031 0.01937984496124031 0.9612403100775193 0.01937984496124031 0.01937984496124031 0.8359394390667658 0.16388327482891887 0.00017728610431514376 0.5820539065165473 0.4162401910610713 0.00170590242238144 0.9800399201596808 0.009980039920159684 0.009980039920159684 0.27787287458632887 0.6938263151888623 0.028300810224808855 0.23089083866887994 0.7687139356572603 0.00039522567385977394 0.0025523226135783566 0.9948953547728433 0.0025523226135783566 0.19448808006560164 0.6554383156979559 0.1500736042364425 0.20099306710312864 0.7496292684908689 0.04937766440600252 0.2139154420506967 0.7859656631949398 0.00011889475436343747 0.27306547619047616 0.0018601190476190477 0.7250744047619048 0.00998003992015968 0.00998003992015968 0.9800399201596807 0.006720430107526883 0.9865591397849464 0.006720430107526883 0.07257828504536143 0.8548434299092772 0.07257828504536143 0.14341539663931221 0.8556076592418914 0.0009769441187964048 0.003394433129667346 0.9932111337406654 0.003394433129667346 0.0741728244584952 0.7344150732586779 0.1914121022828267 0.08619945759368837 0.8163677268244577 0.09743281558185404 0.080623973727422 0.9185550082101807 0.0008210180623973727 0.0040650406504065045 0.0040650406504065045 0.9918699186991871 0.33333333333333337 0.33333333333333337 0.33333333333333337 0.01937984496124031 0.9612403100775193 0.01937984496124031 0.9972677595628415 0.001366120218579235 0.001366120218579235 0.997437868306431 0.0012810658467845247 0.0012810658467845247 0.9865591397849464 0.006720430107526883 0.006720430107526883 0.9612403100775193 0.01937984496124031 0.01937984496124031 0.9612403100775193 0.01937984496124031 0.01937984496124031 0.33333333333333337 0.33333333333333337 0.33333333333333337 0.01937984496124031 0.9612403100775193 0.01937984496124031 0.33333333333333337 0.33333333333333337 0.33333333333333337 0.009980039920159684 0.9800399201596808 0.009980039920159684 0.33333333333333337 0.33333333333333337 0.33333333333333337 0.9989464812473662 0.0005267593763168984 0.0005267593763168984 0.9826801266825022 0.01724917995701844 7.069336047958377e-05 0.33333333333333337 0.33333333333333337 0.33333333333333337 0.3333333333333333 0.6653005464480874 0.001366120218579235 0.2813502759594404 0.7180079579001412 0.0006417661404184315 0.33333333333333337 0.33333333333333337 0.33333333333333337 0.33333333333333337 0.33333333333333337 0.33333333333333337 0.33333333333333337 0.33333333333333337 0.33333333333333337 0.33333333333333337 0.33333333333333337 0.33333333333333337 0.9954586739327884 0.002270663033605813 0.002270663033605813 0.9517749934742887 0.0478987209605847 0.0003262855651265988 0.33333333333333337 0.33333333333333337 0.33333333333333337 0.009980039920159684 0.9800399201596808 0.009980039920159684 0.009980039920159684 0.9800399201596808 0.009980039920159684 0.33333333333333337 0.33333333333333337 0.33333333333333337 0.33333333333333337 0.33333333333333337 0.33333333333333337 0.33333333333333337 0.33333333333333337 0.33333333333333337 0.33333333333333337 0.33333333333333337 0.33333333333333337 0.9994659831250666 0.00026700843746662385 0.00026700843746662385 0.9999244998112496 3.775009437523594e-05 3.775009437523594e-05 0.33333333333333337 0.33333333333333337 0.33333333333333337 0.33333333333333337 0.33333333333333337 0.33333333333333337 0.33333333333333337 0.33333333333333337 0.33333333333333337 0.33333333333333337 0.33333333333333337 0.33333333333333337 0.33333333333333337 0.33333333333333337 0.33333333333333337 0.33333333333333337 0.33333333333333337 0.33333333333333337 </TABLE>
    </DEFINITION>
    <DEFINITION>
      <FOR>Plcg</FOR>
      <GIVEN>PIP2</GIVEN>
      <GIVEN>PIP3</GIVEN>
      <TABLE>0.9107513965947873 0.03510076455223169 0.05414783885298099 0.9505503007795122 0.03947851989400182 0.009971179326486005 0.8749810158914247 0.12234049897140646 0.0026784851371688136 0.04725085910652921 0.0008591065292096219 0.9518900343642611 0.21037106039434872 0.05107902499611862 0.7385499146095328 0.5606238580005221 0.4320020882276168 0.0073740537718611325 0.0014749262536873156 0.0014749262536873156 0.9970501474926254 0.0007603406326034063 0.0007603406326034063 0.9984793187347931 0.1265088207985144 0.10143918291550603 0.7720519962859795 </TABLE>
    </DEFINITION>
    <DEFINITION>
      <FOR>Raf</FOR>
      <GIVEN>Mek</GIVEN>
      <GIVEN>PKA</GIVEN>
      <TABLE>0.27116422124741596 0.17178439973781073 0.5570513790147733 0.7346335371788515 0.15846693478779866 0.10689952803334986 0.8490882342878647 0.12949467994115432 0.021417085770980875 0.3799654576856649 0.5198618307426598 0.1001727115716753 0.3458309225329476 0.5853680488588878 0.06880102860816457 0.6724637681159421 0.08550724637681159 0.24202898550724636 0.00018074684596753785 0.1221848678740556 0.8776343852799768 0.0035919540229885053 0.33333333333333337 0.6630747126436781 0.3333333333333333 0.3333333333333333 0.3333333333333333 </TABLE>
    </DEFINITION>
  </NETWORK>
</BIF>
