<?xml version='1.0' encoding='utf-8'?>
<BIF VERSION="0.3">
  <NETWORK>
    <NAME>UNTITLED</NAME>
    <VARIABLE TYPE="nature">
      <NAME>Akt</NAME>
      <OUTCOME>0</OUTCOME>
      <OUTCOME>1</OUTCOME>
      <OUTCOME>2</OUTCOME>
      <PROPERTY>weight = None</PROPERTY>
    </VARIABLE>
    <VARIABLE TYPE="nature">
      <NAME>Erk</NAME>
      <OUTCOME>0</OUTCOME>
      <OUTCOME>1</OUTCOME>
      <OUTCOME>2</OUTCOME>
      <PROPERTY>weight = None</PROPERTY>
    </VARIABLE>
    <VARIABLE TYPE="nature">
      <NAME>Jnk</NAME>
      <OUTCOME>0</OUTCOME>
      <OUTCOME>1</OUTCOME>
      <OUTCOME>2</OUTCOME>
      <PROPERTY>weight = None</PROPERTY>
    </VARIABLE>
    <VARIABLE TYPE="nature">
      <NAME>Mek</NAME>
      <OUTCOME>0</OUTCOME>
      <OUTCOME>1</OUTCOME>
      <OUTCOME>2</OUTCOME>
      <PROPERTY>weight = None</PROPERTY>
    </VARIABLE>
    <VARIABLE TYPE="nature">
      <NAME>P38</NAME>
      <OUTCOME>0</OUTCOME>
      <OUTCOME>1</OUTCOME>
      <OUTCOME>2</OUTCOME>
      <PROPERTY>weight = None</PROPERTY>
    </VARIABLE>
    <VARIABLE TYPE="nature">
      <NAME>PIP2</NAME>
      <OUTCOME>0</OUTCOME>
      <OUTCOME>1</OUTCOME>
      <OUTCOME>2</OUTCOME>
      <PROPERTY>weight = None</PROPERTY>
    </VARIABLE>
    <VARIABLE TYPE="nature">
      <NAME>PIP3</NAME>
      <OUTCOME>0</OUTCOME>
      <OUTCOME>1</OUTCOME>
      <OUTCOME>2</OUTCOME>
      <PROPERTY>weight = None</PROPERTY>
    </VARIABLE>
    <VARIABLE TYPE="nature">
      <NAME>PKA</NAME>
      <OUTCOME>0</OUTCOME>
      <OUTCOME>1</OUTCOME>
      <OUTCOME>2</OUTCOME>
      <PROPERTY>weight = None</PROPERTY>
    </VARIABLE>
    <VARIABLE TYPE="nature">
      <NAME>PKC</NAME>
      <OUTCOME>0</OUTCOME>
      <OUTCOME>1</OUTCOME>
      <OUTCOME>2</OUTCOME>
      <PROPERTY>weight = None</PROPERTY>
    </VARIABLE>
    <VARIABLE TYPE="nature">
      <NAME>Plcg</NAME>
      <OUTCOME>0</OUTCOME>
      <OUTCOME>1</OUTCOME>
      <OUTCOME>2</OUTCOME>
      <PROPERTY>weight = None</PROPERTY>
    </VARIABLE>
    <VARIABLE TYPE="nature">
      <NAME>Raf</NAME>
      <OUTCOME>0</OUTCOME>
      <OUTCOME>1</OUTCOME>
      <OUTCOME>2</OUTCOME>
      <PROPERTY>weight = None</PROPERTY>
    </VARIABLE>
    <DEFINITION>
      <FOR>Akt</FOR>
      <GIVEN>Erk</GIVEN>
      <GIVEN>PKA</GIVEN>
      <TABLE>0.6936778858935503 0.30605625564949224 0.00026585845695751583 0.6112223233242341 0.38847437063997575 0.00030330603579011223 0.9813695871097683 0.016112789526686804 0.002517623363544813 0.31509625126646407 0.6843971631205674 0.0005065856129685917 0.8157884788410794 0.18396957530942606 0.00024194584949455998 0.9526153252267902 0.04714340860837675 0.00024126616483304377 0.00021321052407146813 0.12455758816255169 0.8752292013133768 0.1861825209143845 0.8033920716047499 0.010425407480865562 0.12403100775193798 0.8752768549280178 0.0006921373200442967 </TABLE>
    </DEFINITION>
    <DEFINITION>
      <FOR>Erk</FOR>
      <GIVEN>Mek</GIVEN>
      <GIVEN>PKA</GIVEN>
      <TABLE>0.8483840064538899 0.14183431654313516 0.009781677002974838 0.11557673590068498 0.6825702899748407 0.2018529741244743 0.06760409182661056 0.7068322556365253 0.22556365253686406 0.3799654576856649 0.432426597582038 0.18760794473229703 0.05005464480874317 0.731173256187721 0.21877209900353584 0.007246376811594202 0.08550724637681159 0.9072463768115943 0.007989010591765173 0.18269891190398727 0.8093120775042475 0.003591954022988506 0.7600574712643678 0.2363505747126437 0.3333333333333333 0.3333333333333333 0.3333333333333333 </TABLE>
    </DEFINITION>
    <DEFINITION>
      <FOR>Jnk</FOR>
      <GIVEN>PKC</GIVEN>
      <TABLE>0.574438497061293 0.25422439126784213 0.1713371116708648 0.6224866260837484 0.37739808153477217 0.00011529238147943183 0.04261529480443666 0.9410391126678342 0.01634559252772913 </TABLE>
    </DEFINITION>
    <DEFINITION>
      <FOR>Mek</FOR>
      <GIVEN>Jnk</GIVEN>
      <GIVEN>PKC</GIVEN>
      <TABLE>0.7416830341509463 0.13409156655856513 0.12422539929048858 0.5401417493949721 0.45146194497950315 0.008396305625524769 0.6703196347031963 0.3251141552511415 0.0045662100456621 0.536140640588984 0.21567413217738327 0.2481852272336326 0.5120465978289648 0.47685383189751734 0.011099570273517852 0.7204301075268816 0.2793631100082713 0.00020678246484698095 0.32552322613578355 0.038846350178662586 0.6356304236855538 0.3333333333333333 0.3333333333333333 0.3333333333333333 0.5904761904761905 0.3976190476190476 0.011904761904761904 </TABLE>
    </DEFINITION>
    <DEFINITION>
      <FOR>P38</FOR>
      <GIVEN>PKA</GIVEN>
      <GIVEN>PKC</GIVEN>
      <TABLE>0.31297463241234447 0.06804699582208065 0.6189783717655748 0.6693246345294189 0.3300712818654102 0.0006040836051709556 0.827651515151515 0.16287878787878785 0.009469696969696966 0.92938163190633 0.068034211489206 0.0025841566044639587 0.8208614513038407 0.17909689244355578 4.1656252603515784e-05 0.7886078552333949 0.20674480773185275 0.00464733703475221 0.8165658786879237 0.07835807220084295 0.10507604911123328 0.4234835837506956 0.16805787423483584 0.4084585420144686 0.7347417840375586 0.2593896713615023 0.005868544600938966 </TABLE>
    </DEFINITION>
    <DEFINITION>
      <FOR>PIP2</FOR>
      <GIVEN>PIP3</GIVEN>
      <TABLE>0.8506300783340631 0.09439011336544542 0.05497980830049141 0.8881845123051153 0.05532792165957994 0.05648756603530472 0.7867500896144947 0.16645485058819695 0.046795059797308296 </TABLE>
    </DEFINITION>
    <DEFINITION>
      <FOR>PIP3</FOR>
      <TABLE>0.22825254039646842 0.4309511910711311 0.34079626853240047 </TABLE>
    </DEFINITION>
    <DEFINITION>
      <FOR>PKA</FOR>
      <GIVEN>Jnk</GIVEN>
      <GIVEN>Mek</GIVEN>
      <GIVEN>PKC</GIVEN>
      <TABLE>0.0831742382252513 0.35919911864731524 0.5576266431274335 0.0697832133196175 0.897466377109765 0.032750409570617596 0.002270663033605813 0.8851044504995459 0.11262488646684832 0.0553726202641838 0.9352409068543962 0.009386472881420083 0.049521829900901655 0.9474787809169563 0.002999389182142239 0.0046816479400749065 0.8389513108614233 0.1563670411985019 0.9631899334068718 0.03660579319361033 0.00020427339951791478 0.16127450980392158 0.8362745098039216 0.0024509803921568627 0.3333333333333333 0.3333333333333333 0.3333333333333333 0.24612850787132098 0.7520319986310745 0.0018394934976043806 0.08168270888022697 0.911807599501498 0.006509691618274865 0.026444699579027932 0.9533103712208189 0.020244929200153076 0.06056255649492211 0.9391715850481205 0.00026585845695751583 0.048503744198627595 0.947965604624014 0.003530651177358275 0.008240809277078707 0.9395509499136443 0.05220824080927708 0.9883097680436189 0.011459199704278718 0.0002310322521023935 0.2012232415902141 0.7957186544342508 0.0030581039755351682 0.3333333333333333 0.3333333333333333 0.3333333333333333 0.9994772881710314 0.0002613559144843448 0.0002613559144843448 0.3333333333333333 0.3333333333333333 0.3333333333333333 0.006720430107526883 0.9865591397849464 0.006720430107526883 0.9956197985107316 0.002190100744634253 0.002190100744634253 0.3333333333333333 0.3333333333333333 0.3333333333333333 0.009980039920159679 0.9800399201596806 0.009980039920159679 0.9997323053860157 0.0001338473069921833 0.0001338473069921833 0.3333333333333333 0.3333333333333333 0.3333333333333333 0.3333333333333333 0.3333333333333333 0.3333333333333333 </TABLE>
    </DEFINITION>
    <DEFINITION>
      <FOR>PKC</FOR>
      <TABLE>0.42325503914709317 0.48162585373979677 0.09511910711311011 </TABLE>
    </DEFINITION>
    <DEFINITION>
      <FOR>Plcg</FOR>
      <GIVEN>PIP2</GIVEN>
      <GIVEN>PIP3</GIVEN>
      <TABLE>0.9107513965947873 0.03510076455223169 0.05414783885298099 0.9505503007795122 0.03947851989400182 0.009971179326486005 0.8749810158914247 0.12234049897140646 0.0026784851371688136 0.04725085910652921 0.0008591065292096219 0.9518900343642611 0.21037106039434872 0.05107902499611862 0.7385499146095328 0.5606238580005221 0.4320020882276168 0.0073740537718611325 0.0014749262536873156 0.0014749262536873156 0.9970501474926254 0.0007603406326034063 0.0007603406326034063 0.9984793187347931 0.1265088207985144 0.10143918291550603 0.7720519962859795 </TABLE>
    </DEFINITION>
    <DEFINITION>
      <FOR>Raf</FOR>
      <GIVEN>Mek</GIVEN>
      <GIVEN>PKA</GIVEN>
      <GIVEN>PKC</GIVEN>
      <TABLE>0.16483182572517122 0.1951242315873127 0.640043942687516 0.502479770294962 0.12190028713129729 0.3756199425737405 0.9928160919540231 0.003591954022988506 0.003591954022988506 0.5147563799810626 0.15899471804875823 0.3262489019701792 0.7676593874291104 0.19844766774943984 0.03389294482144963 0.984381844846961 0.015522922499666681 9.523265337218823e-05 0.8509475129317741 0.12615527935083717 0.022897207717388637 0.7782644972882771 0.22069253233208178 0.0010429703796412183 0.992372234935164 0.003813882532418002 0.003813882532418002 0.433025641025641 0.516102564102564 0.05087179487179487 0.3394391677973767 0.5317729534147444 0.12878787878787878 0.9435028248587572 0.028248587570621472 0.028248587570621472 0.3346075794044079 0.5907310396904053 0.07466138090518665 0.3159160215810462 0.6085268590194698 0.07555711939948392 0.6188378126988789 0.380917413227591 0.0002447740735301317 0.9612403100775195 0.019379844961240313 0.019379844961240313 0.14776632302405499 0.008591065292096219 0.8436426116838488 0.8601626016260163 0.13577235772357724 0.0040650406504065045 6.074522238825916e-05 0.12306982055861307 0.8768694342189987 0.007541478129713423 0.007541478129713423 0.9849170437405731 0.3333333333333333 0.3333333333333333 0.3333333333333333 0.004351610095735422 0.35683202785030466 0.63881636205396 0.0016600265604249668 0.3243691899070385 0.6739707835325366 0.3333333333333333 0.3333333333333333 0.3333333333333333 0.3333333333333333 0.3333333333333333 0.3333333333333333 0.3333333333333333 0.3333333333333333 0.3333333333333333 0.3333333333333333 0.3333333333333333 0.3333333333333333 </TABLE>
    </DEFINITION>
  </NETWORK>
</BIF>
