<?xml version='1.0' encoding='utf-8'?>
<BIF VERSION="0.3">
  <NETWORK>
    <NAME>UNTITLED</NAME>
    <VARIABLE TYPE="nature">
      <NAME>Akt</NAME>
      <OUTCOME>0</OUTCOME>
      <OUTCOME>1</OUTCOME>
      <OUTCOME>2</OUTCOME>
      <PROPERTY>weight = None</PROPERTY>
    </VARIABLE>
    <VARIABLE TYPE="nature">
      <NAME>Erk</NAME>
      <OUTCOME>0</OUTCOME>
      <OUTCOME>1</OUTCOME>
      <OUTCOME>2</OUTCOME>
      <PROPERTY>weight = None</PROPERTY>
    </VARIABLE>
    <VARIABLE TYPE="nature">
      <NAME>Jnk</NAME>
      <OUTCOME>0</OUTCOME>
      <OUTCOME>1</OUTCOME>
      <OUTCOME>2</OUTCOME>
      <PROPERTY>weight = None</PROPERTY>
    </VARIABLE>
    <VARIABLE TYPE="nature">
      <NAME>Mek</NAME>
      <OUTCOME>0</OUTCOME>
      <OUTCOME>1</OUTCOME>
      <OUTCOME>2</OUTCOME>
      <PROPERTY>weight = None</PROPERTY>
    </VARIABLE>
    <VARIABLE TYPE="nature">
      <NAME>P38</NAME>
      <OUTCOME>0</OUTCOME>
      <OUTCOME>1</OUTCOME>
      <OUTCOME>2</OUTCOME>
      <PROPERTY>weight = None</PROPERTY>
    </VARIABLE>
    <VARIABLE TYPE="nature">
      <NAME>PIP2</NAME>
      <OUTCOME>0</OUTCOME>
      <OUTCOME>1</OUTCOME>
      <OUTCOME>2</OUTCOME>
      <PROPERTY>weight = None</PROPERTY>
    </VARIABLE>
    <VARIABLE TYPE="nature">
      <NAME>PIP3</NAME>
      <OUTCOME>0</OUTCOME>
      <OUTCOME>1</OUTCOME>
      <OUTCOME>2</OUTCOME>
      <PROPERTY>weight = None</PROPERTY>
    </VARIABLE>
    <VARIABLE TYPE="nature">
      <NAME>PKA</NAME>
      <OUTCOME>0</OUTCOME>
      <OUTCOME>1</OUTCOME>
      <OUTCOME>2</OUTCOME>
      <PROPERTY>weight = None</PROPERTY>
    </VARIABLE>
    <VARIABLE TYPE="nature">
      <NAME>PKC</NAME>
      <OUTCOME>0</OUTCOME>
      <OUTCOME>1</OUTCOME>
      <OUTCOME>2</OUTCOME>
      <PROPERTY>weight = None</PROPERTY>
    </VARIABLE>
    <VARIABLE TYPE="nature">
      <NAME>Plcg</NAME>
      <OUTCOME>0</OUTCOME>
      <OUTCOME>1</OUTCOME>
      <OUTCOME>2</OUTCOME>
      <PROPERTY>weight = None</PROPERTY>
    </VARIABLE>
    <VARIABLE TYPE="nature">
      <NAME>Raf</NAME>
      <OUTCOME>0</OUTCOME>
      <OUTCOME>1</OUTCOME>
      <OUTCOME>2</OUTCOME>
      <PROPERTY>weight = None</PROPERTY>
    </VARIABLE>
    <DEFINITION>
      <FOR>Akt</FOR>
      <GIVEN>Mek</GIVEN>
      <GIVEN>PKA</GIVEN>
      <TABLE>0.6346493218373418 0.3555690011596833 0.00978167700297484 0.6654637944649514 0.33250693258406333 0.002029272950985253 0.7696465838721817 0.23018235314242702 0.00017106298539122102 0.41493955094991364 0.4207685664939551 0.16429188255613125 0.6659080681452909 0.3315975570556091 0.0024943747990999678 0.12463768115942027 0.8681159420289855 0.007246376811594201 0.0597187579076745 0.2324765932834472 0.7078046488088783 0.74066091954023 0.2363505747126437 0.022988505747126436 0.3333333333333333 0.3333333333333333 0.3333333333333333 </TABLE>
    </DEFINITION>
    <DEFINITION>
      <FOR>Erk</FOR>
      <GIVEN>Akt</GIVEN>
      <GIVEN>Mek</GIVEN>
      <GIVEN>PKA</GIVEN>
      <TABLE>0.920367575011255 0.07950001324117476 0.00013241174757024443 0.10396515483927346 0.8416191777167588 0.05441566744396763 0.08648944997629207 0.8750296348980559 0.03848091512565196 0.6892126257370794 0.30992022199098157 0.0008671522719389524 0.04903683394154713 0.8868078752421592 0.0641552908162937 0.01937984496124031 0.6472868217054263 0.33333333333333337 0.08272800645682002 0.9162631154156579 0.0010088781275221952 0.0016165535079211122 0.9443905593275138 0.05399288716456514 0.3333333333333333 0.3333333333333333 0.3333333333333333 0.7430043486481377 0.25675931177916433 0.00023633957269805257 0.13947494384918444 0.36763135608822123 0.49289370006259436 0.004260800634165676 0.14471858898137138 0.851020610384463 0.2225072686847956 0.7212245596032153 0.05626817171198906 0.052410495023911076 0.42406617552022746 0.5235233294558614 0.0027824151363383415 0.0027824151363383415 0.9944351697273234 0.012854403151402063 0.5502513865132431 0.43689421033535486 0.005065856129685917 0.2512664640324215 0.7436676798378926 0.3333333333333333 0.3333333333333333 0.3333333333333333 0.008591065292096219 0.008591065292096219 0.9828178694158076 0.007541478129713423 0.1297134238310709 0.8627450980392157 0.3333333333333333 0.3333333333333333 0.3333333333333333 0.002190100744634253 0.002190100744634253 0.9956197985107316 0.008591065292096219 0.008591065292096219 0.9828178694158076 0.3333333333333333 0.3333333333333333 0.3333333333333333 8.512087163772556e-05 8.512087163772556e-05 0.9998297582567246 0.052083333333333336 0.052083333333333336 0.8958333333333335 0.3333333333333333 0.3333333333333333 0.3333333333333333 </TABLE>
    </DEFINITION>
    <DEFINITION>
      <FOR>Jnk</FOR>
      <GIVEN>PKA</GIVEN>
      <GIVEN>PKC</GIVEN>
      <TABLE>0.2861759342612469 0.2618701382637398 0.4519539274750133 0.6008215537030326 0.3985743626917966 0.0006040836051709556 0.009469696969696966 0.9810606060606059 0.009469696969696966 0.5953393706549579 0.4045462861324552 0.00011434321258690083 0.6204365575272849 0.3795217862201116 4.1656252603515784e-05 0.03907053259304955 0.9440674480773185 0.01686201932963191 0.9986439435587319 0.0011728055708264613 0.00018325087044163458 0.8592097941012798 0.13800779076238173 0.0027824151363383415 0.16431924882629106 0.8298122065727699 0.005868544600938966 </TABLE>
    </DEFINITION>
    <DEFINITION>
      <FOR>Mek</FOR>
      <GIVEN>PKA</GIVEN>
      <GIVEN>PKC</GIVEN>
      <GIVEN>Raf</GIVEN>
      <TABLE>0.769197207678883 0.2302574171029668 0.0005453752181500871 0.3976374202152996 0.11984376488520528 0.48251881489949505 0.27435951386175317 0.0024847956556153373 0.7231556904826315 0.7191556925375923 0.28037732324647424 0.0004669842159335014 0.28406326034063256 0.7151763990267639 0.0007603406326034063 0.762586115527292 0.1509009009009009 0.08651298357180709 0.8893178893178894 0.10746460746460747 0.0032175032175032177 0.3333333333333333 0.3333333333333333 0.3333333333333333 0.3333333333333333 0.3333333333333333 0.3333333333333333 0.7608208137319371 0.23909487918795413 8.430708010858749e-05 0.3539016276884792 0.6356872603539778 0.010411111957542978 0.8800467749876908 0.09736582964057115 0.02258739537173806 0.7266449504789738 0.27332968014288034 2.536937814580289e-05 0.26115049553839104 0.7319578175149015 0.00689168694670758 0.29773508499317236 0.6066770259452842 0.09558788906154354 0.8034168104587355 0.196505464098618 7.772544264639585e-05 0.09475642367166606 0.904662248575747 0.0005813277525869083 0.3333333333333333 0.3333333333333333 0.3333333333333333 0.9963688554000717 0.0035593828489415133 7.176175098672405e-05 0.9990293146961754 0.0004853426519122499 0.0004853426519122499 0.9946751863684772 0.0026624068157614484 0.0026624068157614484 0.9761904761904762 0.022501308215593933 0.0013082155939298796 0.9906367041198503 0.0046816479400749065 0.0046816479400749065 0.009980039920159679 0.9800399201596806 0.009980039920159679 0.5503384094754653 0.44754653130287647 0.0021150592216582064 0.028248587570621472 0.9435028248587572 0.028248587570621472 0.3333333333333333 0.3333333333333333 0.3333333333333333 </TABLE>
    </DEFINITION>
    <DEFINITION>
      <FOR>P38</FOR>
      <TABLE>0.7460936198567383 0.14039646843245046 0.11350991171081126 </TABLE>
    </DEFINITION>
    <DEFINITION>
      <FOR>PIP2</FOR>
      <TABLE>0.8450441445943696 0.10211560886223556 0.052840246543394975 </TABLE>
    </DEFINITION>
    <DEFINITION>
      <FOR>PIP3</FOR>
      <GIVEN>PIP2</GIVEN>
      <TABLE>0.2297613415339326 0.4529516900594017 0.3172869684066656 0.210984230560087 0.23349646547036432 0.5555193039695486 0.23749474569146703 0.46069777217318203 0.30180748213535097 </TABLE>
    </DEFINITION>
    <DEFINITION>
      <FOR>PKA</FOR>
      <GIVEN>P38</GIVEN>
      <TABLE>0.09693072549194724 0.7856419874371111 0.11742728707094162 0.15203290618573007 0.7778041449137794 0.07016294890049042 0.8748654730456904 0.0075335094413462485 0.11760101751296351 </TABLE>
    </DEFINITION>
    <DEFINITION>
      <FOR>PKC</FOR>
      <GIVEN>P38</GIVEN>
      <GIVEN>PKA</GIVEN>
      <TABLE>0.6940520065520065 0.2835790335790336 0.02236895986895987 0.2566580145633214 0.6222441156224147 0.12109786981426397 0.9413951916170195 0.0321544766975113 0.026450331685469217 0.5112729795352063 0.4738120013874436 0.01491501907734998 0.10085087630089155 0.7287365673412658 0.17041255635784264 0.8034573468620818 0.1134911687335588 0.08305148440435925 0.9996272273167821 0.00018638634160888688 0.00018638634160888688 0.48917748917748916 0.021645021645021644 0.48917748917748916 0.7950637825845812 0.2035496394897393 0.001386577925679423 </TABLE>
    </DEFINITION>
    <DEFINITION>
      <FOR>Plcg</FOR>
      <GIVEN>PIP2</GIVEN>
      <GIVEN>PIP3</GIVEN>
      <TABLE>0.9107513965947873 0.03510076455223169 0.05414783885298099 0.9505503007795122 0.03947851989400182 0.009971179326486005 0.8749810158914247 0.12234049897140646 0.0026784851371688136 0.04725085910652921 0.0008591065292096219 0.9518900343642611 0.21037106039434872 0.05107902499611862 0.7385499146095328 0.5606238580005221 0.4320020882276168 0.0073740537718611325 0.0014749262536873156 0.0014749262536873156 0.9970501474926254 0.0007603406326034063 0.0007603406326034063 0.9984793187347931 0.1265088207985144 0.10143918291550603 0.7720519962859795 </TABLE>
    </DEFINITION>
    <DEFINITION>
      <FOR>Raf</FOR>
      <GIVEN>PKA</GIVEN>
      <GIVEN>PKC</GIVEN>
      <TABLE>0.07053989797567112 0.1615308265817233 0.7679292754426055 0.4311948773710282 0.264830252506947 0.3039748701220249 0.9810606060606059 0.009469696969696966 0.009469696969696966 0.4520901939260885 0.30019667032564945 0.24771313574826195 0.5473298342081147 0.3936932433558277 0.05897692243605764 0.8818836109397491 0.11791075467818218 0.00020563438206868184 0.8512002932013927 0.12585669781931463 0.02294300897929265 0.7089593767390094 0.19810795770728992 0.09293266555370061 0.9248826291079811 0.0692488262910798 0.005868544600938966 </TABLE>
    </DEFINITION>
  </NETWORK>
</BIF>
