<?xml version='1.0' encoding='utf-8'?>
<BIF VERSION="0.3">
  <NETWORK>
    <NAME>UNTITLED</NAME>
    <VARIABLE TYPE="nature">
      <NAME>Akt</NAME>
      <OUTCOME>0</OUTCOME>
      <OUTCOME>1</OUTCOME>
      <OUTCOME>2</OUTCOME>
      <PROPERTY>weight = None</PROPERTY>
    </VARIABLE>
    <VARIABLE TYPE="nature">
      <NAME>Erk</NAME>
      <OUTCOME>0</OUTCOME>
      <OUTCOME>1</OUTCOME>
      <OUTCOME>2</OUTCOME>
      <PROPERTY>weight = None</PROPERTY>
    </VARIABLE>
    <VARIABLE TYPE="nature">
      <NAME>Jnk</NAME>
      <OUTCOME>0</OUTCOME>
      <OUTCOME>1</OUTCOME>
      <OUTCOME>2</OUTCOME>
      <PROPERTY>weight = None</PROPERTY>
    </VARIABLE>
    <VARIABLE TYPE="nature">
      <NAME>Mek</NAME>
      <OUTCOME>0</OUTCOME>
      <OUTCOME>1</OUTCOME>
      <OUTCOME>2</OUTCOME>
      <PROPERTY>weight = None</PROPERTY>
    </VARIABLE>
    <VARIABLE TYPE="nature">
      <NAME>P38</NAME>
      <OUTCOME>0</OUTCOME>
      <OUTCOME>1</OUTCOME>
      <OUTCOME>2</OUTCOME>
      <PROPERTY>weight = None</PROPERTY>
    </VARIABLE>
    <VARIABLE TYPE="nature">
      <NAME>PIP2</NAME>
      <OUTCOME>0</OUTCOME>
      <OUTCOME>1</OUTCOME>
      <OUTCOME>2</OUTCOME>
      <PROPERTY>weight = None</PROPERTY>
    </VARIABLE>
    <VARIABLE TYPE="nature">
      <NAME>PIP3</NAME>
      <OUTCOME>0</OUTCOME>
      <OUTCOME>1</OUTCOME>
      <OUTCOME>2</OUTCOME>
      <PROPERTY>weight = None</PROPERTY>
    </VARIABLE>
    <VARIABLE TYPE="nature">
      <NAME>PKA</NAME>
      <OUTCOME>0</OUTCOME>
      <OUTCOME>1</OUTCOME>
      <OUTCOME>2</OUTCOME>
      <PROPERTY>weight = None</PROPERTY>
    </VARIABLE>
    <VARIABLE TYPE="nature">
      <NAME>PKC</NAME>
      <OUTCOME>0</OUTCOME>
      <OUTCOME>1</OUTCOME>
      <OUTCOME>2</OUTCOME>
      <PROPERTY>weight = None</PROPERTY>
    </VARIABLE>
    <VARIABLE TYPE="nature">
      <NAME>Plcg</NAME>
      <OUTCOME>0</OUTCOME>
      <OUTCOME>1</OUTCOME>
      <OUTCOME>2</OUTCOME>
      <PROPERTY>weight = None</PROPERTY>
    </VARIABLE>
    <VARIABLE TYPE="nature">
      <NAME>Raf</NAME>
      <OUTCOME>0</OUTCOME>
      <OUTCOME>1</OUTCOME>
      <OUTCOME>2</OUTCOME>
      <PROPERTY>weight = None</PROPERTY>
    </VARIABLE>
    <DEFINITION>
      <FOR>Akt</FOR>
      <GIVEN>Jnk</GIVEN>
      <TABLE>0.6436634588053762 0.312015267795509 0.04432127339911479 0.6177160276703013 0.3293762457497948 0.05290772657990385 0.2852434456928839 0.2636704119850187 0.45108614232209737 </TABLE>
    </DEFINITION>
    <DEFINITION>
      <FOR>Erk</FOR>
      <GIVEN>Akt</GIVEN>
      <GIVEN>Jnk</GIVEN>
      <GIVEN>P38</GIVEN>
      <TABLE>0.10835962896111707 0.8355213892748465 0.05611898176403623 0.15998401159159611 0.7953733543181194 0.044642634090284544 0.3636045126480275 0.6133417419942541 0.023053745357718453 0.11729211494298256 0.8288423449210706 0.053865540135947 0.12061382692611929 0.8407846859674103 0.038601487106470496 0.7855500821018062 0.21362889983579636 0.0008210180623973726 0.7020580880938642 0.26582035006732063 0.03212156183881515 0.6436781609195402 0.3527298850574713 0.003591954022988506 0.7225225225225226 0.2770033191085822 0.00047415836889521095 0.10605816121629374 0.34495123350545037 0.5489906052782559 0.12744603308102045 0.38177740398093635 0.4907765629380431 0.3272829131652661 0.3545098039215686 0.31820728291316525 0.13658771496280525 0.4034774233610868 0.4599348616761079 0.12334427026370152 0.38911167821120424 0.4875440515250941 0.2677766215747485 0.4223031564342698 0.30992022199098157 0.2814002692825543 0.40603962300442387 0.3125601077130217 0.2024242424242424 0.496969696969697 0.3006060606060606 0.36359005704971475 0.4626120619396903 0.17379788101059493 0.0007510890791647889 0.01291873216163437 0.9863301787592008 0.002044989775051125 0.002044989775051125 0.9959100204498977 0.00047415836889521095 0.00047415836889521095 0.9990516832622095 0.0008795074758135443 0.0008795074758135443 0.9982409850483729 0.0030581039755351682 0.0030581039755351682 0.9938837920489297 0.0005602240896358543 0.0005602240896358543 0.9988795518207283 0.0005924872615238771 0.0005924872615238771 0.9988150254769522 0.0032175032175032177 0.0032175032175032177 0.9935649935649936 0.000292295101134105 0.000292295101134105 0.9994154097977317 </TABLE>
    </DEFINITION>
    <DEFINITION>
      <FOR>Jnk</FOR>
      <TABLE>0.5469931700816258 0.37887722805264035 0.0741296018657338 </TABLE>
    </DEFINITION>
    <DEFINITION>
      <FOR>Mek</FOR>
      <GIVEN>Erk</GIVEN>
      <GIVEN>PKA</GIVEN>
      <GIVEN>PKC</GIVEN>
      <GIVEN>Raf</GIVEN>
      <TABLE>0.8776390351537033 0.12211022516423446 0.00025073968206208307 0.8784479893652375 0.11124958457959452 0.010302426055167829 0.9724676276225502 0.0034943850305054185 0.024037987346944532 0.8596750976763313 0.14011926794159982 0.00020563438206868184 0.46492737003058104 0.5345948012232415 0.00047782874617737 0.9213078949058906 0.07837091282841908 0.00032119226569024214 0.9351780681527031 0.06354086600051242 0.0012810658467845247 0.33333333333333337 0.33333333333333337 0.33333333333333337 0.33333333333333337 0.33333333333333337 0.33333333333333337 0.9329220927575964 0.066849440255883 0.00022846698652044775 0.6048221429343713 0.3946372580819548 0.0005405989836739107 0.9758218654434251 0.023700305810397556 0.00047782874617737 0.828929092603337 0.17098299840005624 8.790899660671272e-05 0.40536534756187925 0.5944493849118127 0.0001852675263079887 0.7045344910757356 0.2942595272551857 0.00120598166907863 0.9290595320824645 0.07065091498725964 0.0002895529302756543 0.003394433129667346 0.9932111337406654 0.003394433129667346 0.33333333333333337 0.33333333333333337 0.33333333333333337 0.9992387912004262 0.00038060439978686154 0.00038060439978686154 0.996279761904762 0.0018601190476190477 0.0018601190476190477 0.9612403100775193 0.01937984496124031 0.01937984496124031 0.9941724941724942 0.002913752913752914 0.002913752913752914 0.33333333333333337 0.33333333333333337 0.33333333333333337 0.33333333333333337 0.33333333333333337 0.33333333333333337 0.33333333333333337 0.33333333333333337 0.33333333333333337 0.33333333333333337 0.33333333333333337 0.33333333333333337 0.33333333333333337 0.33333333333333337 0.33333333333333337 0.5594417077175698 0.43973727422003284 0.0008210180623973727 0.30004110152075625 0.359967118783395 0.33999177969584876 0.23290501953712053 0.0046588518184550645 0.7624361286444244 0.3477872947894361 0.6513204853675946 0.0008922198429693076 0.12052545155993431 0.8786535303776684 0.0008210180623973727 0.5493333333333333 0.3001025641025641 0.15056410256410255 0.6599462365591399 0.3333333333333334 0.006720430107526883 0.33333333333333337 0.33333333333333337 0.33333333333333337 0.33333333333333337 0.33333333333333337 0.33333333333333337 0.7400295541567677 0.2599296251847135 4.082065851886323e-05 0.3223900761483665 0.6656104151314174 0.011999508720216163 0.8694453140139827 0.10874588196711536 0.021808804018901957 0.7231895964655902 0.2767982861117372 1.2117422672667214e-05 0.24705375759224005 0.7466361034487224 0.006310138959037518 0.2567097852868708 0.6309178106300598 0.11237240408306932 0.77872752973217 0.22123546694493168 3.700332289839628e-05 0.12694000463284688 0.8727704424368774 0.00028955293027565436 0.33333333333333337 0.33333333333333337 0.33333333333333337 0.9983127259146627 0.0016539287476824993 3.3345337654889095e-05 0.9995045580657945 0.0002477209671026555 0.0002477209671026555 0.9975880366618428 0.00120598166907863 0.00120598166907863 0.9986751457339693 0.0006624271330153683 0.0006624271330153683 0.9954586739327884 0.002270663033605813 0.002270663033605813 0.33333333333333337 0.33333333333333337 0.33333333333333337 0.8965235173824131 0.10143149284253579 0.002044989775051125 0.33333333333333337 0.33333333333333337 0.33333333333333337 0.33333333333333337 0.33333333333333337 0.33333333333333337 0.16836388323150037 0.8282416836388323 0.003394433129667346 0.009272761263787623 0.018358571695644043 0.9723686670405683 0.0041890673332648475 0.0014153796984328097 0.9943955529683024 0.11262488646684833 0.8851044504995459 0.002270663033605813 0.0015752993068683051 0.9968494013862634 0.0015752993068683051 0.11262488646684833 0.3333333333333333 0.5540417801998183 0.33333333333333337 0.33333333333333337 0.33333333333333337 0.33333333333333337 0.33333333333333337 0.33333333333333337 0.33333333333333337 0.33333333333333337 0.33333333333333337 0.7244627261617336 0.2753882380994962 0.00014903573877015705 0.3628157530756351 0.6281575307563514 0.009026716168013394 0.865453086605486 0.09773832806779999 0.03680858532671379 0.6905747466285583 0.30938418830795517 4.106506348658815e-05 0.2663155893961248 0.7227607643198158 0.010923646284059528 0.31036926784322066 0.6203841519597421 0.06924658019703735 0.8321509508325943 0.16772588432357866 0.000123164843826978 0.03511753044463325 0.9641744548286605 0.0007080147267063155 0.33333333333333337 0.33333333333333337 0.33333333333333337 0.9892037786774628 0.010687388446301857 0.00010883287623525313 0.9987552900174259 0.0006223549912870301 0.0006223549912870301 0.9918699186991871 0.0040650406504065045 0.0040650406504065045 0.8851044504995459 0.11262488646684833 0.002270663033605813 0.9898682877406283 0.005065856129685918 0.005065856129685918 0.003394433129667346 0.9932111337406654 0.003394433129667346 0.36830742659758203 0.6306131260794473 0.001079447322970639 0.009980039920159684 0.9800399201596808 0.009980039920159684 0.33333333333333337 0.33333333333333337 0.33333333333333337 </TABLE>
    </DEFINITION>
    <DEFINITION>
      <FOR>P38</FOR>
      <GIVEN>Akt</GIVEN>
      <GIVEN>Jnk</GIVEN>
      <GIVEN>PKC</GIVEN>
      <TABLE>0.8265173884514436 0.06913549868766405 0.10434711286089239 0.7968476248846956 0.19359372001312458 0.009558655102179795 0.8221512247071353 0.17518636847710334 0.0026624068157614484 0.801276107210668 0.0716430432286837 0.12708084956064822 0.8132042614218398 0.18591477156320424 0.0008809670149559517 0.776287645448323 0.2184077686516085 0.005304585900068446 0.2750539623805119 0.07523897625655258 0.6497070613629355 0.3333333333333333 0.3333333333333333 0.3333333333333333 0.8101545253863135 0.18432671081677707 0.005518763796909493 0.7820606822387486 0.07079012604308507 0.14714919171816623 0.822898616238479 0.17093598533363466 0.006165398427886185 0.8764367816091955 0.11997126436781609 0.003591954022988506 0.7115014080332 0.08122128353342227 0.20727730843337783 0.8092171795348069 0.18900790456731265 0.0017749158978804201 0.797835902226374 0.1988167522964347 0.003347345477191344 0.31415472039261266 0.052628180291876527 0.6332170993155108 0.3333333333333333 0.3333333333333333 0.3333333333333333 0.9705014749262536 0.014749262536873153 0.014749262536873153 0.3227361928791702 0.0865713484721054 0.5906924586487243 0.4986087924318308 0.4986087924318308 0.0027824151363383415 0.3333333333333333 0.3333333333333333 0.3333333333333333 0.32609424224143707 0.07634559957101682 0.5975601581875462 0.5967479674796748 0.39918699186991874 0.0040650406504065045 0.8958333333333333 0.05208333333333332 0.05208333333333332 0.31138941224278693 0.05703941778418116 0.6315711699730318 0.3333333333333333 0.3333333333333333 0.3333333333333333 0.3333333333333333 0.3333333333333333 0.3333333333333333 </TABLE>
    </DEFINITION>
    <DEFINITION>
      <FOR>PIP2</FOR>
      <GIVEN>PIP3</GIVEN>
      <GIVEN>Plcg</GIVEN>
      <TABLE>0.9941724941724941 0.005723443223443223 0.00010406260406260405 0.994597514856834 0.0027012425715829272 0.0027012425715829272 0.2414965986394558 0.4710884353741497 0.2874149659863946 0.9863515479953836 0.013598273872246474 5.017813236991319e-05 0.9243659420289855 0.0745018115942029 0.001132246376811594 0.0834547514974907 0.38505747126436785 0.5314877772381416 0.8740035857123155 0.11848020962625844 0.007516204661426011 0.5566654102274154 0.41588139213469033 0.027453197637894212 0.05339939443985686 0.031103770988164046 0.9154968345719791 </TABLE>
    </DEFINITION>
    <DEFINITION>
      <FOR>PIP3</FOR>
      <TABLE>0.22825254039646842 0.4309511910711311 0.34079626853240047 </TABLE>
    </DEFINITION>
    <DEFINITION>
      <FOR>PKA</FOR>
      <GIVEN>Jnk</GIVEN>
      <GIVEN>P38</GIVEN>
      <GIVEN>PKC</GIVEN>
      <GIVEN>Raf</GIVEN>
      <TABLE>0.006381983801881676 0.3618165834315321 0.6318014327665863 0.06767246091614738 0.6690320721150502 0.26329546696880257 0.30508967072306103 0.6383648895242745 0.05654543975266455 0.036515834272124174 0.9513017899611966 0.012182375766679184 0.03697640612769764 0.9553930448395394 0.007630549032763056 0.18396103742582215 0.810175662576542 0.005863299997635765 0.0007080147267063155 0.8609459076748797 0.13834607759841405 0.0040650406504065045 0.9918699186991871 0.0040650406504065045 0.33333333333333337 0.33333333333333337 0.33333333333333337 0.04229437229437229 0.2526839826839827 0.705021645021645 0.17171361502347418 0.5139671361502347 0.3143192488262911 0.5345948012232415 0.44170489296636084 0.023700305810397556 0.08603587667230107 0.888425907726981 0.02553821560071806 0.08918351968391681 0.9107146493961426 0.00010183091994053073 0.5099815467203489 0.48959906056030866 0.0004193927193423922 0.0040650406504065045 0.7943089430894309 0.20162601626016263 0.01937984496124031 0.9612403100775193 0.01937984496124031 0.33333333333333337 0.33333333333333337 0.33333333333333337 0.1638832748289189 0.00017728610431514376 0.8359394390667659 0.832691155064646 0.02123469475126295 0.1460741501840911 0.9866064955777873 0.0044947078439901405 0.008898796578222413 0.001079447322970639 0.001079447322970639 0.9978411053540588 0.005065856129685918 0.005065856129685918 0.9898682877406283 0.00998003992015968 0.00998003992015968 0.9800399201596807 0.33333333333333337 0.33333333333333337 0.33333333333333337 0.33333333333333337 0.33333333333333337 0.33333333333333337 0.33333333333333337 0.33333333333333337 0.33333333333333337 0.02061405362753801 0.9758915613419568 0.0034943850305054185 0.09286002078164428 0.9070339504209343 0.00010602879742137964 0.44784915491167876 0.5520714194942179 7.94255941034439e-05 0.05100317357861331 0.9463557635414986 0.0026410628798881177 0.04142056176636896 0.9585453752716522 3.406296197892184e-05 0.25965911337841574 0.7209237948352908 0.019417091786293347 0.025507964277055938 0.9473918712611143 0.02710016446182979 0.0002778240817914096 0.9724398510862919 0.02728232483191642 0.33333333333333337 0.33333333333333337 0.33333333333333337 0.0775303963366493 0.9216800884257066 0.0007895152376440866 0.34994871794871796 0.6490256410256411 0.0010256410256410256 0.6565727699530517 0.3428403755868545 0.0005868544600938967 0.09098464543206797 0.9038625361008954 0.005152818467036506 0.03556089393608502 0.9554123898959015 0.009026716168013394 0.2813502759594404 0.6868181234758054 0.0318316005647542 0.018524126791843322 0.9384211588935998 0.043054714314556826 0.0007895152376440866 0.9984209695247118 0.0007895152376440866 0.33333333333333337 0.33333333333333337 0.33333333333333337 0.950566627588902 0.048456428292301686 0.0009769441187964048 0.9740112994350283 0.025475089881869542 0.0005136106831022085 0.9997823342475294 0.00010883287623525313 0.00010883287623525313 0.01937984496124031 0.01937984496124031 0.9612403100775193 0.01937984496124031 0.01937984496124031 0.9612403100775193 0.33333333333333337 0.33333333333333337 0.33333333333333337 0.005065856129685918 0.9898682877406283 0.005065856129685918 0.33333333333333337 0.33333333333333337 0.33333333333333337 0.33333333333333337 0.33333333333333337 0.33333333333333337 0.9977215766689451 0.001139211665527455 0.001139211665527455 0.9988262910798122 0.0005868544600938967 0.0005868544600938967 0.9997521869501648 0.00012390652491760216 0.00012390652491760216 0.33333333333333337 0.33333333333333337 0.33333333333333337 0.33333333333333337 0.33333333333333337 0.33333333333333337 0.33333333333333337 0.33333333333333337 0.33333333333333337 0.0018601190476190477 0.996279761904762 0.0018601190476190477 0.009980039920159684 0.9800399201596808 0.009980039920159684 0.33333333333333337 0.33333333333333337 0.33333333333333337 0.9865591397849464 0.006720430107526883 0.006720430107526883 0.9898682877406283 0.005065856129685918 0.005065856129685918 0.9988896291361314 0.0005551854319342661 0.0005551854319342661 0.33333333333333337 0.33333333333333337 0.33333333333333337 0.33333333333333337 0.33333333333333337 0.33333333333333337 0.33333333333333337 0.33333333333333337 0.33333333333333337 0.009980039920159684 0.9800399201596808 0.009980039920159684 0.33333333333333337 0.33333333333333337 0.33333333333333337 0.33333333333333337 0.33333333333333337 0.33333333333333337 0.9987918327896581 0.0006040836051709557 0.0006040836051709557 0.9994985206358756 0.00025073968206208307 0.00025073968206208307 0.9998810840379105 5.9457981044795656e-05 5.9457981044795656e-05 0.33333333333333337 0.33333333333333337 0.33333333333333337 0.33333333333333337 0.33333333333333337 0.33333333333333337 0.33333333333333337 0.33333333333333337 0.33333333333333337 0.33333333333333337 0.33333333333333337 0.33333333333333337 0.33333333333333337 0.33333333333333337 0.33333333333333337 0.33333333333333337 0.33333333333333337 0.33333333333333337 </TABLE>
    </DEFINITION>
    <DEFINITION>
      <FOR>PKC</FOR>
      <GIVEN>Akt</GIVEN>
      <GIVEN>Jnk</GIVEN>
      <TABLE>0.4272992040711184 0.5661188741338885 0.006581921794993113 0.2388092752522856 0.5146942520008858 0.24649647274682865 0.9462535014005602 0.0008753501400560223 0.052871148459383746 0.4141506159986118 0.5757851813291688 0.01006420267221933 0.2668565156773753 0.4791017768680846 0.25404170745454 0.977651515151515 0.0009469696969696969 0.02140151515151515 0.9077721789586196 0.09146434570163384 0.0007634753397465261 0.9183748845798707 0.07571560480147738 0.0059095106186518925 0.9988929480792651 0.0005535259603675414 0.0005535259603675414 </TABLE>
    </DEFINITION>
    <DEFINITION>
      <FOR>Plcg</FOR>
      <GIVEN>PIP3</GIVEN>
      <TABLE>0.7792536369386464 0.03001994842602053 0.19072641463533302 0.8559463986599665 0.03793325602370828 0.10612034531632521 0.7876299410173688 0.17290709420927428 0.03946296477335679 </TABLE>
    </DEFINITION>
    <DEFINITION>
      <FOR>Raf</FOR>
      <GIVEN>Akt</GIVEN>
      <GIVEN>Jnk</GIVEN>
      <GIVEN>PKC</GIVEN>
      <TABLE>0.6391650262467192 0.19403707349081364 0.16679790026246719 0.5516346909842815 0.3761244110964595 0.07224089791925908 0.7790202342917998 0.2183173588924388 0.0026624068157614484 0.42394136088665163 0.2504746765576014 0.32558396255574684 0.531919688588404 0.40413849620979303 0.0639418152018029 0.8923682409308691 0.10752481177275836 0.00010694729637234767 0.16016034535923526 0.2051187172371261 0.6347209374036387 0.3333333333333333 0.3333333333333333 0.3333333333333333 0.8101545253863135 0.18432671081677707 0.005518763796909493 0.48793687371251 0.2517893928284627 0.26027373345902727 0.5482809713955649 0.37435646299505254 0.07736256560938246 0.9346264367816093 0.06178160919540231 0.003591954022988506 0.2943159922928709 0.2823106565881132 0.4233733511190158 0.5333828658700184 0.37624089323674487 0.09037624089323675 0.8798069437957341 0.11999844309512689 0.0001946131091390316 0.11539454991605322 0.14154720392612682 0.74305824615782 0.3333333333333333 0.3333333333333333 0.3333333333333333 0.9705014749262536 0.014749262536873153 0.014749262536873153 0.018446874123913656 0.12290440145780769 0.8586487244182788 0.4084585420144686 0.36338341680578745 0.22815804117974406 0.3333333333333333 0.3333333333333333 0.3333333333333333 0.02205241638179503 0.10892150948454991 0.8690260741336552 0.26747967479674795 0.3991869918699187 0.3333333333333333 0.8958333333333333 0.05208333333333332 0.05208333333333332 0.0031770660164764123 0.15877941556762348 0.8380435184159002 0.3333333333333333 0.3333333333333333 0.3333333333333333 0.3333333333333333 0.3333333333333333 0.3333333333333333 </TABLE>
    </DEFINITION>
  </NETWORK>
</BIF>
