<?xml version='1.0' encoding='utf-8'?>
<BIF VERSION="0.3">
  <NETWORK>
    <NAME>UNTITLED</NAME>
    <VARIABLE TYPE="nature">
      <NAME>Akt</NAME>
      <OUTCOME>0</OUTCOME>
      <OUTCOME>1</OUTCOME>
      <OUTCOME>2</OUTCOME>
      <PROPERTY>weight = None</PROPERTY>
    </VARIABLE>
    <VARIABLE TYPE="nature">
      <NAME>Erk</NAME>
      <OUTCOME>0</OUTCOME>
      <OUTCOME>1</OUTCOME>
      <OUTCOME>2</OUTCOME>
      <PROPERTY>weight = None</PROPERTY>
    </VARIABLE>
    <VARIABLE TYPE="nature">
      <NAME>Jnk</NAME>
      <OUTCOME>0</OUTCOME>
      <OUTCOME>1</OUTCOME>
      <OUTCOME>2</OUTCOME>
      <PROPERTY>weight = None</PROPERTY>
    </VARIABLE>
    <VARIABLE TYPE="nature">
      <NAME>Mek</NAME>
      <OUTCOME>0</OUTCOME>
      <OUTCOME>1</OUTCOME>
      <OUTCOME>2</OUTCOME>
      <PROPERTY>weight = None</PROPERTY>
    </VARIABLE>
    <VARIABLE TYPE="nature">
      <NAME>P38</NAME>
      <OUTCOME>0</OUTCOME>
      <OUTCOME>1</OUTCOME>
      <OUTCOME>2</OUTCOME>
      <PROPERTY>weight = None</PROPERTY>
    </VARIABLE>
    <VARIABLE TYPE="nature">
      <NAME>PIP2</NAME>
      <OUTCOME>0</OUTCOME>
      <OUTCOME>1</OUTCOME>
      <OUTCOME>2</OUTCOME>
      <PROPERTY>weight = None</PROPERTY>
    </VARIABLE>
    <VARIABLE TYPE="nature">
      <NAME>PIP3</NAME>
      <OUTCOME>0</OUTCOME>
      <OUTCOME>1</OUTCOME>
      <OUTCOME>2</OUTCOME>
      <PROPERTY>weight = None</PROPERTY>
    </VARIABLE>
    <VARIABLE TYPE="nature">
      <NAME>PKA</NAME>
      <OUTCOME>0</OUTCOME>
      <OUTCOME>1</OUTCOME>
      <OUTCOME>2</OUTCOME>
      <PROPERTY>weight = None</PROPERTY>
    </VARIABLE>
    <VARIABLE TYPE="nature">
      <NAME>PKC</NAME>
      <OUTCOME>0</OUTCOME>
      <OUTCOME>1</OUTCOME>
      <OUTCOME>2</OUTCOME>
      <PROPERTY>weight = None</PROPERTY>
    </VARIABLE>
    <VARIABLE TYPE="nature">
      <NAME>Plcg</NAME>
      <OUTCOME>0</OUTCOME>
      <OUTCOME>1</OUTCOME>
      <OUTCOME>2</OUTCOME>
      <PROPERTY>weight = None</PROPERTY>
    </VARIABLE>
    <VARIABLE TYPE="nature">
      <NAME>Raf</NAME>
      <OUTCOME>0</OUTCOME>
      <OUTCOME>1</OUTCOME>
      <OUTCOME>2</OUTCOME>
      <PROPERTY>weight = None</PROPERTY>
    </VARIABLE>
    <DEFINITION>
      <FOR>Akt</FOR>
      <GIVEN>Mek</GIVEN>
      <GIVEN>PKA</GIVEN>
      <TABLE>0.6346493218373418 0.3555690011596833 0.00978167700297484 0.6654637944649514 0.33250693258406333 0.002029272950985253 0.7696465838721817 0.23018235314242702 0.00017106298539122102 0.41493955094991364 0.4207685664939551 0.16429188255613125 0.6659080681452909 0.3315975570556091 0.0024943747990999678 0.12463768115942027 0.8681159420289855 0.007246376811594201 0.0597187579076745 0.2324765932834472 0.7078046488088783 0.74066091954023 0.2363505747126437 0.022988505747126436 0.3333333333333333 0.3333333333333333 0.3333333333333333 </TABLE>
    </DEFINITION>
    <DEFINITION>
      <FOR>Erk</FOR>
      <GIVEN>Akt</GIVEN>
      <GIVEN>Mek</GIVEN>
      <GIVEN>PKA</GIVEN>
      <TABLE>0.920367575011255 0.07950001324117476 0.00013241174757024443 0.10396515483927346 0.8416191777167588 0.05441566744396763 0.08648944997629207 0.8750296348980559 0.03848091512565196 0.6892126257370794 0.30992022199098157 0.0008671522719389524 0.04903683394154713 0.8868078752421592 0.0641552908162937 0.01937984496124031 0.6472868217054263 0.33333333333333337 0.08272800645682002 0.9162631154156579 0.0010088781275221952 0.0016165535079211122 0.9443905593275138 0.05399288716456514 0.3333333333333333 0.3333333333333333 0.3333333333333333 0.7430043486481377 0.25675931177916433 0.00023633957269805257 0.13947494384918444 0.36763135608822123 0.49289370006259436 0.004260800634165676 0.14471858898137138 0.851020610384463 0.2225072686847956 0.7212245596032153 0.05626817171198906 0.052410495023911076 0.42406617552022746 0.5235233294558614 0.0027824151363383415 0.0027824151363383415 0.9944351697273234 0.012854403151402063 0.5502513865132431 0.43689421033535486 0.005065856129685917 0.2512664640324215 0.7436676798378926 0.3333333333333333 0.3333333333333333 0.3333333333333333 0.008591065292096219 0.008591065292096219 0.9828178694158076 0.007541478129713423 0.1297134238310709 0.8627450980392157 0.3333333333333333 0.3333333333333333 0.3333333333333333 0.002190100744634253 0.002190100744634253 0.9956197985107316 0.008591065292096219 0.008591065292096219 0.9828178694158076 0.3333333333333333 0.3333333333333333 0.3333333333333333 8.512087163772556e-05 8.512087163772556e-05 0.9998297582567246 0.052083333333333336 0.052083333333333336 0.8958333333333335 0.3333333333333333 0.3333333333333333 0.3333333333333333 </TABLE>
    </DEFINITION>
    <DEFINITION>
      <FOR>Jnk</FOR>
      <GIVEN>PKA</GIVEN>
      <GIVEN>PKC</GIVEN>
      <TABLE>0.2861759342612469 0.2618701382637398 0.4519539274750133 0.6008215537030326 0.3985743626917966 0.0006040836051709556 0.009469696969696966 0.9810606060606059 0.009469696969696966 0.5953393706549579 0.4045462861324552 0.00011434321258690083 0.6204365575272849 0.3795217862201116 4.1656252603515784e-05 0.03907053259304955 0.9440674480773185 0.01686201932963191 0.9986439435587319 0.0011728055708264613 0.00018325087044163458 0.8592097941012798 0.13800779076238173 0.0027824151363383415 0.16431924882629106 0.8298122065727699 0.005868544600938966 </TABLE>
    </DEFINITION>
    <DEFINITION>
      <FOR>Mek</FOR>
      <GIVEN>PKA</GIVEN>
      <GIVEN>Raf</GIVEN>
      <TABLE>0.7529049419011621 0.24639507209855807 0.0006999860002799944 0.37052746057640024 0.2618814573137575 0.3675910821098423 0.30868957809443975 0.01296451522771724 0.6783459066778429 0.748363078534815 0.25159015228046544 4.676918471957197e-05 0.27285806890227515 0.7198058467327546 0.007336084364970198 0.6498102254967626 0.2986715784773387 0.05151819602589864 0.9814529204729703 0.01834934946810614 0.00019773005892355754 0.9833723044946738 0.015328656793972458 0.0012990387113535982 0.7844611528822054 0.20927318295739344 0.006265664160401001 </TABLE>
    </DEFINITION>
    <DEFINITION>
      <FOR>P38</FOR>
      <GIVEN>PKA</GIVEN>
      <GIVEN>PKC</GIVEN>
      <TABLE>0.31297463241234447 0.06804699582208065 0.6189783717655748 0.6693246345294189 0.3300712818654102 0.0006040836051709556 0.827651515151515 0.16287878787878785 0.009469696969696966 0.92938163190633 0.068034211489206 0.0025841566044639587 0.8208614513038407 0.17909689244355578 4.1656252603515784e-05 0.7886078552333949 0.20674480773185275 0.00464733703475221 0.8165658786879237 0.07835807220084295 0.10507604911123328 0.4234835837506956 0.16805787423483584 0.4084585420144686 0.7347417840375586 0.2593896713615023 0.005868544600938966 </TABLE>
    </DEFINITION>
    <DEFINITION>
      <FOR>PIP2</FOR>
      <GIVEN>PIP3</GIVEN>
      <TABLE>0.8506300783340631 0.09439011336544542 0.05497980830049141 0.8881845123051153 0.05532792165957994 0.05648756603530472 0.7867500896144947 0.16645485058819695 0.046795059797308296 </TABLE>
    </DEFINITION>
    <DEFINITION>
      <FOR>PIP3</FOR>
      <TABLE>0.22825254039646842 0.4309511910711311 0.34079626853240047 </TABLE>
    </DEFINITION>
    <DEFINITION>
      <FOR>PKA</FOR>
      <GIVEN>Raf</GIVEN>
      <TABLE>0.05126383326874219 0.7672565990612754 0.18147956766998233 0.12052219731823363 0.8290275647831387 0.050450237898627646 0.6566490532804932 0.32870981946279165 0.014641127256715103 </TABLE>
    </DEFINITION>
    <DEFINITION>
      <FOR>PKC</FOR>
      <GIVEN>Mek</GIVEN>
      <GIVEN>PKA</GIVEN>
      <GIVEN>Raf</GIVEN>
      <TABLE>0.43708937647204665 0.4772530060741292 0.08565761745382422 0.8167498287838763 0.1827609822913609 0.0004891889247627433 0.826182717837316 0.1736664252956795 0.00015085686700458604 0.1879942337658009 0.5966760826271362 0.2153296836070628 0.2691891683084173 0.7150693398230772 0.015741491868505427 0.8188169272175457 0.18103991295882726 0.00014315982362709729 0.9324146452843366 0.05011147822816772 0.01747387648749563 0.9063848524878908 0.0931748128577719 0.00044033465433729633 0.9946751863684772 0.0026624068157614484 0.0026624068157614484 0.39981060606060603 0.568560606060606 0.031628787878787874 0.3482834994462901 0.6510243632336655 0.0006921373200442967 0.1781609195402299 0.8182471264367817 0.003591954022988506 0.17573211386647827 0.667608531310803 0.15665935482271875 0.18329050160710494 0.7597396416778323 0.05696985671506287 0.1970971158038996 0.8025914159347163 0.000311468261384165 0.1781609195402299 0.06178160919540231 0.7600574712643678 0.02824858757062147 0.02824858757062147 0.943502824858757 0.009980039920159679 0.9800399201596806 0.009980039920159679 0.3333333333333333 0.3333333333333333 0.3333333333333333 0.9990138067061143 0.0004930966469428007 0.0004930966469428007 0.990965757750501 0.00896559299228382 6.864925721503692e-05 0.3333333333333333 0.3333333333333333 0.3333333333333333 0.2945402298850575 0.701867816091954 0.003591954022988506 0.2650776453593355 0.7331166486096063 0.0018057060310581437 0.3333333333333333 0.3333333333333333 0.3333333333333333 0.3333333333333333 0.3333333333333333 0.3333333333333333 0.3333333333333333 0.3333333333333333 0.3333333333333333 </TABLE>
    </DEFINITION>
    <DEFINITION>
      <FOR>Plcg</FOR>
      <GIVEN>PIP2</GIVEN>
      <GIVEN>PIP3</GIVEN>
      <TABLE>0.9107513965947873 0.03510076455223169 0.05414783885298099 0.9505503007795122 0.03947851989400182 0.009971179326486005 0.8749810158914247 0.12234049897140646 0.0026784851371688136 0.04725085910652921 0.0008591065292096219 0.9518900343642611 0.21037106039434872 0.05107902499611862 0.7385499146095328 0.5606238580005221 0.4320020882276168 0.0073740537718611325 0.0014749262536873156 0.0014749262536873156 0.9970501474926254 0.0007603406326034063 0.0007603406326034063 0.9984793187347931 0.1265088207985144 0.10143918291550603 0.7720519962859795 </TABLE>
    </DEFINITION>
    <DEFINITION>
      <FOR>Raf</FOR>
      <TABLE>0.515808762285524 0.2824254539396968 0.20176578377477927 </TABLE>
    </DEFINITION>
  </NETWORK>
</BIF>
