<?xml version='1.0' encoding='utf-8'?>
<BIF VERSION="0.3">
  <NETWORK>
    <NAME>UNTITLED</NAME>
    <VARIABLE TYPE="nature">
      <NAME>Akt</NAME>
      <OUTCOME>0</OUTCOME>
      <OUTCOME>1</OUTCOME>
      <OUTCOME>2</OUTCOME>
      <PROPERTY>weight = None</PROPERTY>
    </VARIABLE>
    <VARIABLE TYPE="nature">
      <NAME>Erk</NAME>
      <OUTCOME>0</OUTCOME>
      <OUTCOME>1</OUTCOME>
      <OUTCOME>2</OUTCOME>
      <PROPERTY>weight = None</PROPERTY>
    </VARIABLE>
    <VARIABLE TYPE="nature">
      <NAME>Jnk</NAME>
      <OUTCOME>0</OUTCOME>
      <OUTCOME>1</OUTCOME>
      <OUTCOME>2</OUTCOME>
      <PROPERTY>weight = None</PROPERTY>
    </VARIABLE>
    <VARIABLE TYPE="nature">
      <NAME>Mek</NAME>
      <OUTCOME>0</OUTCOME>
      <OUTCOME>1</OUTCOME>
      <OUTCOME>2</OUTCOME>
      <PROPERTY>weight = None</PROPERTY>
    </VARIABLE>
    <VARIABLE TYPE="nature">
      <NAME>P38</NAME>
      <OUTCOME>0</OUTCOME>
      <OUTCOME>1</OUTCOME>
      <OUTCOME>2</OUTCOME>
      <PROPERTY>weight = None</PROPERTY>
    </VARIABLE>
    <VARIABLE TYPE="nature">
      <NAME>PIP2</NAME>
      <OUTCOME>0</OUTCOME>
      <OUTCOME>1</OUTCOME>
      <OUTCOME>2</OUTCOME>
      <PROPERTY>weight = None</PROPERTY>
    </VARIABLE>
    <VARIABLE TYPE="nature">
      <NAME>PIP3</NAME>
      <OUTCOME>0</OUTCOME>
      <OUTCOME>1</OUTCOME>
      <OUTCOME>2</OUTCOME>
      <PROPERTY>weight = None</PROPERTY>
    </VARIABLE>
    <VARIABLE TYPE="nature">
      <NAME>PKA</NAME>
      <OUTCOME>0</OUTCOME>
      <OUTCOME>1</OUTCOME>
      <OUTCOME>2</OUTCOME>
      <PROPERTY>weight = None</PROPERTY>
    </VARIABLE>
    <VARIABLE TYPE="nature">
      <NAME>PKC</NAME>
      <OUTCOME>0</OUTCOME>
      <OUTCOME>1</OUTCOME>
      <OUTCOME>2</OUTCOME>
      <PROPERTY>weight = None</PROPERTY>
    </VARIABLE>
    <VARIABLE TYPE="nature">
      <NAME>Plcg</NAME>
      <OUTCOME>0</OUTCOME>
      <OUTCOME>1</OUTCOME>
      <OUTCOME>2</OUTCOME>
      <PROPERTY>weight = None</PROPERTY>
    </VARIABLE>
    <VARIABLE TYPE="nature">
      <NAME>Raf</NAME>
      <OUTCOME>0</OUTCOME>
      <OUTCOME>1</OUTCOME>
      <OUTCOME>2</OUTCOME>
      <PROPERTY>weight = None</PROPERTY>
    </VARIABLE>
    <DEFINITION>
      <FOR>Akt</FOR>
      <TABLE>0.6072630351490922 0.31500916208562385 0.07772780276528402 </TABLE>
    </DEFINITION>
    <DEFINITION>
      <FOR>Erk</FOR>
      <GIVEN>Akt</GIVEN>
      <GIVEN>Mek</GIVEN>
      <GIVEN>PKA</GIVEN>
      <TABLE>0.920367575011255 0.07950001324117476 0.00013241174757024443 0.10396515483927346 0.8416191777167588 0.05441566744396763 0.08648944997629207 0.8750296348980559 0.03848091512565196 0.6892126257370794 0.30992022199098157 0.0008671522719389524 0.04903683394154713 0.8868078752421592 0.0641552908162937 0.01937984496124031 0.6472868217054263 0.33333333333333337 0.08272800645682002 0.9162631154156579 0.0010088781275221952 0.0016165535079211122 0.9443905593275138 0.05399288716456514 0.3333333333333333 0.3333333333333333 0.3333333333333333 0.7430043486481377 0.25675931177916433 0.00023633957269805257 0.13947494384918444 0.36763135608822123 0.49289370006259436 0.004260800634165676 0.14471858898137138 0.851020610384463 0.2225072686847956 0.7212245596032153 0.05626817171198906 0.052410495023911076 0.42406617552022746 0.5235233294558614 0.0027824151363383415 0.0027824151363383415 0.9944351697273234 0.012854403151402063 0.5502513865132431 0.43689421033535486 0.005065856129685917 0.2512664640324215 0.7436676798378926 0.3333333333333333 0.3333333333333333 0.3333333333333333 0.008591065292096219 0.008591065292096219 0.9828178694158076 0.007541478129713423 0.1297134238310709 0.8627450980392157 0.3333333333333333 0.3333333333333333 0.3333333333333333 0.002190100744634253 0.002190100744634253 0.9956197985107316 0.008591065292096219 0.008591065292096219 0.9828178694158076 0.3333333333333333 0.3333333333333333 0.3333333333333333 8.512087163772556e-05 8.512087163772556e-05 0.9998297582567246 0.052083333333333336 0.052083333333333336 0.8958333333333335 0.3333333333333333 0.3333333333333333 0.3333333333333333 </TABLE>
    </DEFINITION>
    <DEFINITION>
      <FOR>Jnk</FOR>
      <GIVEN>PKA</GIVEN>
      <GIVEN>PKC</GIVEN>
      <TABLE>0.2861759342612469 0.2618701382637398 0.4519539274750133 0.6008215537030326 0.3985743626917966 0.0006040836051709556 0.009469696969696966 0.9810606060606059 0.009469696969696966 0.5953393706549579 0.4045462861324552 0.00011434321258690083 0.6204365575272849 0.3795217862201116 4.1656252603515784e-05 0.03907053259304955 0.9440674480773185 0.01686201932963191 0.9986439435587319 0.0011728055708264613 0.00018325087044163458 0.8592097941012798 0.13800779076238173 0.0027824151363383415 0.16431924882629106 0.8298122065727699 0.005868544600938966 </TABLE>
    </DEFINITION>
    <DEFINITION>
      <FOR>Mek</FOR>
      <GIVEN>Akt</GIVEN>
      <GIVEN>PKA</GIVEN>
      <GIVEN>PKC</GIVEN>
      <TABLE>0.7997918525126375 0.055545643770443055 0.1446625037169194 0.7155575014594279 0.2781669585522475 0.006275539988324577 0.9208006962576154 0.07484769364664927 0.004351610095735423 0.6712767673973676 0.3202636977617961 0.008459534840836272 0.5182587175858101 0.47199943717461657 0.009741845239573246 0.7148964849097533 0.2849982098102399 0.00010530528000673952 0.998556311773198 0.0013643646978566781 7.932352894515569e-05 0.9973835688121403 0.0013082155939298796 0.0013082155939298796 0.8101545253863135 0.18432671081677707 0.005518763796909493 0.41882493031311735 0.06589808124272685 0.5152769884441558 0.5995518207282913 0.37266106442577024 0.02778711484593837 0.7833333333333332 0.20476190476190473 0.011904761904761902 0.66103004682031 0.32965134778853583 0.009318605391154143 0.519260033835769 0.47587713705186735 0.004862829112363658 0.7282008830022075 0.27160201829076003 0.00019709870703248187 0.9908544690806615 0.00887967246238103 0.00026585845695751583 0.6287001287001287 0.3680823680823681 0.0032175032175032177 0.3498470948012233 0.6470948012232416 0.0030581039755351682 0.006903751599649761 0.009631575402438202 0.9834646729979121 0.07584014532243415 0.7747502270663034 0.1494096276112625 0.3333333333333333 0.3333333333333333 0.3333333333333333 0.7833333333333332 0.20476190476190473 0.011904761904761902 0.3006060606060606 0.5951515151515152 0.10424242424242425 0.8958333333333333 0.05208333333333332 0.05208333333333332 0.3333333333333333 0.3333333333333333 0.3333333333333333 0.3333333333333333 0.3333333333333333 0.3333333333333333 0.3333333333333333 0.3333333333333333 0.3333333333333333 </TABLE>
    </DEFINITION>
    <DEFINITION>
      <FOR>P38</FOR>
      <GIVEN>Akt</GIVEN>
      <GIVEN>PKC</GIVEN>
      <TABLE>0.7715355805243446 0.07029422828451336 0.15817019119114206 0.8029818956336529 0.19070935778117332 0.006308746585173867 0.7786458333333333 0.21614583333333334 0.005208333333333333 0.6903344159749789 0.07079273427162276 0.23887284975339826 0.8176666198304529 0.17779026743478055 0.004543112734766521 0.803960179411443 0.1925391095066186 0.0035007110819385194 0.3184393962188456 0.07065844240509503 0.6109021613760593 0.5374753451676528 0.45759368836291914 0.004930966469428007 0.761904761904762 0.11904761904761905 0.11904761904761905 </TABLE>
    </DEFINITION>
    <DEFINITION>
      <FOR>PIP2</FOR>
      <GIVEN>PIP3</GIVEN>
      <GIVEN>Plcg</GIVEN>
      <TABLE>0.9941724941724941 0.005723443223443223 0.00010406260406260405 0.994597514856834 0.0027012425715829272 0.0027012425715829272 0.2414965986394558 0.4710884353741497 0.2874149659863946 0.9863515479953836 0.013598273872246474 5.017813236991319e-05 0.9243659420289855 0.0745018115942029 0.001132246376811594 0.0834547514974907 0.38505747126436785 0.5314877772381416 0.8740035857123155 0.11848020962625844 0.007516204661426011 0.5566654102274154 0.41588139213469033 0.027453197637894212 0.05339939443985686 0.031103770988164046 0.9154968345719791 </TABLE>
    </DEFINITION>
    <DEFINITION>
      <FOR>PIP3</FOR>
      <TABLE>0.22825254039646842 0.4309511910711311 0.34079626853240047 </TABLE>
    </DEFINITION>
    <DEFINITION>
      <FOR>PKA</FOR>
      <GIVEN>Akt</GIVEN>
      <GIVEN>P38</GIVEN>
      <GIVEN>PKC</GIVEN>
      <TABLE>0.07157897712016506 0.5683780613614845 0.3600429615183505 0.042839157344404716 0.949741475416138 0.007419367239457192 0.0232298877394934 0.9577402711881984 0.01902984107230821 0.16371955948503178 0.47153714906157906 0.3647432914533892 0.09679312089023771 0.889994941831057 0.013211937278705104 0.023162417110301668 0.9612403100775194 0.015597272812178946 0.7372212456485024 0.008547892324130562 0.25423086202736705 0.0030581039755351682 0.0030581039755351682 0.9938837920489297 0.019379844961240313 0.9612403100775195 0.019379844961240313 0.17297611268423727 0.596413272344442 0.23061061497132068 0.061910489937755386 0.9310822163668997 0.007007293695345019 0.0185966344627387 0.9297410078468726 0.05166235769038872 0.3562730104786179 0.40215236476918714 0.24157462475219482 0.10691078328064631 0.8822005619950826 0.010888654724271163 0.0009469696969696969 0.906060606060606 0.09299242424242424 0.9451928322632087 0.0036090477989005 0.05119811993789081 0.008591065292096219 0.008591065292096219 0.9828178694158076 0.05208333333333332 0.8958333333333333 0.05208333333333332 0.978215223097113 0.021522309711286092 0.00026246719160104987 0.746177370030581 0.2507645259938838 0.0030581039755351682 0.05208333333333332 0.8958333333333333 0.05208333333333332 0.9976342559735036 0.0011828720132481666 0.0011828720132481666 0.701867816091954 0.2945402298850575 0.003591954022988506 0.3333333333333333 0.3333333333333333 0.3333333333333333 0.9997263722432004 0.0001368138783998249 0.0001368138783998249 0.3333333333333333 0.3333333333333333 0.3333333333333333 0.3333333333333333 0.3333333333333333 0.3333333333333333 </TABLE>
    </DEFINITION>
    <DEFINITION>
      <FOR>PKC</FOR>
      <GIVEN>Akt</GIVEN>
      <TABLE>0.37272544393847956 0.5266180208847681 0.10065653517675242 0.39076326458663846 0.501815617838886 0.10742111757447557 0.9497071010144307 0.0482926132304615 0.0020002857551078726 </TABLE>
    </DEFINITION>
    <DEFINITION>
      <FOR>Plcg</FOR>
      <GIVEN>PIP3</GIVEN>
      <TABLE>0.7792536369386464 0.03001994842602053 0.19072641463533302 0.8559463986599665 0.03793325602370828 0.10612034531632521 0.7876299410173688 0.17290709420927428 0.03946296477335679 </TABLE>
    </DEFINITION>
    <DEFINITION>
      <FOR>Raf</FOR>
      <GIVEN>Mek</GIVEN>
      <GIVEN>PKA</GIVEN>
      <GIVEN>PKC</GIVEN>
      <TABLE>0.16483182572517122 0.1951242315873127 0.640043942687516 0.502479770294962 0.12190028713129729 0.3756199425737405 0.9928160919540231 0.003591954022988506 0.003591954022988506 0.5147563799810626 0.15899471804875823 0.3262489019701792 0.7676593874291104 0.19844766774943984 0.03389294482144963 0.984381844846961 0.015522922499666681 9.523265337218823e-05 0.8509475129317741 0.12615527935083717 0.022897207717388637 0.7782644972882771 0.22069253233208178 0.0010429703796412183 0.992372234935164 0.003813882532418002 0.003813882532418002 0.433025641025641 0.516102564102564 0.05087179487179487 0.3394391677973767 0.5317729534147444 0.12878787878787878 0.9435028248587572 0.028248587570621472 0.028248587570621472 0.3346075794044079 0.5907310396904053 0.07466138090518665 0.3159160215810462 0.6085268590194698 0.07555711939948392 0.6188378126988789 0.380917413227591 0.0002447740735301317 0.9612403100775195 0.019379844961240313 0.019379844961240313 0.14776632302405499 0.008591065292096219 0.8436426116838488 0.8601626016260163 0.13577235772357724 0.0040650406504065045 6.074522238825916e-05 0.12306982055861307 0.8768694342189987 0.007541478129713423 0.007541478129713423 0.9849170437405731 0.3333333333333333 0.3333333333333333 0.3333333333333333 0.004351610095735422 0.35683202785030466 0.63881636205396 0.0016600265604249668 0.3243691899070385 0.6739707835325366 0.3333333333333333 0.3333333333333333 0.3333333333333333 0.3333333333333333 0.3333333333333333 0.3333333333333333 0.3333333333333333 0.3333333333333333 0.3333333333333333 0.3333333333333333 0.3333333333333333 0.3333333333333333 </TABLE>
    </DEFINITION>
  </NETWORK>
</BIF>
