<?xml version='1.0' encoding='utf-8'?>
<BIF VERSION="0.3">
  <NETWORK>
    <NAME>UNTITLED</NAME>
    <VARIABLE TYPE="nature">
      <NAME>Akt</NAME>
      <OUTCOME>0</OUTCOME>
      <OUTCOME>1</OUTCOME>
      <OUTCOME>2</OUTCOME>
      <PROPERTY>weight = None</PROPERTY>
    </VARIABLE>
    <VARIABLE TYPE="nature">
      <NAME>Erk</NAME>
      <OUTCOME>0</OUTCOME>
      <OUTCOME>1</OUTCOME>
      <OUTCOME>2</OUTCOME>
      <PROPERTY>weight = None</PROPERTY>
    </VARIABLE>
    <VARIABLE TYPE="nature">
      <NAME>Jnk</NAME>
      <OUTCOME>0</OUTCOME>
      <OUTCOME>1</OUTCOME>
      <OUTCOME>2</OUTCOME>
      <PROPERTY>weight = None</PROPERTY>
    </VARIABLE>
    <VARIABLE TYPE="nature">
      <NAME>Mek</NAME>
      <OUTCOME>0</OUTCOME>
      <OUTCOME>1</OUTCOME>
      <OUTCOME>2</OUTCOME>
      <PROPERTY>weight = None</PROPERTY>
    </VARIABLE>
    <VARIABLE TYPE="nature">
      <NAME>P38</NAME>
      <OUTCOME>0</OUTCOME>
      <OUTCOME>1</OUTCOME>
      <OUTCOME>2</OUTCOME>
      <PROPERTY>weight = None</PROPERTY>
    </VARIABLE>
    <VARIABLE TYPE="nature">
      <NAME>PIP2</NAME>
      <OUTCOME>0</OUTCOME>
      <OUTCOME>1</OUTCOME>
      <OUTCOME>2</OUTCOME>
      <PROPERTY>weight = None</PROPERTY>
    </VARIABLE>
    <VARIABLE TYPE="nature">
      <NAME>PIP3</NAME>
      <OUTCOME>0</OUTCOME>
      <OUTCOME>1</OUTCOME>
      <OUTCOME>2</OUTCOME>
      <PROPERTY>weight = None</PROPERTY>
    </VARIABLE>
    <VARIABLE TYPE="nature">
      <NAME>PKA</NAME>
      <OUTCOME>0</OUTCOME>
      <OUTCOME>1</OUTCOME>
      <OUTCOME>2</OUTCOME>
      <PROPERTY>weight = None</PROPERTY>
    </VARIABLE>
    <VARIABLE TYPE="nature">
      <NAME>PKC</NAME>
      <OUTCOME>0</OUTCOME>
      <OUTCOME>1</OUTCOME>
      <OUTCOME>2</OUTCOME>
      <PROPERTY>weight = None</PROPERTY>
    </VARIABLE>
    <VARIABLE TYPE="nature">
      <NAME>Plcg</NAME>
      <OUTCOME>0</OUTCOME>
      <OUTCOME>1</OUTCOME>
      <OUTCOME>2</OUTCOME>
      <PROPERTY>weight = None</PROPERTY>
    </VARIABLE>
    <VARIABLE TYPE="nature">
      <NAME>Raf</NAME>
      <OUTCOME>0</OUTCOME>
      <OUTCOME>1</OUTCOME>
      <OUTCOME>2</OUTCOME>
      <PROPERTY>weight = None</PROPERTY>
    </VARIABLE>
    <DEFINITION>
      <FOR>Akt</FOR>
      <TABLE>0.6072630351490922 0.31500916208562385 0.07772780276528402 </TABLE>
    </DEFINITION>
    <DEFINITION>
      <FOR>Erk</FOR>
      <GIVEN>Akt</GIVEN>
      <GIVEN>PKA</GIVEN>
      <TABLE>0.8072520264835097 0.19243858672111874 0.00030938679537157354 0.08041821301727921 0.8611437008659564 0.05843808611676443 0.0862885730730066 0.8740425908708549 0.03966883605613848 0.37299118714359775 0.4377268014515293 0.189282011404873 0.10274181386469013 0.39036755386565275 0.5068906322696571 0.00436442989634479 0.13325150027277688 0.8623840698308785 0.00024348672997321646 0.00024348672997321646 0.9995130265400536 0.011185682326621923 0.0715883668903803 0.9172259507829976 0.3333333333333333 0.3333333333333333 0.3333333333333333 </TABLE>
    </DEFINITION>
    <DEFINITION>
      <FOR>Jnk</FOR>
      <GIVEN>Akt</GIVEN>
      <GIVEN>P38</GIVEN>
      <TABLE>0.5951282467407012 0.3914790686172227 0.013392684642076061 0.5481472352312875 0.43279106071810036 0.019061704050612114 0.4617549990293147 0.19704911667637354 0.3411958842943118 0.570131861392211 0.40329653480527444 0.026571603802514568 0.5078592174953016 0.4686485562959167 0.023492226208781823 0.36418166238217653 0.23527971599951036 0.40053862161831316 0.3203406958279198 0.27356720080843083 0.40609210336364954 0.4339723109691161 0.2902023429179979 0.27582534611288606 0.2883038057742782 0.24401246719160108 0.46768372703412076 </TABLE>
    </DEFINITION>
    <DEFINITION>
      <FOR>Mek</FOR>
      <GIVEN>Erk</GIVEN>
      <GIVEN>PKA</GIVEN>
      <GIVEN>PKC</GIVEN>
      <GIVEN>Raf</GIVEN>
      <TABLE>0.8776390351537033 0.12211022516423446 0.00025073968206208307 0.8784479893652375 0.11124958457959452 0.010302426055167829 0.9724676276225502 0.0034943850305054185 0.024037987346944532 0.8596750976763313 0.14011926794159982 0.00020563438206868184 0.46492737003058104 0.5345948012232415 0.00047782874617737 0.9213078949058906 0.07837091282841908 0.00032119226569024214 0.9351780681527031 0.06354086600051242 0.0012810658467845247 0.33333333333333337 0.33333333333333337 0.33333333333333337 0.33333333333333337 0.33333333333333337 0.33333333333333337 0.9329220927575964 0.066849440255883 0.00022846698652044775 0.6048221429343713 0.3946372580819548 0.0005405989836739107 0.9758218654434251 0.023700305810397556 0.00047782874617737 0.828929092603337 0.17098299840005624 8.790899660671272e-05 0.40536534756187925 0.5944493849118127 0.0001852675263079887 0.7045344910757356 0.2942595272551857 0.00120598166907863 0.9290595320824645 0.07065091498725964 0.0002895529302756543 0.003394433129667346 0.9932111337406654 0.003394433129667346 0.33333333333333337 0.33333333333333337 0.33333333333333337 0.9992387912004262 0.00038060439978686154 0.00038060439978686154 0.996279761904762 0.0018601190476190477 0.0018601190476190477 0.9612403100775193 0.01937984496124031 0.01937984496124031 0.9941724941724942 0.002913752913752914 0.002913752913752914 0.33333333333333337 0.33333333333333337 0.33333333333333337 0.33333333333333337 0.33333333333333337 0.33333333333333337 0.33333333333333337 0.33333333333333337 0.33333333333333337 0.33333333333333337 0.33333333333333337 0.33333333333333337 0.33333333333333337 0.33333333333333337 0.33333333333333337 0.5594417077175698 0.43973727422003284 0.0008210180623973727 0.30004110152075625 0.359967118783395 0.33999177969584876 0.23290501953712053 0.0046588518184550645 0.7624361286444244 0.3477872947894361 0.6513204853675946 0.0008922198429693076 0.12052545155993431 0.8786535303776684 0.0008210180623973727 0.5493333333333333 0.3001025641025641 0.15056410256410255 0.6599462365591399 0.3333333333333334 0.006720430107526883 0.33333333333333337 0.33333333333333337 0.33333333333333337 0.33333333333333337 0.33333333333333337 0.33333333333333337 0.7400295541567677 0.2599296251847135 4.082065851886323e-05 0.3223900761483665 0.6656104151314174 0.011999508720216163 0.8694453140139827 0.10874588196711536 0.021808804018901957 0.7231895964655902 0.2767982861117372 1.2117422672667214e-05 0.24705375759224005 0.7466361034487224 0.006310138959037518 0.2567097852868708 0.6309178106300598 0.11237240408306932 0.77872752973217 0.22123546694493168 3.700332289839628e-05 0.12694000463284688 0.8727704424368774 0.00028955293027565436 0.33333333333333337 0.33333333333333337 0.33333333333333337 0.9983127259146627 0.0016539287476824993 3.3345337654889095e-05 0.9995045580657945 0.0002477209671026555 0.0002477209671026555 0.9975880366618428 0.00120598166907863 0.00120598166907863 0.9986751457339693 0.0006624271330153683 0.0006624271330153683 0.9954586739327884 0.002270663033605813 0.002270663033605813 0.33333333333333337 0.33333333333333337 0.33333333333333337 0.8965235173824131 0.10143149284253579 0.002044989775051125 0.33333333333333337 0.33333333333333337 0.33333333333333337 0.33333333333333337 0.33333333333333337 0.33333333333333337 0.16836388323150037 0.8282416836388323 0.003394433129667346 0.009272761263787623 0.018358571695644043 0.9723686670405683 0.0041890673332648475 0.0014153796984328097 0.9943955529683024 0.11262488646684833 0.8851044504995459 0.002270663033605813 0.0015752993068683051 0.9968494013862634 0.0015752993068683051 0.11262488646684833 0.3333333333333333 0.5540417801998183 0.33333333333333337 0.33333333333333337 0.33333333333333337 0.33333333333333337 0.33333333333333337 0.33333333333333337 0.33333333333333337 0.33333333333333337 0.33333333333333337 0.7244627261617336 0.2753882380994962 0.00014903573877015705 0.3628157530756351 0.6281575307563514 0.009026716168013394 0.865453086605486 0.09773832806779999 0.03680858532671379 0.6905747466285583 0.30938418830795517 4.106506348658815e-05 0.2663155893961248 0.7227607643198158 0.010923646284059528 0.31036926784322066 0.6203841519597421 0.06924658019703735 0.8321509508325943 0.16772588432357866 0.000123164843826978 0.03511753044463325 0.9641744548286605 0.0007080147267063155 0.33333333333333337 0.33333333333333337 0.33333333333333337 0.9892037786774628 0.010687388446301857 0.00010883287623525313 0.9987552900174259 0.0006223549912870301 0.0006223549912870301 0.9918699186991871 0.0040650406504065045 0.0040650406504065045 0.8851044504995459 0.11262488646684833 0.002270663033605813 0.9898682877406283 0.005065856129685918 0.005065856129685918 0.003394433129667346 0.9932111337406654 0.003394433129667346 0.36830742659758203 0.6306131260794473 0.001079447322970639 0.009980039920159684 0.9800399201596808 0.009980039920159684 0.33333333333333337 0.33333333333333337 0.33333333333333337 </TABLE>
    </DEFINITION>
    <DEFINITION>
      <FOR>P38</FOR>
      <GIVEN>Akt</GIVEN>
      <TABLE>0.7888114701633108 0.14838792267880982 0.06280060715787933 0.7664375110170984 0.13756389917151418 0.09599858981138726 0.3299042720388627 0.08944134876410917 0.5806543791970281 </TABLE>
    </DEFINITION>
    <DEFINITION>
      <FOR>PIP2</FOR>
      <TABLE>0.8450441445943696 0.10211560886223556 0.052840246543394975 </TABLE>
    </DEFINITION>
    <DEFINITION>
      <FOR>PIP3</FOR>
      <GIVEN>PIP2</GIVEN>
      <GIVEN>Plcg</GIVEN>
      <TABLE>0.22808902386034274 0.4693043399370664 0.3026066362025909 0.12452651515151517 0.2761093073593074 0.5993641774891775 0.6986469864698647 0.2536285362853628 0.04772447724477244 0.026905390861950887 0.13257019861070346 0.8405244105273456 0.000719010641357492 0.04731090020132298 0.9519700891573196 0.532180595581172 0.45696445725264173 0.01085494716618636 0.009009009009009007 0.009009009009009007 0.9819819819819819 0.011185682326621923 0.011185682326621923 0.9776286353467561 0.25467148884870405 0.4947257383966245 0.2506027727546715 </TABLE>
    </DEFINITION>
    <DEFINITION>
      <FOR>PKA</FOR>
      <GIVEN>Akt</GIVEN>
      <GIVEN>Jnk</GIVEN>
      <GIVEN>P38</GIVEN>
      <TABLE>0.03297882931432256 0.7401559125123902 0.2268652581732871 0.09118389167853307 0.7751380249319244 0.1336780833895426 0.3692803587695326 0.006026206993202998 0.6246934342372643 0.051733554428147484 0.9429035802883445 0.005362865283508038 0.07191900015820282 0.922797025787059 0.005283974054738174 0.9185550082101804 0.06732348111658455 0.014121510673234808 0.8578572802462011 0.14118099634545103 0.0009617234083477591 0.8764367816091955 0.11997126436781609 0.003591954022988506 0.9990516832622097 0.00047415836889521106 0.00047415836889521106 0.0639432730923695 0.7871575588066553 0.14889916810097534 0.13652929632744604 0.7632744603308103 0.10019624334174378 0.7992156862745098 0.009635854341736695 0.1911484593837535 0.08628926991851373 0.8992763816548175 0.014434348426668691 0.10365779560092357 0.8566654514521813 0.03967675294689513 0.9701699618452999 0.014915019077349979 0.014915019077349979 0.9357568763223696 0.06328140026928256 0.0009617234083477591 0.987878787878788 0.0060606060606060615 0.0060606060606060615 0.9989812550937244 0.0005093724531377342 0.0005093724531377342 0.9133243202643833 0.08592459065645183 0.0007510890791647887 0.9296523517382413 0.06830265848670757 0.002044989775051125 0.9990516832622097 0.00047415836889521106 0.00047415836889521106 0.941248900615655 0.05787159190853121 0.0008795074758135441 0.8452599388379205 0.15168195718654434 0.0030581039755351682 0.9988795518207282 0.0005602240896358542 0.0005602240896358542 0.9988150254769521 0.0005924872615238771 0.0005924872615238771 0.9935649935649936 0.0032175032175032177 0.0032175032175032177 0.9994154097977319 0.00029229510113410503 0.00029229510113410503 </TABLE>
    </DEFINITION>
    <DEFINITION>
      <FOR>PKC</FOR>
      <GIVEN>Jnk</GIVEN>
      <GIVEN>P38</GIVEN>
      <GIVEN>PKA</GIVEN>
      <GIVEN>Raf</GIVEN>
      <TABLE>0.12750373692077727 0.8721225710014948 0.0003736920777279522 0.45149525893508385 0.5481731980637888 0.0003315430011272462 0.7712354928749816 0.22861759952989566 0.00014690759512266783 0.23775740725718233 0.7472965631506624 0.014946029592155302 0.23859246184491276 0.7570834130815417 0.00432412507354557 0.6157563119422396 0.3841876317323647 5.605632539575766e-05 0.9719728360957643 0.02240446593001842 0.005622697974217311 0.9393326951033577 0.060490018792327044 0.00017728610431514376 0.950566627588902 0.048456428292301686 0.0009769441187964048 0.12943826179120296 0.8698993110757817 0.0006624271330153683 0.25021378484693 0.7489310757653498 0.0008551393877201984 0.4789793646716328 0.5205925164825755 0.0004281188457915918 0.07822718987884637 0.9086791036774956 0.013093706443658199 0.08874432555123216 0.9062297341115434 0.005025940337224383 0.44170489296636084 0.5578172782874617 0.00047782874617737 0.8811340150408482 0.10544824974300705 0.013417735216144562 0.996279761904762 0.0018601190476190477 0.0018601190476190477 0.9612403100775193 0.01937984496124031 0.01937984496124031 0.9978411053540588 0.001079447322970639 0.001079447322970639 0.9989727786337956 0.0005136106831022085 0.0005136106831022085 0.9998163351516153 9.183242419233382e-05 9.183242419233382e-05 0.33333333333333337 0.33333333333333337 0.33333333333333337 0.9612403100775193 0.01937984496124031 0.01937984496124031 0.9612403100775193 0.01937984496124031 0.01937984496124031 0.8359394390667658 0.16388327482891887 0.00017728610431514376 0.6346726190476191 0.3634672619047619 0.0018601190476190477 0.49746707193515705 0.49746707193515705 0.005065856129685918 0.09859819382666127 0.6390349103652784 0.2623668958080604 0.4184824159021407 0.581039755351682 0.00047782874617737 0.810982625704752 0.18887354734783107 0.000143826947416868 0.17768678791237266 0.4513670286592421 0.37094618342838526 0.21282640713319007 0.7000935435076825 0.08708004935912747 0.6558719734284474 0.3440336673649248 9.435920662779067e-05 0.05087179487179488 0.10071794871794872 0.8484102564102565 0.00998003992015968 0.00998003992015968 0.9800399201596807 0.009980039920159684 0.9800399201596808 0.009980039920159684 0.08761598857958601 0.7814061384725196 0.13097787294789437 0.6346726190476191 0.3634672619047619 0.0018601190476190477 0.7180079579001412 0.2813502759594404 0.0006417661404184315 0.0674618309582423 0.5027796077343596 0.429758561307398 0.08853816879337362 0.7345254085516005 0.1769364226550257 0.3529056421408723 0.6464902742539568 0.0006040836051709557 0.0025523226135783566 0.12659520163348648 0.8708524757529352 0.01937984496124031 0.9612403100775193 0.01937984496124031 0.01937984496124031 0.9612403100775193 0.01937984496124031 0.997948717948718 0.0010256410256410256 0.0010256410256410256 0.9989464812473662 0.0005267593763168984 0.0005267593763168984 0.9997823342475294 0.00010883287623525313 0.00010883287623525313 0.20162601626016263 0.0040650406504065045 0.7943089430894309 0.9612403100775193 0.01937984496124031 0.01937984496124031 0.33333333333333337 0.33333333333333337 0.33333333333333337 0.01937984496124031 0.9612403100775193 0.01937984496124031 0.01937984496124031 0.9612403100775193 0.01937984496124031 0.33333333333333337 0.33333333333333337 0.33333333333333337 0.9977215766689451 0.001139211665527455 0.001139211665527455 0.9988262910798122 0.0005868544600938967 0.0005868544600938967 0.9997521869501648 0.00012390652491760216 0.00012390652491760216 0.0018601190476190477 0.0018601190476190477 0.996279761904762 0.00998003992015968 0.00998003992015968 0.9800399201596807 0.33333333333333337 0.33333333333333337 0.33333333333333337 0.33333333333333337 0.33333333333333337 0.33333333333333337 0.33333333333333337 0.33333333333333337 0.33333333333333337 0.33333333333333337 0.33333333333333337 0.33333333333333337 0.9865591397849464 0.006720430107526883 0.006720430107526883 0.9898682877406283 0.005065856129685918 0.005065856129685918 0.9988896291361314 0.0005551854319342661 0.0005551854319342661 0.00998003992015968 0.00998003992015968 0.9800399201596807 0.33333333333333337 0.33333333333333337 0.33333333333333337 0.33333333333333337 0.33333333333333337 0.33333333333333337 0.33333333333333337 0.33333333333333337 0.33333333333333337 0.33333333333333337 0.33333333333333337 0.33333333333333337 0.33333333333333337 0.33333333333333337 0.33333333333333337 0.9987918327896581 0.0006040836051709557 0.0006040836051709557 0.9994985206358756 0.00025073968206208307 0.00025073968206208307 0.9998810840379105 5.9457981044795656e-05 5.9457981044795656e-05 0.33333333333333337 0.33333333333333337 0.33333333333333337 0.33333333333333337 0.33333333333333337 0.33333333333333337 0.33333333333333337 0.33333333333333337 0.33333333333333337 0.33333333333333337 0.33333333333333337 0.33333333333333337 0.33333333333333337 0.33333333333333337 0.33333333333333337 0.33333333333333337 0.33333333333333337 0.33333333333333337 </TABLE>
    </DEFINITION>
    <DEFINITION>
      <FOR>Plcg</FOR>
      <GIVEN>PIP2</GIVEN>
      <TABLE>0.9174289018556485 0.06476370709141566 0.01780739105293592 0.37052746057640024 0.25209352909189775 0.377379010331702 0.03888188314417823 0.03131567885666247 0.9298024379991594 </TABLE>
    </DEFINITION>
    <DEFINITION>
      <FOR>Raf</FOR>
      <GIVEN>Akt</GIVEN>
      <GIVEN>Jnk</GIVEN>
      <GIVEN>PKA</GIVEN>
      <TABLE>0.2745631537577846 0.2059979442529778 0.5194389019892376 0.5306466775518281 0.3615209539359755 0.10783236851219632 0.8504304268274392 0.12519871621824288 0.02437085695431776 0.34534935469514905 0.19600737491258183 0.458643270392269 0.6157205745391018 0.3045948087858436 0.07968461667505451 0.9147940074906368 0.0805243445692884 0.0046816479400749065 0.16016034535923526 0.2051187172371261 0.6347209374036387 0.8101545253863135 0.18432671081677707 0.005518763796909493 0.3333333333333333 0.3333333333333333 0.3333333333333333 0.20399976049338361 0.2379498233638704 0.558050416142746 0.5195255546360878 0.36950782204358273 0.11096662332032942 0.8343033378102771 0.14127244689847288 0.024424215291250065 0.1840669076476008 0.17832589127507265 0.6376072010773266 0.6155544593991498 0.30733093744861767 0.07711460315223263 0.7358892438764644 0.13205537806176784 0.13205537806176784 0.11539454991605322 0.14154720392612682 0.74305824615782 0.9705014749262536 0.014749262536873153 0.014749262536873153 0.3333333333333333 0.3333333333333333 0.3333333333333333 0.030283778060144012 0.15036001694197376 0.8193562049978823 0.6599462365591399 0.006720430107526882 0.3333333333333333 0.3333333333333333 0.3333333333333333 0.3333333333333333 0.026201431492842542 0.12455265848670757 0.8492459100204499 0.5652920962199313 0.28694158075601367 0.14776632302405499 0.3333333333333333 0.3333333333333333 0.3333333333333333 0.0031770660164764123 0.15877941556762348 0.8380435184159002 0.3333333333333333 0.3333333333333333 0.3333333333333333 0.3333333333333333 0.3333333333333333 0.3333333333333333 </TABLE>
    </DEFINITION>
  </NETWORK>
</BIF>
