<?xml version='1.0' encoding='utf-8'?>
<BIF VERSION="0.3">
  <NETWORK>
    <NAME>UNTITLED</NAME>
    <VARIABLE TYPE="nature">
      <NAME>Akt</NAME>
      <OUTCOME>0</OUTCOME>
      <OUTCOME>1</OUTCOME>
      <OUTCOME>2</OUTCOME>
      <PROPERTY>weight = None</PROPERTY>
    </VARIABLE>
    <VARIABLE TYPE="nature">
      <NAME>Erk</NAME>
      <OUTCOME>0</OUTCOME>
      <OUTCOME>1</OUTCOME>
      <OUTCOME>2</OUTCOME>
      <PROPERTY>weight = None</PROPERTY>
    </VARIABLE>
    <VARIABLE TYPE="nature">
      <NAME>Jnk</NAME>
      <OUTCOME>0</OUTCOME>
      <OUTCOME>1</OUTCOME>
      <OUTCOME>2</OUTCOME>
      <PROPERTY>weight = None</PROPERTY>
    </VARIABLE>
    <VARIABLE TYPE="nature">
      <NAME>Mek</NAME>
      <OUTCOME>0</OUTCOME>
      <OUTCOME>1</OUTCOME>
      <OUTCOME>2</OUTCOME>
      <PROPERTY>weight = None</PROPERTY>
    </VARIABLE>
    <VARIABLE TYPE="nature">
      <NAME>P38</NAME>
      <OUTCOME>0</OUTCOME>
      <OUTCOME>1</OUTCOME>
      <OUTCOME>2</OUTCOME>
      <PROPERTY>weight = None</PROPERTY>
    </VARIABLE>
    <VARIABLE TYPE="nature">
      <NAME>PIP2</NAME>
      <OUTCOME>0</OUTCOME>
      <OUTCOME>1</OUTCOME>
      <OUTCOME>2</OUTCOME>
      <PROPERTY>weight = None</PROPERTY>
    </VARIABLE>
    <VARIABLE TYPE="nature">
      <NAME>PIP3</NAME>
      <OUTCOME>0</OUTCOME>
      <OUTCOME>1</OUTCOME>
      <OUTCOME>2</OUTCOME>
      <PROPERTY>weight = None</PROPERTY>
    </VARIABLE>
    <VARIABLE TYPE="nature">
      <NAME>PKA</NAME>
      <OUTCOME>0</OUTCOME>
      <OUTCOME>1</OUTCOME>
      <OUTCOME>2</OUTCOME>
      <PROPERTY>weight = None</PROPERTY>
    </VARIABLE>
    <VARIABLE TYPE="nature">
      <NAME>PKC</NAME>
      <OUTCOME>0</OUTCOME>
      <OUTCOME>1</OUTCOME>
      <OUTCOME>2</OUTCOME>
      <PROPERTY>weight = None</PROPERTY>
    </VARIABLE>
    <VARIABLE TYPE="nature">
      <NAME>Plcg</NAME>
      <OUTCOME>0</OUTCOME>
      <OUTCOME>1</OUTCOME>
      <OUTCOME>2</OUTCOME>
      <PROPERTY>weight = None</PROPERTY>
    </VARIABLE>
    <VARIABLE TYPE="nature">
      <NAME>Raf</NAME>
      <OUTCOME>0</OUTCOME>
      <OUTCOME>1</OUTCOME>
      <OUTCOME>2</OUTCOME>
      <PROPERTY>weight = None</PROPERTY>
    </VARIABLE>
    <DEFINITION>
      <FOR>Akt</FOR>
      <GIVEN>Erk</GIVEN>
      <GIVEN>Mek</GIVEN>
      <TABLE>0.6710949695753289 0.3287457389531364 0.00015929147153461402 0.6832803110639801 0.315835984446801 0.0008837044892188051 0.6060606060606061 0.3722943722943723 0.021645021645021644 0.8350969747160282 0.1645758570274719 0.0003271682564999131 0.7904427361740399 0.20947241595818694 8.484786777308285e-05 0.4068988066045447 0.5922837992479973 0.0008173941474579041 0.16722280152937086 0.8194647201946471 0.013312478275981924 0.18114532685035115 0.7675310642895732 0.05132360886007562 0.002596602411759528 0.1344952028870698 0.8629081947011706 </TABLE>
    </DEFINITION>
    <DEFINITION>
      <FOR>Erk</FOR>
      <GIVEN>Mek</GIVEN>
      <GIVEN>P38</GIVEN>
      <GIVEN>PKC</GIVEN>
      <GIVEN>Raf</GIVEN>
      <TABLE>0.10689390910302547 0.6922897507663601 0.20081634013061445 0.18877127014618325 0.579419898911459 0.2318088309423577 0.27964947163003057 0.5637265731433411 0.15662395522662836 0.14381159633708027 0.6706290121133782 0.1855593915495416 0.1265517379465001 0.6568857119974372 0.21656255005606284 0.44653409998402815 0.4174253314167066 0.1360405685992653 0.1329819613644945 0.649776154480378 0.21724188415512768 0.002270663033605813 0.8851044504995459 0.11262488646684833 0.33333333333333337 0.33333333333333337 0.33333333333333337 0.17126130131910475 0.6124573884689491 0.21628131021194602 0.25021378484693 0.5826919787925432 0.16709423636052675 0.4526911741895455 0.41499922444547854 0.13230960136497597 0.17587852869392426 0.6324974621482105 0.19162400915786518 0.16896293922887964 0.7010039517248746 0.13003310904624588 0.5431966407576164 0.34780666487983564 0.10899669436254802 0.07530772561390485 0.706593678480856 0.21809859590523903 0.01937984496124031 0.9612403100775193 0.01937984496124031 0.33333333333333337 0.33333333333333337 0.33333333333333337 0.3806263269639065 0.516056263269639 0.10331740976645434 0.7628090677920251 0.22377319699183032 0.013417735216144564 0.8316319664724994 0.1589288117346252 0.009439221792875404 0.1584628670120898 0.7355354058721935 0.10600172711571675 0.0040650406504065045 0.3991869918699187 0.5967479674796748 0.33333333333333337 0.33333333333333337 0.33333333333333337 0.005065856129685918 0.7436676798378926 0.25126646403242153 0.33333333333333337 0.33333333333333337 0.33333333333333337 0.33333333333333337 0.33333333333333337 0.33333333333333337 0.05152797367183826 0.7141513869299483 0.2343206393982134 0.060662732385781175 0.7271908680353532 0.21214639957886572 0.027537197423939598 0.8100155451920942 0.16244725738396623 0.08408999192897498 0.6724677158999194 0.24344229217110577 0.0661980868812583 0.7216464461058633 0.2121554670128785 0.05453884038504588 0.7209256771882695 0.22453548242668453 0.03744973447524326 0.723700770482242 0.23884949504251463 0.08354748443835304 0.569242190623037 0.34721032493861004 0.33333333333333337 0.33333333333333337 0.33333333333333337 0.0015752993068683051 0.8437303087586642 0.15469439193446755 0.0775303963366493 0.5763461234801832 0.3461234801831675 0.00998003992015968 0.00998003992015968 0.9800399201596807 0.045936950514945986 0.7707862346144184 0.1832768148706355 0.06786604605756323 0.7414186845178947 0.19071526942454192 0.06721423682409308 0.5994524298425736 0.3333333333333333 0.027537197423939598 0.7560515212080835 0.2164112813679769 0.0007895152376440866 0.8065687667771988 0.1926417179851571 0.33333333333333337 0.33333333333333337 0.33333333333333337 0.4370996669228798 0.4370996669228798 0.12580066615424032 0.35287023637240716 0.5873130728412929 0.05981669078630005 0.3333333333333333 0.3333333333333333 0.3333333333333333 0.01937984496124031 0.01937984496124031 0.9612403100775193 0.33333333333333337 0.33333333333333337 0.33333333333333337 0.00998003992015968 0.00998003992015968 0.9800399201596807 0.33333333333333337 0.33333333333333337 0.33333333333333337 0.33333333333333337 0.33333333333333337 0.33333333333333337 0.33333333333333337 0.33333333333333337 0.33333333333333337 0.33333333333333337 0.33333333333333337 0.33333333333333337 0.0004669842159335015 0.1593350144765107 0.8401980013075558 0.010237099023709902 0.2000278940027894 0.7897350069735007 0.33333333333333337 0.33333333333333337 0.33333333333333337 0.002044989775051125 0.5983640081799592 0.39959100204498976 0.0007332453438920663 0.7490834433201349 0.250183311335973 0.33333333333333337 0.33333333333333337 0.33333333333333337 0.33333333333333337 0.33333333333333337 0.33333333333333337 0.33333333333333337 0.33333333333333337 0.33333333333333337 0.33333333333333337 0.33333333333333337 0.33333333333333337 0.002270663033605813 0.3333333333333333 0.6643960036330608 0.016992120589242894 0.13353888317917095 0.8494689962315861 0.33333333333333337 0.33333333333333337 0.33333333333333337 0.009980039920159684 0.9800399201596808 0.009980039920159684 0.0040650406504065045 0.5967479674796748 0.3991869918699187 0.33333333333333337 0.33333333333333337 0.33333333333333337 0.33333333333333337 0.33333333333333337 0.33333333333333337 0.33333333333333337 0.33333333333333337 0.33333333333333337 0.33333333333333337 0.33333333333333337 0.33333333333333337 0.013243618498344547 0.14300971910712376 0.8437466623945317 0.005541713854284636 0.19451113627784072 0.7999471498678747 0.33333333333333337 0.33333333333333337 0.33333333333333337 0.33333333333333337 0.33333333333333337 0.33333333333333337 0.33333333333333337 0.33333333333333337 0.33333333333333337 0.33333333333333337 0.33333333333333337 0.33333333333333337 0.33333333333333337 0.33333333333333337 0.33333333333333337 0.33333333333333337 0.33333333333333337 0.33333333333333337 </TABLE>
    </DEFINITION>
    <DEFINITION>
      <FOR>Jnk</FOR>
      <GIVEN>Erk</GIVEN>
      <GIVEN>Mek</GIVEN>
      <GIVEN>P38</GIVEN>
      <GIVEN>PKC</GIVEN>
      <TABLE>0.5222558538726627 0.2961856467104315 0.1815584994169058 0.6031217345872518 0.39681295715778475 6.530825496342738e-05 0.02843409775306925 0.9572040769052581 0.014361825341672454 0.48959906056030866 0.2653917127998658 0.24500922663982552 0.6283979631805718 0.3714061887974931 0.00019584802193497842 0.002044989775051125 0.9959100204498977 0.002044989775051125 0.30847977684797767 0.24747559274755926 0.444044630404463 0.9865591397849464 0.006720430107526883 0.006720430107526883 0.33333333333333337 0.33333333333333337 0.33333333333333337 0.5352691010412084 0.3570904824754363 0.10764041648335533 0.6432625470314393 0.35657802436069125 0.00015942860786939605 0.0018601190476190477 0.9058779761904763 0.09226190476190477 0.4950099800399202 0.4950099800399202 0.00998003992015968 0.6658115272789464 0.3333333333333333 0.0008551393877201984 0.01937984496124031 0.9612403100775193 0.01937984496124031 0.35703833772314897 0.28592332455370206 0.35703833772314897 0.33333333333333337 0.33333333333333337 0.33333333333333337 0.33333333333333337 0.33333333333333337 0.33333333333333337 0.3333333333333333 0.3333333333333333 0.3333333333333333 0.33333333333333337 0.33333333333333337 0.33333333333333337 0.33333333333333337 0.33333333333333337 0.33333333333333337 0.01937984496124031 0.01937984496124031 0.9612403100775193 0.33333333333333337 0.33333333333333337 0.33333333333333337 0.33333333333333337 0.33333333333333337 0.33333333333333337 0.25126646403242153 0.25126646403242153 0.49746707193515705 0.33333333333333337 0.33333333333333337 0.33333333333333337 0.33333333333333337 0.33333333333333337 0.33333333333333337 0.7706497700142196 0.21997425699988124 0.009375972985899128 0.6301748501506258 0.36980962141681417 1.552843256001739e-05 0.03385489105238758 0.9520050996754753 0.01414000927213723 0.7497528374263455 0.24043975165104595 0.009807410922608454 0.6558845319362863 0.3440493199978833 6.614806583055512e-05 0.02125541125541125 0.9785281385281384 0.0002164502164502164 0.7326362722933936 0.10697689022858577 0.16038683747802057 0.9351780681527031 0.06354086600051242 0.0012810658467845247 0.006720430107526883 0.9865591397849464 0.006720430107526883 0.5659990240440068 0.4177757075680951 0.016225268387898145 0.5987430922873609 0.40124090837821147 1.599933442768781e-05 0.050850994068377585 0.9345136963843929 0.014635309547229422 0.499605242381178 0.499605242381178 0.0007895152376440866 0.5917824705767105 0.4081475572722057 6.997215108386863e-05 0.04118436503942291 0.9176312699211542 0.04118436503942291 0.27796764638869903 0.16723627249943038 0.5547960811118706 0.33333333333333337 0.33333333333333337 0.33333333333333337 0.33333333333333337 0.33333333333333337 0.33333333333333337 0.3484706908366038 0.37874540584314464 0.2727839033202517 0.5180961070559611 0.4811435523114355 0.0007603406326034064 0.33333333333333337 0.33333333333333337 0.33333333333333337 0.18266369047619047 0.09226190476190477 0.7250744047619048 0.3991869918699187 0.5967479674796748 0.0040650406504065045 0.33333333333333337 0.33333333333333337 0.33333333333333337 0.2649933206777754 0.21373831118610703 0.5212683681361175 0.33333333333333337 0.33333333333333337 0.33333333333333337 0.33333333333333337 0.33333333333333337 0.33333333333333337 0.8220871907443346 0.17785978642403424 5.302283163130045e-05 0.6370267715181986 0.3629195135576469 5.3714924154527096e-05 0.08560078745693593 0.8885959361597412 0.02580327638332278 0.7991784037558686 0.20023474178403755 0.0005868544600938967 0.6702182344969391 0.32954810972475346 0.00023365577830739752 0.03511753044463325 0.9641744548286605 0.0007080147267063155 0.8404576856649396 0.0535405872193437 0.10600172711571675 0.7943089430894309 0.20162601626016263 0.0040650406504065045 0.01937984496124031 0.9612403100775193 0.01937984496124031 0.6361936810618807 0.3545335576743316 0.009272761263787623 0.6526608089345617 0.3472885186423845 5.06724230539256e-05 0.052935237271022645 0.9291792874657435 0.01788547526323381 0.5374921235034656 0.460932577189666 0.0015752993068683051 0.544139079741828 0.4556006662502602 0.0002602540079117218 0.07813484562066793 0.9202898550724637 0.0015752993068683051 0.005065856129685918 0.25126646403242153 0.7436676798378926 0.9865591397849464 0.006720430107526883 0.006720430107526883 0.33333333333333337 0.33333333333333337 0.33333333333333337 0.2888990476190476 0.2629790476190476 0.4481219047619047 0.7250744047619048 0.27306547619047616 0.0018601190476190477 0.33333333333333337 0.33333333333333337 0.33333333333333337 0.35085821433722775 0.26323380931775564 0.3859079763450166 0.4950099800399202 0.4950099800399202 0.00998003992015968 0.33333333333333337 0.33333333333333337 0.33333333333333337 0.29142232953892144 0.25549861200085416 0.45307905846022434 0.33333333333333337 0.33333333333333337 0.33333333333333337 0.33333333333333337 0.33333333333333337 0.33333333333333337 </TABLE>
    </DEFINITION>
    <DEFINITION>
      <FOR>Mek</FOR>
      <GIVEN>Raf</GIVEN>
      <TABLE>0.7908969556043577 0.20899539249881582 0.00010765189682642208 0.32047501081357394 0.6290747512877983 0.050450237898627646 0.4277851166886834 0.10975341259357112 0.4624614707177455 </TABLE>
    </DEFINITION>
    <DEFINITION>
      <FOR>P38</FOR>
      <GIVEN>Mek</GIVEN>
      <GIVEN>PKC</GIVEN>
      <GIVEN>Raf</GIVEN>
      <TABLE>0.8227244317247279 0.07398269679923683 0.1032928714760354 0.7510513552506369 0.05982748564938454 0.18912115909997854 0.6259745198706979 0.07429687635049871 0.2997286037788034 0.7904218721709216 0.19959390600346605 0.009984221825612375 0.8334835285871633 0.15625312906778815 0.010263342345048564 0.6908308507116849 0.30875537901357164 0.0004137702747434624 0.7956995180811536 0.19824890556597868 0.0060515763528676 0.8896969696969698 0.10424242424242426 0.0060606060606060615 0.3333333333333333 0.3333333333333333 0.3333333333333333 0.8573674345486426 0.06397001027873511 0.07866255517262229 0.8732353474868445 0.07661041553257122 0.050154236980584285 0.8785484342990928 0.048873280655545796 0.07257828504536143 0.8121071666842233 0.18638294883949572 0.001509884476280768 0.823681250806645 0.17627265519848076 4.6093994874347774e-05 0.8207248174176658 0.16776905057186167 0.011506132010472648 0.7831386124332901 0.21650079330737057 0.0003605942593393913 0.7339368791650949 0.2654344272601533 0.0006286935747516659 0.3333333333333333 0.3333333333333333 0.3333333333333333 0.3333333333333333 0.3333333333333333 0.3333333333333333 0.33845424371740157 0.06960644855381697 0.5919393077287814 0.32777892066104364 0.06672152506343001 0.6054995542755264 0.3333333333333333 0.3333333333333333 0.3333333333333333 0.8257345491388045 0.16919959473150964 0.005065856129685917 0.8456101190476191 0.15252976190476192 0.0018601190476190475 0.3333333333333333 0.3333333333333333 0.3333333333333333 0.3333333333333333 0.3333333333333333 0.3333333333333333 0.3333333333333333 0.3333333333333333 0.3333333333333333 </TABLE>
    </DEFINITION>
    <DEFINITION>
      <FOR>PIP2</FOR>
      <GIVEN>PIP3</GIVEN>
      <GIVEN>Plcg</GIVEN>
      <TABLE>0.9941724941724941 0.005723443223443223 0.00010406260406260405 0.994597514856834 0.0027012425715829272 0.0027012425715829272 0.2414965986394558 0.4710884353741497 0.2874149659863946 0.9863515479953836 0.013598273872246474 5.017813236991319e-05 0.9243659420289855 0.0745018115942029 0.001132246376811594 0.0834547514974907 0.38505747126436785 0.5314877772381416 0.8740035857123155 0.11848020962625844 0.007516204661426011 0.5566654102274154 0.41588139213469033 0.027453197637894212 0.05339939443985686 0.031103770988164046 0.9154968345719791 </TABLE>
    </DEFINITION>
    <DEFINITION>
      <FOR>PIP3</FOR>
      <TABLE>0.22825254039646842 0.4309511910711311 0.34079626853240047 </TABLE>
    </DEFINITION>
    <DEFINITION>
      <FOR>PKA</FOR>
      <GIVEN>Erk</GIVEN>
      <GIVEN>Jnk</GIVEN>
      <GIVEN>Mek</GIVEN>
      <GIVEN>PKC</GIVEN>
      <TABLE>0.44441986669026123 0.3189995870937297 0.23658054621600894 0.3745075613165587 0.5983924259753464 0.027100012708095058 0.009980039920159684 0.9800399201596808 0.009980039920159684 0.4282923016803439 0.5707307542008597 0.0009769441187964048 0.3232386174808906 0.6765536723163841 0.00020771020272515782 0.33333333333333337 0.33333333333333337 0.33333333333333337 0.9800399201596808 0.009980039920159684 0.009980039920159684 0.33333333333333337 0.33333333333333337 0.33333333333333337 0.33333333333333337 0.33333333333333337 0.33333333333333337 0.6646902004044861 0.3351948887663173 0.00011491082919654347 0.41460355682644795 0.5852710261619886 0.00012541701156344845 0.1924192102904739 0.807317201750224 0.0002635879593020191 0.3333333333333333 0.6653005464480874 0.001366120218579235 0.18535434269620157 0.8142650529040115 0.00038060439978686154 0.09226190476190477 0.9058779761904763 0.0018601190476190477 0.9800399201596808 0.009980039920159684 0.009980039920159684 0.33333333333333337 0.33333333333333337 0.33333333333333337 0.33333333333333337 0.33333333333333337 0.33333333333333337 0.999794302170112 0.00010284891494394734 0.00010284891494394734 0.33333333333333337 0.33333333333333337 0.33333333333333337 0.01937984496124031 0.9612403100775193 0.01937984496124031 0.9948953547728433 0.0025523226135783566 0.0025523226135783566 0.33333333333333337 0.33333333333333337 0.33333333333333337 0.01937984496124031 0.9612403100775193 0.01937984496124031 0.9898682877406283 0.005065856129685918 0.005065856129685918 0.33333333333333337 0.33333333333333337 0.33333333333333337 0.33333333333333337 0.33333333333333337 0.33333333333333337 0.021531193670962283 0.3631653687748113 0.6153034375542265 0.014250186423671707 0.9515766952841643 0.03417311829216396 0.001463271875914545 0.8548434299092772 0.1436932982148083 0.030783666251646545 0.9647413341994622 0.004474999548891174 0.021206850706386466 0.9787713539691466 2.1795324466995342e-05 0.002270663033605813 0.9954586739327884 0.002270663033605813 0.8744035821772004 0.12522939147030757 0.0003670263524921089 0.12580066615424032 0.8729182679989752 0.0012810658467845247 0.33333333333333337 0.33333333333333337 0.33333333333333337 0.06547207054782231 0.9313491758312186 0.0031787536209592665 0.011738882122632098 0.9815384403663413 0.006722677511026705 0.004655043279577538 0.9791708144903629 0.016174142230059637 0.04104118552732871 0.9588385296381832 0.00012028483448806773 0.036192361690702175 0.9637752890407149 3.234926858303734e-05 0.005863299997635765 0.9882734000047284 0.005863299997635765 0.9404416505480335 0.05915538362346873 0.0004029658284977434 0.06354086600051242 0.9351780681527031 0.0012810658467845247 0.33333333333333337 0.33333333333333337 0.33333333333333337 0.9987918327896581 0.0006040836051709557 0.0006040836051709557 0.33333333333333337 0.33333333333333337 0.33333333333333337 0.0040650406504065045 0.9918699186991871 0.0040650406504065045 0.997437868306431 0.0012810658467845247 0.0012810658467845247 0.33333333333333337 0.33333333333333337 0.33333333333333337 0.005065856129685918 0.9898682877406283 0.005065856129685918 0.9995273208546037 0.00023633957269805252 0.00023633957269805252 0.33333333333333337 0.33333333333333337 0.33333333333333337 0.33333333333333337 0.33333333333333337 0.33333333333333337 0.0028110264780558574 0.3774029742473703 0.6197859992745738 0.0033236839283799727 0.9640425645974056 0.03263375147421465 0.0018601190476190477 0.9058779761904763 0.09226190476190477 0.02622022855922246 0.9475595428815549 0.02622022855922246 0.048288088056305245 0.9387865798804044 0.012925332063290471 0.005065856129685918 0.49746707193515705 0.49746707193515705 0.9834420894666733 0.016473603453217998 8.43070801085875e-05 0.22297910990009082 0.7747502270663034 0.002270663033605813 0.33333333333333337 0.33333333333333337 0.33333333333333337 0.02622022855922246 0.9735127630033107 0.00026700843746662385 0.006036707073657562 0.9820115865829316 0.011951706343410737 0.0001546359868868683 0.9545988742500153 0.04524648976309766 0.043866702403287765 0.9556865898329313 0.0004467077637809345 0.05094593966438897 0.9319946079114954 0.017059452424115648 0.0003162555344718533 0.8149272612270716 0.1847564832384567 0.9998077551569678 9.612242151604283e-05 9.612242151604283e-05 0.7436676798378926 0.25126646403242153 0.005065856129685918 0.33333333333333337 0.33333333333333337 0.33333333333333337 0.9800399201596808 0.009980039920159684 0.009980039920159684 0.33333333333333337 0.33333333333333337 0.33333333333333337 0.006720430107526883 0.9865591397849464 0.006720430107526883 0.9898682877406283 0.005065856129685918 0.005065856129685918 0.33333333333333337 0.33333333333333337 0.33333333333333337 0.01937984496124031 0.9612403100775193 0.01937984496124031 0.9998887962190716 5.5601890464275794e-05 5.5601890464275794e-05 0.33333333333333337 0.33333333333333337 0.33333333333333337 0.33333333333333337 0.33333333333333337 0.33333333333333337 </TABLE>
    </DEFINITION>
    <DEFINITION>
      <FOR>PKC</FOR>
      <GIVEN>Mek</GIVEN>
      <GIVEN>Raf</GIVEN>
      <TABLE>0.36779731765303714 0.4677592058220359 0.16444347652492697 0.44413087934560325 0.5446216768916156 0.011247443762781187 0.8270286498541773 0.17275690512952477 0.0002144450162978212 0.18931355379279557 0.6519693691837505 0.15871707702345386 0.1913780889277826 0.7533858398966538 0.05523607117556361 0.19040454697425607 0.8087596121698428 0.0008358408559010364 0.3333333333333333 0.3333333333333333 0.3333333333333333 0.9132242140815796 0.08547674720706676 0.0012990387113535982 0.9642545425692295 0.03554709196223121 0.00019836546853923667 </TABLE>
    </DEFINITION>
    <DEFINITION>
      <FOR>Plcg</FOR>
      <GIVEN>PIP3</GIVEN>
      <TABLE>0.7792536369386464 0.03001994842602053 0.19072641463533302 0.8559463986599665 0.03793325602370828 0.10612034531632521 0.7876299410173688 0.17290709420927428 0.03946296477335679 </TABLE>
    </DEFINITION>
    <DEFINITION>
      <FOR>Raf</FOR>
      <TABLE>0.515808762285524 0.2824254539396968 0.20176578377477927 </TABLE>
    </DEFINITION>
  </NETWORK>
</BIF>
