<?xml version='1.0' encoding='utf-8'?>
<BIF VERSION="0.3">
  <NETWORK>
    <NAME>UNTITLED</NAME>
    <VARIABLE TYPE="nature">
      <NAME>Akt</NAME>
      <OUTCOME>1</OUTCOME>
      <OUTCOME>2</OUTCOME>
      <OUTCOME>3</OUTCOME>
      <PROPERTY>weight = None</PROPERTY>
    </VARIABLE>
    <VARIABLE TYPE="nature">
      <NAME>Erk</NAME>
      <OUTCOME>1</OUTCOME>
      <OUTCOME>2</OUTCOME>
      <OUTCOME>3</OUTCOME>
      <PROPERTY>weight = None</PROPERTY>
    </VARIABLE>
    <VARIABLE TYPE="nature">
      <NAME>Jnk</NAME>
      <OUTCOME>1</OUTCOME>
      <OUTCOME>2</OUTCOME>
      <OUTCOME>3</OUTCOME>
      <PROPERTY>weight = None</PROPERTY>
    </VARIABLE>
    <VARIABLE TYPE="nature">
      <NAME>Mek</NAME>
      <OUTCOME>1</OUTCOME>
      <OUTCOME>2</OUTCOME>
      <OUTCOME>3</OUTCOME>
      <PROPERTY>weight = None</PROPERTY>
    </VARIABLE>
    <VARIABLE TYPE="nature">
      <NAME>P38</NAME>
      <OUTCOME>1</OUTCOME>
      <OUTCOME>2</OUTCOME>
      <OUTCOME>3</OUTCOME>
      <PROPERTY>weight = None</PROPERTY>
    </VARIABLE>
    <VARIABLE TYPE="nature">
      <NAME>PIP2</NAME>
      <OUTCOME>1</OUTCOME>
      <OUTCOME>2</OUTCOME>
      <OUTCOME>3</OUTCOME>
      <PROPERTY>weight = None</PROPERTY>
    </VARIABLE>
    <VARIABLE TYPE="nature">
      <NAME>PIP3</NAME>
      <OUTCOME>1</OUTCOME>
      <OUTCOME>2</OUTCOME>
      <OUTCOME>3</OUTCOME>
      <PROPERTY>weight = None</PROPERTY>
    </VARIABLE>
    <VARIABLE TYPE="nature">
      <NAME>PKA</NAME>
      <OUTCOME>1</OUTCOME>
      <OUTCOME>2</OUTCOME>
      <OUTCOME>3</OUTCOME>
      <PROPERTY>weight = None</PROPERTY>
    </VARIABLE>
    <VARIABLE TYPE="nature">
      <NAME>PKC</NAME>
      <OUTCOME>1</OUTCOME>
      <OUTCOME>2</OUTCOME>
      <OUTCOME>3</OUTCOME>
      <PROPERTY>weight = None</PROPERTY>
    </VARIABLE>
    <VARIABLE TYPE="nature">
      <NAME>Plcg</NAME>
      <OUTCOME>1</OUTCOME>
      <OUTCOME>2</OUTCOME>
      <OUTCOME>3</OUTCOME>
      <PROPERTY>weight = None</PROPERTY>
    </VARIABLE>
    <VARIABLE TYPE="nature">
      <NAME>Raf</NAME>
      <OUTCOME>1</OUTCOME>
      <OUTCOME>2</OUTCOME>
      <OUTCOME>3</OUTCOME>
      <PROPERTY>weight = None</PROPERTY>
    </VARIABLE>
    <DEFINITION>
      <FOR>Akt</FOR>
      <GIVEN>Mek</GIVEN>
      <TABLE>0.6808720753570343 0.3164691583105439 0.0026587663324217563 0.6474240947326618 0.34102314162966174 0.01155276363767645 0.09246646026831787 0.23271413828689372 0.6748194014447886 </TABLE>
    </DEFINITION>
    <DEFINITION>
      <FOR>Erk</FOR>
      <GIVEN>Akt</GIVEN>
      <GIVEN>Mek</GIVEN>
      <TABLE>0.19585146342370485 0.7594183495109524 0.04473018706534271 0.07186007174854551 0.86581534972769 0.062324578523764385 0.05208333333333332 0.9259672619047619 0.021949404761904757 0.20641302608417345 0.32199151864298287 0.47159545527284363 0.06306020184910721 0.435598842543581 0.5013409556073117 0.012712490761271247 0.535550628233555 0.4517368810051737 0.011904761904761904 0.07619047619047618 0.9119047619047619 0.005208333333333333 0.005208333333333333 0.9895833333333333 0.000254880970586736 0.000254880970586736 0.9994902380588266 </TABLE>
    </DEFINITION>
    <DEFINITION>
      <FOR>Jnk</FOR>
      <GIVEN>PKA</GIVEN>
      <GIVEN>PKC</GIVEN>
      <TABLE>0.2861759342612469 0.2618701382637398 0.4519539274750133 0.6008215537030326 0.3985743626917966 0.0006040836051709556 0.009469696969696966 0.9810606060606059 0.009469696969696966 0.5953393706549579 0.4045462861324552 0.00011434321258690083 0.6204365575272849 0.3795217862201116 4.1656252603515784e-05 0.03907053259304955 0.9440674480773185 0.01686201932963191 0.9986439435587319 0.0011728055708264613 0.00018325087044163458 0.8592097941012798 0.13800779076238173 0.0027824151363383415 0.16431924882629106 0.8298122065727699 0.005868544600938966 </TABLE>
    </DEFINITION>
    <DEFINITION>
      <FOR>Mek</FOR>
      <TABLE>0.5847742795269032 0.3076128602365484 0.1076128602365484 </TABLE>
    </DEFINITION>
    <DEFINITION>
      <FOR>P38</FOR>
      <GIVEN>PKA</GIVEN>
      <GIVEN>PKC</GIVEN>
      <TABLE>0.31297463241234447 0.06804699582208065 0.6189783717655748 0.6693246345294189 0.3300712818654102 0.0006040836051709556 0.827651515151515 0.16287878787878785 0.009469696969696966 0.92938163190633 0.068034211489206 0.0025841566044639587 0.8208614513038407 0.17909689244355578 4.1656252603515784e-05 0.7886078552333949 0.20674480773185275 0.00464733703475221 0.8165658786879237 0.07835807220084295 0.10507604911123328 0.4234835837506956 0.16805787423483584 0.4084585420144686 0.7347417840375586 0.2593896713615023 0.005868544600938966 </TABLE>
    </DEFINITION>
    <DEFINITION>
      <FOR>PIP2</FOR>
      <TABLE>0.8450441445943696 0.10211560886223556 0.052840246543394975 </TABLE>
    </DEFINITION>
    <DEFINITION>
      <FOR>PIP3</FOR>
      <GIVEN>PIP2</GIVEN>
      <TABLE>0.2297613415339326 0.4529516900594017 0.3172869684066656 0.210984230560087 0.23349646547036432 0.5555193039695486 0.23749474569146703 0.46069777217318203 0.30180748213535097 </TABLE>
    </DEFINITION>
    <DEFINITION>
      <FOR>PKA</FOR>
      <GIVEN>Akt</GIVEN>
      <GIVEN>Erk</GIVEN>
      <GIVEN>Mek</GIVEN>
      <TABLE>0.5499485718806867 0.3576865258327399 0.0923649022865733 0.3426452836695982 0.6569236075185377 0.0004311088118641145 0.976190476190476 0.011904761904761902 0.011904761904761902 0.012251061051256935 0.7467515507672217 0.24099738818152136 0.012788034921997997 0.9860168885072278 0.0011950765707742952 0.6081424936386768 0.39118789339761617 0.0006696129637069773 0.0003464283239797686 0.8197187002009285 0.17993487147509182 0.0004970673029128143 0.9909533750869867 0.008549557610100407 0.028248587570621472 0.9435028248587572 0.028248587570621472 0.5077688406499338 0.48945311238169076 0.002778046968375489 0.242678604737922 0.7563887334452527 0.000932661816825219 0.9612403100775195 0.019379844961240313 0.019379844961240313 0.11248472800314759 0.8270278105651155 0.06048746143173676 0.11387448693022252 0.8859904947072802 0.00013501836249729963 0.9767227895850585 0.022817186493697676 0.0004600239212439047 7.069336047958375e-05 0.7570693360479585 0.24285997059156203 0.007719199455667394 0.9503531123155251 0.041927688228807394 0.919393542757417 0.0800610820244328 0.0005453752181500871 0.3333333333333333 0.3333333333333333 0.3333333333333333 0.3333333333333333 0.3333333333333333 0.3333333333333333 0.3333333333333333 0.3333333333333333 0.3333333333333333 0.05208333333333332 0.8958333333333333 0.05208333333333332 0.3333333333333333 0.3333333333333333 0.3333333333333333 0.3333333333333333 0.3333333333333333 0.3333333333333333 0.4978241949521323 0.4978241949521323 0.004351610095735422 0.7975438596491228 0.20070175438596494 0.0017543859649122807 0.9984529334761394 0.0014620628687033541 8.500365515717173e-05 </TABLE>
    </DEFINITION>
    <DEFINITION>
      <FOR>PKC</FOR>
      <GIVEN>Mek</GIVEN>
      <GIVEN>PKA</GIVEN>
      <TABLE>0.7190541017496092 0.25755054706801794 0.023395351182372813 0.2682955943657833 0.5710061888233889 0.1606982168108277 0.9303773649457729 0.05467173013103424 0.01495090492319272 0.3508203799654576 0.6364421416234888 0.012737478411053538 0.18162648666023787 0.7308261009321761 0.08754741240758598 0.12463768115942028 0.2811594202898551 0.5942028985507246 0.9918302425622673 0.007989010591765173 0.00018074684596753785 0.27514367816091956 0.721264367816092 0.003591954022988506 0.3333333333333333 0.3333333333333333 0.3333333333333333 </TABLE>
    </DEFINITION>
    <DEFINITION>
      <FOR>Plcg</FOR>
      <GIVEN>PIP2</GIVEN>
      <GIVEN>PIP3</GIVEN>
      <TABLE>0.9107513965947873 0.03510076455223169 0.05414783885298099 0.9505503007795122 0.03947851989400182 0.009971179326486005 0.8749810158914247 0.12234049897140646 0.0026784851371688136 0.04725085910652921 0.0008591065292096219 0.9518900343642611 0.21037106039434872 0.05107902499611862 0.7385499146095328 0.5606238580005221 0.4320020882276168 0.0073740537718611325 0.0014749262536873156 0.0014749262536873156 0.9970501474926254 0.0007603406326034063 0.0007603406326034063 0.9984793187347931 0.1265088207985144 0.10143918291550603 0.7720519962859795 </TABLE>
    </DEFINITION>
    <DEFINITION>
      <FOR>Raf</FOR>
      <GIVEN>Mek</GIVEN>
      <GIVEN>PKA</GIVEN>
      <GIVEN>PKC</GIVEN>
      <TABLE>0.16483182572517122 0.1951242315873127 0.640043942687516 0.502479770294962 0.12190028713129729 0.3756199425737405 0.9928160919540231 0.003591954022988506 0.003591954022988506 0.5147563799810626 0.15899471804875823 0.3262489019701792 0.7676593874291104 0.19844766774943984 0.03389294482144963 0.984381844846961 0.015522922499666681 9.523265337218823e-05 0.8509475129317741 0.12615527935083717 0.022897207717388637 0.7782644972882771 0.22069253233208178 0.0010429703796412183 0.992372234935164 0.003813882532418002 0.003813882532418002 0.433025641025641 0.516102564102564 0.05087179487179487 0.3394391677973767 0.5317729534147444 0.12878787878787878 0.9435028248587572 0.028248587570621472 0.028248587570621472 0.3346075794044079 0.5907310396904053 0.07466138090518665 0.3159160215810462 0.6085268590194698 0.07555711939948392 0.6188378126988789 0.380917413227591 0.0002447740735301317 0.9612403100775195 0.019379844961240313 0.019379844961240313 0.14776632302405499 0.008591065292096219 0.8436426116838488 0.8601626016260163 0.13577235772357724 0.0040650406504065045 6.074522238825916e-05 0.12306982055861307 0.8768694342189987 0.007541478129713423 0.007541478129713423 0.9849170437405731 0.3333333333333333 0.3333333333333333 0.3333333333333333 0.004351610095735422 0.35683202785030466 0.63881636205396 0.0016600265604249668 0.3243691899070385 0.6739707835325366 0.3333333333333333 0.3333333333333333 0.3333333333333333 0.3333333333333333 0.3333333333333333 0.3333333333333333 0.3333333333333333 0.3333333333333333 0.3333333333333333 0.3333333333333333 0.3333333333333333 0.3333333333333333 </TABLE>
    </DEFINITION>
  </NETWORK>
</BIF>
