<?xml version='1.0' encoding='utf-8'?>
<BIF VERSION="0.3">
  <NETWORK>
    <NAME>UNTITLED</NAME>
    <VARIABLE TYPE="nature">
      <NAME>Akt</NAME>
      <OUTCOME>0</OUTCOME>
      <OUTCOME>1</OUTCOME>
      <OUTCOME>2</OUTCOME>
      <PROPERTY>weight = None</PROPERTY>
    </VARIABLE>
    <VARIABLE TYPE="nature">
      <NAME>Erk</NAME>
      <OUTCOME>0</OUTCOME>
      <OUTCOME>1</OUTCOME>
      <OUTCOME>2</OUTCOME>
      <PROPERTY>weight = None</PROPERTY>
    </VARIABLE>
    <VARIABLE TYPE="nature">
      <NAME>Jnk</NAME>
      <OUTCOME>0</OUTCOME>
      <OUTCOME>1</OUTCOME>
      <OUTCOME>2</OUTCOME>
      <PROPERTY>weight = None</PROPERTY>
    </VARIABLE>
    <VARIABLE TYPE="nature">
      <NAME>Mek</NAME>
      <OUTCOME>0</OUTCOME>
      <OUTCOME>1</OUTCOME>
      <OUTCOME>2</OUTCOME>
      <PROPERTY>weight = None</PROPERTY>
    </VARIABLE>
    <VARIABLE TYPE="nature">
      <NAME>P38</NAME>
      <OUTCOME>0</OUTCOME>
      <OUTCOME>1</OUTCOME>
      <OUTCOME>2</OUTCOME>
      <PROPERTY>weight = None</PROPERTY>
    </VARIABLE>
    <VARIABLE TYPE="nature">
      <NAME>PIP2</NAME>
      <OUTCOME>0</OUTCOME>
      <OUTCOME>1</OUTCOME>
      <OUTCOME>2</OUTCOME>
      <PROPERTY>weight = None</PROPERTY>
    </VARIABLE>
    <VARIABLE TYPE="nature">
      <NAME>PIP3</NAME>
      <OUTCOME>0</OUTCOME>
      <OUTCOME>1</OUTCOME>
      <OUTCOME>2</OUTCOME>
      <PROPERTY>weight = None</PROPERTY>
    </VARIABLE>
    <VARIABLE TYPE="nature">
      <NAME>PKA</NAME>
      <OUTCOME>0</OUTCOME>
      <OUTCOME>1</OUTCOME>
      <OUTCOME>2</OUTCOME>
      <PROPERTY>weight = None</PROPERTY>
    </VARIABLE>
    <VARIABLE TYPE="nature">
      <NAME>PKC</NAME>
      <OUTCOME>0</OUTCOME>
      <OUTCOME>1</OUTCOME>
      <OUTCOME>2</OUTCOME>
      <PROPERTY>weight = None</PROPERTY>
    </VARIABLE>
    <VARIABLE TYPE="nature">
      <NAME>Plcg</NAME>
      <OUTCOME>0</OUTCOME>
      <OUTCOME>1</OUTCOME>
      <OUTCOME>2</OUTCOME>
      <PROPERTY>weight = None</PROPERTY>
    </VARIABLE>
    <VARIABLE TYPE="nature">
      <NAME>Raf</NAME>
      <OUTCOME>0</OUTCOME>
      <OUTCOME>1</OUTCOME>
      <OUTCOME>2</OUTCOME>
      <PROPERTY>weight = None</PROPERTY>
    </VARIABLE>
    <DEFINITION>
      <FOR>Akt</FOR>
      <GIVEN>Mek</GIVEN>
      <TABLE>0.6808720753570343 0.3164691583105439 0.0026587663324217563 0.6474240947326618 0.34102314162966174 0.01155276363767645 0.09246646026831787 0.23271413828689372 0.6748194014447886 </TABLE>
    </DEFINITION>
    <DEFINITION>
      <FOR>Erk</FOR>
      <GIVEN>Akt</GIVEN>
      <GIVEN>Mek</GIVEN>
      <GIVEN>PKA</GIVEN>
      <TABLE>0.920367575011255 0.07950001324117476 0.00013241174757024443 0.10396515483927346 0.8416191777167588 0.05441566744396763 0.08648944997629207 0.8750296348980559 0.03848091512565196 0.6892126257370794 0.30992022199098157 0.0008671522719389524 0.04903683394154713 0.8868078752421592 0.0641552908162937 0.01937984496124031 0.6472868217054263 0.33333333333333337 0.08272800645682002 0.9162631154156579 0.0010088781275221952 0.0016165535079211122 0.9443905593275138 0.05399288716456514 0.3333333333333333 0.3333333333333333 0.3333333333333333 0.7430043486481377 0.25675931177916433 0.00023633957269805257 0.13947494384918444 0.36763135608822123 0.49289370006259436 0.004260800634165676 0.14471858898137138 0.851020610384463 0.2225072686847956 0.7212245596032153 0.05626817171198906 0.052410495023911076 0.42406617552022746 0.5235233294558614 0.0027824151363383415 0.0027824151363383415 0.9944351697273234 0.012854403151402063 0.5502513865132431 0.43689421033535486 0.005065856129685917 0.2512664640324215 0.7436676798378926 0.3333333333333333 0.3333333333333333 0.3333333333333333 0.008591065292096219 0.008591065292096219 0.9828178694158076 0.007541478129713423 0.1297134238310709 0.8627450980392157 0.3333333333333333 0.3333333333333333 0.3333333333333333 0.002190100744634253 0.002190100744634253 0.9956197985107316 0.008591065292096219 0.008591065292096219 0.9828178694158076 0.3333333333333333 0.3333333333333333 0.3333333333333333 8.512087163772556e-05 8.512087163772556e-05 0.9998297582567246 0.052083333333333336 0.052083333333333336 0.8958333333333335 0.3333333333333333 0.3333333333333333 0.3333333333333333 </TABLE>
    </DEFINITION>
    <DEFINITION>
      <FOR>Jnk</FOR>
      <GIVEN>PKA</GIVEN>
      <GIVEN>PKC</GIVEN>
      <TABLE>0.2861759342612469 0.2618701382637398 0.4519539274750133 0.6008215537030326 0.3985743626917966 0.0006040836051709556 0.009469696969696966 0.9810606060606059 0.009469696969696966 0.5953393706549579 0.4045462861324552 0.00011434321258690083 0.6204365575272849 0.3795217862201116 4.1656252603515784e-05 0.03907053259304955 0.9440674480773185 0.01686201932963191 0.9986439435587319 0.0011728055708264613 0.00018325087044163458 0.8592097941012798 0.13800779076238173 0.0027824151363383415 0.16431924882629106 0.8298122065727699 0.005868544600938966 </TABLE>
    </DEFINITION>
    <DEFINITION>
      <FOR>Mek</FOR>
      <TABLE>0.5847742795269032 0.3076128602365484 0.1076128602365484 </TABLE>
    </DEFINITION>
    <DEFINITION>
      <FOR>P38</FOR>
      <GIVEN>PKA</GIVEN>
      <GIVEN>PKC</GIVEN>
      <TABLE>0.31297463241234447 0.06804699582208065 0.6189783717655748 0.6693246345294189 0.3300712818654102 0.0006040836051709556 0.827651515151515 0.16287878787878785 0.009469696969696966 0.92938163190633 0.068034211489206 0.0025841566044639587 0.8208614513038407 0.17909689244355578 4.1656252603515784e-05 0.7886078552333949 0.20674480773185275 0.00464733703475221 0.8165658786879237 0.07835807220084295 0.10507604911123328 0.4234835837506956 0.16805787423483584 0.4084585420144686 0.7347417840375586 0.2593896713615023 0.005868544600938966 </TABLE>
    </DEFINITION>
    <DEFINITION>
      <FOR>PIP2</FOR>
      <GIVEN>PIP3</GIVEN>
      <TABLE>0.8506300783340631 0.09439011336544542 0.05497980830049141 0.8881845123051153 0.05532792165957994 0.05648756603530472 0.7867500896144947 0.16645485058819695 0.046795059797308296 </TABLE>
    </DEFINITION>
    <DEFINITION>
      <FOR>PIP3</FOR>
      <TABLE>0.22825254039646842 0.4309511910711311 0.34079626853240047 </TABLE>
    </DEFINITION>
    <DEFINITION>
      <FOR>PKA</FOR>
      <GIVEN>Akt</GIVEN>
      <GIVEN>Mek</GIVEN>
      <GIVEN>PKC</GIVEN>
      <GIVEN>Raf</GIVEN>
      <TABLE>0.04910685894917981 0.34909002487701773 0.6018031161738024 0.24232929820397178 0.39229369412137033 0.36537700767465775 0.45938508339267975 0.49784154951248033 0.04277336709483994 0.048105043270665476 0.9228729837126388 0.029021973016695724 0.04782682757445917 0.9234508694000028 0.028722303025538222 0.4776787754169522 0.5220927575965273 0.00022846698652044777 0.029997060970638152 0.9492211572191095 0.020781781810252475 0.002913752913752914 0.9941724941724942 0.002913752913752914 0.33333333333333337 0.33333333333333337 0.33333333333333337 0.07645692037176588 0.9157560914343129 0.007786988193921124 0.05374272526590407 0.9461569335741521 0.00010034115994380894 0.06505034446210917 0.9342872284048754 0.0006624271330153683 0.03252568068125406 0.9674265857104671 4.773360827891703e-05 0.03062151466091024 0.9693559992804461 2.2486058643640943e-05 0.04603426156516488 0.9537770734284203 0.0001886650064146102 0.009444380974142198 0.97185726798431 0.018698351041547653 0.0003315430011272462 0.9993369139977455 0.0003315430011272462 0.33333333333333337 0.33333333333333337 0.33333333333333337 0.33333333333333337 0.33333333333333337 0.33333333333333337 0.49872383869321085 0.49872383869321085 0.0025523226135783566 0.9174417037336569 0.08222132362852136 0.0003369726378218089 0.33333333333333337 0.33333333333333337 0.33333333333333337 0.0025523226135783566 0.9948953547728433 0.0025523226135783566 0.046260026114530874 0.9528073120686439 0.0009326618168252192 0.33333333333333337 0.33333333333333337 0.33333333333333337 0.33333333333333337 0.33333333333333337 0.33333333333333337 0.33333333333333337 0.33333333333333337 0.33333333333333337 0.08064382397446261 0.4281968368467964 0.49115933917874094 0.2766205729622498 0.49638251940019834 0.22699690763755176 0.4958263205317828 0.4916951428911443 0.012478536577072812 0.05213001383125865 0.9343914246196404 0.01347856154910097 0.04479224122081264 0.9327541827541826 0.02245357602500459 0.46537670990148133 0.5342689063718195 0.00035438372669927 0.017031884664330664 0.9532276903230305 0.029740425012638804 0.006720430107526883 0.9865591397849464 0.006720430107526883 0.33333333333333337 0.33333333333333337 0.33333333333333337 0.17661285446520347 0.7936997400084649 0.0296874055263317 0.13543019731551925 0.8644151666975938 0.0001546359868868683 0.002044989775051125 0.9959100204498977 0.002044989775051125 0.060900444277579624 0.9352199486890683 0.003879607033352106 0.04394600832956998 0.9560038135380602 5.01781323699132e-05 0.1062729707842771 0.8025914159347164 0.09113561328100667 0.0161837640302793 0.8090576872879144 0.17475854868180632 0.0005705808513066301 0.9433983795503823 0.05603103959831108 0.33333333333333337 0.33333333333333337 0.33333333333333337 0.33333333333333337 0.33333333333333337 0.33333333333333337 0.958456486042693 0.04072249589490969 0.0008210180623973727 0.9812093379257558 0.018694986605434363 9.567546880979716e-05 0.33333333333333337 0.33333333333333337 0.33333333333333337 0.005065856129685918 0.9898682877406283 0.005065856129685918 0.4983027834351663 0.4983027834351663 0.003394433129667346 0.33333333333333337 0.33333333333333337 0.33333333333333337 0.33333333333333337 0.33333333333333337 0.33333333333333337 0.33333333333333337 0.33333333333333337 0.33333333333333337 0.25126646403242153 0.7436676798378926 0.005065856129685918 0.9612403100775193 0.01937984496124031 0.01937984496124031 0.7436676798378926 0.25126646403242153 0.005065856129685918 0.25126646403242153 0.7436676798378926 0.005065856129685918 0.33333333333333337 0.33333333333333337 0.33333333333333337 0.9612403100775193 0.01937984496124031 0.01937984496124031 0.01937984496124031 0.9612403100775193 0.01937984496124031 0.33333333333333337 0.33333333333333337 0.33333333333333337 0.33333333333333337 0.33333333333333337 0.33333333333333337 0.7943089430894309 0.20162601626016263 0.0040650406504065045 0.9800399201596808 0.009980039920159684 0.009980039920159684 0.9612403100775193 0.01937984496124031 0.01937984496124031 0.7747502270663034 0.22297910990009082 0.002270663033605813 0.8548434299092772 0.1436932982148083 0.001463271875914545 0.49746707193515705 0.49746707193515705 0.005065856129685918 0.33333333333333337 0.33333333333333337 0.33333333333333337 0.33333333333333337 0.33333333333333337 0.33333333333333337 0.33333333333333337 0.33333333333333337 0.33333333333333337 0.33333333333333337 0.33333333333333337 0.33333333333333337 0.999576019672687 0.0002119901636564063 0.0002119901636564063 0.9999340573832651 3.297130836745864e-05 3.297130836745864e-05 0.33333333333333337 0.33333333333333337 0.33333333333333337 0.33333333333333337 0.33333333333333337 0.33333333333333337 0.7943089430894309 0.20162601626016263 0.0040650406504065045 0.33333333333333337 0.33333333333333337 0.33333333333333337 0.33333333333333337 0.33333333333333337 0.33333333333333337 0.33333333333333337 0.33333333333333337 0.33333333333333337 </TABLE>
    </DEFINITION>
    <DEFINITION>
      <FOR>PKC</FOR>
      <GIVEN>Akt</GIVEN>
      <GIVEN>Mek</GIVEN>
      <TABLE>0.45893302093793 0.43031537059764213 0.11075160846442783 0.1842785181880704 0.7303109723229056 0.08541050948902396 0.6949404761904762 0.3031994047619047 0.0018601190476190473 0.4213674187870059 0.4494519123059689 0.12918066890702512 0.20121391770767166 0.7042840002823064 0.09450208201002187 0.9586104951958611 0.04065040650406504 0.0007390983000739097 0.5904761904761905 0.3333333333333333 0.07619047619047618 0.23020833333333332 0.7645833333333334 0.005208333333333333 0.9926084518529845 0.007136667176428607 0.00025488097058673595 </TABLE>
    </DEFINITION>
    <DEFINITION>
      <FOR>Plcg</FOR>
      <GIVEN>PIP2</GIVEN>
      <GIVEN>PIP3</GIVEN>
      <TABLE>0.9107513965947873 0.03510076455223169 0.05414783885298099 0.9505503007795122 0.03947851989400182 0.009971179326486005 0.8749810158914247 0.12234049897140646 0.0026784851371688136 0.04725085910652921 0.0008591065292096219 0.9518900343642611 0.21037106039434872 0.05107902499611862 0.7385499146095328 0.5606238580005221 0.4320020882276168 0.0073740537718611325 0.0014749262536873156 0.0014749262536873156 0.9970501474926254 0.0007603406326034063 0.0007603406326034063 0.9984793187347931 0.1265088207985144 0.10143918291550603 0.7720519962859795 </TABLE>
    </DEFINITION>
    <DEFINITION>
      <FOR>Raf</FOR>
      <GIVEN>Mek</GIVEN>
      <GIVEN>PKC</GIVEN>
      <TABLE>0.5735065229080001 0.1536491496165492 0.2728443274754507 0.7482436277071358 0.1932880450560297 0.05846832723683446 0.9847842625801543 0.014944027823062709 0.0002717095967829583 0.34810885900107347 0.5799709540948411 0.07192018690408537 0.3165282918208796 0.6028141775866093 0.08065753059251109 0.635064578180819 0.36424841989557577 0.0006870019236053861 0.0001796945193171608 0.12632524707996406 0.8734950584007187 0.004065040650406504 0.26747967479674795 0.7284552845528455 0.3333333333333333 0.3333333333333333 0.3333333333333333 </TABLE>
    </DEFINITION>
  </NETWORK>
</BIF>
