<?xml version='1.0' encoding='utf-8'?>
<BIF VERSION="0.3">
  <NETWORK>
    <NAME>UNTITLED</NAME>
    <VARIABLE TYPE="nature">
      <NAME>Akt</NAME>
      <OUTCOME>0</OUTCOME>
      <OUTCOME>1</OUTCOME>
      <OUTCOME>2</OUTCOME>
      <PROPERTY>weight = None</PROPERTY>
    </VARIABLE>
    <VARIABLE TYPE="nature">
      <NAME>Erk</NAME>
      <OUTCOME>0</OUTCOME>
      <OUTCOME>1</OUTCOME>
      <OUTCOME>2</OUTCOME>
      <PROPERTY>weight = None</PROPERTY>
    </VARIABLE>
    <VARIABLE TYPE="nature">
      <NAME>Jnk</NAME>
      <OUTCOME>0</OUTCOME>
      <OUTCOME>1</OUTCOME>
      <OUTCOME>2</OUTCOME>
      <PROPERTY>weight = None</PROPERTY>
    </VARIABLE>
    <VARIABLE TYPE="nature">
      <NAME>Mek</NAME>
      <OUTCOME>0</OUTCOME>
      <OUTCOME>1</OUTCOME>
      <OUTCOME>2</OUTCOME>
      <PROPERTY>weight = None</PROPERTY>
    </VARIABLE>
    <VARIABLE TYPE="nature">
      <NAME>P38</NAME>
      <OUTCOME>0</OUTCOME>
      <OUTCOME>1</OUTCOME>
      <OUTCOME>2</OUTCOME>
      <PROPERTY>weight = None</PROPERTY>
    </VARIABLE>
    <VARIABLE TYPE="nature">
      <NAME>PIP2</NAME>
      <OUTCOME>0</OUTCOME>
      <OUTCOME>1</OUTCOME>
      <OUTCOME>2</OUTCOME>
      <PROPERTY>weight = None</PROPERTY>
    </VARIABLE>
    <VARIABLE TYPE="nature">
      <NAME>PIP3</NAME>
      <OUTCOME>0</OUTCOME>
      <OUTCOME>1</OUTCOME>
      <OUTCOME>2</OUTCOME>
      <PROPERTY>weight = None</PROPERTY>
    </VARIABLE>
    <VARIABLE TYPE="nature">
      <NAME>PKA</NAME>
      <OUTCOME>0</OUTCOME>
      <OUTCOME>1</OUTCOME>
      <OUTCOME>2</OUTCOME>
      <PROPERTY>weight = None</PROPERTY>
    </VARIABLE>
    <VARIABLE TYPE="nature">
      <NAME>PKC</NAME>
      <OUTCOME>0</OUTCOME>
      <OUTCOME>1</OUTCOME>
      <OUTCOME>2</OUTCOME>
      <PROPERTY>weight = None</PROPERTY>
    </VARIABLE>
    <VARIABLE TYPE="nature">
      <NAME>Plcg</NAME>
      <OUTCOME>0</OUTCOME>
      <OUTCOME>1</OUTCOME>
      <OUTCOME>2</OUTCOME>
      <PROPERTY>weight = None</PROPERTY>
    </VARIABLE>
    <VARIABLE TYPE="nature">
      <NAME>Raf</NAME>
      <OUTCOME>0</OUTCOME>
      <OUTCOME>1</OUTCOME>
      <OUTCOME>2</OUTCOME>
      <PROPERTY>weight = None</PROPERTY>
    </VARIABLE>
    <DEFINITION>
      <FOR>Akt</FOR>
      <GIVEN>Erk</GIVEN>
      <GIVEN>PKA</GIVEN>
      <TABLE>0.6936778858935503 0.30605625564949224 0.00026585845695751583 0.6112223233242341 0.38847437063997575 0.00030330603579011223 0.9813695871097683 0.016112789526686804 0.002517623363544813 0.31509625126646407 0.6843971631205674 0.0005065856129685917 0.8157884788410794 0.18396957530942606 0.00024194584949455998 0.9526153252267902 0.04714340860837675 0.00024126616483304377 0.00021321052407146813 0.12455758816255169 0.8752292013133768 0.1861825209143845 0.8033920716047499 0.010425407480865562 0.12403100775193798 0.8752768549280178 0.0006921373200442967 </TABLE>
    </DEFINITION>
    <DEFINITION>
      <FOR>Erk</FOR>
      <GIVEN>Mek</GIVEN>
      <GIVEN>Raf</GIVEN>
      <TABLE>0.141658046133464 0.6649879312535163 0.19335402261301973 0.20560327198364006 0.5976278118609407 0.1967689161554192 0.4610996740435752 0.4252015783153199 0.11369874764110482 0.07063631056625802 0.6983276673191168 0.23103602211462518 0.06817518856523733 0.7168187690127933 0.21500604242196938 0.054998328318288194 0.7004346372450685 0.24456703443664324 0.3333333333333333 0.3333333333333333 0.3333333333333333 0.008313847752663028 0.2047285009093271 0.7869576513380098 0.007696580179322383 0.2112195509005792 0.7810838689200983 </TABLE>
    </DEFINITION>
    <DEFINITION>
      <FOR>Jnk</FOR>
      <GIVEN>Erk</GIVEN>
      <GIVEN>Mek</GIVEN>
      <GIVEN>Raf</GIVEN>
      <TABLE>0.5155125659257361 0.42384643307069797 0.060641001003565856 0.4998342284994364 0.2903653603872422 0.2098004111133214 0.3743527733854215 0.3065451275850309 0.31910209902954767 0.5258467023172905 0.4339653216658564 0.04018797601685302 0.6111450692746536 0.3470863895680521 0.04176854115729421 0.49746707193515705 0.4154002026342452 0.08713272543059777 0.3333333333333333 0.3333333333333333 0.3333333333333333 0.05208333333333332 0.8958333333333333 0.05208333333333332 0.2869415807560137 0.14776632302405499 0.5652920962199313 0.6068346910834254 0.3883529149552647 0.004812393961309808 0.6616251482799524 0.32717401222739295 0.011200839492654439 0.6129379328895165 0.3324255261919172 0.05463654091856634 0.5099167322318384 0.47406897456071334 0.016014293207448203 0.548634324525962 0.44503870786462424 0.006326967609413907 0.6319013524264121 0.3677008750994431 0.00039777247414478914 0.3333333333333333 0.3333333333333333 0.3333333333333333 0.3790186125211506 0.3790186125211506 0.24196277495769883 0.3096669171049336 0.2843100425745054 0.406023040320561 0.6235060384206245 0.3726143545460234 0.003879607033352105 0.7355366174738447 0.2641169542021756 0.0003464283239797686 0.591349176411417 0.38765245819187727 0.020998365396705642 0.5299742370194214 0.46175188267935 0.008273880301228696 0.5993474819911491 0.3952579384307265 0.005394579578124495 0.5732513100934153 0.40715424925951244 0.019594440647072227 0.3333333333333333 0.3333333333333333 0.3333333333333333 0.30362055683944095 0.1966545614614284 0.4997248816991306 0.3004198835161858 0.26887782744141947 0.43070228904239466 </TABLE>
    </DEFINITION>
    <DEFINITION>
      <FOR>Mek</FOR>
      <GIVEN>Raf</GIVEN>
      <TABLE>0.7908969556043577 0.20899539249881582 0.00010765189682642208 0.32047501081357394 0.6290747512877983 0.050450237898627646 0.4277851166886834 0.10975341259357112 0.4624614707177455 </TABLE>
    </DEFINITION>
    <DEFINITION>
      <FOR>P38</FOR>
      <GIVEN>PKA</GIVEN>
      <GIVEN>PKC</GIVEN>
      <TABLE>0.31297463241234447 0.06804699582208065 0.6189783717655748 0.6693246345294189 0.3300712818654102 0.0006040836051709556 0.827651515151515 0.16287878787878785 0.009469696969696966 0.92938163190633 0.068034211489206 0.0025841566044639587 0.8208614513038407 0.17909689244355578 4.1656252603515784e-05 0.7886078552333949 0.20674480773185275 0.00464733703475221 0.8165658786879237 0.07835807220084295 0.10507604911123328 0.4234835837506956 0.16805787423483584 0.4084585420144686 0.7347417840375586 0.2593896713615023 0.005868544600938966 </TABLE>
    </DEFINITION>
    <DEFINITION>
      <FOR>PIP2</FOR>
      <GIVEN>PIP3</GIVEN>
      <GIVEN>Plcg</GIVEN>
      <TABLE>0.9941724941724941 0.005723443223443223 0.00010406260406260405 0.994597514856834 0.0027012425715829272 0.0027012425715829272 0.2414965986394558 0.4710884353741497 0.2874149659863946 0.9863515479953836 0.013598273872246474 5.017813236991319e-05 0.9243659420289855 0.0745018115942029 0.001132246376811594 0.0834547514974907 0.38505747126436785 0.5314877772381416 0.8740035857123155 0.11848020962625844 0.007516204661426011 0.5566654102274154 0.41588139213469033 0.027453197637894212 0.05339939443985686 0.031103770988164046 0.9154968345719791 </TABLE>
    </DEFINITION>
    <DEFINITION>
      <FOR>PIP3</FOR>
      <GIVEN>Plcg</GIVEN>
      <TABLE>0.21819866214356753 0.4525142709227395 0.32928706693369303 0.08343475321162948 0.19905341446923597 0.7175118323191345 0.423829603200346 0.4452373229538329 0.13093307384582117 </TABLE>
    </DEFINITION>
    <DEFINITION>
      <FOR>PKA</FOR>
      <GIVEN>Erk</GIVEN>
      <GIVEN>Jnk</GIVEN>
      <GIVEN>Mek</GIVEN>
      <GIVEN>PKC</GIVEN>
      <TABLE>0.44441986669026123 0.3189995870937297 0.23658054621600894 0.3745075613165587 0.5983924259753464 0.027100012708095058 0.009980039920159684 0.9800399201596808 0.009980039920159684 0.4282923016803439 0.5707307542008597 0.0009769441187964048 0.3232386174808906 0.6765536723163841 0.00020771020272515782 0.33333333333333337 0.33333333333333337 0.33333333333333337 0.9800399201596808 0.009980039920159684 0.009980039920159684 0.33333333333333337 0.33333333333333337 0.33333333333333337 0.33333333333333337 0.33333333333333337 0.33333333333333337 0.6646902004044861 0.3351948887663173 0.00011491082919654347 0.41460355682644795 0.5852710261619886 0.00012541701156344845 0.1924192102904739 0.807317201750224 0.0002635879593020191 0.3333333333333333 0.6653005464480874 0.001366120218579235 0.18535434269620157 0.8142650529040115 0.00038060439978686154 0.09226190476190477 0.9058779761904763 0.0018601190476190477 0.9800399201596808 0.009980039920159684 0.009980039920159684 0.33333333333333337 0.33333333333333337 0.33333333333333337 0.33333333333333337 0.33333333333333337 0.33333333333333337 0.999794302170112 0.00010284891494394734 0.00010284891494394734 0.33333333333333337 0.33333333333333337 0.33333333333333337 0.01937984496124031 0.9612403100775193 0.01937984496124031 0.9948953547728433 0.0025523226135783566 0.0025523226135783566 0.33333333333333337 0.33333333333333337 0.33333333333333337 0.01937984496124031 0.9612403100775193 0.01937984496124031 0.9898682877406283 0.005065856129685918 0.005065856129685918 0.33333333333333337 0.33333333333333337 0.33333333333333337 0.33333333333333337 0.33333333333333337 0.33333333333333337 0.021531193670962283 0.3631653687748113 0.6153034375542265 0.014250186423671707 0.9515766952841643 0.03417311829216396 0.001463271875914545 0.8548434299092772 0.1436932982148083 0.030783666251646545 0.9647413341994622 0.004474999548891174 0.021206850706386466 0.9787713539691466 2.1795324466995342e-05 0.002270663033605813 0.9954586739327884 0.002270663033605813 0.8744035821772004 0.12522939147030757 0.0003670263524921089 0.12580066615424032 0.8729182679989752 0.0012810658467845247 0.33333333333333337 0.33333333333333337 0.33333333333333337 0.06547207054782231 0.9313491758312186 0.0031787536209592665 0.011738882122632098 0.9815384403663413 0.006722677511026705 0.004655043279577538 0.9791708144903629 0.016174142230059637 0.04104118552732871 0.9588385296381832 0.00012028483448806773 0.036192361690702175 0.9637752890407149 3.234926858303734e-05 0.005863299997635765 0.9882734000047284 0.005863299997635765 0.9404416505480335 0.05915538362346873 0.0004029658284977434 0.06354086600051242 0.9351780681527031 0.0012810658467845247 0.33333333333333337 0.33333333333333337 0.33333333333333337 0.9987918327896581 0.0006040836051709557 0.0006040836051709557 0.33333333333333337 0.33333333333333337 0.33333333333333337 0.0040650406504065045 0.9918699186991871 0.0040650406504065045 0.997437868306431 0.0012810658467845247 0.0012810658467845247 0.33333333333333337 0.33333333333333337 0.33333333333333337 0.005065856129685918 0.9898682877406283 0.005065856129685918 0.9995273208546037 0.00023633957269805252 0.00023633957269805252 0.33333333333333337 0.33333333333333337 0.33333333333333337 0.33333333333333337 0.33333333333333337 0.33333333333333337 0.0028110264780558574 0.3774029742473703 0.6197859992745738 0.0033236839283799727 0.9640425645974056 0.03263375147421465 0.0018601190476190477 0.9058779761904763 0.09226190476190477 0.02622022855922246 0.9475595428815549 0.02622022855922246 0.048288088056305245 0.9387865798804044 0.012925332063290471 0.005065856129685918 0.49746707193515705 0.49746707193515705 0.9834420894666733 0.016473603453217998 8.43070801085875e-05 0.22297910990009082 0.7747502270663034 0.002270663033605813 0.33333333333333337 0.33333333333333337 0.33333333333333337 0.02622022855922246 0.9735127630033107 0.00026700843746662385 0.006036707073657562 0.9820115865829316 0.011951706343410737 0.0001546359868868683 0.9545988742500153 0.04524648976309766 0.043866702403287765 0.9556865898329313 0.0004467077637809345 0.05094593966438897 0.9319946079114954 0.017059452424115648 0.0003162555344718533 0.8149272612270716 0.1847564832384567 0.9998077551569678 9.612242151604283e-05 9.612242151604283e-05 0.7436676798378926 0.25126646403242153 0.005065856129685918 0.33333333333333337 0.33333333333333337 0.33333333333333337 0.9800399201596808 0.009980039920159684 0.009980039920159684 0.33333333333333337 0.33333333333333337 0.33333333333333337 0.006720430107526883 0.9865591397849464 0.006720430107526883 0.9898682877406283 0.005065856129685918 0.005065856129685918 0.33333333333333337 0.33333333333333337 0.33333333333333337 0.01937984496124031 0.9612403100775193 0.01937984496124031 0.9998887962190716 5.5601890464275794e-05 5.5601890464275794e-05 0.33333333333333337 0.33333333333333337 0.33333333333333337 0.33333333333333337 0.33333333333333337 0.33333333333333337 </TABLE>
    </DEFINITION>
    <DEFINITION>
      <FOR>PKC</FOR>
      <GIVEN>Jnk</GIVEN>
      <GIVEN>Mek</GIVEN>
      <GIVEN>Raf</GIVEN>
      <TABLE>0.4944481591797864 0.49485846858347005 0.01069337223674346 0.44841699005449875 0.5497593146298534 0.00182369531564773 0.7822149855743137 0.2176421858485446 0.0001428285771417145 0.19069499012230584 0.7948103260748929 0.014494683802801268 0.19663205095039232 0.79831725735122 0.005050691698387474 0.17059360730593606 0.8289497716894977 0.00045662100456621 0.3333333333333333 0.3333333333333333 0.3333333333333333 0.8644808743169399 0.1341530054644809 0.001366120218579235 0.9322308264426653 0.0675504221901387 0.000218751367196045 0.15946779492901866 0.44129316223420745 0.3992390428367739 0.3453157591088626 0.6221097945235876 0.03257444636754982 0.8046550290939318 0.19512621953887213 0.000218751367196045 0.16837732160312807 0.5167644183773216 0.31485826001955036 0.17109216402760857 0.7091189606171335 0.1197888753552578 0.20266901305176707 0.7965977416043407 0.0007332453438920661 0.3333333333333333 0.3333333333333333 0.3333333333333333 0.8208739617190322 0.17732033224990973 0.0018057060310581437 0.9442168909693779 0.05553930173590794 0.00024380729471425787 0.8217559093101785 0.00120598166907863 0.17703810902074288 0.9972677595628415 0.001366120218579235 0.001366120218579235 0.9991724594505131 0.00041377027474346245 0.00041377027474346245 0.7600574712643678 0.003591954022988506 0.23635057471264373 0.8601626016260163 0.0040650406504065045 0.13577235772357724 0.9435028248587572 0.028248587570621472 0.028248587570621472 0.3333333333333333 0.3333333333333333 0.3333333333333333 0.9980461117624072 0.0009769441187964048 0.0009769441187964048 0.9996899513223576 0.00015502433882119492 0.00015502433882119492 </TABLE>
    </DEFINITION>
    <DEFINITION>
      <FOR>Plcg</FOR>
      <TABLE>0.8151590871231051 0.08212560386473429 0.1027153090121606 </TABLE>
    </DEFINITION>
    <DEFINITION>
      <FOR>Raf</FOR>
      <TABLE>0.515808762285524 0.2824254539396968 0.20176578377477927 </TABLE>
    </DEFINITION>
  </NETWORK>
</BIF>
