<?xml version='1.0' encoding='utf-8'?>
<BIF VERSION="0.3">
  <NETWORK>
    <NAME>UNTITLED</NAME>
    <VARIABLE TYPE="nature">
      <NAME>Akt</NAME>
      <OUTCOME>0</OUTCOME>
      <OUTCOME>1</OUTCOME>
      <OUTCOME>2</OUTCOME>
      <PROPERTY>weight = None</PROPERTY>
    </VARIABLE>
    <VARIABLE TYPE="nature">
      <NAME>Erk</NAME>
      <OUTCOME>0</OUTCOME>
      <OUTCOME>1</OUTCOME>
      <OUTCOME>2</OUTCOME>
      <PROPERTY>weight = None</PROPERTY>
    </VARIABLE>
    <VARIABLE TYPE="nature">
      <NAME>Jnk</NAME>
      <OUTCOME>0</OUTCOME>
      <OUTCOME>1</OUTCOME>
      <OUTCOME>2</OUTCOME>
      <PROPERTY>weight = None</PROPERTY>
    </VARIABLE>
    <VARIABLE TYPE="nature">
      <NAME>Mek</NAME>
      <OUTCOME>0</OUTCOME>
      <OUTCOME>1</OUTCOME>
      <OUTCOME>2</OUTCOME>
      <PROPERTY>weight = None</PROPERTY>
    </VARIABLE>
    <VARIABLE TYPE="nature">
      <NAME>P38</NAME>
      <OUTCOME>0</OUTCOME>
      <OUTCOME>1</OUTCOME>
      <OUTCOME>2</OUTCOME>
      <PROPERTY>weight = None</PROPERTY>
    </VARIABLE>
    <VARIABLE TYPE="nature">
      <NAME>PIP2</NAME>
      <OUTCOME>0</OUTCOME>
      <OUTCOME>1</OUTCOME>
      <OUTCOME>2</OUTCOME>
      <PROPERTY>weight = None</PROPERTY>
    </VARIABLE>
    <VARIABLE TYPE="nature">
      <NAME>PIP3</NAME>
      <OUTCOME>0</OUTCOME>
      <OUTCOME>1</OUTCOME>
      <OUTCOME>2</OUTCOME>
      <PROPERTY>weight = None</PROPERTY>
    </VARIABLE>
    <VARIABLE TYPE="nature">
      <NAME>PKA</NAME>
      <OUTCOME>0</OUTCOME>
      <OUTCOME>1</OUTCOME>
      <OUTCOME>2</OUTCOME>
      <PROPERTY>weight = None</PROPERTY>
    </VARIABLE>
    <VARIABLE TYPE="nature">
      <NAME>PKC</NAME>
      <OUTCOME>0</OUTCOME>
      <OUTCOME>1</OUTCOME>
      <OUTCOME>2</OUTCOME>
      <PROPERTY>weight = None</PROPERTY>
    </VARIABLE>
    <VARIABLE TYPE="nature">
      <NAME>Plcg</NAME>
      <OUTCOME>0</OUTCOME>
      <OUTCOME>1</OUTCOME>
      <OUTCOME>2</OUTCOME>
      <PROPERTY>weight = None</PROPERTY>
    </VARIABLE>
    <VARIABLE TYPE="nature">
      <NAME>Raf</NAME>
      <OUTCOME>0</OUTCOME>
      <OUTCOME>1</OUTCOME>
      <OUTCOME>2</OUTCOME>
      <PROPERTY>weight = None</PROPERTY>
    </VARIABLE>
    <DEFINITION>
      <FOR>Akt</FOR>
      <GIVEN>Mek</GIVEN>
      <GIVEN>PKA</GIVEN>
      <TABLE>0.6346493218373418 0.3555690011596833 0.00978167700297484 0.6654637944649514 0.33250693258406333 0.002029272950985253 0.7696465838721817 0.23018235314242702 0.00017106298539122102 0.41493955094991364 0.4207685664939551 0.16429188255613125 0.6659080681452909 0.3315975570556091 0.0024943747990999678 0.12463768115942027 0.8681159420289855 0.007246376811594201 0.0597187579076745 0.2324765932834472 0.7078046488088783 0.74066091954023 0.2363505747126437 0.022988505747126436 0.3333333333333333 0.3333333333333333 0.3333333333333333 </TABLE>
    </DEFINITION>
    <DEFINITION>
      <FOR>Erk</FOR>
      <GIVEN>Akt</GIVEN>
      <GIVEN>Mek</GIVEN>
      <GIVEN>PKA</GIVEN>
      <TABLE>0.920367575011255 0.07950001324117476 0.00013241174757024443 0.10396515483927346 0.8416191777167588 0.05441566744396763 0.08648944997629207 0.8750296348980559 0.03848091512565196 0.6892126257370794 0.30992022199098157 0.0008671522719389524 0.04903683394154713 0.8868078752421592 0.0641552908162937 0.01937984496124031 0.6472868217054263 0.33333333333333337 0.08272800645682002 0.9162631154156579 0.0010088781275221952 0.0016165535079211122 0.9443905593275138 0.05399288716456514 0.3333333333333333 0.3333333333333333 0.3333333333333333 0.7430043486481377 0.25675931177916433 0.00023633957269805257 0.13947494384918444 0.36763135608822123 0.49289370006259436 0.004260800634165676 0.14471858898137138 0.851020610384463 0.2225072686847956 0.7212245596032153 0.05626817171198906 0.052410495023911076 0.42406617552022746 0.5235233294558614 0.0027824151363383415 0.0027824151363383415 0.9944351697273234 0.012854403151402063 0.5502513865132431 0.43689421033535486 0.005065856129685917 0.2512664640324215 0.7436676798378926 0.3333333333333333 0.3333333333333333 0.3333333333333333 0.008591065292096219 0.008591065292096219 0.9828178694158076 0.007541478129713423 0.1297134238310709 0.8627450980392157 0.3333333333333333 0.3333333333333333 0.3333333333333333 0.002190100744634253 0.002190100744634253 0.9956197985107316 0.008591065292096219 0.008591065292096219 0.9828178694158076 0.3333333333333333 0.3333333333333333 0.3333333333333333 8.512087163772556e-05 8.512087163772556e-05 0.9998297582567246 0.052083333333333336 0.052083333333333336 0.8958333333333335 0.3333333333333333 0.3333333333333333 0.3333333333333333 </TABLE>
    </DEFINITION>
    <DEFINITION>
      <FOR>Jnk</FOR>
      <GIVEN>PKC</GIVEN>
      <GIVEN>Raf</GIVEN>
      <TABLE>0.7687730727470141 0.19887079261672094 0.032356134636264924 0.5698034721337918 0.2913111761959336 0.13888535167027463 0.3767970129899166 0.2916806403291077 0.3315223466809757 0.6308708657622024 0.3690582514637293 7.088277406824593e-05 0.6105455494648917 0.38935405497660786 0.00010039555850049192 0.6228231919688588 0.3766646179061668 0.0005121901249743905 0.040573212009319085 0.9437777484724602 0.015649039518220578 0.05697714090754008 0.9228932105083588 0.020129648584100986 0.3333333333333333 0.3333333333333333 0.3333333333333333 </TABLE>
    </DEFINITION>
    <DEFINITION>
      <FOR>Mek</FOR>
      <GIVEN>Jnk</GIVEN>
      <GIVEN>PKC</GIVEN>
      <GIVEN>Raf</GIVEN>
      <TABLE>0.9190629531288252 0.0808899685516826 4.7078319492307406e-05 0.5250794596742153 0.3963547874453715 0.07856575288041319 0.5416048576910144 0.036946933285864035 0.42144820902312147 0.7317513464116912 0.26821120124641395 3.745234189493869e-05 0.284199910108418 0.7104175573606955 0.005382532530886528 0.41770833333333335 0.4976425438596491 0.08464912280701754 0.7623690863127484 0.23582520765619355 0.0018057060310581437 0.1716566866267465 0.8183632734530938 0.009980039920159679 0.3333333333333333 0.3333333333333333 0.3333333333333333 0.7490354516997889 0.2507825580548883 0.0001819902453228507 0.3779202486764778 0.5116809947059109 0.11039875661761135 0.4699269252388983 0.035310950993918955 0.4947621237671828 0.7291770701289388 0.2707589085647703 6.402130629073354e-05 0.24097089715159947 0.7505887611091056 0.00844034173929486 0.4043151119572115 0.49243042335237064 0.10325446469041791 0.7998913212234124 0.20003105107902494 7.762769756249028e-05 0.09044978434996917 0.9089340727048674 0.0006161429451632777 0.3333333333333333 0.3333333333333333 0.3333333333333333 0.7621923937360179 0.2366890380313199 0.0011185682326621924 0.371841890790546 0.10778321108394458 0.5203748981255093 0.27142343314450135 0.003754158798669184 0.7248224080568294 0.3333333333333333 0.3333333333333333 0.3333333333333333 0.3333333333333333 0.3333333333333333 0.3333333333333333 0.3333333333333333 0.3333333333333333 0.3333333333333333 0.6872659176029963 0.3080524344569289 0.0046816479400749065 0.028248587570621472 0.9435028248587572 0.028248587570621472 0.3333333333333333 0.3333333333333333 0.3333333333333333 </TABLE>
    </DEFINITION>
    <DEFINITION>
      <FOR>P38</FOR>
      <GIVEN>PKA</GIVEN>
      <GIVEN>PKC</GIVEN>
      <TABLE>0.31297463241234447 0.06804699582208065 0.6189783717655748 0.6693246345294189 0.3300712818654102 0.0006040836051709556 0.827651515151515 0.16287878787878785 0.009469696969696966 0.92938163190633 0.068034211489206 0.0025841566044639587 0.8208614513038407 0.17909689244355578 4.1656252603515784e-05 0.7886078552333949 0.20674480773185275 0.00464733703475221 0.8165658786879237 0.07835807220084295 0.10507604911123328 0.4234835837506956 0.16805787423483584 0.4084585420144686 0.7347417840375586 0.2593896713615023 0.005868544600938966 </TABLE>
    </DEFINITION>
    <DEFINITION>
      <FOR>PIP2</FOR>
      <GIVEN>PIP3</GIVEN>
      <GIVEN>Plcg</GIVEN>
      <TABLE>0.9941724941724941 0.005723443223443223 0.00010406260406260405 0.994597514856834 0.0027012425715829272 0.0027012425715829272 0.2414965986394558 0.4710884353741497 0.2874149659863946 0.9863515479953836 0.013598273872246474 5.017813236991319e-05 0.9243659420289855 0.0745018115942029 0.001132246376811594 0.0834547514974907 0.38505747126436785 0.5314877772381416 0.8740035857123155 0.11848020962625844 0.007516204661426011 0.5566654102274154 0.41588139213469033 0.027453197637894212 0.05339939443985686 0.031103770988164046 0.9154968345719791 </TABLE>
    </DEFINITION>
    <DEFINITION>
      <FOR>PIP3</FOR>
      <GIVEN>Plcg</GIVEN>
      <TABLE>0.21819866214356753 0.4525142709227395 0.32928706693369303 0.08343475321162948 0.19905341446923597 0.7175118323191345 0.423829603200346 0.4452373229538329 0.13093307384582117 </TABLE>
    </DEFINITION>
    <DEFINITION>
      <FOR>PKA</FOR>
      <GIVEN>Jnk</GIVEN>
      <GIVEN>Mek</GIVEN>
      <GIVEN>PKC</GIVEN>
      <GIVEN>Raf</GIVEN>
      <TABLE>0.019933066967182327 0.2697128026500017 0.710354130382816 0.11116365585295877 0.4022825435858633 0.48655380056117775 0.2869907119989288 0.6449135108157129 0.06809577718535831 0.04396174331992371 0.9211971078877959 0.034841148792280424 0.04380585020893604 0.9217614914818387 0.03443265830922534 0.4892593078706742 0.5105219407621298 0.00021875136719604497 0.0007895152376440866 0.883309647876204 0.1159008368861519 0.01937984496124031 0.9612403100775193 0.01937984496124031 0.33333333333333337 0.33333333333333337 0.33333333333333337 0.05676483141271872 0.9147557521437162 0.028479416443564963 0.05592448732406131 0.9439710980244748 0.0001044146514638934 0.04425410421127766 0.9548536759457531 0.0008922198429693076 0.049813351206933476 0.9478779754424183 0.002308673350648384 0.0475220533395057 0.9524522284803127 2.5718180181570354e-05 0.0626491865888142 0.9103962395798905 0.02695457383129521 0.0025523226135783566 0.746809596733027 0.2506380806533946 0.0040650406504065045 0.9918699186991871 0.0040650406504065045 0.33333333333333337 0.33333333333333337 0.33333333333333337 0.33333333333333337 0.33333333333333337 0.33333333333333337 0.8709439528023599 0.12852928782132322 0.0005267593763168984 0.9770352293348352 0.02288655278142795 7.821788373693763e-05 0.33333333333333337 0.33333333333333337 0.33333333333333337 0.003394433129667346 0.9932111337406654 0.003394433129667346 0.21092400690846286 0.7879965457685665 0.001079447322970639 0.33333333333333337 0.33333333333333337 0.33333333333333337 0.33333333333333337 0.33333333333333337 0.33333333333333337 0.33333333333333337 0.33333333333333337 0.33333333333333337 0.08273806631355589 0.9132448936618235 0.004017040024620567 0.30210341429979004 0.6976823887246711 0.00021419697553870534 0.40526678265912713 0.594642598231115 9.061910975786573e-05 0.05976797546299548 0.9345133572147691 0.00571866732223549 0.05212346031293098 0.9362010748085794 0.011675464878489559 0.45440956651718983 0.5452167414050823 0.0003736920777279522 0.02675931497188849 0.9527700678687655 0.02047061715934603 0.002270663033605813 0.9954586739327884 0.002270663033605813 0.33333333333333337 0.33333333333333337 0.33333333333333337 0.08253507498790516 0.9172230285437831 0.0002418964683115626 0.05397880082265463 0.9458629963613351 0.00015820281601012495 0.00120598166907863 0.9975880366618428 0.00120598166907863 0.057536492323213215 0.9423846905640153 7.881711277152496e-05 0.037139672651764995 0.9628221570782949 3.817026994014902e-05 0.10468826705940108 0.8502700049091803 0.04504172803141875 0.012703094277139601 0.9180120045534512 0.06928490116940908 0.00022595806218365867 0.9775849602313809 0.022189081706435278 0.33333333333333337 0.33333333333333337 0.33333333333333337 0.33333333333333337 0.33333333333333337 0.33333333333333337 0.9985335093122159 0.0007332453438920663 0.0007332453438920663 0.9872787991461819 0.01263513048268264 8.607037113544033e-05 0.33333333333333337 0.33333333333333337 0.33333333333333337 0.003394433129667346 0.9932111337406654 0.003394433129667346 0.28592332455370206 0.7126134035703834 0.001463271875914545 0.33333333333333337 0.33333333333333337 0.33333333333333337 0.33333333333333337 0.33333333333333337 0.33333333333333337 0.33333333333333337 0.33333333333333337 0.33333333333333337 0.9990216221504745 0.0004891889247627434 0.0004891889247627434 0.9990867579908675 0.00045662100456621003 0.00045662100456621003 0.9997239246866544 0.0001380376566727403 0.0001380376566727403 0.33333333333333337 0.33333333333333337 0.33333333333333337 0.33333333333333337 0.33333333333333337 0.33333333333333337 0.33333333333333337 0.33333333333333337 0.33333333333333337 0.002270663033605813 0.9954586739327884 0.002270663033605813 0.33333333333333337 0.33333333333333337 0.33333333333333337 0.33333333333333337 0.33333333333333337 0.33333333333333337 0.9968494013862634 0.0015752993068683051 0.0015752993068683051 0.9968494013862634 0.0015752993068683051 0.0015752993068683051 0.9800399201596808 0.009980039920159684 0.009980039920159684 0.33333333333333337 0.33333333333333337 0.33333333333333337 0.33333333333333337 0.33333333333333337 0.33333333333333337 0.33333333333333337 0.33333333333333337 0.33333333333333337 0.005065856129685918 0.9898682877406283 0.005065856129685918 0.009980039920159684 0.9800399201596808 0.009980039920159684 0.33333333333333337 0.33333333333333337 0.33333333333333337 0.33333333333333337 0.33333333333333337 0.33333333333333337 0.9993474288697468 0.0003262855651265988 0.0003262855651265988 0.9998966183874537 5.169080627319626e-05 5.169080627319626e-05 0.33333333333333337 0.33333333333333337 0.33333333333333337 0.33333333333333337 0.33333333333333337 0.33333333333333337 0.33333333333333337 0.33333333333333337 0.33333333333333337 0.33333333333333337 0.33333333333333337 0.33333333333333337 0.33333333333333337 0.33333333333333337 0.33333333333333337 0.33333333333333337 0.33333333333333337 0.33333333333333337 </TABLE>
    </DEFINITION>
    <DEFINITION>
      <FOR>PKC</FOR>
      <GIVEN>Raf</GIVEN>
      <TABLE>0.3304913232571158 0.5062438100159324 0.16326486672695173 0.30879635091030627 0.6527859698792812 0.03841767921041248 0.8206186701893439 0.17910612065169526 0.0002752091589608102 </TABLE>
    </DEFINITION>
    <DEFINITION>
      <FOR>Plcg</FOR>
      <TABLE>0.8151590871231051 0.08212560386473429 0.1027153090121606 </TABLE>
    </DEFINITION>
    <DEFINITION>
      <FOR>Raf</FOR>
      <TABLE>0.515808762285524 0.2824254539396968 0.20176578377477927 </TABLE>
    </DEFINITION>
  </NETWORK>
</BIF>
